tree
version=v4
num_class=1
num_tree_per_iteration=1
label_index=0
max_feature_idx=44
objective=binary sigmoid:1
feature_names=Column_0 Column_1 Column_2 Column_3 Column_4 Column_5 Column_6 Column_7 Column_8 Column_9 Column_10 Column_11 Column_12 Column_13 Column_14 Column_15 Column_16 Column_17 Column_18 Column_19 Column_20 Column_21 Column_22 Column_23 Column_24 Column_25 Column_26 Column_27 Column_28 Column_29 Column_30 Column_31 Column_32 Column_33 Column_34 Column_35 Column_36 Column_37 Column_38 Column_39 Column_40 Column_41 Column_42 Column_43 Column_44
feature_infos=none [-7.4000000000000004:4.4329999999999998] [0:0.94099999999999995] [0:1] [0:1] [0:1] [0:1] [0:1] [0:1] [0:1] [0:1] [0:1] [0:1] [0:1] [0:1] [0.25:1] [0:1] [0:1] [0:1] [-0.3666666666666667:1] [0:1] none [-1.05:1.1000000000000001] [-0.83333333333333337:0.66666666666666663] [-0.56666666666666665:0.53333333333333333] [0:1] [0:1] [0:1] [0.10416666666666674:1] [0.45000000000000001:1] [0:1] [0.010999999999999999:1] [0.010999999999999999:1] [0.048000000000000001:1] [0.014:1] [0.028000000000000001:1] [0:1] [0:1] [0:1] [0:1] [0:1] [0:1] [0:1] [0:1] [0:1]
tree_sizes=1703 1716 1713 1737 1728 1743 1747

Tree=0
num_leaves=15
num_cat=0
split_feature=11 2 12 12 1 8 1 36 9 38 18 4 9 37
split_gain=1839.32 1017.3 413.193 330.969 250.412 241.507 116.396 83.8009 99.8018 56.5506 55.8266 67.4154 53.7467 46.2436
threshold=1.0000000180025095e-35 0.06950000000000002 1.0000000180025095e-35 1.0000000180025095e-35 2.5765000000000007 1.0000000180025095e-35 -2.0854999999999997 0.45000000000000007 1.0000000180025095e-35 0.42695000000000005 1.0000000180025095e-35 0.27600000000000008 1.0000000180025095e-35 0.63333333333333341
decision_type=2 2 2 2 2 2 2 2 2 2 2 2 2 2
left_child=1 3 4 5 6 -1 -3 8 -8 -5 13 -12 -2 -9
right_child=12 2 -4 9 -6 -7 7 10 -10 -11 11 -13 -14 -15
leaf_value=-1.8201015849967337 -1.5842473940441182 -1.8428551142750556 -1.6301266756727988 -1.629513162022503 -1.6491821274261105 -1.7135231783114331 -1.7298123867971833 -1.7182686757725343 -1.8152094737726239 -1.7312492235969588 -1.649334589165186 -1.7805001011186867 -1.6532814677765169 -1.6679397794352857
leaf_weight=209.63355988264084 183.76030191779137 13.598503023386 131.41208231449127 18.773154616355896 77.980796098709106 39.592101722955704 77.138410955667496 80.868973731994629 30.446205884218216 21.300310045480728 7.1001033484935752 31.769953966140747 32.491998374462128 59.689004421234131
leaf_count=1557 457 108 452 61 298 204 426 427 223 117 24 209 125 251
internal_value=-1.69717 -1.72537 -1.69143 -1.78543 -1.71315 -1.80283 -1.73024 -1.72483 -1.75375 -1.68021 -1.70792 -1.75296 -1.59382 -1.696
internal_weight=1015.56 799.303 510.004 289.299 378.592 249.226 300.611 287.013 107.585 40.0735 179.428 38.8701 216.252 140.558
internal_count=4939 4357 2418 1939 1966 1761 1668 1560 649 178 911 233 582 678
is_linear=0
shrinkage=1


Tree=1
num_leaves=15
num_cat=0
split_feature=2 20 2 9 17 37 30 9 30 18 37 33 1 30
split_gain=1111.98 348.922 352.13 132.032 126.649 114.468 77.9197 71.2305 71.1294 70.823 69.5209 59.651 57.029 64.7141
threshold=0.16050000000000003 1.0000000180025095e-35 0.059000000000000004 1.0000000180025095e-35 1.0000000180025095e-35 0.91666666666666685 0.65833333333333344 1.0000000180025095e-35 0.16025641025641027 1.0000000180025095e-35 0.45000000000000007 0.34550000000000003 1.1384999999999998 0.47809523809523813
decision_type=2 2 2 2 2 2 2 2 2 2 2 2 2 2
left_child=1 2 4 6 -1 11 -2 -6 -7 10 -5 12 13 -4
right_child=3 -3 5 9 7 8 -8 -9 -10 -11 -12 -13 -14 -15
leaf_value=-0.012344618618900849 0.14097748299415092 0.11784759797811242 -0.041531966798845334 0.041282395696469132 0.11331321256050704 -0.0079598293937133604 0.17934586227359187 0.030811084196149415 0.12975646196907531 0.010514316005558761 0.14233265072531903 0.038605881393761372 0.13693460427074158 0.090049426952085454
leaf_weight=119.74144529551268 206.56844343245029 175.04257514327765 7.9107945412397411 15.812155120074747 20.222877100110054 6.3181098476052275 199.88864471018314 86.254396878182888 87.285772033035755 12.361921012401579 43.48777562379837 77.856486238539219 25.306904301047325 18.57612819224596
leaf_count=909 712 731 64 93 87 44 506 561 335 84 151 464 94 89
internal_value=0.105328 0.0699994 0.0511452 0.151231 0.0158558 0.086673 0.16024 0.0473889 0.120475 0.0986295 0.116519 0.0615336 0.0946145 0.0506691
internal_weight=1102.63 624.515 449.473 478.119 226.219 223.254 406.457 106.477 93.6039 71.6619 59.2999 129.65 51.7938 26.4869
internal_count=4924 3378 2647 1546 1557 1090 1218 648 379 328 244 711 247 153
is_linear=0
shrinkage=0.04


Tree=2
num_leaves=15
num_cat=0
split_feature=11 12 2 19 1 3 1 1 37 36 34 38 38 22
split_gain=1105.34 492.878 370.507 191.153 190.322 112.781 73.6843 64.6477 55.2809 53.9393 53.008 51.6031 48.6073 46.3229
threshold=1.0000000180025095e-35 1.0000000180025095e-35 0.10100000000000002 1.0000000180025095e-35 2.8175000000000003 0.22600000000000001 -1.9475 2.5210000000000004 0.45000000000000007 0.45000000000000007 0.35050000000000003 0.43055000000000004 0.25100000000000006 1.0000000180025095e-35
decision_type=2 2 2 2 2 2 2 2 2 2 2 2 2 2
left_child=1 2 3 5 6 -1 -4 -7 -3 11 13 12 -8 -11
right_child=-2 8 4 -5 -6 7 9 -9 -10 10 -12 -13 -14 -15
leaf_value=-0.0082505772300541791 0.15895551118312154 0.066887595889973839 -0.042387800860260089 0.075504870262775872 0.14416386886284585 0.027615699779933514 -0.015365107830611117 0.11712475652032767 0.13321983920272487 0.14374530211403652 0.068228604335009824 0.016650134707112928 0.090137731298554055 0.061958695619759585
leaf_weight=199.91299024969339 284.87530288100243 26.445569977164268 8.8532233536243421 84.959762930870056 63.926798209547997 51.074265569448471 7.9406543374061576 16.73875068128109 168.05449235439301 36.709708459675312 114.84153883904219 48.202145121991634 44.495174750685692 19.081791944801807
leaf_count=1471 610 118 69 398 173 324 55 62 502 105 536 292 189 93
internal_value=0.0904253 0.0683667 0.0525157 0.0236041 0.0819985 0.00691435 0.0673495 0.0510908 0.124589 0.0710734 0.0848819 0.047056 0.0741723 0.117356
internal_weight=1176.11 891.237 696.737 352.686 344.051 267.726 280.124 67.813 194.5 271.271 170.633 100.638 52.4358 55.7915
internal_count=4997 4387 3767 2255 1512 1857 1339 386 620 1270 734 536 244 198
is_linear=0
shrinkage=0.04


Tree=3
num_leaves=15
num_cat=0
split_feature=11 12 9 2 36 34 33 22 2 13 10 5 26 33
split_gain=646.832 405.943 319.144 158.056 124.604 78.2662 71.7883 58.9614 52.2441 49.8213 46.4816 61.9131 56.7986 43.3562
threshold=1.0000000180025095e-35 1.0000000180025095e-35 1.0000000180025095e-35 0.06950000000000002 0.29166666666666674 0.31850000000000006 0.53000000000000014 -0.12499999999999999 0.046000000000000006 1.0000000180025095e-35 1.0000000180025095e-35 1.0000000180025095e-35 0.45833333333333343 0.42650000000000005
decision_type=2 2 2 2 2 2 2 2 2 2 2 2 2 2
left_child=1 2 4 13 5 -1 -5 9 -9 -6 -7 -12 -13 -4
right_child=-2 -3 3 6 7 10 -8 8 -10 -11 11 12 -14 -15
leaf_value=-0.018686738032097121 0.13626225121008112 0.11603806693158256 -0.018536463918288375 0.060735962412181287 0.051898528024010057 0.078354811289353524 -0.029962568290462857 0.033806950917489996 0.11689067376673501 0.10105054313150409 0.093771948325517385 -0.045635938291356822 0.10480476750880108 0.027553395821481436
leaf_weight=25.837682388722897 295.2941570430994 219.13682083785534 112.00366795808077 138.13841236382723 88.012802347540855 65.465893283486366 14.921105846762655 14.404934488236902 133.48093803972006 56.987977206707001 11.187552087008951 19.5150904878974 4.0110191851854315 44.953513763844967
leaf_count=186 592 623 862 668 435 270 103 88 405 209 46 142 13 301
internal_value=0.0845589 0.0683281 0.0538457 0.0229735 0.076584 0.0428148 0.0517571 0.0909184 0.109079 0.071776 0.0587048 0.0204909 -0.0167596 -0.00524517
internal_weight=1243.35 948.057 728.921 310.017 418.904 126.017 153.06 292.887 147.886 145.001 100.18 34.7137 23.5261 156.957
internal_count=4943 4351 3728 1934 1794 657 771 1137 493 644 471 201 155 1163
is_linear=0
shrinkage=0.04


Tree=4
num_leaves=15
num_cat=0
split_feature=11 12 1 8 2 2 1 32 19 2 32 32 22 31
split_gain=707.052 365.597 230.23 168.361 123.748 55.2825 61.629 51.8786 47.9161 40.9189 38.6206 38.2104 33.1496 31.8676
threshold=1.0000000180025095e-35 1.0000000180025095e-35 2.5210000000000004 1.0000000180025095e-35 0.086500000000000007 0.39600000000000007 0.73950000000000038 0.65050000000000019 1.0000000180025095e-35 0.033500000000000009 0.52850000000000008 0.44350000000000006 0.27500000000000008 0.30350000000000005
decision_type=2 2 2 2 2 2 2 2 2 2 2 2 2 2
left_child=1 2 3 4 8 6 -6 -5 11 -10 -4 -1 -13 -8
right_child=-2 -3 10 7 5 -7 13 -9 9 -11 -12 12 -14 -15
leaf_value=-0.012006079979755099 0.12617241356671241 0.10230961706862206 0.07323678551439318 0.073179588855483507 0.0035167269974470429 0.12132677522557338 0.04778800458925208 -0.021671821083855611 -0.019410991866665978 0.080793740992946589 0.1213020886696206 -0.014785399180786751 0.059036320156336579 0.12452314365134616
leaf_weight=180.41723697632551 328.1204469203949 227.71714800596237 73.234247632324696 159.76411627233028 55.402586087584496 13.288168609142302 113.74738001823425 9.3620457202196103 9.0138579607009905 19.801633805036545 50.829808339476585 15.257904365658758 24.341136738657951 8.9509370997548086
leaf_count=1352 576 613 266 621 331 33 544 55 59 83 118 109 138 24
internal_value=0.0754956 0.0580818 0.0442289 0.0340109 0.0208929 0.0449847 0.0386431 0.0678325 0.0022568 0.0498487 0.0937419 -0.00417364 0.0309285 0.0543473
internal_weight=1289.25 961.128 733.411 609.347 440.221 191.389 178.101 169.126 248.832 28.8155 124.064 220.016 39.599 122.698
internal_count=4922 4346 3733 3349 2673 932 899 676 1741 142 384 1599 247 568
is_linear=0
shrinkage=0.04


Tree=5
num_leaves=15
num_cat=0
split_feature=2 11 19 12 12 31 38 1 37 18 33 4 28 36
split_gain=523.415 217.989 170.594 126.836 104.438 83.6216 68.9673 67.7504 64.8989 102.063 64.844 52.9557 51.6197 44.8724
threshold=0.06950000000000002 1.0000000180025095e-35 1.0000000180025095e-35 1.0000000180025095e-35 1.0000000180025095e-35 0.24450000000000002 0.44345000000000007 -2.0854999999999997 0.91666666666666685 1.0000000180025095e-35 0.46550000000000008 0.58150000000000002 0.46875000000000006 0.45000000000000007
decision_type=2 2 2 2 2 2 2 2 2 2 2 2 2 2
left_child=2 4 3 8 5 7 -4 -2 10 -10 -1 -6 -9 -7
right_child=1 -3 6 -5 11 13 -8 12 9 -11 -12 -13 -14 -15
leaf_value=-0.029643920340002863 -0.029104836496208725 0.11328255497300674 0.090468521426607398 0.075636693379743852 0.11146817795354066 0.055346294913925627 0.011632681266735249 0.0085781659982653267 0.067010133660618948 -0.028522905562067193 0.034083141119550915 0.064003299362204405 0.061421879051674878 0.11116325347233096
leaf_weight=113.9768857806921 14.778708845376967 314.11208188533783 79.121013015508652 41.141826942563057 136.86641605198383 38.159426026046276 23.224912166595459 32.875736445188522 45.238288626074791 28.45183028280735 31.942965418100357 59.013680249452591 329.12569613754749 74.553183376789093
leaf_count=899 109 513 243 136 284 155 119 174 225 230 192 176 1327 179
internal_value=0.0706011 0.0855384 0.0293617 0.0120736 0.0726765 0.0625379 0.0728643 0.0532275 -0.000123221 0.0302367 -0.0155565 0.0975659 0.0566596 0.092919
internal_weight=1362.58 999.485 363.098 260.752 685.373 489.493 102.346 376.78 219.61 73.6901 145.92 195.88 362.001 112.713
internal_count=4961 2917 2044 1682 2404 1944 362 1610 1546 455 1091 460 1501 334
is_linear=0
shrinkage=0.04


Tree=6
num_leaves=15
num_cat=0
split_feature=11 2 8 36 12 18 25 13 12 7 36 22 8 30
split_gain=448.484 272.731 129.395 84.8733 81.6348 71.7601 61.8482 45.6048 37.7049 37.3386 36.8359 49.3597 35.7468 32.9691
threshold=1.0000000180025095e-35 0.063000000000000014 1.0000000180025095e-35 0.29166666666666674 1.0000000180025095e-35 1.0000000180025095e-35 0.41500000000000009 1.0000000180025095e-35 1.0000000180025095e-35 0.12500000000000003 0.70833333333333348 -0.12499999999999999 1.0000000180025095e-35 0.84807692307692317
decision_type=2 2 2 2 2 2 2 2 2 2 2 2 2 2
left_child=1 2 4 8 9 10 7 -7 12 -1 11 -5 -3 -13
right_child=-2 3 -4 5 -6 6 -8 -9 -10 -11 -12 13 -14 -15
leaf_value=-0.0080550280140864738 0.10436484844061655 0.013331682874474334 0.071011659640931507 0.045952979768304571 0.064191340971428201 -0.036669164247064082 0.08613878400572024 0.05380623754906156 0.082833236242249572 0.039705771788904873 0.08912441276592771 0.088320394477778258 0.054825393616796947 0.020072966609051935
leaf_weight=180.85022927075624 375.1135468184948 76.916040793061256 66.172199010848999 110.37100980430841 34.748910069465637 22.226150199770927 18.77169506251812 13.466975800693033 27.485676348209381 29.597233638167381 266.19032594561577 131.56538093835115 58.67665308713913 13.131249979138373
leaf_count=1356 590 426 220 427 117 144 64 60 64 160 663 387 226 57
internal_value=0.0668105 0.0533098 0.0218167 0.0665352 0.00830576 0.0737837 0.0293851 -0.00199683 0.040652 -0.00118196 0.0783576 0.0668172 0.0315577 0.0823072
internal_weight=1425.28 1050.17 311.369 738.801 245.196 575.723 54.4648 35.6931 163.078 210.447 521.258 255.068 135.593 144.697
internal_count=4961 4371 1853 2518 1633 1802 268 204 716 1516 1534 871 652 444
is_linear=0
shrinkage=0.04


end of trees

feature_importances:
Column_2=11
Column_1=9
Column_12=9
Column_11=6
Column_36=6
Column_9=5
Column_37=5
Column_8=4
Column_18=4
Column_22=4
Column_30=4
Column_33=4
Column_38=4
Column_19=3
Column_32=3
Column_4=2
Column_13=2
Column_31=2
Column_34=2
Column_3=1
Column_5=1
Column_7=1
Column_10=1
Column_17=1
Column_20=1
Column_25=1
Column_26=1
Column_28=1

parameters:
[boosting: gbdt]
[objective: binary]
[metric: binary_logloss]
[tree_learner: serial]
[device_type: cpu]
[data_sample_strategy: bagging]
[data: ]
[valid: ]
[num_iterations: 400]
[learning_rate: 0.04]
[num_leaves: 15]
[num_threads: 0]
[seed: 0]
[deterministic: 0]
[force_col_wise: 0]
[force_row_wise: 0]
[histogram_pool_size: -1]
[max_depth: -1]
[min_data_in_leaf: 25]
[min_sum_hessian_in_leaf: 0.001]
[bagging_fraction: 0.85]
[pos_bagging_fraction: 1]
[neg_bagging_fraction: 1]
[bagging_freq: 1]
[bagging_seed: 3]
[bagging_by_query: 0]
[feature_fraction: 0.85]
[feature_fraction_bynode: 1]
[feature_fraction_seed: 2]
[extra_trees: 0]
[extra_seed: 6]
[early_stopping_round: 0]
[early_stopping_min_delta: 0]
[first_metric_only: 0]
[max_delta_step: 0]
[lambda_l1: 0]
[lambda_l2: 1]
[linear_lambda: 0]
[min_gain_to_split: 0]
[drop_rate: 0.1]
[max_drop: 50]
[skip_drop: 0.5]
[xgboost_dart_mode: 0]
[uniform_drop: 0]
[drop_seed: 4]
[top_rate: 0.2]
[other_rate: 0.1]
[min_data_per_group: 100]
[max_cat_threshold: 32]
[cat_l2: 10]
[cat_smooth: 10]
[max_cat_to_onehot: 4]
[top_k: 20]
[monotone_constraints: ]
[monotone_constraints_method: basic]
[monotone_penalty: 0]
[feature_contri: ]
[forcedsplits_filename: ]
[refit_decay_rate: 0.9]
[cegb_tradeoff: 1]
[cegb_penalty_split: 0]
[cegb_penalty_feature_lazy: ]
[cegb_penalty_feature_coupled: ]
[path_smooth: 0]
[interaction_constraints: ]
[verbosity: -1]
[saved_feature_importance_type: 0]
[use_quantized_grad: 0]
[num_grad_quant_bins: 4]
[quant_train_renew_leaf: 0]
[stochastic_rounding: 1]
[linear_tree: 0]
[max_bin: 255]
[max_bin_by_feature: ]
[min_data_in_bin: 3]
[bin_construct_sample_cnt: 200000]
[data_random_seed: 1]
[is_enable_sparse: 1]
[enable_bundle: 1]
[use_missing: 1]
[zero_as_missing: 0]
[feature_pre_filter: 1]
[pre_partition: 0]
[two_round: 0]
[header: 0]
[label_column: ]
[weight_column: ]
[group_column: ]
[ignore_column: ]
[categorical_feature: ]
[forcedbins_filename: ]
[precise_float_parser: 0]
[parser_config_file: ]
[objective_seed: 5]
[num_class: 1]
[is_unbalance: 0]
[scale_pos_weight: 6]
[sigmoid: 1]
[boost_from_average: 1]
[reg_sqrt: 0]
[alpha: 0.9]
[fair_c: 1]
[poisson_max_delta_step: 0.7]
[tweedie_variance_power: 1.5]
[lambdarank_truncation_level: 30]
[lambdarank_norm: 1]
[label_gain: ]
[lambdarank_position_bias_regularization: 0]
[eval_at: ]
[multi_error_top_k: 1]
[auc_mu_weights: ]
[num_machines: 1]
[local_listen_port: 12400]
[time_out: 120]
[machine_list_filename: ]
[machines: ]
[gpu_platform_id: -1]
[gpu_device_id: -1]
[gpu_use_dp: 0]
[num_gpu: 1]

end of parameters

pandas_categorical:null
