tree
version=v4
num_class=1
num_tree_per_iteration=1
label_index=0
max_feature_idx=44
objective=binary sigmoid:1
feature_names=Column_0 Column_1 Column_2 Column_3 Column_4 Column_5 Column_6 Column_7 Column_8 Column_9 Column_10 Column_11 Column_12 Column_13 Column_14 Column_15 Column_16 Column_17 Column_18 Column_19 Column_20 Column_21 Column_22 Column_23 Column_24 Column_25 Column_26 Column_27 Column_28 Column_29 Column_30 Column_31 Column_32 Column_33 Column_34 Column_35 Column_36 Column_37 Column_38 Column_39 Column_40 Column_41 Column_42 Column_43 Column_44
feature_infos=none [-7.4000000000000004:4.4329999999999998] [0:0.94099999999999995] [0:1] [0:1] [0:1] [0:1] [0:1] [0:1] [0:1] [0:1] [0:1] [0:1] [0:1] [0:1] [0.25:1] [0:1] [0:1] [0:1] [-0.3666666666666667:1] [0:1] none [-1.05:1.1499999999999999] [-0.83333333333333337:0.66666666666666663] [-0.73333333333333339:0.53333333333333333] [0:1] [0:1] [0:1] [0.0625:1] [0.45000000000000001:1] [0:1] [0.010999999999999999:1] [0.010999999999999999:1] [0.048000000000000001:1] [0.014:1] [0.028000000000000001:1] [0:1] [0:1] [0:1] [0:1] [0:1] [0:1] [0:1] [0:1] [0:1]
tree_sizes=1696 1723 1724 1738 1735 1736 1745

Tree=0
num_leaves=15
num_cat=0
split_feature=11 12 2 1 8 36 26 1 38 18 4 2 1 37
split_gain=2204.31 1208.15 695.566 293.724 289.776 115.079 127.944 89.2547 71.9659 66.2371 60.9533 59.0947 58.244 54.1191
threshold=1.0000000180025095e-35 1.0000000180025095e-35 0.06950000000000002 2.5805000000000002 1.0000000180025095e-35 0.45000000000000007 0.075000000000000011 3.0235000000000003 0.43055000000000004 1.0000000180025095e-35 0.27600000000000008 0.16900000000000001 -2.0819999999999994 0.45000000000000007
decision_type=2 2 2 2 2 2 2 2 2 2 2 2 2 2
left_child=1 2 4 5 7 6 8 -1 11 12 -11 -4 -7 -3
right_child=-2 13 3 -5 -6 9 -8 -9 -10 10 -12 -13 -14 -15
leaf_value=-1.8107565330068542 -1.5882040938412261 -1.6891594236098553 -1.8123558079657529 -1.6475310284258191 -1.6999426400487958 -1.7912756255546678 -1.7210308836663111 -1.6585659821005749 -1.8316041956788929 -1.6635394848825507 -1.7815462633439825 -1.6872476665755787 -1.6939585945347624 -1.6245597851844276
leaf_weight=250.55839379131794 261.07894048839808 32.408131763339043 11.125179648399355 91.419953554868698 47.040161438286304 10.883327901363371 68.806817211210728 5.3207380324602118 40.631090939044952 7.9811070561408988 35.189426861703396 12.092586472630499 166.87769348919392 174.6169480830431
leaf_count=1837 699 153 82 356 234 75 374 19 316 31 236 55 815 599
internal_value=-1.69108 -1.71941 -1.74324 -1.71146 -1.79009 -1.7284 -1.75847 -1.80702 -1.79955 -1.71066 -1.75693 -1.74485 -1.69978 -1.63405
internal_weight=1216.03 954.952 747.926 445.007 302.919 353.587 132.656 255.879 63.8489 220.932 43.1705 23.2178 177.761 207.025
internal_count=5881 5182 4430 2340 2090 1984 827 1856 453 1157 267 137 890 752
is_linear=0
shrinkage=1


Tree=1
num_leaves=15
num_cat=0
split_feature=2 20 17 9 37 2 14 2 17 2 15 30 38 32
split_gain=1237.33 377.402 336.047 220.699 173.563 146.333 135.095 123.234 100.441 86.843 70.2601 59.4427 58.8595 64.3419
threshold=0.12950000000000003 1.0000000180025095e-35 1.0000000180025095e-35 1.0000000180025095e-35 0.63333333333333341 0.035500000000000011 1.0000000180025095e-35 0.06950000000000002 1.0000000180025095e-35 0.40750000000000003 0.62500000000000011 0.42481203007518803 0.60300000000000009 0.52850000000000008
decision_type=2 2 2 2 2 2 2 2 2 2 2 2 2 2
left_child=1 2 7 6 -4 12 9 -1 -5 -2 -10 -3 -6 -14
right_child=3 11 4 8 5 -7 -8 -9 10 -11 -12 -13 13 -15
leaf_value=-0.0085257858021797334 0.14928030155930258 0.07837653441621234 0.044201289690521429 0.034669300387545697 0.095011212954646929 0.13442614772074277 0.082478692594555272 0.053650744889547991 0.06907357378570117 0.19023724893507143 0.14628967774681378 0.13315878798537228 -0.044164587412120503 0.12795836513598849
leaf_weight=151.44216959178448 372.02140750735998 50.961477220058441 123.01544708758593 34.8430105894804 14.520167678594587 100.79713187366724 41.91535197943449 75.736051090061665 34.424820281565189 132.16775567829609 51.184164375066757 118.85714633017778 15.912001609802248 3.3777682334184638
leaf_count=1125 1218 259 728 216 68 371 208 437 176 291 166 451 127 11
internal_value=0.10527 0.0660498 0.0479022 0.14363 0.079087 0.110408 0.154555 0.0123467 0.093235 0.160372 0.116396 0.117274 0.0369966 -0.00920363
internal_weight=1321.18 654.619 484.801 666.557 257.623 134.607 546.105 227.178 120.452 504.189 85.609 169.819 33.8099 19.2898
internal_count=5852 3577 2867 2275 1305 577 1717 1562 558 1509 342 710 206 138
is_linear=0
shrinkage=0.04


Tree=2
num_leaves=15
num_cat=0
split_feature=11 12 1 8 2 2 32 1 9 3 19 4 4 34
split_gain=1239.15 631.112 390.014 274.054 197.401 88.2053 68.2151 62.4761 54.9468 49.6721 44.9327 50.6915 57.2489 44.3775
threshold=1.0000000180025095e-35 1.0000000180025095e-35 2.5015000000000005 1.0000000180025095e-35 0.088500000000000009 0.39600000000000007 0.57650000000000012 0.95550000000000013 1.0000000180025095e-35 0.065000000000000016 1.0000000180025095e-35 0.20700000000000005 0.29250000000000004 0.34450000000000003
decision_type=2 2 2 2 2 2 2 2 2 2 2 2 2 2
left_child=1 2 3 4 10 7 -4 13 -2 -3 -1 -12 -13 -6
right_child=8 9 6 -5 5 -7 -8 -9 -10 -11 11 12 -14 -15
leaf_value=-0.0020953089870060695 0.16425742079166575 0.00033083470180849626 0.094438237656818705 0.080904993989406135 0.062242023962991659 0.14892417008200251 0.16029342308674197 0.066087096340649423 0.11196521144713639 0.12861626116997316 -0.041241552420861811 0.13995317203042262 0.013439168386089191 -0.0004759939706115548
leaf_weight=263.43122605234385 288.78043641149998 4.934983789920806 98.430877968668938 188.98408634960651 25.638596184551716 13.833665326237677 38.239411897957325 111.15589892119169 46.98999211192131 235.92010246217251 6.8747224658727673 10.782005906105043 11.586415424942968 55.946295209228992
leaf_count=1894 562 30 391 830 131 36 87 556 152 717 53 37 72 361
internal_value=0.0903279 0.0691025 0.0523571 0.0399894 0.0243705 0.0542075 0.113895 0.0466757 0.157293 0.126 0.00319827 0.049377 0.0778007 0.0197486
internal_weight=1401.53 1065.76 824.903 688.233 499.249 206.574 136.67 192.741 335.77 240.855 292.674 29.2431 22.3684 81.5849
internal_count=5909 5195 4448 3970 3140 1084 478 1048 714 747 2056 162 109 492
is_linear=0
shrinkage=0.04


Tree=3
num_leaves=15
num_cat=0
split_feature=11 12 2 19 2 36 22 13 22 36 34 32 7 2
split_gain=813.301 506.286 311.704 172.896 133.654 84.2365 73.9823 63.8542 63.2582 57.639 84.0717 56.9472 55.7391 50.8178
threshold=1.0000000180025095e-35 1.0000000180025095e-35 0.16900000000000001 1.0000000180025095e-35 0.06950000000000002 0.63333333333333341 -1.0000000180025095e-35 1.0000000180025095e-35 1.0000000180025095e-35 0.91666666666666685 0.5505000000000001 0.28150000000000003 0.37500000000000006 0.11600000000000001
decision_type=2 2 2 2 2 2 2 2 2 2 2 2 2 2
left_child=1 2 3 4 12 7 -6 -4 -8 10 11 -5 -1 -10
right_child=-2 -3 5 9 6 -7 8 -9 13 -11 -12 -13 -14 -15
leaf_value=6.1343988750325374e-05 0.1363593363793095 0.11533632372982563 0.050441594100891038 -0.022066378065012628 0.002011987085998168 0.11751926935281364 0.10159519771257083 0.11034435724928456 0.065931013718969408 0.11620760118957271 -0.044557218086317144 0.075809508519908045 0.094186141073899374 0.0092708827598030029
leaf_weight=240.91602393984795 356.42326447367668 263.44725076854229 98.608460314571857 9.9603556692600232 43.259551011025906 104.22258564829826 43.873152136802673 41.486721351742744 64.837235122919083 35.622492879629135 11.026963025331495 111.22751241922379 9.5053543373942357 41.764633893966675
leaf_count=1722 702 738 464 65 272 314 149 138 322 114 76 474 43 253
internal_value=0.0837352 0.066878 0.0518524 0.0365019 0.0233388 0.0899986 0.0481945 0.0688371 0.0613704 0.0709913 0.0580278 0.0676504 0.00399448 0.0440251
internal_weight=1476.18 1119.76 856.311 611.993 444.156 244.318 193.735 140.095 150.475 167.837 132.215 121.188 250.421 106.602
internal_count=5846 5144 4406 3490 2761 916 996 602 724 729 615 539 1765 575
is_linear=0
shrinkage=0.04


Tree=4
num_leaves=15
num_cat=0
split_feature=11 12 1 19 2 31 2 35 15 18 31 31 1 7
split_gain=826.643 425.425 261.387 174.412 141.87 72.4289 68.0295 66.293 60.3924 50.8433 47.1004 66.6251 38.1939 36.1182
threshold=1.0000000180025095e-35 1.0000000180025095e-35 2.5015000000000005 1.0000000180025095e-35 0.059000000000000004 0.21450000000000002 0.31100000000000005 0.57650000000000012 0.62500000000000011 1.0000000180025095e-35 0.090500000000000011 0.18450000000000003 0.65649999999999997 0.95833333333333337
decision_type=2 2 2 2 2 2 2 2 2 2 2 2 2 2
left_child=1 2 3 4 12 6 -6 8 -5 -4 -10 -12 -1 -9
right_child=-2 -3 9 7 5 -7 -8 13 10 -11 11 -13 -14 -15
leaf_value=-0.017202829594890914 0.12573122519802804 0.10196369027935669 0.097775936921828621 0.084997065228138227 0.024459042467564647 0.086807304158304816 0.11323827893613096 -0.024044310024910653 -0.044009719065730799 0.0017946116178119015 0.074147870701079407 -0.028111301903677114 0.015620009025469003 0.055229035590480785
leaf_weight=123.02174174785614 398.65589433908463 278.13260158896446 146.50553572177887 145.86239729076624 191.28142952919006 45.300549641251564 14.019960954785345 19.926947645843029 8.9024821445345861 9.432863309979437 44.025176204741001 12.594272762537001 103.54836220294237 15.465823620557783
leaf_count=938 693 736 434 546 1078 174 39 121 60 54 169 77 701 63
internal_value=0.0760647 0.0588729 0.0451516 0.0349435 0.0207511 0.0414269 0.0310413 0.0621916 0.0706429 0.0920184 0.0378907 0.0513085 -0.00219923 0.011162
internal_weight=1556.68 1158.02 879.888 723.949 477.172 250.602 205.301 246.777 211.384 155.938 65.5219 56.6194 226.57 35.3928
internal_count=5883 5190 4454 3966 2930 1291 1117 1036 852 488 306 246 1639 184
is_linear=0
shrinkage=0.04


Tree=5
num_leaves=15
num_cat=0
split_feature=11 2 19 12 36 18 37 38 1 2 6 25 31 33
split_gain=580.204 334.365 143.538 169.601 133.391 136.784 80.0287 75.7834 73.05 41.8614 41.7103 38.9486 37.7823 37.3049
threshold=1.0000000180025095e-35 0.06950000000000002 1.0000000180025095e-35 1.0000000180025095e-35 0.70833333333333348 1.0000000180025095e-35 0.91666666666666685 0.44345000000000007 3.0235000000000003 0.13950000000000001 0.37500000000000006 0.68000000000000005 0.23550000000000001 0.23650000000000002
decision_type=2 2 2 2 2 2 2 2 2 2 2 2 2 2
left_child=1 2 3 8 6 11 9 -4 12 10 -3 -6 -1 -7
right_child=-2 4 7 -5 5 13 -8 -9 -10 -11 -12 -13 -14 -15
leaf_value=-0.0076861495131980741 0.11131419401567788 0.036961044801633473 0.088085796305061526 0.077420004390279393 0.079466033897210644 0.086402485693612349 0.078994903031751912 0.0075847044543956698 0.10905707126679373 0.056900887411377277 -0.024760718679345081 0.11136900567685416 0.082034056695578603 -0.016119057792162224
leaf_weight=233.91632457822561 429.35151161253452 91.705688297748566 75.713150411844254 53.307983830571175 112.89180073142052 6.4760535359382656 182.57034626603127 25.011474572122097 8.3592739999294263 178.47113482654095 20.855597078800201 187.22109250724316 6.7608813196420661 22.743255168199539
leaf_count=1719 721 458 251 161 344 25 620 132 22 707 131 415 30 144
internal_value=0.0713717 0.0570712 0.02725 0.0133718 0.0719888 0.0916525 0.0581508 0.0683672 -0.000592915 0.0448491 0.0254078 0.099672 -0.0048368 0.00871068
internal_weight=1635.36 1206 403.069 302.344 802.935 329.332 473.603 100.725 249.036 291.032 112.561 300.113 240.677 29.2193
internal_count=5880 5159 2315 1932 2844 928 1916 383 1771 1296 589 759 1749 169
is_linear=0
shrinkage=0.04


Tree=6
num_leaves=15
num_cat=0
split_feature=11 12 13 1 20 35 14 2 26 25 35 34 2 25
split_gain=545.446 284.548 217.931 246.505 105.147 85.0822 82.8482 89.6848 74.0077 51.7959 51.6779 50.0336 67.6687 49.0642
threshold=1.0000000180025095e-35 1.0000000180025095e-35 1.0000000180025095e-35 2.5670000000000006 1.0000000180025095e-35 0.48550000000000004 1.0000000180025095e-35 0.032500000000000008 0.12500000000000003 0.41500000000000009 0.67650000000000021 0.25150000000000006 0.072000000000000008 0.29000000000000009
decision_type=2 2 2 2 2 2 2 2 2 2 2 2 2 2
left_child=1 2 3 4 6 -6 8 -8 10 11 -1 -4 -13 -9
right_child=-2 -3 9 -5 5 -7 7 13 -10 -11 -12 12 -14 -15
leaf_value=-0.016016972030852832 0.10327196698120984 0.085061565968001351 0.12289084751865406 0.077156129892768932 0.057207850501061017 -0.0061259227307222594 -0.04404780138895438 0.02892591739022847 0.042958148463433078 0.095182939839259281 0.093925569412966189 -0.015980660555865299 0.064469861019664676 0.091265179382180955
leaf_weight=237.79281280934811 450.94253525137901 309.30679866671562 13.329260550439356 143.4489723443985 148.59294257313013 43.662582583725452 17.223118022084236 52.313213154673576 43.894469149410725 114.19134832173586 6.0568826273083678 23.529828533530235 54.113498240709305 33.493024975061417
leaf_count=1687 703 746 50 397 568 231 142 284 216 331 21 170 220 122
internal_value=0.0655908 0.0518259 0.0407122 0.0303563 0.0187292 0.042867 0.00677464 0.0373689 -0.00427137 0.0770568 -0.0129137 0.0535169 0.0401961 0.0540301
internal_weight=1691.89 1240.95 931.642 726.478 583.029 192.256 390.774 103.029 287.744 205.164 243.85 90.9726 77.6433 85.8062
internal_count=5888 5185 4439 3668 3271 799 2472 548 1924 771 1708 440 390 406
is_linear=0
shrinkage=0.04


end of trees

feature_importances:
Column_2=17
Column_1=9
Column_11=6
Column_12=6
Column_19=4
Column_31=4
Column_36=4
Column_4=3
Column_18=3
Column_25=3
Column_32=3
Column_34=3
Column_35=3
Column_37=3
Column_38=3
Column_7=2
Column_8=2
Column_9=2
Column_13=2
Column_14=2
Column_15=2
Column_17=2
Column_20=2
Column_22=2
Column_26=2
Column_3=1
Column_6=1
Column_30=1
Column_33=1

parameters:
[boosting: gbdt]
[objective: binary]
[metric: binary_logloss]
[tree_learner: serial]
[device_type: cpu]
[data_sample_strategy: bagging]
[data: ]
[valid: ]
[num_iterations: 400]
[learning_rate: 0.04]
[num_leaves: 15]
[num_threads: 0]
[seed: 0]
[deterministic: 0]
[force_col_wise: 0]
[force_row_wise: 0]
[histogram_pool_size: -1]
[max_depth: -1]
[min_data_in_leaf: 25]
[min_sum_hessian_in_leaf: 0.001]
[bagging_fraction: 0.85]
[pos_bagging_fraction: 1]
[neg_bagging_fraction: 1]
[bagging_freq: 1]
[bagging_seed: 3]
[bagging_by_query: 0]
[feature_fraction: 0.85]
[feature_fraction_bynode: 1]
[feature_fraction_seed: 2]
[extra_trees: 0]
[extra_seed: 6]
[early_stopping_round: 0]
[early_stopping_min_delta: 0]
[first_metric_only: 0]
[max_delta_step: 0]
[lambda_l1: 0]
[lambda_l2: 1]
[linear_lambda: 0]
[min_gain_to_split: 0]
[drop_rate: 0.1]
[max_drop: 50]
[skip_drop: 0.5]
[xgboost_dart_mode: 0]
[uniform_drop: 0]
[drop_seed: 4]
[top_rate: 0.2]
[other_rate: 0.1]
[min_data_per_group: 100]
[max_cat_threshold: 32]
[cat_l2: 10]
[cat_smooth: 10]
[max_cat_to_onehot: 4]
[top_k: 20]
[monotone_constraints: ]
[monotone_constraints_method: basic]
[monotone_penalty: 0]
[feature_contri: ]
[forcedsplits_filename: ]
[refit_decay_rate: 0.9]
[cegb_tradeoff: 1]
[cegb_penalty_split: 0]
[cegb_penalty_feature_lazy: ]
[cegb_penalty_feature_coupled: ]
[path_smooth: 0]
[interaction_constraints: ]
[verbosity: -1]
[saved_feature_importance_type: 0]
[use_quantized_grad: 0]
[num_grad_quant_bins: 4]
[quant_train_renew_leaf: 0]
[stochastic_rounding: 1]
[linear_tree: 0]
[max_bin: 255]
[max_bin_by_feature: ]
[min_data_in_bin: 3]
[bin_construct_sample_cnt: 200000]
[data_random_seed: 1]
[is_enable_sparse: 1]
[enable_bundle: 1]
[use_missing: 1]
[zero_as_missing: 0]
[feature_pre_filter: 1]
[pre_partition: 0]
[two_round: 0]
[header: 0]
[label_column: ]
[weight_column: ]
[group_column: ]
[ignore_column: ]
[categorical_feature: ]
[forcedbins_filename: ]
[precise_float_parser: 0]
[parser_config_file: ]
[objective_seed: 5]
[num_class: 1]
[is_unbalance: 0]
[scale_pos_weight: 6]
[sigmoid: 1]
[boost_from_average: 1]
[reg_sqrt: 0]
[alpha: 0.9]
[fair_c: 1]
[poisson_max_delta_step: 0.7]
[tweedie_variance_power: 1.5]
[lambdarank_truncation_level: 30]
[lambdarank_norm: 1]
[label_gain: ]
[lambdarank_position_bias_regularization: 0]
[eval_at: ]
[multi_error_top_k: 1]
[auc_mu_weights: ]
[num_machines: 1]
[local_listen_port: 12400]
[time_out: 120]
[machine_list_filename: ]
[machines: ]
[gpu_platform_id: -1]
[gpu_device_id: -1]
[gpu_use_dp: 0]
[num_gpu: 1]

end of parameters

pandas_categorical:null
