tree
version=v4
num_class=1
num_tree_per_iteration=1
label_index=0
max_feature_idx=44
objective=binary sigmoid:1
feature_names=Column_0 Column_1 Column_2 Column_3 Column_4 Column_5 Column_6 Column_7 Column_8 Column_9 Column_10 Column_11 Column_12 Column_13 Column_14 Column_15 Column_16 Column_17 Column_18 Column_19 Column_20 Column_21 Column_22 Column_23 Column_24 Column_25 Column_26 Column_27 Column_28 Column_29 Column_30 Column_31 Column_32 Column_33 Column_34 Column_35 Column_36 Column_37 Column_38 Column_39 Column_40 Column_41 Column_42 Column_43 Column_44
feature_infos=none [-7.4000000000000004:4.4329999999999998] [0:0.94099999999999995] [0:1] [0:1] [0:1] [0:1] [0:1] [0:1] [0:1] [0:1] [0:1] [0:1] [0:1] [0:1] [0.25:1] [0:1] [0:1] [0:1] [-0.3666666666666667:1] [0:1] none [-1.05:1.1499999999999999] [-1:0.66666666666666663] [-0.90000000000000002:0.66666666666666663] [0:1] [0:1] [0:1] [0.0625:1] [0.45000000000000001:1] [0:1] [0.010999999999999999:1] [0.010999999999999999:1] [0.048000000000000001:1] [0.014:1] [0.028000000000000001:1] [0:1] [0:1] [0:1] [0:1] [0:1] [0:1] [0:1] [0:1] [0:1]
tree_sizes=1701 1721 1711 1726 1743

Tree=0
num_leaves=15
num_cat=0
split_feature=11 12 1 13 19 2 9 2 42 30 36 38 3 38
split_gain=2862.23 1428.7 835.008 507.737 294.201 167.213 154.466 74.9767 72.212 71.5669 67.322 70.6341 65.2618 63.4532
threshold=1.0000000180025095e-35 1.0000000180025095e-35 2.6155000000000004 1.0000000180025095e-35 1.0000000180025095e-35 0.06950000000000002 1.0000000180025095e-35 0.072000000000000008 1.0000000180025095e-35 0.23904761904761906 0.81666666666666676 0.4008500000000001 0.44700000000000006 0.47600000000000003
decision_type=2 2 2 2 2 2 2 2 2 2 2 2 2 2
left_child=1 2 3 4 5 -1 -5 -8 12 -4 11 -6 13 -7
right_child=-2 -3 9 6 10 8 7 -9 -10 -11 -12 -13 -14 -15
leaf_value=-1.8137031738210796 -1.5794071303877573 -1.6297276101317344 -1.7562252358641193 -1.6656057466330125 -1.7151012012501214 -1.7283565603084368 -1.7897984812258703 -1.7070981689239411 -1.811587123747707 -1.6372802900349093 -1.6599111311146355 -1.7708842024249052 -1.6824126881164132 -1.7868919106732248
leaf_weight=237.12580212950706 314.71074199676514 241.98244938254356 9.7132945060729963 105.87491011619568 84.627078384160995 52.573206514120102 31.568207144737244 39.581675112247467 37.517600029706955 119.83777096867561 19.426589012145996 66.171818822622299 19.305172830820084 67.993061542510986
leaf_count=1773 812 878 60 462 457 298 220 206 279 452 80 435 89 470
internal_value=-1.68601 -1.71578 -1.73932 -1.75541 -1.77348 -1.79173 -1.69623 -1.74309 -1.76247 -1.64577 -1.72937 -1.7392 -1.74933 -1.76096
internal_weight=1448.01 1133.3 891.316 761.765 584.74 414.515 177.025 71.1499 177.389 129.551 170.225 150.799 139.871 120.566
internal_count=6971 6159 5281 4769 3881 2909 888 426 1136 512 972 892 857 768
is_linear=0
shrinkage=1


Tree=1
num_leaves=15
num_cat=0
split_feature=2 18 37 20 9 1 30 3 2 15 15 30 2 34
split_gain=1396.49 428.472 423.633 280.481 222.351 205.804 153.824 105.22 104.451 84.3786 80.3532 77.9626 85.9311 86.2075
threshold=0.15850000000000003 1.0000000180025095e-35 0.91666666666666685 1.0000000180025095e-35 1.0000000180025095e-35 1.0595000000000001 0.65192307692307705 0.072000000000000008 0.085500000000000007 0.62500000000000011 0.62500000000000011 0.36602870813397131 0.051500000000000011 0.30450000000000005
decision_type=2 2 2 2 2 2 2 2 2 2 2 2 2 2
left_child=1 2 3 5 6 11 10 -4 -3 -7 -2 -1 -13 -14
right_child=4 8 7 -5 -6 9 -8 -9 -10 -11 -12 12 13 -15
leaf_value=-0.018934330213708307 0.1117809988787675 -0.017741297427264859 0.035216927130112145 0.10540581641078092 0.092254142398324857 0.050634965211082163 0.17917438039841904 0.1328481402672832 0.058722732530922646 0.11372033334259996 0.15631207132169164 0.0050657960933011186 0.13407042979607869 0.030211228244486441
leaf_weight=69.850135795772076 136.31213274598122 91.963666260242462 19.998591214418411 162.6180679127574 102.38686767220497 82.934162579476833 290.84964191913605 238.70711871236563 40.286543995141983 60.320679768919945 160.28854118287563 73.877174012362957 20.430397741496563 33.697113119065762
leaf_count=530 562 699 123 714 474 478 725 892 227 250 487 515 77 206
internal_value=0.105441 0.0723339 0.083849 0.0622691 0.148212 0.0414564 0.157791 0.125466 0.00581735 0.0778027 0.136291 0.0148814 0.0333378 0.0711337
internal_weight=1584.52 894.684 762.433 503.728 689.837 341.11 587.45 258.706 132.25 143.255 296.601 197.855 128.005 54.1275
internal_count=6959 4711 3785 2770 2248 2056 1774 1015 926 728 1049 1328 798 283
is_linear=0
shrinkage=0.04


Tree=2
num_leaves=15
num_cat=0
split_feature=11 12 1 13 19 2 6 32 1 34 16 6 38 1
split_gain=1678.87 735.157 574.139 282.97 180.304 160.347 128.524 99.6338 79.8418 62.0405 60.2477 53.793 67.3871 43.7517
threshold=1.0000000180025095e-35 1.0000000180025095e-35 2.173 1.0000000180025095e-35 1.0000000180025095e-35 0.23600000000000002 0.12500000000000003 0.58150000000000002 0.98849999999999993 0.34650000000000003 1.0000000180025095e-35 1.0000000180025095e-35 0.62150000000000005 1.5115000000000005
decision_type=2 2 2 2 2 2 2 2 2 2 2 2 2 2
left_child=1 2 3 4 5 -1 -6 -4 10 -8 -5 12 -10 -11
right_child=-2 -3 7 8 6 -7 9 -9 11 13 -12 -13 -14 -15
leaf_value=-0.0035424527688575724 0.16070340363609123 0.12485220013825195 0.090228296051328025 0.010182894171128569 0.12286074591288895 0.094259522693795242 0.077856796269083747 0.15508083650989232 0.0064094851429279624 0.031598851061784672 0.076542292049061558 0.13068472639944057 0.1127559053590521 -0.033838196258037676
leaf_weight=354.23128101974726 410.1422066539526 278.2881336659193 196.95257786661386 37.299426570534706 32.974169135093689 28.013995662331581 39.446296870708466 49.853226482868195 17.535087369382381 83.994070768356323 53.210070326924324 51.47818212211132 20.229894630610943 19.3713309019804
leaf_count=2511 836 861 831 239 116 117 181 123 107 464 235 159 79 135
internal_value=0.090438 0.0675089 0.051191 0.0334415 0.0193119 0.00385251 0.0527163 0.103901 0.0769563 0.0357788 0.0496054 0.103838 0.0648161 0.0191288
internal_weight=1673.02 1262.88 984.59 737.784 558.031 382.245 175.786 246.806 179.753 142.812 90.5095 89.2432 37.765 103.365
internal_count=6994 6158 5297 4343 3524 2628 896 954 819 780 474 345 186 599
is_linear=0
shrinkage=0.04


Tree=3
num_leaves=15
num_cat=0
split_feature=11 12 2 19 3 36 17 3 31 36 2 22 34 15
split_gain=1100.38 608.34 368.493 221.04 145.131 94.3722 84.7465 69.5243 68.9281 64.1241 105.754 61.8221 57.7775 56.8613
threshold=1.0000000180025095e-35 1.0000000180025095e-35 0.13750000000000004 1.0000000180025095e-35 0.21500000000000005 0.29166666666666674 1.0000000180025095e-35 0.26750000000000002 0.24450000000000002 0.63333333333333341 0.085500000000000007 0.12500000000000003 0.35250000000000004 0.62500000000000011
decision_type=2 2 2 2 2 2 2 2 2 2 2 2 2 2
left_child=1 2 3 4 -1 11 7 -6 12 10 -5 -4 -7 -8
right_child=-2 -3 5 9 6 8 13 -9 -10 -11 -12 -13 -14 -15
leaf_value=0.0018572582582473815 0.13888529042691128 0.11468384573771508 0.061606464795126499 0.075021985161352223 0.052142527740255983 0.1104776981490703 0.040558827220917471 -0.025488534525942741 0.12198817810580942 0.1078555044621036 -0.013642815523046456 -0.019886831743215781 0.063075214639567515 0.10458704494891183
leaf_weight=309.28835716098547 436.076406031847 311.01771746575832 79.923521056771278 88.7854965031147 38.007203780114651 63.947032429277897 45.686576262116432 34.180427052080631 92.93585005402565 52.784333869814873 27.946662783622742 17.745745442807674 134.40279045701027 46.309603966772556
leaf_count=2139 821 867 362 387 208 209 252 249 260 172 174 118 591 171
internal_value=0.08369 0.0656773 0.0508105 0.0321387 0.0180307 0.0815157 0.0483023 0.0155386 0.0929735 0.0712067 0.0538593 0.0467483 0.0788351 0.0735678
internal_weight=1779.04 1342.96 1031.94 642.989 473.472 388.955 164.184 72.1876 291.286 169.516 116.732 97.6693 198.35 91.9962
internal_count=6980 6159 5292 3752 3019 1540 880 457 1060 733 561 480 800 423
is_linear=0
shrinkage=0.04


Tree=4
num_leaves=15
num_cat=0
split_feature=11 12 1 8 2 2 13 19 35 18 7 13 6 5
split_gain=1075.37 477.398 378.046 212.096 156.432 69.9321 61.5798 60.1692 58.1938 57.4355 52.8337 47.9079 59.2601 49.8574
threshold=1.0000000180025095e-35 1.0000000180025095e-35 2.517500000000001 1.0000000180025095e-35 0.06950000000000002 0.32300000000000006 1.0000000180025095e-35 1.0000000180025095e-35 0.64200000000000013 1.0000000180025095e-35 0.12500000000000003 1.0000000180025095e-35 0.12500000000000003 0.12500000000000003
decision_type=2 2 2 2 2 2 2 2 2 2 2 2 2 2
left_child=1 2 3 4 7 6 10 -1 11 -4 -6 12 -5 -14
right_child=-2 -3 9 8 5 -7 -8 -9 -10 -11 -12 -13 13 -15
leaf_value=-0.0064606394806955795 0.12697512080345719 0.10009909702513703 0.098000215995430781 0.11323136933257978 0.032784231243076972 0.097208920518823017 0.062724720275409609 0.049580186773903655 0.0033548021728057658 -0.00040956352864110555 -0.016244703502337695 0.10202223107798693 0.0131644979111898 0.065413412322594303
leaf_weight=273.45039635151625 482.30420905351639 321.11399684846401 193.16002877056599 25.839406244456768 145.35215106606483 30.304264649748802 80.847955271601677 33.508119776844978 22.532678663730621 9.9679285585880262 45.606998078525066 59.162288531661034 46.244536444544792 81.298055276274681
leaf_count=1971 808 856 575 77 821 95 342 151 119 59 296 172 254 353
internal_value=0.0756341 0.0574588 0.0443015 0.0324404 0.019925 0.0403082 0.0336311 -0.000201995 0.0646452 0.0931927 0.021051 0.0710967 0.0585846 0.0467187
internal_weight=1850.69 1368.39 1047.27 844.147 609.07 302.111 271.807 306.959 235.077 203.128 190.959 212.544 153.382 127.543
internal_count=6949 6141 5285 4651 3676 1554 1459 2122 975 634 1117 856 684 607
is_linear=0
shrinkage=0.04


end of trees

feature_importances:
Column_2=10
Column_1=6
Column_3=4
Column_11=4
Column_12=4
Column_13=4
Column_19=4
Column_6=3
Column_15=3
Column_30=3
Column_34=3
Column_36=3
Column_38=3
Column_9=2
Column_18=2
Column_5=1
Column_7=1
Column_8=1
Column_16=1
Column_17=1
Column_20=1
Column_22=1
Column_31=1
Column_32=1
Column_35=1
Column_37=1
Column_42=1

parameters:
[boosting: gbdt]
[objective: binary]
[metric: binary_logloss]
[tree_learner: serial]
[device_type: cpu]
[data_sample_strategy: bagging]
[data: ]
[valid: ]
[num_iterations: 400]
[learning_rate: 0.04]
[num_leaves: 15]
[num_threads: 0]
[seed: 0]
[deterministic: 0]
[force_col_wise: 0]
[force_row_wise: 0]
[histogram_pool_size: -1]
[max_depth: -1]
[min_data_in_leaf: 25]
[min_sum_hessian_in_leaf: 0.001]
[bagging_fraction: 0.85]
[pos_bagging_fraction: 1]
[neg_bagging_fraction: 1]
[bagging_freq: 1]
[bagging_seed: 3]
[bagging_by_query: 0]
[feature_fraction: 0.85]
[feature_fraction_bynode: 1]
[feature_fraction_seed: 2]
[extra_trees: 0]
[extra_seed: 6]
[early_stopping_round: 0]
[early_stopping_min_delta: 0]
[first_metric_only: 0]
[max_delta_step: 0]
[lambda_l1: 0]
[lambda_l2: 1]
[linear_lambda: 0]
[min_gain_to_split: 0]
[drop_rate: 0.1]
[max_drop: 50]
[skip_drop: 0.5]
[xgboost_dart_mode: 0]
[uniform_drop: 0]
[drop_seed: 4]
[top_rate: 0.2]
[other_rate: 0.1]
[min_data_per_group: 100]
[max_cat_threshold: 32]
[cat_l2: 10]
[cat_smooth: 10]
[max_cat_to_onehot: 4]
[top_k: 20]
[monotone_constraints: ]
[monotone_constraints_method: basic]
[monotone_penalty: 0]
[feature_contri: ]
[forcedsplits_filename: ]
[refit_decay_rate: 0.9]
[cegb_tradeoff: 1]
[cegb_penalty_split: 0]
[cegb_penalty_feature_lazy: ]
[cegb_penalty_feature_coupled: ]
[path_smooth: 0]
[interaction_constraints: ]
[verbosity: -1]
[saved_feature_importance_type: 0]
[use_quantized_grad: 0]
[num_grad_quant_bins: 4]
[quant_train_renew_leaf: 0]
[stochastic_rounding: 1]
[linear_tree: 0]
[max_bin: 255]
[max_bin_by_feature: ]
[min_data_in_bin: 3]
[bin_construct_sample_cnt: 200000]
[data_random_seed: 1]
[is_enable_sparse: 1]
[enable_bundle: 1]
[use_missing: 1]
[zero_as_missing: 0]
[feature_pre_filter: 1]
[pre_partition: 0]
[two_round: 0]
[header: 0]
[label_column: ]
[weight_column: ]
[group_column: ]
[ignore_column: ]
[categorical_feature: ]
[forcedbins_filename: ]
[precise_float_parser: 0]
[parser_config_file: ]
[objective_seed: 5]
[num_class: 1]
[is_unbalance: 0]
[scale_pos_weight: 6]
[sigmoid: 1]
[boost_from_average: 1]
[reg_sqrt: 0]
[alpha: 0.9]
[fair_c: 1]
[poisson_max_delta_step: 0.7]
[tweedie_variance_power: 1.5]
[lambdarank_truncation_level: 30]
[lambdarank_norm: 1]
[label_gain: ]
[lambdarank_position_bias_regularization: 0]
[eval_at: ]
[multi_error_top_k: 1]
[auc_mu_weights: ]
[num_machines: 1]
[local_listen_port: 12400]
[time_out: 120]
[machine_list_filename: ]
[machines: ]
[gpu_platform_id: -1]
[gpu_device_id: -1]
[gpu_device_id_list: ]
[gpu_use_dp: 0]
[num_gpu: 1]

end of parameters

pandas_categorical:null
