tree
version=v4
num_class=1
num_tree_per_iteration=1
label_index=0
max_feature_idx=44
objective=binary sigmoid:1
feature_names=Column_0 Column_1 Column_2 Column_3 Column_4 Column_5 Column_6 Column_7 Column_8 Column_9 Column_10 Column_11 Column_12 Column_13 Column_14 Column_15 Column_16 Column_17 Column_18 Column_19 Column_20 Column_21 Column_22 Column_23 Column_24 Column_25 Column_26 Column_27 Column_28 Column_29 Column_30 Column_31 Column_32 Column_33 Column_34 Column_35 Column_36 Column_37 Column_38 Column_39 Column_40 Column_41 Column_42 Column_43 Column_44
feature_infos=none [-7.4000000000000004:4.4329999999999998] [0:0.94099999999999995] [0:1] [0:1] [0:1] [0:1] [0:1] [0:1] [0:1] [0:1] [0:1] [0:1] [0:1] [0:1] [0.25:1] [0:1] [0:1] [0:1] [-0.3666666666666667:1] [0:1] none [-1.05:1.1499999999999999] [-1:0.66666666666666663] [-0.90000000000000002:0.66666666666666663] [0:1] [0:1] [0:1] [0.0625:1] [0.45000000000000001:1] [0:1] [0.010999999999999999:1] [0.010999999999999999:1] [0.048000000000000001:1] [0.014:1] [0.028000000000000001:1] [0:1] [0:1] [0:1] [0:1] [0:1] [0:1] [0:1] [0:1] [0:1]
tree_sizes=1706 1718 1735 1734 1742

Tree=0
num_leaves=15
num_cat=0
split_feature=11 12 1 8 2 13 13 14 34 3 22 30 4 22
split_gain=2877.83 1509.95 834.686 576.776 336.429 159.013 135.228 132.127 97.1936 92.7337 81.2025 71.4063 53.6012 51.7849
threshold=1.0000000180025095e-35 1.0000000180025095e-35 2.6155000000000004 1.0000000180025095e-35 0.06950000000000002 1.0000000180025095e-35 1.0000000180025095e-35 1.0000000180025095e-35 0.38750000000000007 0.45600000000000002 -1.0000000180025095e-35 0.23904761904761906 0.62250000000000016 0.17500000000000002
decision_type=2 2 2 2 2 2 2 2 2 2 2 2 2 2
left_child=1 2 3 4 -1 7 -5 9 10 -6 -9 -4 -2 -10
right_child=12 -3 11 6 5 -7 -8 8 13 -11 -12 -13 -14 -15
leaf_value=-1.8043019572192414 -1.6028747092902897 -1.6280136524597073 -1.7558111368511236 -1.7191257564302176 -1.8004712285422979 -1.695350752831049 -1.6468072348631986 -1.7756889157016738 -1.7383055516050701 -1.7034767924410468 -1.6348003294797684 -1.6370580319383148 -1.5618303722876543 -1.8451871123595576
leaf_weight=301.08653581142426 145.98871159553528 251.41150832176208 9.7163867950439435 146.35307610034943 111.98135781288147 78.581278204917908 60.727417469024658 9.3520222902297956 25.262605667114258 17.368041396141052 24.89824116230011 121.09047043323517 176.71678483486176 9.2305674552917463
leaf_count=2194 447 905 60 805 807 392 240 62 148 88 90 457 390 76
internal_value=-1.68534 -1.71471 -1.73868 -1.7544 -1.77502 -1.74326 -1.69727 -1.76271 -1.71831 -1.78678 -1.6714 -1.64545 -1.57972 -1.76729
internal_weight=1489.77 1167.06 915.648 784.841 577.761 276.674 207.08 198.093 68.7434 129.349 34.2503 130.807 322.705 34.4932
internal_count=7161 6324 5419 4902 3857 1663 1045 1271 376 895 152 517 837 224
is_linear=0
shrinkage=1


Tree=1
num_leaves=15
num_cat=0
split_feature=2 18 37 20 9 1 30 2 23 15 30 15 15 31
split_gain=1447.14 473.816 424.484 312.534 228.951 213.16 150.192 102.376 84.928 81.0902 76.7288 75.1377 71.3764 67.2148
threshold=0.16050000000000003 1.0000000180025095e-35 0.91666666666666685 1.0000000180025095e-35 1.0000000180025095e-35 1.0835000000000001 0.65192307692307705 0.085500000000000007 -0.34999999999999992 0.62500000000000011 0.69782608695652182 0.62500000000000011 0.62500000000000011 0.10450000000000001
decision_type=2 2 2 2 2 2 2 2 2 2 2 2 2 2
left_child=1 2 3 5 6 11 9 -3 -4 -2 -9 -1 -7 -6
right_child=4 7 8 -5 13 12 -8 10 -10 -11 -12 -13 -14 -15
leaf_value=8.4543703700045683e-05 0.11285721540765557 -0.018925677655850254 0.015778008764723312 0.10787086637897801 -0.016090826849981411 0.054035906108249508 0.17914010712605385 0.018293590715420482 0.12999981203953898 0.15696712694345313 0.13455152378127899 0.053043022243893838 0.11230161241130077 0.10108768996525022
leaf_weight=148.5233763679862 139.84307256340981 95.89578652381897 11.163769192993639 167.82795806229115 8.267370440065859 84.85656912624836 296.13212481886148 29.11619944870472 256.13279528170824 165.62927987426519 12.466792598366736 59.25772300362587 59.376022569835186 92.9809685125947
leaf_count=1057 570 730 71 738 60 483 733 190 980 501 47 331 249 410
internal_value=0.105386 0.0723716 0.0843244 0.0630521 0.148653 0.0414391 0.158112 0.00382075 0.125306 0.137208 0.0554895 0.0153697 0.0786302 0.0914558
internal_weight=1627.47 924.617 787.138 519.842 702.853 352.014 601.604 137.479 267.297 305.472 41.583 207.781 144.233 101.248
internal_count=7150 4876 3909 2858 2274 2120 1804 967 1051 1071 237 1388 732 470
is_linear=0
shrinkage=0.04


Tree=2
num_leaves=15
num_cat=0
split_feature=11 12 1 13 19 2 6 1 14 5 16 32 2 34
split_gain=1701.39 783.041 586.173 337.413 218.228 151.565 94.4829 89.1821 86.9286 76.1803 75.3564 67.5637 60.7629 59.293
threshold=1.0000000180025095e-35 1.0000000180025095e-35 2.519000000000001 1.0000000180025095e-35 1.0000000180025095e-35 0.23600000000000002 0.12500000000000003 0.98849999999999993 1.0000000180025095e-35 0.20833333333333334 1.0000000180025095e-35 0.54550000000000021 0.10750000000000003 0.65250000000000019
decision_type=2 2 2 2 2 2 2 2 2 2 2 2 2 2
left_child=1 2 3 4 5 8 -6 10 13 -9 -5 -4 -11 -1
right_child=-2 -3 11 7 6 -7 -8 9 -10 12 -12 -13 -14 -15
leaf_value=-0.013636105816636341 0.16042152023060155 0.12573160741345329 0.097848326386039394 0.0087911257848855649 0.11645971738155965 0.094215286773788487 0.043542964288082617 0.1338014309222485 0.03184616755471055 -0.041579663807780658 0.081939326762654585 0.15336893307706637 0.083404918588866117 0.1092271033242227
leaf_weight=296.76891782879829 418.69896899163723 287.87202073633671 125.60035979747772 38.285645827651024 34.328340545296669 28.054189510643482 162.04755610227585 65.178905986249447 99.525657787919044 6.9279770851135245 54.706136420369148 56.185721755027771 33.944297611713409 5.4285869747400275
leaf_count=2181 858 885 487 248 129 120 857 212 595 52 241 137 141 21
internal_value=0.0903741 0.0676175 0.0508959 0.0364853 0.0219952 0.00599027 0.056815 0.0817305 -0.000389537 0.106862 0.0522374 0.115754 0.0617326 -0.0110761
internal_weight=1713.55 1294.85 1006.98 825.196 626.153 429.777 196.376 199.043 401.723 106.051 92.9918 181.786 40.8723 302.198
internal_count=7164 6306 5421 4797 3903 2917 986 894 2797 405 489 624 193 2202
is_linear=0
shrinkage=0.04


Tree=3
num_leaves=15
num_cat=0
split_feature=11 12 2 19 3 36 32 31 22 36 2 22 34 30
split_gain=1117.34 645.213 386.068 241.27 141.383 93.2826 83.5364 66.8598 68.0207 65.8506 95.9071 64.5667 49.5458 48.4903
threshold=1.0000000180025095e-35 1.0000000180025095e-35 0.14000000000000004 1.0000000180025095e-35 0.21750000000000003 0.29166666666666674 0.37250000000000005 0.27200000000000008 -0.57499999999999984 0.63333333333333341 0.085500000000000007 0.075000000000000025 0.35250000000000004 0.30217391304347835
decision_type=2 2 2 2 2 2 2 2 2 2 2 2 2 2
left_child=1 2 3 4 13 11 -6 12 -9 10 -5 -4 -7 -1
right_child=-2 -3 5 9 6 7 -8 8 -10 -11 -12 -13 -14 -15
leaf_value=-0.021904266340188116 0.13855518353109378 0.1152903943896081 0.063922513544122095 0.075173744248965307 0.007652099353156889 0.11049232368066565 0.067812975543175211 0.024439714242918305 0.14258076984224285 0.10963259649446498 -0.0074985244436406515 -0.013664892542850178 0.068374053100832735 0.011809065431811441
leaf_weight=97.033413663506508 446.98302373290062 321.46749618649483 80.300966382026672 90.649879813194275 56.540911741554737 68.438957706093788 107.00325707346201 9.4377609491348249 61.550179228186607 52.261898592114449 29.510691598057747 21.35637204349041 158.89513957500458 223.78931144624949
leaf_count=731 848 891 354 397 369 223 511 47 135 175 181 140 678 1485
internal_value=0.0836097 0.0657025 0.0505232 0.031578 0.0170418 0.0814759 0.0471869 0.0928054 0.127432 0.072079 0.0549756 0.0476485 0.0814821 0.00157603
internal_weight=1825.22 1378.24 1056.77 656.789 484.367 399.979 163.544 298.322 70.9879 172.422 120.161 101.657 227.334 320.823
internal_count=7165 6317 5426 3849 3096 1577 880 1083 182 753 578 494 901 2216
is_linear=0
shrinkage=0.04


Tree=4
num_leaves=15
num_cat=0
split_feature=11 12 1 8 2 2 19 13 18 7 35 32 13 6
split_gain=1092.27 517.904 374.317 225.041 150.5 66.9788 66.6578 66.3446 58.4225 48.8642 48.2361 45.5702 43.4137 57.7201
threshold=1.0000000180025095e-35 1.0000000180025095e-35 2.519000000000001 1.0000000180025095e-35 0.06950000000000002 0.32300000000000006 1.0000000180025095e-35 1.0000000180025095e-35 1.0000000180025095e-35 0.12500000000000003 0.64200000000000013 0.37850000000000006 1.0000000180025095e-35 0.12500000000000003
decision_type=2 2 2 2 2 2 2 2 2 2 2 2 2 2
left_child=1 2 3 4 6 7 11 9 -4 -6 12 -1 13 -5
right_child=-2 -3 8 10 5 -7 -8 -9 -10 -11 -12 -13 -14 -15
leaf_value=-0.016017393150313614 0.12689694091187534 0.10115492663381537 0.097365843674071098 0.113204814706567 0.031151690999002068 0.094746488716485944 0.053761454783833804 0.06284855474803816 -0.001076531159099616 -0.015947449162685253 0.010342669078785883 0.019640838240305811 0.099689211007085402 0.047771802680933749
leaf_weight=203.80116029083729 494.55381613969803 334.59126630425453 195.47835256159306 25.848608650267124 148.36522396653891 30.867485731840134 32.316859230399132 82.892749339342117 10.120866656303404 45.438748486340046 23.773261651396751 78.697979353368282 61.634493201971054 133.42871405929327
leaf_count=1531 832 883 578 77 846 100 153 350 60 300 121 502 179 622
internal_value=0.075778 0.0577359 0.0441108 0.0325343 0.0196997 0.0395518 0.000241018 0.0330754 0.0925381 0.0200838 0.0649673 -0.00604956 0.0707726 0.0590308
internal_weight=1901.81 1407.26 1072.66 867.065 622.38 307.564 314.816 276.697 205.599 193.804 244.685 282.499 220.912 159.277
internal_count=7134 6302 5419 4781 3782 1596 2186 1496 638 1146 999 2033 878 699
is_linear=0
shrinkage=0.04


end of trees

feature_importances:
Column_2=9
Column_1=5
Column_13=5
Column_11=4
Column_12=4
Column_22=4
Column_30=4
Column_15=3
Column_19=3
Column_32=3
Column_34=3
Column_3=2
Column_6=2
Column_8=2
Column_14=2
Column_18=2
Column_31=2
Column_36=2
Column_4=1
Column_5=1
Column_7=1
Column_9=1
Column_16=1
Column_20=1
Column_23=1
Column_35=1
Column_37=1

parameters:
[boosting: gbdt]
[objective: binary]
[metric: binary_logloss]
[tree_learner: serial]
[device_type: cpu]
[data_sample_strategy: bagging]
[data: ]
[valid: ]
[num_iterations: 400]
[learning_rate: 0.04]
[num_leaves: 15]
[num_threads: 0]
[seed: 0]
[deterministic: 0]
[force_col_wise: 0]
[force_row_wise: 0]
[histogram_pool_size: -1]
[max_depth: -1]
[min_data_in_leaf: 25]
[min_sum_hessian_in_leaf: 0.001]
[bagging_fraction: 0.85]
[pos_bagging_fraction: 1]
[neg_bagging_fraction: 1]
[bagging_freq: 1]
[bagging_seed: 3]
[bagging_by_query: 0]
[feature_fraction: 0.85]
[feature_fraction_bynode: 1]
[feature_fraction_seed: 2]
[extra_trees: 0]
[extra_seed: 6]
[early_stopping_round: 0]
[early_stopping_min_delta: 0]
[first_metric_only: 0]
[max_delta_step: 0]
[lambda_l1: 0]
[lambda_l2: 1]
[linear_lambda: 0]
[min_gain_to_split: 0]
[drop_rate: 0.1]
[max_drop: 50]
[skip_drop: 0.5]
[xgboost_dart_mode: 0]
[uniform_drop: 0]
[drop_seed: 4]
[top_rate: 0.2]
[other_rate: 0.1]
[min_data_per_group: 100]
[max_cat_threshold: 32]
[cat_l2: 10]
[cat_smooth: 10]
[max_cat_to_onehot: 4]
[top_k: 20]
[monotone_constraints: ]
[monotone_constraints_method: basic]
[monotone_penalty: 0]
[feature_contri: ]
[forcedsplits_filename: ]
[refit_decay_rate: 0.9]
[cegb_tradeoff: 1]
[cegb_penalty_split: 0]
[cegb_penalty_feature_lazy: ]
[cegb_penalty_feature_coupled: ]
[path_smooth: 0]
[interaction_constraints: ]
[verbosity: -1]
[saved_feature_importance_type: 0]
[use_quantized_grad: 0]
[num_grad_quant_bins: 4]
[quant_train_renew_leaf: 0]
[stochastic_rounding: 1]
[linear_tree: 0]
[max_bin: 255]
[max_bin_by_feature: ]
[min_data_in_bin: 3]
[bin_construct_sample_cnt: 200000]
[data_random_seed: 1]
[is_enable_sparse: 1]
[enable_bundle: 1]
[use_missing: 1]
[zero_as_missing: 0]
[feature_pre_filter: 1]
[pre_partition: 0]
[two_round: 0]
[header: 0]
[label_column: ]
[weight_column: ]
[group_column: ]
[ignore_column: ]
[categorical_feature: ]
[forcedbins_filename: ]
[precise_float_parser: 0]
[parser_config_file: ]
[objective_seed: 5]
[num_class: 1]
[is_unbalance: 0]
[scale_pos_weight: 6]
[sigmoid: 1]
[boost_from_average: 1]
[reg_sqrt: 0]
[alpha: 0.9]
[fair_c: 1]
[poisson_max_delta_step: 0.7]
[tweedie_variance_power: 1.5]
[lambdarank_truncation_level: 30]
[lambdarank_norm: 1]
[label_gain: ]
[lambdarank_position_bias_regularization: 0]
[eval_at: ]
[multi_error_top_k: 1]
[auc_mu_weights: ]
[num_machines: 1]
[local_listen_port: 12400]
[time_out: 120]
[machine_list_filename: ]
[machines: ]
[gpu_platform_id: -1]
[gpu_device_id: -1]
[gpu_device_id_list: ]
[gpu_use_dp: 0]
[num_gpu: 1]

end of parameters

pandas_categorical:null
