tree
version=v4
num_class=1
num_tree_per_iteration=1
label_index=0
max_feature_idx=44
objective=binary sigmoid:1
feature_names=Column_0 Column_1 Column_2 Column_3 Column_4 Column_5 Column_6 Column_7 Column_8 Column_9 Column_10 Column_11 Column_12 Column_13 Column_14 Column_15 Column_16 Column_17 Column_18 Column_19 Column_20 Column_21 Column_22 Column_23 Column_24 Column_25 Column_26 Column_27 Column_28 Column_29 Column_30 Column_31 Column_32 Column_33 Column_34 Column_35 Column_36 Column_37 Column_38 Column_39 Column_40 Column_41 Column_42 Column_43 Column_44
feature_infos=none [-7.4000000000000004:4.4329999999999998] [0:0.94099999999999995] [0:1] [0:1] [0:1] [0:1] [0:1] [0:1] [0:1] [0:1] [0:1] [0:1] [0:1] [0:1] [0.25:1] [0:1] [0:1] [0:1] [-0.3666666666666667:1] [0:1] none [-1.05:1.1499999999999999] [-1:0.66666666666666663] [-0.90000000000000002:0.66666666666666663] [0:1] [0:1] [0:1] [0.0625:1] [0.45000000000000001:1] [0:1] [0.010999999999999999:1] [0.010999999999999999:1] [0.048000000000000001:1] [0.014:1] [0.028000000000000001:1] [0:1] [0:1] [0:1] [0:1] [0:1] [0:1] [0:1] [0:1] [0:1]
tree_sizes=1701 1717 1724 1742 1728 1742

Tree=0
num_leaves=15
num_cat=0
split_feature=11 12 1 8 2 13 13 38 4 30 36 34 34 38
split_gain=2612.63 1282.5 733.258 501.657 338.18 161.206 126.168 66.2929 63.0725 54.9013 54.0243 59.481 59.3599 56.3055
threshold=1.0000000180025095e-35 1.0000000180025095e-35 2.6165000000000003 1.0000000180025095e-35 0.06950000000000002 1.0000000180025095e-35 1.0000000180025095e-35 0.43055000000000004 0.63450000000000017 0.23904761904761906 0.45000000000000007 0.38750000000000007 0.33850000000000008 0.46175000000000005
decision_type=2 2 2 2 2 2 2 2 2 2 2 2 2 2
left_child=1 2 3 4 -1 7 8 -6 -5 -4 -9 12 -12 -13
right_child=-2 -3 9 6 5 -7 -8 10 -10 -11 11 13 -14 -15
leaf_value=-1.8057962363235311 -1.5813412477733642 -1.6317199044146073 -1.7504714405978583 -1.7135775232832482 -1.7180642699141615 -1.6918770628587934 -1.6471652520074112 -1.8056269751447529 -1.8222827168801992 -1.639649743044959 -1.7806113834813408 -1.7076053209627939 -1.680633899524723 -1.8144291263568955
leaf_weight=273.92468194663525 292.48556197434664 224.30767556279898 8.9771596044301969 123.01134893298149 40.761157050728798 73.030406266450882 54.469522126019001 57.744972810149193 8.8558466807007772 109.18167014420033 16.619876600801945 9.3410984799265844 23.170776717364788 32.754501402378082
leaf_count=1998 761 819 54 659 221 357 214 421 68 415 112 47 106 245
internal_value=-1.68701 -1.71646 -1.73949 -1.75492 -1.77496 -1.74175 -1.69866 -1.76246 -1.72095 -1.64754 -1.77594 -1.75525 -1.72078 -1.78902
internal_weight=1348.64 1056.15 831.843 713.684 527.347 253.423 186.337 180.392 131.867 118.159 139.631 81.8863 39.7907 42.0956
internal_count=6497 5736 4917 4448 3507 1509 941 1152 727 469 931 510 218 292
is_linear=0
shrinkage=1


Tree=1
num_leaves=15
num_cat=0
split_feature=2 20 17 37 2 2 2 18 15 30 15 30 3 1
split_gain=1309.21 418.882 463.036 213.536 207.14 147.456 143.631 129.458 90.823 89.3383 87.801 64.2129 64.0595 54.607
threshold=0.14450000000000002 1.0000000180025095e-35 1.0000000180025095e-35 0.63333333333333341 0.39600000000000007 0.027500000000000004 0.06950000000000002 1.0000000180025095e-35 0.62500000000000011 0.64852941176470602 0.62500000000000011 0.42481203007518803 0.44050000000000006 2.4470000000000005
decision_type=2 2 2 2 2 2 2 2 2 2 2 2 2 2
left_child=1 2 6 8 7 -5 -1 9 13 10 -2 -3 -9 -4
right_child=4 11 3 5 -6 -7 -8 12 -10 -11 -12 -13 -14 -15
leaf_value=-0.0090210750342669867 0.096115313230254726 0.082139799910761938 0.0011268698724995853 0.039046626708537237 0.18623448459394898 0.13480655496476524 0.05160052149424553 -0.0038909788043252906 0.081462627546302166 0.15832017512861518 0.14367724691857914 0.13330555128927654 0.12327648267894166 0.082347971588160859
leaf_weight=166.03324660658836 129.68493938446045 62.429113797843456 60.044140323996544 33.003968268632889 165.16334452480078 134.81844787299633 99.08533787727356 16.748494245111946 73.846550866961479 211.15521963685751 143.42587591707706 149.23297356069088 9.1395053267478925 16.00291907787323
leaf_count=1229 589 312 424 201 377 499 565 116 362 641 482 558 37 76
internal_value=0.105468 0.0705191 0.0528587 0.0853522 0.14642 0.116317 0.0137444 0.133191 0.0501422 0.137862 0.121526 0.118672 0.0439194 0.0190656
internal_weight=1469.81 794.497 582.835 317.716 675.317 167.822 265.119 510.154 149.894 484.266 273.111 211.662 25.888 76.0471
internal_count=6468 4226 3356 1562 2242 700 1794 1865 862 1712 1071 870 153 500
is_linear=0
shrinkage=0.04


Tree=2
num_leaves=15
num_cat=0
split_feature=11 12 1 19 2 36 25 1 32 36 36 4 4 1
split_gain=1505.9 640.977 502.443 269.988 208.643 102.098 79.1359 90.6936 74.4966 54.3825 59.4364 51.6087 49.7916 45.8819
threshold=1.0000000180025095e-35 1.0000000180025095e-35 2.517500000000001 1.0000000180025095e-35 0.088500000000000009 0.81666666666666676 0.29000000000000009 1.3860000000000001 0.54550000000000021 0.29166666666666674 0.91666666666666685 0.63800000000000012 0.36150000000000004 2.4470000000000005
decision_type=2 2 2 2 2 2 2 2 2 2 2 2 2 2
left_child=1 2 3 4 13 11 -6 9 12 -8 -11 -5 -4 -1
right_child=-2 -3 8 5 6 -7 7 -9 -10 10 -12 -13 -14 -15
leaf_value=-0.0028413319653656606 0.15966751983354496 0.12371803911211714 0.13651681069811752 0.067117651648707033 0.031153346598045292 0.12839267742911914 -0.014755800307331092 0.13621742618645288 0.15422048261786547 0.099234491915544162 -0.017680911159597829 0.0036030751616562919 0.075583415695663486 0.087662215220306483
leaf_weight=289.44849715381861 380.02011126279831 257.94842925667763 33.041999384760857 184.834781229496 121.41014982014894 42.701030984520912 15.037734039127825 30.513792134821415 54.779298841953278 30.334852986037731 8.592205308377741 23.134233608841896 78.649618580937386 8.2478828728198987
leaf_count=2073 779 810 105 880 704 137 102 99 134 128 59 141 338 39
internal_value=0.0904719 0.0680458 0.0523315 0.038352 0.0213936 0.0722003 0.0522477 0.0818448 0.115064 0.0491815 0.0736318 0.0601034 0.0946609 -4.8781e-05
internal_weight=1558.69 1178.67 920.726 754.255 503.585 250.67 205.889 84.4786 166.471 53.9648 38.9271 207.969 111.692 297.696
internal_count=6528 5749 4939 4362 3204 1158 1092 388 577 289 187 1021 443 2112
is_linear=0
shrinkage=0.04


Tree=3
num_leaves=15
num_cat=0
split_feature=11 12 9 36 2 39 36 36 34 3 19 22 31 31
split_gain=992.315 565.76 345.835 194.55 126.987 110.751 66.8784 66.1134 72.8635 58.5802 76.6892 50.907 58.2356 48.0713
threshold=1.0000000180025095e-35 1.0000000180025095e-35 1.0000000180025095e-35 0.63333333333333341 0.06950000000000002 1.0000000180025095e-35 0.45000000000000007 0.29166666666666674 0.32050000000000006 0.22750000000000001 1.0000000180025095e-35 1.0000000180025095e-35 0.11850000000000001 0.077500000000000013
decision_type=2 2 2 2 2 2 2 2 2 2 2 2 2 2
left_child=1 2 3 5 11 7 -6 8 -1 10 -5 -4 -13 -11
right_child=-2 -3 4 9 6 -7 -8 -9 -10 13 -12 12 -14 -15
leaf_value=-0.02430044284354288 0.13844208011677869 0.1156027065497192 0.033725783215479088 -0.0043647991044804451 0.010619108941479792 -0.0064159724413969952 0.062082892296489681 0.079831038207865287 0.054433135767196779 -0.0017330360052546668 0.10286895062395969 0.016484426368234412 -0.031783873870655323 0.12252820503949438
leaf_weight=21.646880127489567 406.70591978728771 287.65272890031338 61.775493532419205 16.849560610949993 57.181234836578369 41.429723083972931 140.67575062811375 171.15173377841711 120.7206277474761 5.1365937292575827 27.732269048690796 75.570894792675972 82.86519356071949 138.75626104325056
leaf_count=153 768 802 375 115 347 290 667 715 581 30 93 509 654 397
internal_value=0.0841822 0.0664192 0.0516 0.0726224 0.0241662 0.0549127 0.0473379 0.0630116 0.0423758 0.105509 0.0631337 0.00322686 -0.00880186 0.118111
internal_weight=1655.85 1249.14 961.492 543.424 418.069 354.949 197.857 313.519 142.368 188.475 44.5818 220.212 158.436 143.893
internal_count=6496 5728 4926 2374 2552 1739 1014 1449 734 635 208 1538 1163 427
is_linear=0
shrinkage=0.04


Tree=4
num_leaves=15
num_cat=0
split_feature=11 12 1 19 2 35 31 2 15 31 7 31 31 33
split_gain=952.264 428.872 348.371 210.843 160.807 73.8783 64.8477 70.4323 58.2806 53.1501 49.1847 48.7338 71.1358 46.3783
threshold=1.0000000180025095e-35 1.0000000180025095e-35 2.3775000000000004 1.0000000180025095e-35 0.06950000000000002 0.57650000000000012 0.21450000000000002 0.31100000000000005 0.62500000000000011 0.26550000000000007 0.37500000000000006 0.090500000000000011 0.18450000000000003 0.46000000000000008
decision_type=2 2 2 2 2 2 2 2 2 2 2 2 2 2
left_child=1 2 3 4 10 8 7 -6 -5 -4 -1 -10 -13 -8
right_child=-2 -3 9 5 6 -7 13 -9 11 -11 -12 12 -14 -15
leaf_value=-0.0084689315228775389 0.1263270474298254 0.10032886942280771 0.077834158973736065 0.083875053471595906 0.023007031498879317 0.010831983623775535 0.10173753900414158 0.11348665610542341 -0.044110542262822905 0.12572960251328541 0.084563687386362801 0.075076735692218108 -0.028891491634510002 0.002148459321772172
leaf_weight=245.01903796941042 447.8684418797493 300.14891019463539 170.43821147084236 156.07799118757248 181.4813539609313 39.585504218935966 37.541595682501793 14.016927987337111 9.0798735469579679 52.116558000445366 8.4445194005966169 45.5702905356884 13.017379045486448 9.338462829589842
leaf_count=1803 755 803 630 587 1018 207 133 40 61 107 39 172 79 53
internal_value=0.0761305 0.0585078 0.0456326 0.0326535 0.017231 0.0615186 0.0404552 0.0300388 0.0703981 0.0895623 -0.00504927 0.0385442 0.0518792 0.0823587
internal_weight=1729.75 1281.88 981.728 759.173 495.842 263.331 242.378 195.498 223.746 222.555 253.464 67.6675 58.5877 46.8801
internal_count=6487 5732 4929 4192 3086 1106 1244 1058 899 737 1842 312 251 186
is_linear=0
shrinkage=0.04


Tree=5
num_leaves=15
num_cat=0
split_feature=11 2 36 19 12 18 1 38 36 18 37 12 1 4
split_gain=679.122 339.814 176.193 158.165 158.984 128.27 87.4735 77.3935 73.505 61.2722 56.3632 52.6466 58.9446 41.5387
threshold=1.0000000180025095e-35 0.06950000000000002 0.45000000000000007 1.0000000180025095e-35 1.0000000180025095e-35 1.0000000180025095e-35 1.1979999999999997 0.44345000000000007 0.70833333333333348 1.0000000180025095e-35 0.91666666666666685 1.0000000180025095e-35 -0.32650000000000001 0.27600000000000008
decision_type=2 2 2 2 2 2 2 2 2 2 2 2 2 2
left_child=1 3 11 4 6 8 -1 -5 10 -8 -4 12 -3 -7
right_child=-2 2 5 7 -6 13 9 -9 -10 -11 -12 -13 -14 -15
leaf_value=-0.013177685012380516 0.11147429161725583 -0.014236746593935781 0.055058431228180806 0.08740372613472934 0.073765440014791933 0.095864090050861009 0.054085262117691116 0.010134978075618074 0.099102074153970043 -0.030661470726120896 0.095664948679768755 0.08343509624012381 0.042105182074949336 0.0069518007055175924
leaf_weight=201.08465132862329 470.34439489245415 35.439265921711922 163.38253620266914 83.070253759622574 56.721367165446281 9.2751560658216459 62.759079746901989 27.911721751093864 331.45966101437807 16.66057500243187 87.706713750958443 38.175665974617004 169.99905431270599 47.296764642000198
leaf_count=1508 770 223 654 277 172 32 319 145 844 129 254 99 792 270
internal_value=0.0701555 0.0554811 0.0698793 0.0270317 0.0133099 0.08093 0.000866486 0.0682348 0.0865124 0.036147 0.0695657 0.0406755 0.032364 0.0229412
internal_weight=1801.29 1330.94 882.735 448.208 337.226 639.121 280.504 110.982 582.549 79.4197 251.089 243.614 205.438 56.5719
internal_count=6488 5718 3168 2550 2128 2054 1956 422 1752 448 908 1114 1015 302
is_linear=0
shrinkage=0.04


end of trees

feature_importances:
Column_2=10
Column_36=9
Column_1=8
Column_12=6
Column_31=6
Column_11=5
Column_4=4
Column_19=4
Column_15=3
Column_18=3
Column_30=3
Column_34=3
Column_38=3
Column_3=2
Column_13=2
Column_37=2
Column_7=1
Column_8=1
Column_9=1
Column_17=1
Column_20=1
Column_22=1
Column_25=1
Column_32=1
Column_33=1
Column_35=1
Column_39=1

parameters:
[boosting: gbdt]
[objective: binary]
[metric: binary_logloss]
[tree_learner: serial]
[device_type: cpu]
[data_sample_strategy: bagging]
[data: ]
[valid: ]
[num_iterations: 400]
[learning_rate: 0.04]
[num_leaves: 15]
[num_threads: 0]
[seed: 0]
[deterministic: 0]
[force_col_wise: 0]
[force_row_wise: 0]
[histogram_pool_size: -1]
[max_depth: -1]
[min_data_in_leaf: 25]
[min_sum_hessian_in_leaf: 0.001]
[bagging_fraction: 0.85]
[pos_bagging_fraction: 1]
[neg_bagging_fraction: 1]
[bagging_freq: 1]
[bagging_seed: 3]
[bagging_by_query: 0]
[feature_fraction: 0.85]
[feature_fraction_bynode: 1]
[feature_fraction_seed: 2]
[extra_trees: 0]
[extra_seed: 6]
[early_stopping_round: 0]
[early_stopping_min_delta: 0]
[first_metric_only: 0]
[max_delta_step: 0]
[lambda_l1: 0]
[lambda_l2: 1]
[linear_lambda: 0]
[min_gain_to_split: 0]
[drop_rate: 0.1]
[max_drop: 50]
[skip_drop: 0.5]
[xgboost_dart_mode: 0]
[uniform_drop: 0]
[drop_seed: 4]
[top_rate: 0.2]
[other_rate: 0.1]
[min_data_per_group: 100]
[max_cat_threshold: 32]
[cat_l2: 10]
[cat_smooth: 10]
[max_cat_to_onehot: 4]
[top_k: 20]
[monotone_constraints: ]
[monotone_constraints_method: basic]
[monotone_penalty: 0]
[feature_contri: ]
[forcedsplits_filename: ]
[refit_decay_rate: 0.9]
[cegb_tradeoff: 1]
[cegb_penalty_split: 0]
[cegb_penalty_feature_lazy: ]
[cegb_penalty_feature_coupled: ]
[path_smooth: 0]
[interaction_constraints: ]
[verbosity: -1]
[saved_feature_importance_type: 0]
[use_quantized_grad: 0]
[num_grad_quant_bins: 4]
[quant_train_renew_leaf: 0]
[stochastic_rounding: 1]
[linear_tree: 0]
[max_bin: 255]
[max_bin_by_feature: ]
[min_data_in_bin: 3]
[bin_construct_sample_cnt: 200000]
[data_random_seed: 1]
[is_enable_sparse: 1]
[enable_bundle: 1]
[use_missing: 1]
[zero_as_missing: 0]
[feature_pre_filter: 1]
[pre_partition: 0]
[two_round: 0]
[header: 0]
[label_column: ]
[weight_column: ]
[group_column: ]
[ignore_column: ]
[categorical_feature: ]
[forcedbins_filename: ]
[precise_float_parser: 0]
[parser_config_file: ]
[objective_seed: 5]
[num_class: 1]
[is_unbalance: 0]
[scale_pos_weight: 6]
[sigmoid: 1]
[boost_from_average: 1]
[reg_sqrt: 0]
[alpha: 0.9]
[fair_c: 1]
[poisson_max_delta_step: 0.7]
[tweedie_variance_power: 1.5]
[lambdarank_truncation_level: 30]
[lambdarank_norm: 1]
[label_gain: ]
[lambdarank_position_bias_regularization: 0]
[eval_at: ]
[multi_error_top_k: 1]
[auc_mu_weights: ]
[num_machines: 1]
[local_listen_port: 12400]
[time_out: 120]
[machine_list_filename: ]
[machines: ]
[gpu_platform_id: -1]
[gpu_device_id: -1]
[gpu_device_id_list: ]
[gpu_use_dp: 0]
[num_gpu: 1]

end of parameters

pandas_categorical:null
