tree
version=v4
num_class=1
num_tree_per_iteration=1
label_index=0
max_feature_idx=44
objective=binary sigmoid:1
feature_names=Column_0 Column_1 Column_2 Column_3 Column_4 Column_5 Column_6 Column_7 Column_8 Column_9 Column_10 Column_11 Column_12 Column_13 Column_14 Column_15 Column_16 Column_17 Column_18 Column_19 Column_20 Column_21 Column_22 Column_23 Column_24 Column_25 Column_26 Column_27 Column_28 Column_29 Column_30 Column_31 Column_32 Column_33 Column_34 Column_35 Column_36 Column_37 Column_38 Column_39 Column_40 Column_41 Column_42 Column_43 Column_44
feature_infos=none [-3.0340000000000003:3.3719999999999999] [0:0.94099999999999995] [0:0.95299999999999996] [0:1] [0:1] [0:1] [0:1] [0:1] [0:1] [0:1] [0:1] [0:1] [0:1] [0:1] [0.25:1] [0:1] [0:1] [0:1] [-0.3666666666666667:1] [0:1] none [-1.05:1.1000000000000001] [-0.83333333333333337:0.53333333333333333] none [0:1] [0:1] [0:1] [0.14583333333333337:1] none [0:1] [0.010999999999999999:0.86799999999999999] [0.025000000000000001:0.97399999999999998] [0.062:1] [0.014:1] [0.028000000000000001:1] [0:1] [0:1] [0.15050000000000002:0.84949999999999992] [0:1] [0:1] [0:1] [0:1] [0:1] [0:1]
tree_sizes=1693 1717 1713 1728 1721 1709 1733 1738

Tree=0
num_leaves=15
num_cat=0
split_feature=11 12 2 1 19 4 31 3 37 13 4 4 34 22
split_gain=1468.61 954.318 340.548 105.73 105.308 83.7064 67.3008 58.0388 56.8202 54.7266 78.1247 79.7584 44.9139 40.3839
threshold=1.0000000180025095e-35 1.0000000180025095e-35 0.081500000000000017 -0.26150000000000012 1.0000000180025095e-35 0.20300000000000004 0.23650000000000002 0.18850000000000003 0.45000000000000007 1.0000000180025095e-35 0.56850000000000012 0.51500000000000012 0.29250000000000004 -0.57499999999999984
decision_type=2 2 2 2 2 2 2 2 2 2 2 2 2 2
left_child=1 2 4 12 6 -6 -1 -7 -3 10 11 13 -4 -5
right_child=-2 8 3 9 5 7 -8 -9 -10 -11 -12 -13 -14 -15
leaf_value=-1.8405167370478424 -1.6023587840960258 -1.7266614931820981 -1.7180260614550786 -1.8393308895382463 -1.8701432947282899 -1.6871525559079283 -1.7010464675162014 -1.8169457080445479 -1.6370660721079406 -1.6874199613733121 -1.8208382258033107 -1.6444668371182629 -1.8257230013356287 -1.7376775383127121
leaf_weight=137.44449666142464 148.53065294027328 17.046455353498459 6.9139469265937796 6.9139469265937796 7.6291828155517569 18.357721149921421 4.7682392597198477 7.9868007600307456 100.8482603430748 45.179066985845566 17.404073297977448 14.781541705131529 28.847847521305084 49.828100264072418
leaf_count=1053 396 88 33 53 64 79 20 57 341 199 126 49 212 273
internal_value=-1.71153 -1.74689 -1.78065 -1.74041 -1.81973 -1.75754 -1.83498 -1.72462 -1.64905 -1.72419 -1.74423 -1.72597 -1.80245 -1.75003
internal_weight=612.48 463.95 346.055 169.869 176.186 33.9737 142.213 26.3445 117.895 134.107 88.9277 71.5236 35.7618 56.742
internal_count=3043 2647 2218 945 1273 200 1073 136 429 700 501 375 245 326
is_linear=0
shrinkage=1


Tree=1
num_leaves=15
num_cat=0
split_feature=11 12 2 1 22 4 7 13 4 9 2 38 4 6
split_gain=926.884 640.116 260.492 116.171 79.3763 68.5796 63.8718 58.7501 73.8109 56.0488 57.3228 54.116 58.8896 52.584
threshold=1.0000000180025095e-35 1.0000000180025095e-35 0.12950000000000003 0.62000000000000044 -0.62499999999999989 0.57350000000000023 0.37500000000000006 1.0000000180025095e-35 0.56850000000000012 1.0000000180025095e-35 0.084000000000000019 0.4008500000000001 0.51500000000000012 0.12500000000000003
decision_type=2 2 2 2 2 2 2 2 2 2 2 2 2 2
left_child=1 2 3 4 13 -3 -5 8 11 -2 -11 -4 -13 -1
right_child=9 5 7 6 -6 -7 -8 -9 -10 10 -12 12 -14 -15
leaf_value=0.10272035499422209 0.19590729391095757 0.17016650038083081 0.13560519174230862 0.038819698218873148 -0.020994438060843085 0.093716874492495106 0.1094504544265299 0.13414759700636764 -0.0096849051169836369 -0.00023560191524728453 0.15026077881199476 0.021652604202115028 0.13531614108031159 -0.0065512423090315795
leaf_weight=15.377762608230116 152.66216713190079 103.87778852880001 26.847822666168213 103.40855710953474 85.664925411343575 28.194193944334984 25.371921040117741 48.201924629509449 13.310225360095499 5.0236176848411587 19.815381646156311 24.205657176673412 9.7577233836054784 12.167890869081019
leaf_count=76 314 294 106 661 672 124 115 185 101 31 57 159 33 91
internal_value=0.107823 0.0794921 0.0518885 0.0276393 -0.00195619 0.154673 0.0534713 0.0992472 0.0750675 0.18616 0.120992 0.0934745 0.0572445 0.0559127
internal_weight=673.888 496.386 364.314 241.991 113.211 132.072 128.78 122.323 74.1214 177.501 24.839 60.8112 33.9634 27.5457
internal_count=3019 2617 2199 1615 839 418 776 584 399 402 88 298 192 167
is_linear=0
shrinkage=0.04


Tree=2
num_leaves=15
num_cat=0
split_feature=11 12 8 35 1 1 22 6 4 36 35 37 4 4
split_gain=745.524 450.858 202.035 126.251 114.304 64.4335 48.9782 55.8487 35.7555 47.4089 39.4145 35.2529 40.3263 34.3935
threshold=1.0000000180025095e-35 1.0000000180025095e-35 1.0000000180025095e-35 0.41800000000000004 0.95799999999999985 -0.3034999999999996 -0.62499999999999989 0.12500000000000003 0.24600000000000002 0.45000000000000007 0.46100000000000008 0.45000000000000007 0.41750000000000004 0.39150000000000007
decision_type=2 2 2 2 2 2 2 2 2 2 2 2 2 2
left_child=1 2 3 6 -5 -4 7 -1 9 -7 -10 12 -3 -2
right_child=13 11 5 4 -6 8 -8 -9 10 -11 -12 -13 -14 -15
leaf_value=0.10608943446119691 0.0881707008258477 0.12336436864274256 -0.002078874472281075 0.0087117689953647177 0.093963365386842967 -0.040575212972483586 -0.0051837977574832458 -0.018425450218452894 0.13722877082545556 0.10993924362076156 0.075404375704421378 0.13524693600138585 0.0055795853281234917 0.16148393466996552
leaf_weight=13.390683807432653 15.058518409729002 9.0607786625623721 10.729078017175196 43.027057081460953 60.375269748270512 6.2256189063191396 150.35266725718975 9.1827265471219999 43.342507861554623 5.3909974098205566 34.42176079750061 117.76738572120667 8.8334821313619596 182.18528319895267
leaf_count=58 53 28 75 297 274 49 1098 71 147 20 162 328 53 354
internal_value=0.0903822 0.0647147 0.0419834 0.0241774 0.0589123 0.0904073 0.00318812 0.0568046 0.101409 0.0324525 0.111167 0.127021 0.0685927 0.15636
internal_weight=709.344 512.1 376.438 276.328 103.402 100.11 172.926 22.5734 89.3809 11.6166 77.7643 135.662 17.8943 197.244
internal_count=3067 2660 2251 1798 571 453 1227 129 378 69 309 409 81 407
is_linear=0
shrinkage=0.04


Tree=3
num_leaves=15
num_cat=0
split_feature=2 11 12 19 12 1 33 3 5 22 32 26 22 36
split_gain=561.537 178.089 139.861 149.073 101.758 69.5887 59.4015 54.6209 38.5773 37.7341 34.4191 32.554 31.9436 31.0092
threshold=0.081500000000000017 1.0000000180025095e-35 1.0000000180025095e-35 1.0000000180025095e-35 1.0000000180025095e-35 -0.3034999999999996 0.46550000000000008 0.081500000000000017 0.29166666666666669 -0.37499999999999994 0.46050000000000008 0.10833333333333335 0.32500000000000001 0.18333333333333332
decision_type=2 2 2 2 2 2 2 2 2 2 2 2 2 2
left_child=2 4 3 6 5 -2 10 -5 -8 -9 -1 -11 -12 -7
right_child=1 -3 -4 7 -6 13 8 9 -10 11 12 -13 -14 -15
leaf_value=-0.021269754007483474 0.011629730938773187 0.13825388510275022 0.10174382435748784 -0.0020226947343224338 0.11872605500057415 0.045936167815973018 0.072238551853978081 0.12368671706618617 -0.03952250690822684 0.08757152337085905 -0.040315723162829664 -0.039573139081351995 0.065627743615485942 0.089239710164624717
leaf_weight=105.12783654779196 28.475411385297775 189.0741573125124 38.796364814043045 10.624794237315653 111.59097993373871 37.766948744654655 23.557488977909092 28.492941275238987 5.499086156487464 6.4398356452584284 5.7020949423313168 4.8915279060602188 14.263133652508257 128.36261755973101
leaf_count=817 192 345 114 72 300 196 129 90 45 28 44 37 74 532
internal_value=0.0830064 0.107429 0.0330739 0.019621 0.0880069 0.0698749 -5.60136e-05 0.0785775 0.0504761 0.0996038 -0.0121008 0.0339274 0.0348904 0.0797291
internal_weight=738.665 495.27 243.395 204.599 306.196 194.605 154.15 50.4491 29.0566 39.8243 125.093 11.3314 19.9652 166.13
internal_count=3015 1565 1450 1336 1220 920 1109 227 174 155 935 65 118 728
is_linear=0
shrinkage=0.04


Tree=4
num_leaves=15
num_cat=0
split_feature=11 12 4 1 8 2 30 2 1 36 37 34 34 22
split_gain=524.111 338.732 131.088 105.08 68.3287 60.8111 52.3719 47.339 45.2835 39.3766 30.8182 46.7459 44.5506 30.3007
threshold=1.0000000180025095e-35 1.0000000180025095e-35 0.19700000000000004 -0.26150000000000012 1.0000000180025095e-35 0.032500000000000008 0.30217391304347835 0.22850000000000001 1.2460000000000002 0.29166666666666674 0.63333333333333341 0.51150000000000018 0.5375000000000002 0.4250000000000001
decision_type=2 2 2 2 2 2 2 2 2 2 2 2 2 2
left_child=1 2 -1 -4 5 -5 8 -6 -7 13 12 -12 -11 -8
right_child=-2 -3 3 4 7 6 9 -9 -10 10 11 -13 -14 -15
leaf_value=-0.018686173536229721 0.12659094975114552 0.10379989376352221 0.0035947914574087025 -0.016362104492812848 0.10064763748380239 -0.04448855783714354 -0.016274249312290618 0.026948891164420518 0.059776353788967986 0.030813395057111059 0.11758095212785623 -0.0053813632135602659 0.12172027352620704 0.070547409743228678
leaf_weight=60.979003809392452 235.93419839441776 161.69148601591587 76.102044060826302 24.224561661481857 69.672698616981506 14.795206606388094 15.758447870612146 18.496642723679543 10.529702462255953 39.061359107494354 35.450660668313503 5.624833069741725 10.521161444485186 9.545601584017275
leaf_count=473 397 414 538 182 234 113 107 91 49 214 127 33 30 46
internal_value=0.0767311 0.0552474 0.0349434 0.0448864 0.0572108 0.041631 0.0516194 0.0856623 -0.000512913 0.0629116 0.0751384 0.101015 0.0521284 0.0179149
internal_weight=788.388 552.453 390.762 329.783 253.681 165.512 141.287 88.1693 25.3249 115.962 90.658 41.0755 49.5825 25.304
internal_count=3048 2651 2237 1764 1226 901 719 325 162 557 404 160 244 153
is_linear=0
shrinkage=0.04


Tree=5
num_leaves=15
num_cat=0
split_feature=3 12 18 11 1 3 38 3 31 5 35 36 1 37
split_gain=349.368 132.483 88.4308 74.15 61.7852 44.8338 40.1851 38.5954 34.4305 45.1136 33.4233 33.4178 50.5843 35.4137
threshold=0.28950000000000004 1.0000000180025095e-35 1.0000000180025095e-35 1.0000000180025095e-35 0.62000000000000044 0.17600000000000002 0.6160000000000001 0.046000000000000006 0.11950000000000001 0.37500000000000006 0.43050000000000005 0.29166666666666674 2.177 0.63333333333333341
decision_type=2 2 2 2 2 2 2 2 2 2 2 2 2 2
left_child=1 2 4 -2 7 -4 -7 -1 -9 10 -10 12 -6 -13
right_child=3 -3 5 -5 11 6 -8 8 9 -11 -12 13 -14 -15
leaf_value=-0.03223604854055194 0.07951980079006081 0.091355634815741327 -0.038922532232711603 0.11303484546121167 -4.585210170250151e-05 -0.041451861597722017 0.072477219946454591 -0.019186185242521261 0.067595955104122502 -0.041615096758423072 -0.016811526557377134 0.046407883725974798 0.10533231572484437 0.094252877416287378
leaf_weight=19.215547427535057 242.55336574465036 72.642170667648315 37.197681486606598 212.26219041645527 29.852549880743027 6.7809490859508541 13.289745815098284 17.717899039387703 49.013795010745525 8.1364102661609632 8.4181535467505437 54.81818500161171 8.6423004791140539 50.8446981087327
leaf_count=158 831 177 309 329 187 52 59 131 240 67 62 268 29 170
internal_value=0.0717816 0.0431087 0.0313154 0.0953749 0.0416804 -0.0132766 0.0338454 0.0176943 0.0294598 0.0426957 0.0551479 0.058496 0.0256801 0.0700986
internal_weight=831.386 376.57 303.928 454.816 246.66 57.2684 20.0707 102.502 83.2863 65.5684 57.4319 144.158 38.4949 105.663
internal_count=3069 1909 1732 1160 1312 420 111 658 500 369 302 654 216 438
is_linear=0
shrinkage=0.04


Tree=6
num_leaves=15
num_cat=0
split_feature=2 11 9 31 31 33 23 30 7 34 22 5 22 1
split_gain=371.448 119.841 101.88 47.4168 42.0133 41.1977 40.2307 38.8412 42.3874 42.0233 35.6906 35.8304 31.7171 29.5488
threshold=0.081500000000000017 1.0000000180025095e-35 1.0000000180025095e-35 0.093500000000000014 0.053500000000000006 0.38800000000000007 -0.38333333333333325 0.42261904761904767 0.20833333333333334 0.44950000000000007 0.52500000000000013 1.0000000180025095e-35 -0.3249999999999999 -2.1074999999999995
decision_type=2 2 2 2 2 2 2 2 2 2 2 2 2 2
left_child=2 6 7 4 10 -6 -2 8 -1 -9 -4 -12 -10 -8
right_child=1 -3 3 -5 5 -7 13 9 12 -11 11 -13 -14 -15
leaf_value=-0.020639648193681102 -0.0056953244450269657 0.10683462004986499 -0.044736164426298144 -0.013943084249052873 0.0068403947727408345 0.099827725875034953 0.019242014157486258 0.081719022083278289 0.091259208898499602 -0.016341490398705326 -0.038462584439521622 0.091835045663991727 -0.011317326547650917 0.074744568206934134
leaf_weight=18.815301425755024 10.807025797665117 240.1562659740448 14.782090574502947 85.956376314163208 12.763388760387899 18.523556016385555 16.938190504908562 68.163277313113213 14.634827159345152 7.4426455348730078 4.7305912971496564 7.8705595210194588 6.681623362004756 336.22572027891874
leaf_count=141 57 339 115 615 77 63 85 241 49 42 40 31 43 1123
internal_value=0.0674892 0.0846889 0.0274092 0.00493649 0.0323666 0.0632807 0.069824 0.0552084 0.0226323 0.0719786 -0.00393948 0.0436886 0.0600403 0.0721444
internal_weight=864.491 604.127 260.364 144.627 58.6702 31.2869 363.971 115.738 40.1318 75.6059 27.3832 12.6012 21.3165 353.164
internal_count=3061 1604 1457 941 326 140 1265 516 233 283 186 71 92 1208
is_linear=0
shrinkage=0.04


Tree=7
num_leaves=15
num_cat=0
split_feature=2 11 20 12 12 33 31 5 28 36 31 34 32 31
split_gain=298.264 106.2 86.6691 80.9388 73.4214 70.1236 35.3982 34.6849 33.8442 29.9253 44.2498 49.3578 34.6737 49.4895
threshold=0.06950000000000002 1.0000000180025095e-35 1.0000000180025095e-35 1.0000000180025095e-35 1.0000000180025095e-35 0.45650000000000007 0.08950000000000001 0.29166666666666669 0.55208333333333337 0.45000000000000007 0.20750000000000002 0.34850000000000003 0.29450000000000004 0.13650000000000004
decision_type=2 2 2 2 2 2 2 2 2 2 2 2 2 2
left_child=2 3 4 9 5 6 8 -7 -1 12 11 -11 -2 -14
right_child=1 -3 -4 -5 -6 7 -8 -9 -10 10 -12 -13 13 -15
leaf_value=-0.029211491990885241 -0.043736350742498271 0.096495970542557541 0.063306841805695346 0.086841691576245189 0.064490904256269882 0.064851198625792264 -0.031226550356119712 -0.039756164328559634 0.045960359688647118 0.084374297484211089 0.091430791030032307 0.02616532224509235 0.065036854425209109 0.00050632371978544494
leaf_weight=15.363004796206949 8.6552304327487928 251.81754784286022 66.296742051839828 140.14291480183601 31.763033643364906 29.091406159102917 79.862291052937508 5.3959456533193579 22.366070590913296 33.25896167755127 46.290123403072357 77.810500048100948 43.135147087275982 33.437195770442486
leaf_count=124 60 351 240 301 84 139 642 43 118 117 126 356 169 182
internal_value=0.0615752 0.0761469 0.0244539 0.0625416 0.0101762 -0.00151517 -0.016267 0.0478251 0.015387 0.0482046 0.0585784 0.0441929 0.0285937 0.0372278
internal_weight=884.686 634.548 250.138 382.73 183.842 152.079 117.591 34.4874 37.7291 242.587 157.36 111.069 85.2276 76.5723
internal_count=3052 1662 1390 1311 1150 1066 884 182 242 1010 599 473 411 351
is_linear=0
shrinkage=0.04


end of trees

feature_importances:
Column_1=10
Column_4=10
Column_12=9
Column_2=8
Column_11=8
Column_22=8
Column_31=7
Column_3=5
Column_34=5
Column_36=5
Column_5=4
Column_37=4
Column_33=3
Column_35=3
Column_6=2
Column_7=2
Column_8=2
Column_9=2
Column_13=2
Column_19=2
Column_30=2
Column_32=2
Column_38=2
Column_18=1
Column_20=1
Column_23=1
Column_26=1
Column_28=1

parameters:
[boosting: gbdt]
[objective: binary]
[metric: binary_logloss]
[tree_learner: serial]
[device_type: cpu]
[data_sample_strategy: bagging]
[data: ]
[valid: ]
[num_iterations: 400]
[learning_rate: 0.04]
[num_leaves: 15]
[num_threads: 0]
[seed: 0]
[deterministic: 0]
[force_col_wise: 0]
[force_row_wise: 0]
[histogram_pool_size: -1]
[max_depth: -1]
[min_data_in_leaf: 25]
[min_sum_hessian_in_leaf: 0.001]
[bagging_fraction: 0.85]
[pos_bagging_fraction: 1]
[neg_bagging_fraction: 1]
[bagging_freq: 1]
[bagging_seed: 3]
[bagging_by_query: 0]
[feature_fraction: 0.85]
[feature_fraction_bynode: 1]
[feature_fraction_seed: 2]
[extra_trees: 0]
[extra_seed: 6]
[early_stopping_round: 0]
[early_stopping_min_delta: 0]
[first_metric_only: 0]
[max_delta_step: 0]
[lambda_l1: 0]
[lambda_l2: 1]
[linear_lambda: 0]
[min_gain_to_split: 0]
[drop_rate: 0.1]
[max_drop: 50]
[skip_drop: 0.5]
[xgboost_dart_mode: 0]
[uniform_drop: 0]
[drop_seed: 4]
[top_rate: 0.2]
[other_rate: 0.1]
[min_data_per_group: 100]
[max_cat_threshold: 32]
[cat_l2: 10]
[cat_smooth: 10]
[max_cat_to_onehot: 4]
[top_k: 20]
[monotone_constraints: ]
[monotone_constraints_method: basic]
[monotone_penalty: 0]
[feature_contri: ]
[forcedsplits_filename: ]
[refit_decay_rate: 0.9]
[cegb_tradeoff: 1]
[cegb_penalty_split: 0]
[cegb_penalty_feature_lazy: ]
[cegb_penalty_feature_coupled: ]
[path_smooth: 0]
[interaction_constraints: ]
[verbosity: -1]
[saved_feature_importance_type: 0]
[use_quantized_grad: 0]
[num_grad_quant_bins: 4]
[quant_train_renew_leaf: 0]
[stochastic_rounding: 1]
[linear_tree: 0]
[max_bin: 255]
[max_bin_by_feature: ]
[min_data_in_bin: 3]
[bin_construct_sample_cnt: 200000]
[data_random_seed: 1]
[is_enable_sparse: 1]
[enable_bundle: 1]
[use_missing: 1]
[zero_as_missing: 0]
[feature_pre_filter: 1]
[pre_partition: 0]
[two_round: 0]
[header: 0]
[label_column: ]
[weight_column: ]
[group_column: ]
[ignore_column: ]
[categorical_feature: ]
[forcedbins_filename: ]
[precise_float_parser: 0]
[parser_config_file: ]
[objective_seed: 5]
[num_class: 1]
[is_unbalance: 0]
[scale_pos_weight: 6]
[sigmoid: 1]
[boost_from_average: 1]
[reg_sqrt: 0]
[alpha: 0.9]
[fair_c: 1]
[poisson_max_delta_step: 0.7]
[tweedie_variance_power: 1.5]
[lambdarank_truncation_level: 30]
[lambdarank_norm: 1]
[label_gain: ]
[lambdarank_position_bias_regularization: 0]
[eval_at: ]
[multi_error_top_k: 1]
[auc_mu_weights: ]
[num_machines: 1]
[local_listen_port: 12400]
[time_out: 120]
[machine_list_filename: ]
[machines: ]
[gpu_platform_id: -1]
[gpu_device_id: -1]
[gpu_use_dp: 0]
[num_gpu: 1]

end of parameters

pandas_categorical:null
