tree
version=v4
num_class=1
num_tree_per_iteration=1
label_index=0
max_feature_idx=44
objective=binary sigmoid:1
feature_names=Column_0 Column_1 Column_2 Column_3 Column_4 Column_5 Column_6 Column_7 Column_8 Column_9 Column_10 Column_11 Column_12 Column_13 Column_14 Column_15 Column_16 Column_17 Column_18 Column_19 Column_20 Column_21 Column_22 Column_23 Column_24 Column_25 Column_26 Column_27 Column_28 Column_29 Column_30 Column_31 Column_32 Column_33 Column_34 Column_35 Column_36 Column_37 Column_38 Column_39 Column_40 Column_41 Column_42 Column_43 Column_44
feature_infos=none [-7.4000000000000004:4.4329999999999998] [0:0.94099999999999995] [0:1] [0:1] [0:1] [0:1] [0:1] [0:1] [0:1] [0:1] [0:1] [0:1] [0:1] [0:1] [0.25:1] [0:1] [0:1] [0:1] [-0.3666666666666667:1] [0:1] none [-1.05:1.1499999999999999] [-1:0.66666666666666663] [-0.90000000000000002:0.66666666666666663] [0:1] [0:1] [0:1] [0.0625:1] [0.45000000000000001:1] [0:1] [0.010999999999999999:1] [0.010999999999999999:1] [0.048000000000000001:1] [0.014:1] [0.028000000000000001:1] [0:1] [0:1] [0:1] [0:1] [0:1] [0:1] [0:1] [0:1] [0:1]
tree_sizes=1702 1720 1723 1736 1730 1742

Tree=0
num_leaves=15
num_cat=0
split_feature=11 12 1 8 2 13 36 13 34 2 30 4 19 23
split_gain=2712.45 1322.79 740.139 507.72 325.186 133.919 130.506 72.2903 72.6806 71.0131 65.4769 64.2864 62.0637 51.5589
threshold=1.0000000180025095e-35 1.0000000180025095e-35 2.5805000000000002 1.0000000180025095e-35 0.086500000000000007 1.0000000180025095e-35 0.45000000000000007 1.0000000180025095e-35 0.25150000000000006 0.32150000000000006 0.23904761904761906 0.63450000000000017 1.0000000180025095e-35 -0.34999999999999992
decision_type=2 2 2 2 2 2 2 2 2 2 2 2 2 2
left_child=1 2 3 4 7 11 9 -1 -9 -6 -4 -5 -10 -3
right_child=-2 13 10 5 6 -7 -8 8 12 -11 -12 -13 -14 -15
leaf_value=-1.8087857643219103 -1.5805538244351789 -1.7511922727466189 -1.7560022052941302 -1.7144058872741619 -1.7991300392900518 -1.6466347558803625 -1.7150186662162243 -1.6805630717898752 -1.8119154331642657 -1.6860938556218625 -1.6407628130808374 -1.8227183420160882 -1.6833340488515767 -1.6281641073442668
leaf_weight=272.40028604865074 300.79301074147224 6.6735036671161643 9.5855779945850355 124.00583177804947 59.940196573734283 55.572085082530975 142.20629632472992 13.347007334232329 30.819453299045563 9.4642415642738325 113.3282259106636 9.1002322733402234 6.4308308064937583 223.13769534230232
leaf_count=2005 779 40 59 667 429 218 767 60 229 43 434 70 28 799
internal_value=-1.68662 -1.71645 -1.73971 -1.75526 -1.77528 -1.69901 -1.73686 -1.80058 -1.75716 -1.78225 -1.64929 -1.72189 -1.78713 -1.63149
internal_weight=1376.8 1076.01 846.2 723.286 534.608 188.678 211.611 322.998 50.5973 69.4044 122.914 133.106 37.2503 229.811
internal_count=6627 5848 5009 4516 3561 955 1239 2322 317 472 493 737 257 839
is_linear=0
shrinkage=1


Tree=1
num_leaves=15
num_cat=0
split_feature=2 20 1 2 18 37 31 3 37 37 18 30 30 22
split_gain=1332.4 357.401 345.059 252.718 177.314 135.39 115.117 86.6458 77.7957 74.912 77.3853 76.3323 68.8448 64.3853
threshold=0.12950000000000003 1.0000000180025095e-35 1.0615000000000003 0.39600000000000007 1.0000000180025095e-35 0.77500000000000013 0.12350000000000001 0.44050000000000006 0.63333333333333341 0.63333333333333341 1.0000000180025095e-35 0.73746867167919816 0.27922077922077926 0.52500000000000013
decision_type=2 2 2 2 2 2 2 2 2 2 2 2 2 2
left_child=1 2 6 4 5 13 12 -6 -8 -4 -11 -12 -1 -2
right_child=3 -3 9 -5 7 -7 8 -9 -10 10 11 -13 -14 -15
leaf_value=-0.020487980482889624 0.11996289557188079 0.11403327390205331 0.064278778836311765 0.18602077070836714 -0.0055229883712640876 0.15742799598653284 0.025778771576835908 0.13018196503405072 0.11801810594971622 0.12779649103840932 -0.012861843310686429 0.14073221664046495 0.024728502310693873 0.025918373894510002
leaf_weight=74.080236203968525 300.04370131343603 188.06172572076321 115.6860593482852 168.38378424197435 23.206057965755463 245.97324606031179 29.265756160020828 10.088690087199209 29.754265762865543 89.611924834549427 14.516660250723364 6.9221930503845206 190.65827520936728 12.772489145398138
leaf_count=565 1190 793 630 384 161 749 184 38 122 345 107 25 1242 79
internal_value=0.104889 0.0664802 0.0500577 0.142055 0.129259 0.134607 0.0234357 0.0381941 0.0734717 0.0878016 0.111514 0.0407924 0.0120464 0.116218
internal_weight=1499.03 738.557 550.495 760.468 592.084 558.789 323.759 33.2947 59.02 226.737 111.051 21.4389 264.739 312.816
internal_count=6614 4013 3220 2601 2217 2018 2113 199 306 1107 477 132 1807 1269
is_linear=0
shrinkage=0.04


Tree=2
num_leaves=15
num_cat=0
split_feature=11 12 1 8 2 36 32 25 28 38 32 1 3 36
split_gain=1606.7 686.223 484.166 262.321 184.976 111.585 77.8022 49.2528 74.8029 48.8272 70.8503 44.3299 41.8817 60.2477
threshold=1.0000000180025095e-35 1.0000000180025095e-35 2.519000000000001 1.0000000180025095e-35 0.072000000000000008 0.45000000000000007 0.54550000000000021 0.29000000000000009 0.76041666666666674 0.43055000000000004 0.68100000000000016 0.95349999999999979 0.35250000000000009 0.70833333333333348
decision_type=2 2 2 2 2 2 2 2 2 2 2 2 2 2
left_child=1 2 3 4 -1 9 12 8 -7 -6 -11 -9 -4 -14
right_child=-2 -3 6 -5 5 7 -8 11 -10 10 -12 -13 13 -15
leaf_value=0.00059020907570321828 0.1602559971541356 0.12402223400830786 0.10522786299566836 0.075003402663979118 0.057416979350807938 0.029668022876368449 0.15348835931093649 0.044712719726311273 0.10697171051296359 -0.019715249161886977 0.12678300132404402 0.11627758529357805 -0.043236051998881475 0.086786603276294991
leaf_weight=288.29155556112528 391.5736373513937 261.73451263457537 85.214521735906601 213.53651386499405 24.623644456267357 86.571929603815079 53.802725479006767 22.878484688699245 25.615676529705524 61.732311464846134 4.7706711515784255 43.138402432203293 8.0115552991628647 15.297554478049278
leaf_count=2028 802 828 319 956 132 507 133 124 98 442 15 163 55 59
internal_value=0.0899857 0.0668493 0.0507033 0.0373925 0.0228813 0.0466512 0.113322 0.0649827 0.0481078 0.0104864 -0.00748352 0.0925137 0.0921897 0.0421564
internal_weight=1586.79 1195.22 933.486 771.159 557.623 269.331 162.326 178.204 112.188 91.1266 66.503 66.0169 108.524 23.3091
internal_count=6661 5859 5031 4465 3509 1481 566 892 605 589 457 287 433 114
is_linear=0
shrinkage=0.04


Tree=3
num_leaves=15
num_cat=0
split_feature=11 12 2 19 2 36 36 32 36 34 31 31 7 32
split_gain=1030.17 591.408 330.154 214.119 133.075 86.1423 81.1716 60.5426 59.7834 98.6651 48.8522 48.1935 59.2827 44.3826
threshold=1.0000000180025095e-35 1.0000000180025095e-35 0.16900000000000001 1.0000000180025095e-35 0.06950000000000002 0.45000000000000007 0.45000000000000007 0.44050000000000006 0.91666666666666685 0.55150000000000021 0.27200000000000008 0.11850000000000001 0.37500000000000006 0.58350000000000002
decision_type=2 2 2 2 2 2 2 2 2 2 2 2 2 2
left_child=1 2 3 4 7 -6 -4 11 9 -5 13 -1 -13 -8
right_child=-2 -3 6 8 5 -7 10 -9 -10 -11 -12 12 -14 -15
leaf_value=0.018470178460278631 0.13837521088431218 0.11564638597379906 0.055302531241817929 0.06904394546141196 0.0075705448579354608 0.062678187730368456 0.093879877013827995 0.041778003581269978 0.11422545075233281 -0.045105622266161216 0.13693478908967183 -0.024101317184594462 0.094617451722173576 -0.010953701090861575
leaf_weight=91.316734828054905 417.02073034644127 293.44928824901581 89.455819755792618 140.26713740825653 65.193325072526932 150.68369140475988 130.23975391685963 55.955871112644672 41.909052610397339 12.57459534704685 51.933889910578728 138.48541403561831 6.0976456999778739 6.5884319543838492
leaf_count=598 791 824 419 628 420 710 474 320 133 86 123 1053 27 39
internal_value=0.0838152 0.0658636 0.0508648 0.0361706 0.0224141 0.0461477 0.0877042 0.00476135 0.0717374 0.0594205 0.102687 -0.00415836 -0.0184789 0.0887892
internal_weight=1691.17 1274.15 980.701 702.483 507.733 215.877 278.218 291.856 194.751 152.842 188.762 235.9 144.583 136.828
internal_count=6645 5854 5030 3975 3128 1130 1055 1998 847 714 636 1678 1080 513
is_linear=0
shrinkage=0.04


Tree=4
num_leaves=15
num_cat=0
split_feature=11 12 1 19 2 35 2 31 31 15 31 31 33 7
split_gain=1000.79 473.55 347.33 198.877 159.931 76.2521 70.8963 65.8358 52.7144 49.2753 51.7953 73.775 48.2249 43.7711
threshold=1.0000000180025095e-35 1.0000000180025095e-35 2.4410000000000007 1.0000000180025095e-35 0.06950000000000002 0.57650000000000012 0.31100000000000005 0.21450000000000002 0.26550000000000007 0.62500000000000011 0.090500000000000011 0.18450000000000003 0.44600000000000006 0.37500000000000006
decision_type=2 2 2 2 2 2 2 2 2 2 2 2 2 2
left_child=1 2 3 4 13 9 7 -6 -4 -5 -11 -12 -9 -1
right_child=-2 -3 8 5 6 -7 -8 12 -10 10 11 -13 -14 -15
leaf_value=-0.0072514340305993184 0.12683897288262894 0.10143654280816085 0.077887991700221967 0.081391781901794108 0.022878518302227657 0.0093621656580298827 0.10158564552917114 0.10063377859115724 0.12633903211813408 -0.044308510627212402 0.076646232110145512 -0.028812151471630687 -0.012914748487994477 0.078706034819279416
leaf_weight=255.00504771620035 457.33185744285583 305.95983295142651 153.49902625381947 159.13558992743492 188.63734805583954 40.620410189032555 26.267762169241905 31.401812382042408 51.914599105715752 9.2960464954376203 46.94147039949894 13.053769633173941 7.0810392051935187 8.8453658521175367
leaf_count=1848 769 819 569 610 1065 214 81 111 105 62 178 80 44 39
internal_value=0.0759744 0.0579644 0.0444637 0.0322885 0.0177206 0.0601257 0.0403517 0.0328554 0.0906859 0.0690727 0.040025 0.0536044 0.0799424 -0.00408349
internal_weight=1754.99 1297.66 991.699 786.286 517.238 269.047 253.388 227.12 205.414 228.427 69.2913 59.9952 38.4829 263.85
internal_count=6594 5825 5006 4332 3188 1144 1301 1220 674 930 320 258 155 1887
is_linear=0
shrinkage=0.04


Tree=5
num_leaves=15
num_cat=0
split_feature=11 12 1 31 19 2 18 36 5 6 33 23 30 2
split_gain=697.097 347.867 314.596 166.022 159.89 139.677 84.6879 83.6348 69.1752 67.2115 57.6858 39.3303 37.5296 36.3093
threshold=1.0000000180025095e-35 1.0000000180025095e-35 0.98849999999999993 0.24450000000000002 1.0000000180025095e-35 0.15650000000000003 1.0000000180025095e-35 0.45000000000000007 1.0000000180025095e-35 0.12500000000000003 0.7350000000000001 -0.34999999999999992 0.30217391304347835 0.085500000000000007
decision_type=2 2 2 2 2 2 2 2 2 2 2 2 2 2
left_child=1 2 4 6 5 12 7 8 -4 -6 -9 -3 -1 -8
right_child=-2 11 3 -5 9 -7 13 10 -10 -11 -12 -13 -14 -15
leaf_value=-0.029417756161420758 0.11180913079866496 0.014852069432522499 0.081010228678025528 0.10260546007462695 0.097381714472668718 0.066475630228916172 -0.027338706443139779 0.074741464548820899 0.0092739740089190226 0.037101980916024159 -0.043128425940567178 0.094246146450702853 0.0026419293136789711 0.033575569603212813
leaf_weight=84.697611823678017 482.41663956642151 10.730788633227347 28.855094246566296 138.01996353268623 40.055612251162529 47.051408350467682 25.466654978692532 249.43120853602886 78.066261507570744 115.64420434832573 6.2140720635652533 316.7691997140646 183.10526163130999 37.458893984556198
leaf_count=660 788 49 112 366 127 193 188 928 433 529 39 783 1244 191
internal_value=0.0704878 0.0557759 0.0443214 0.0644631 0.0201152 0.00367134 0.051879 0.0592967 0.0292048 0.0531321 0.0717195 0.0916979 -0.00756926 0.00888088
internal_weight=1843.98 1361.57 1034.07 563.512 470.554 314.854 425.492 362.567 106.921 155.7 255.645 327.5 267.803 62.9255
internal_count=6630 5842 5010 2257 2753 2097 1891 1512 545 656 967 832 1904 379
is_linear=0
shrinkage=0.04


end of trees

feature_importances:
Column_2=11
Column_31=8
Column_36=7
Column_1=6
Column_11=5
Column_12=5
Column_19=4
Column_30=4
Column_32=4
Column_18=3
Column_37=3
Column_3=2
Column_7=2
Column_8=2
Column_13=2
Column_23=2
Column_33=2
Column_34=2
Column_4=1
Column_5=1
Column_6=1
Column_15=1
Column_20=1
Column_22=1
Column_25=1
Column_28=1
Column_35=1
Column_38=1

parameters:
[boosting: gbdt]
[objective: binary]
[metric: binary_logloss]
[tree_learner: serial]
[device_type: cpu]
[data_sample_strategy: bagging]
[data: ]
[valid: ]
[num_iterations: 400]
[learning_rate: 0.04]
[num_leaves: 15]
[num_threads: 0]
[seed: 0]
[deterministic: 0]
[force_col_wise: 0]
[force_row_wise: 0]
[histogram_pool_size: -1]
[max_depth: -1]
[min_data_in_leaf: 25]
[min_sum_hessian_in_leaf: 0.001]
[bagging_fraction: 0.85]
[pos_bagging_fraction: 1]
[neg_bagging_fraction: 1]
[bagging_freq: 1]
[bagging_seed: 3]
[bagging_by_query: 0]
[feature_fraction: 0.85]
[feature_fraction_bynode: 1]
[feature_fraction_seed: 2]
[extra_trees: 0]
[extra_seed: 6]
[early_stopping_round: 0]
[early_stopping_min_delta: 0]
[first_metric_only: 0]
[max_delta_step: 0]
[lambda_l1: 0]
[lambda_l2: 1]
[linear_lambda: 0]
[min_gain_to_split: 0]
[drop_rate: 0.1]
[max_drop: 50]
[skip_drop: 0.5]
[xgboost_dart_mode: 0]
[uniform_drop: 0]
[drop_seed: 4]
[top_rate: 0.2]
[other_rate: 0.1]
[min_data_per_group: 100]
[max_cat_threshold: 32]
[cat_l2: 10]
[cat_smooth: 10]
[max_cat_to_onehot: 4]
[top_k: 20]
[monotone_constraints: ]
[monotone_constraints_method: basic]
[monotone_penalty: 0]
[feature_contri: ]
[forcedsplits_filename: ]
[refit_decay_rate: 0.9]
[cegb_tradeoff: 1]
[cegb_penalty_split: 0]
[cegb_penalty_feature_lazy: ]
[cegb_penalty_feature_coupled: ]
[path_smooth: 0]
[interaction_constraints: ]
[verbosity: -1]
[saved_feature_importance_type: 0]
[use_quantized_grad: 0]
[num_grad_quant_bins: 4]
[quant_train_renew_leaf: 0]
[stochastic_rounding: 1]
[linear_tree: 0]
[max_bin: 255]
[max_bin_by_feature: ]
[min_data_in_bin: 3]
[bin_construct_sample_cnt: 200000]
[data_random_seed: 1]
[is_enable_sparse: 1]
[enable_bundle: 1]
[use_missing: 1]
[zero_as_missing: 0]
[feature_pre_filter: 1]
[pre_partition: 0]
[two_round: 0]
[header: 0]
[label_column: ]
[weight_column: ]
[group_column: ]
[ignore_column: ]
[categorical_feature: ]
[forcedbins_filename: ]
[precise_float_parser: 0]
[parser_config_file: ]
[objective_seed: 5]
[num_class: 1]
[is_unbalance: 0]
[scale_pos_weight: 6]
[sigmoid: 1]
[boost_from_average: 1]
[reg_sqrt: 0]
[alpha: 0.9]
[fair_c: 1]
[poisson_max_delta_step: 0.7]
[tweedie_variance_power: 1.5]
[lambdarank_truncation_level: 30]
[lambdarank_norm: 1]
[label_gain: ]
[lambdarank_position_bias_regularization: 0]
[eval_at: ]
[multi_error_top_k: 1]
[auc_mu_weights: ]
[num_machines: 1]
[local_listen_port: 12400]
[time_out: 120]
[machine_list_filename: ]
[machines: ]
[gpu_platform_id: -1]
[gpu_device_id: -1]
[gpu_device_id_list: ]
[gpu_use_dp: 0]
[num_gpu: 1]

end of parameters

pandas_categorical:null
