tree
version=v4
num_class=1
num_tree_per_iteration=1
label_index=0
max_feature_idx=44
objective=binary sigmoid:1
feature_names=Column_0 Column_1 Column_2 Column_3 Column_4 Column_5 Column_6 Column_7 Column_8 Column_9 Column_10 Column_11 Column_12 Column_13 Column_14 Column_15 Column_16 Column_17 Column_18 Column_19 Column_20 Column_21 Column_22 Column_23 Column_24 Column_25 Column_26 Column_27 Column_28 Column_29 Column_30 Column_31 Column_32 Column_33 Column_34 Column_35 Column_36 Column_37 Column_38 Column_39 Column_40 Column_41 Column_42 Column_43 Column_44
feature_infos=none [-7.4000000000000004:4.4329999999999998] [0:0.94099999999999995] [0:1] [0:1] [0:1] [0:1] [0:1] [0:1] [0:1] [0:1] [0:1] [0:1] [0:1] [0:1] [0.25:1] [0:1] [0:1] [0:1] [-0.3666666666666667:1] [0:1] none [-1.05:1.1000000000000001] [-0.83333333333333337:0.59999999999999998] [-0.56666666666666665:0.5] [0:1] [0:1] [0:1] [0.10416666666666674:1] [0.45000000000000001:1] [0:1] [0.010999999999999999:1] [0.010999999999999999:1] [0.048000000000000001:1] [0.014:1] [0.028000000000000001:1] [0:1] [0:1] [0.15050000000000002:0.84949999999999992] [0:1] [0:1] [0:1] [0:1] [0:1] [0:1]
tree_sizes=1698 1721 1717 1737 1730 1739 1736

Tree=0
num_leaves=15
num_cat=0
split_feature=11 12 2 6 1 1 9 37 36 2 9 22 14 34
split_gain=1761.39 1016.47 752.085 232.305 211.482 115.705 92.1465 77.6007 76.241 71.6831 64.8449 60.0704 81.6097 53.1251
threshold=1.0000000180025095e-35 1.0000000180025095e-35 0.06950000000000002 0.62500000000000011 2.8100000000000005 -2.0934999999999993 1.0000000180025095e-35 0.45000000000000007 0.45000000000000007 0.10750000000000003 1.0000000180025095e-35 -0.62499999999999989 1.0000000180025095e-35 0.50850000000000006
decision_type=2 2 2 2 2 2 2 2 2 2 2 2 2 2
left_child=1 2 3 11 5 -4 -7 13 -8 -6 -2 12 -1 -3
right_child=10 7 4 -5 9 6 8 -9 -10 -11 -12 -13 -14 -15
leaf_value=-1.8176866952317359 -1.5845651558998943 -1.682127766776224 -1.8441643700157628 -1.6989233173473446 -1.759057390055923 -1.7058823037553053 -1.8088209316292021 -1.6280104507190014 -1.7332443224371887 -1.6241902252957259 -1.6599337871851843 -1.8309181584731675 -1.6814297516389212 -1.8215623062058526
leaf_weight=20.425579950213432 174.81894191354513 17.662119604647163 12.976250723004339 26.793555490672588 8.5306834951043111 176.14059314131737 29.917467154562473 141.17680761963129 76.055248908698559 47.098986089229584 30.878671802580357 178.18314700573683 9.7321883663535136 5.6470720991492263
leaf_count=150 430 77 103 128 51 881 214 475 423 152 122 1358 41 42
internal_value=-1.6986 -1.72725 -1.75212 -1.80755 -1.71509 -1.72914 -1.72378 -1.63959 -1.75429 -1.64346 -1.59506 -1.82202 -1.77074 -1.71466
internal_weight=956.037 750.34 585.854 235.134 350.719 295.09 282.113 164.486 105.973 55.6297 205.698 208.341 30.1578 23.3092
internal_count=4647 4095 3501 1677 1824 1621 1518 594 637 203 552 1549 191 119
is_linear=0
shrinkage=1


Tree=1
num_leaves=15
num_cat=0
split_feature=2 20 2 37 9 17 15 30 18 33 34 37 18 38
split_gain=1105.27 357.095 357.537 122.953 119.157 118.146 71.4099 71.3817 70.1479 69.9102 64.9767 64.192 57.0813 56.1065
threshold=0.16050000000000003 1.0000000180025095e-35 0.065000000000000016 0.91666666666666685 1.0000000180025095e-35 1.0000000180025095e-35 0.62500000000000011 0.65833333333333344 1.0000000180025095e-35 0.34550000000000003 0.30450000000000005 0.45000000000000007 1.0000000180025095e-35 0.60300000000000009
decision_type=2 2 2 2 2 2 2 2 2 2 2 2 2 2
left_child=1 2 5 9 7 -1 -7 -2 11 -4 -11 -6 -5 -8
right_child=4 -3 3 12 8 6 13 -9 -10 10 -12 -13 -14 -15
leaf_value=-0.014867936647100843 0.14213691745443191 0.11837517815740185 0.095989527632696178 0.14278835991811906 0.045062951108814142 0.0081797089897674858 0.11433701336638764 0.18058153424231832 0.012069789884872567 0.10246125494387774 0.011087036542027086 0.14491305585340145 0.064855531051951965 0.03211792616820975
leaf_weight=114.20038904249668 191.39078509062529 165.79503414779902 47.944795660674572 63.5553979575634 15.140873640775679 48.035311453044415 27.509432420134544 186.19952428340912 11.970339700579641 15.358923539519308 53.416882120072842 41.663247913122177 23.012422949075699 26.886641710996628
leaf_count=874 654 691 228 222 89 341 118 467 79 70 353 145 126 168
internal_value=0.105082 0.068757 0.0489319 0.0869005 0.152486 0.0130663 0.0440528 0.161522 0.101274 0.0592731 0.0326686 0.119538 0.123049 0.0750115
internal_weight=1032.08 585.715 419.92 203.288 446.365 216.632 102.431 377.59 68.7745 116.721 68.7758 56.8041 86.5678 54.3961
internal_count=4625 3191 2500 999 1434 1501 627 1121 313 651 423 234 348 286
is_linear=0
shrinkage=0.04


Tree=2
num_leaves=15
num_cat=0
split_feature=11 12 2 8 1 1 3 9 22 22 9 2 1 6
split_gain=1021.17 546.247 361.2 171.958 141.154 97.4789 55.013 49.6955 51.0953 47.102 43.0577 41.6202 63.5979 37.3762
threshold=1.0000000180025095e-35 1.0000000180025095e-35 0.11450000000000002 1.0000000180025095e-35 2.8415000000000012 2.4880000000000009 0.20900000000000005 1.0000000180025095e-35 -0.57499999999999984 0.27500000000000008 1.0000000180025095e-35 0.36800000000000005 -0.40949999999999981 0.70833333333333337
decision_type=2 2 2 2 2 2 2 2 2 2 2 2 2 2
left_child=1 2 3 5 7 -1 -7 8 -4 -3 -2 12 -10 -5
right_child=10 9 4 13 -6 6 -8 -9 11 -11 -12 -13 -14 -15
leaf_value=0.0036240758077853864 0.16547858332664006 0.13829094200509151 0.042665383172744091 0.053365428591650242 0.14240468715712296 -0.011861855331378629 0.1145314443444123 0.041167554623419027 -0.017871071980765273 0.082826773465023304 0.11088544244680565 0.15770276259220653 0.09405007534462359 0.11761471303902146
leaf_weight=266.30209413915873 232.45918713510036 154.44762689620256 41.714712664484978 35.061228655278683 54.410613387823105 7.2284058928489712 20.027727477252483 69.902239747345448 8.5260707139968854 35.902528934180737 35.457698464393616 15.52578444778919 98.787688344717026 28.238084226846695
leaf_count=1869 446 440 212 183 142 54 81 397 56 148 127 37 398 100
internal_value=0.0907919 0.0688699 0.0511743 0.0241512 0.0843594 0.0111335 0.0817781 0.0703411 0.0824104 0.128317 0.158693 0.0954538 0.0850751 0.0834107
internal_weight=1103.99 836.075 645.725 356.858 288.867 293.558 27.2561 234.456 164.554 190.35 267.917 122.84 107.314 63.2993
internal_count=4690 4117 3529 2287 1242 2004 135 1100 703 588 573 491 454 283
is_linear=0
shrinkage=0.04


Tree=3
num_leaves=15
num_cat=0
split_feature=2 11 19 12 12 2 11 7 22 26 3 4 30 36
split_gain=617.258 266.553 260.182 160.237 159.183 81.3896 76.4051 78.5933 68.5093 73.7653 52.7025 51.1188 53.1021 48.8125
threshold=0.06950000000000002 1.0000000180025095e-35 1.0000000180025095e-35 1.0000000180025095e-35 1.0000000180025095e-35 0.16900000000000001 1.0000000180025095e-35 0.37500000000000006 -0.12499999999999999 0.091666666666666688 0.035500000000000011 0.37700000000000006 0.82575757575757591 0.63333333333333341
decision_type=2 2 2 2 2 2 2 2 2 2 2 2 2 2
left_child=2 3 4 5 6 8 7 -1 9 -2 -4 -10 -13 -7
right_child=1 -3 10 -5 -6 13 -8 -9 11 -11 -12 12 -14 -15
leaf_value=-0.0096977616612070727 -0.023053990446329022 0.13820207141030635 0.0036394585600334228 0.12177564801743511 0.095131738025197393 0.074850112800152441 0.086335007719197721 0.10804992364925241 0.096129205442711946 0.061749052059580485 0.1051775087054909 0.059971305083588666 -0.042659463507734953 0.11693136889020955
leaf_weight=182.76796285808086 30.001607783138752 247.69363971054554 9.1380468159913999 165.432991579175 34.256740361452103 111.75698721408844 15.284405395388601 8.5419583320617658 74.191587850451469 34.182673871517181 83.350425690412521 77.005612060427666 8.2850949019193632 85.745920151472092
leaf_count=1379 206 476 54 434 121 458 55 33 306 152 291 370 61 252
internal_value=0.0848049 0.103183 0.0386358 0.0881864 0.0165756 0.0747356 0.00315415 -0.00390583 0.0577206 0.0223641 0.0952916 0.071722 0.049623 0.0936167
internal_weight=1167.64 834.296 333.34 586.602 240.851 421.169 206.594 191.31 223.667 64.1843 92.4885 159.482 85.2907 197.503
internal_count=4648 2715 1933 2239 1588 1805 1467 1412 1095 358 345 737 431 710
is_linear=0
shrinkage=0.04


Tree=4
num_leaves=15
num_cat=0
split_feature=11 12 2 19 1 1 32 30 37 32 31 26 2 1
split_gain=673.916 384.132 244.415 154.306 101.552 54.5077 52.1977 47.0741 44.2385 39.9691 40.3779 37.6788 34.985 34.62
threshold=1.0000000180025095e-35 1.0000000180025095e-35 0.06950000000000002 1.0000000180025095e-35 2.521500000000001 -2.0934999999999993 0.44350000000000006 0.4188596491228071 0.91666666666666685 0.58850000000000013 0.058500000000000003 0.22500000000000003 0.4905000000000001 1.4935000000000005
decision_type=2 2 2 2 2 2 2 2 2 2 2 2 2 2
left_child=1 2 3 6 5 -4 -1 11 -8 10 -7 -5 -12 -11
right_child=-2 -3 4 7 -6 9 8 -9 -10 13 12 -13 -14 -15
leaf_value=-0.014892763071398828 0.12652480682524198 0.1042809689637124 -0.026913033535009734 -0.017196144185497562 0.096884462857378631 -0.0025985418153263297 -0.0047235110832792452 0.089764323342893942 0.086503656475517499 0.045505489022925991 0.059782640591303483 0.093343297461545266 0.13694040412582334 -0.031158422036265343
leaf_weight=159.80051803588867 312.74628773331642 220.07012368738651 13.277782179415224 15.533072575926782 101.75107128918171 15.79735057801008 17.285325534641743 42.548889517784119 15.558495953679083 22.305981159210205 252.99305181950331 6.0766145586967459 9.4839279204606992 14.925541788339613
leaf_count=1226 550 578 100 93 300 96 127 158 82 102 1116 20 16 93
internal_value=0.0759103 0.0583455 0.0435078 0.0125546 0.0618988 0.0508105 -0.00541593 0.0657686 0.0397709 0.0541561 0.0593553 0.0166411 0.0630797 0.014761
internal_weight=1220.15 907.408 687.338 256.803 430.535 328.784 192.644 64.1586 32.8438 315.506 278.274 21.6097 262.477 37.2315
internal_count=4657 4107 3529 1706 1823 1523 1435 271 209 1423 1228 113 1132 195
is_linear=0
shrinkage=0.04


Tree=5
num_leaves=15
num_cat=0
split_feature=2 11 19 12 12 31 33 38 1 4 36 37 18 3
split_gain=535.808 192.139 151.117 141.226 113.428 87.4826 71.4094 68.0443 55.6464 54.4599 54.0698 46.8714 85.0391 41.7692
threshold=0.06950000000000002 1.0000000180025095e-35 1.0000000180025095e-35 1.0000000180025095e-35 1.0000000180025095e-35 0.24450000000000002 0.46550000000000008 0.44345000000000007 -2.0934999999999993 0.58150000000000002 0.45000000000000007 0.91666666666666685 1.0000000180025095e-35 0.46100000000000002
decision_type=2 2 2 2 2 2 2 2 2 2 2 2 2 2
left_child=2 4 3 6 5 8 11 -4 -2 -6 -7 -1 -13 -11
right_child=1 -3 7 -5 9 10 -8 -9 -10 13 -12 12 -14 -15
leaf_value=-0.030660416956834153 -0.026629310986537803 0.11268524778962304 0.088932862828293116 0.077816054125239981 0.11368650716307668 0.049841570679219939 0.042330538373904832 0.010324589316667066 0.0554982175250298 -0.0066489066918837382 0.11390880575297187 0.056001229244224196 -0.044266437333302384 0.080882604082356854
leaf_weight=107.1965372338891 13.180131725966929 297.89654932916164 71.43799664080143 40.329786464571953 133.52252787351608 33.08319129049778 42.37317468971014 23.659035533666611 334.31035336852074 10.629030376672743 71.918807819485664 31.771241046488285 22.116843990981579 44.202515065670013
leaf_count=858 101 488 222 127 269 136 255 120 1397 49 173 168 189 114
internal_value=0.0704139 0.0859701 0.0271958 0.0104038 0.0733953 0.0622643 -0.00327408 0.069687 0.0523157 0.0996661 0.0943836 -0.0154575 0.0147925 0.0640995
internal_weight=1277.63 938.743 338.885 243.788 640.847 452.492 203.458 95.097 347.49 188.354 105.002 161.085 53.8881 54.8315
internal_count=4666 2727 1939 1597 2239 1807 1470 342 1498 432 309 1215 357 163
is_linear=0
shrinkage=0.04


Tree=6
num_leaves=15
num_cat=0
split_feature=11 2 8 12 36 18 25 13 37 33 7 33 1 30
split_gain=437.834 286.916 128.602 94.3879 81.2608 59.7633 60.7144 54.5207 52.8053 43.5698 41.1816 38.7316 35.7547 50.9375
threshold=1.0000000180025095e-35 0.061000000000000006 1.0000000180025095e-35 1.0000000180025095e-35 0.29166666666666674 1.0000000180025095e-35 0.41500000000000009 1.0000000180025095e-35 0.45000000000000007 0.35150000000000003 0.20833333333333334 0.32800000000000007 -2.0934999999999993 0.63961038961038974
decision_type=2 2 2 2 2 2 2 2 2 2 2 2 2 2
left_child=1 2 3 10 8 12 7 -7 9 -3 -1 -9 13 -6
right_child=-2 4 -4 -5 5 6 -8 11 -10 -11 -12 -13 -14 -15
leaf_value=-0.012752877278767014 0.10459208467452463 0.043234370294595141 0.06986292234775536 0.064696587464159294 -0.02682763756501149 -0.036526832904390821 0.091207365215344588 0.11406607814604966 0.056597092121210515 -0.02952334728140062 0.047237481534092338 -0.01130080807160987 0.080734483412828198 0.092243946042290026
leaf_weight=171.15566021203995 353.68811109662056 25.309429794549942 60.820831082761288 34.39828921854496 12.230868712067606 21.800732105970383 18.083220981061459 8.0817104354500753 106.42925579845905 25.401657730340958 19.501853160560131 6.6762116700410834 461.57380631566048 9.3130801096558553
leaf_count=1318 559 112 204 109 85 140 61 21 400 156 95 40 1344 24
internal_value=0.0664314 0.0525773 0.0187611 0.00470293 0.0664421 0.0738713 0.0333716 0.00309727 0.0407119 0.0069232 -0.00640217 0.0602343 0.0783735 0.0264535
internal_weight=1334.46 980.777 285.877 225.056 694.9 537.76 54.6419 36.5587 157.14 50.7111 190.658 14.7579 483.118 21.5439
internal_count=4668 4109 1726 1522 2383 1715 262 201 668 268 1413 61 1453 109
is_linear=0
shrinkage=0.04


end of trees

feature_importances:
Column_2=12
Column_1=10
Column_12=8
Column_11=7
Column_37=6
Column_9=5
Column_18=4
Column_22=4
Column_30=4
Column_33=4
Column_36=4
Column_3=3
Column_19=3
Column_4=2
Column_6=2
Column_7=2
Column_8=2
Column_26=2
Column_31=2
Column_32=2
Column_34=2
Column_38=2
Column_13=1
Column_14=1
Column_15=1
Column_17=1
Column_20=1
Column_25=1

parameters:
[boosting: gbdt]
[objective: binary]
[metric: binary_logloss]
[tree_learner: serial]
[device_type: cpu]
[data_sample_strategy: bagging]
[data: ]
[valid: ]
[num_iterations: 400]
[learning_rate: 0.04]
[num_leaves: 15]
[num_threads: 0]
[seed: 0]
[deterministic: 0]
[force_col_wise: 0]
[force_row_wise: 0]
[histogram_pool_size: -1]
[max_depth: -1]
[min_data_in_leaf: 25]
[min_sum_hessian_in_leaf: 0.001]
[bagging_fraction: 0.85]
[pos_bagging_fraction: 1]
[neg_bagging_fraction: 1]
[bagging_freq: 1]
[bagging_seed: 3]
[bagging_by_query: 0]
[feature_fraction: 0.85]
[feature_fraction_bynode: 1]
[feature_fraction_seed: 2]
[extra_trees: 0]
[extra_seed: 6]
[early_stopping_round: 0]
[early_stopping_min_delta: 0]
[first_metric_only: 0]
[max_delta_step: 0]
[lambda_l1: 0]
[lambda_l2: 1]
[linear_lambda: 0]
[min_gain_to_split: 0]
[drop_rate: 0.1]
[max_drop: 50]
[skip_drop: 0.5]
[xgboost_dart_mode: 0]
[uniform_drop: 0]
[drop_seed: 4]
[top_rate: 0.2]
[other_rate: 0.1]
[min_data_per_group: 100]
[max_cat_threshold: 32]
[cat_l2: 10]
[cat_smooth: 10]
[max_cat_to_onehot: 4]
[top_k: 20]
[monotone_constraints: ]
[monotone_constraints_method: basic]
[monotone_penalty: 0]
[feature_contri: ]
[forcedsplits_filename: ]
[refit_decay_rate: 0.9]
[cegb_tradeoff: 1]
[cegb_penalty_split: 0]
[cegb_penalty_feature_lazy: ]
[cegb_penalty_feature_coupled: ]
[path_smooth: 0]
[interaction_constraints: ]
[verbosity: -1]
[saved_feature_importance_type: 0]
[use_quantized_grad: 0]
[num_grad_quant_bins: 4]
[quant_train_renew_leaf: 0]
[stochastic_rounding: 1]
[linear_tree: 0]
[max_bin: 255]
[max_bin_by_feature: ]
[min_data_in_bin: 3]
[bin_construct_sample_cnt: 200000]
[data_random_seed: 1]
[is_enable_sparse: 1]
[enable_bundle: 1]
[use_missing: 1]
[zero_as_missing: 0]
[feature_pre_filter: 1]
[pre_partition: 0]
[two_round: 0]
[header: 0]
[label_column: ]
[weight_column: ]
[group_column: ]
[ignore_column: ]
[categorical_feature: ]
[forcedbins_filename: ]
[precise_float_parser: 0]
[parser_config_file: ]
[objective_seed: 5]
[num_class: 1]
[is_unbalance: 0]
[scale_pos_weight: 6]
[sigmoid: 1]
[boost_from_average: 1]
[reg_sqrt: 0]
[alpha: 0.9]
[fair_c: 1]
[poisson_max_delta_step: 0.7]
[tweedie_variance_power: 1.5]
[lambdarank_truncation_level: 30]
[lambdarank_norm: 1]
[label_gain: ]
[lambdarank_position_bias_regularization: 0]
[eval_at: ]
[multi_error_top_k: 1]
[auc_mu_weights: ]
[num_machines: 1]
[local_listen_port: 12400]
[time_out: 120]
[machine_list_filename: ]
[machines: ]
[gpu_platform_id: -1]
[gpu_device_id: -1]
[gpu_use_dp: 0]
[num_gpu: 1]

end of parameters

pandas_categorical:null
