tree
version=v4
num_class=1
num_tree_per_iteration=1
label_index=0
max_feature_idx=44
objective=binary sigmoid:1
feature_names=Column_0 Column_1 Column_2 Column_3 Column_4 Column_5 Column_6 Column_7 Column_8 Column_9 Column_10 Column_11 Column_12 Column_13 Column_14 Column_15 Column_16 Column_17 Column_18 Column_19 Column_20 Column_21 Column_22 Column_23 Column_24 Column_25 Column_26 Column_27 Column_28 Column_29 Column_30 Column_31 Column_32 Column_33 Column_34 Column_35 Column_36 Column_37 Column_38 Column_39 Column_40 Column_41 Column_42 Column_43 Column_44
feature_infos=none [-7.4000000000000004:4.4329999999999998] [0:0.94099999999999995] [0:1] [0:1] [0:1] [0:1] [0:1] [0:1] [0:1] [0:1] [0:1] [0:1] [0:1] [0:1] [0.25:1] [0:1] [0:1] [0:1] [-0.3666666666666667:1] [0:1] none [-1.05:1.1499999999999999] [-1:0.66666666666666663] [-0.90000000000000002:0.66666666666666663] [0:1] [0:1] [0:1] [0.0625:1] [0.45000000000000001:1] [0:1] [0.010999999999999999:1] [0.010999999999999999:1] [0.048000000000000001:1] [0.014:1] [0.028000000000000001:1] [0:1] [0:1] [0:1] [0:1] [0:1] [0:1] [0:1] [0:1] [0:1]
tree_sizes=1707 1718 1727 1731 1738

Tree=0
num_leaves=15
num_cat=0
split_feature=11 12 1 8 2 13 13 3 30 38 34 23 23 42
split_gain=2858.22 1437.81 816.411 513.989 354.596 148.734 148.695 80.8834 71.0514 69.2456 55.9631 71.7998 52.6355 50.4319
threshold=1.0000000180025095e-35 1.0000000180025095e-35 2.609500000000001 1.0000000180025095e-35 0.06950000000000002 1.0000000180025095e-35 1.0000000180025095e-35 0.44700000000000006 0.23904761904761906 0.41045000000000004 0.31450000000000006 0.10000000000000002 -0.34999999999999992 1.0000000180025095e-35
decision_type=2 2 2 2 2 2 2 2 2 2 2 2 2 2
left_child=1 2 3 4 -1 7 -5 9 -4 -6 -7 -12 -3 -11
right_child=-2 12 8 6 5 10 -8 -9 -10 13 11 -13 -14 -15
leaf_value=-1.8059854536636601 -1.5796023204831688 -1.7506512296313281 -1.7565382260719986 -1.7237543852334152 -1.7161198705949945 -1.6267265396519379 -1.6464154832302604 -1.6995217872611363 -1.6379043049319377 -1.7711032892238345 -1.737759589354309 -1.6252219446636513 -1.6265941369656922 -1.8275708620225846
leaf_weight=291.08594749867916 313.66391898691654 6.6762831732630721 9.7109573483467084 139.47362466901541 27.919002309441566 15.294757694005964 58.022969767451286 27.919002279639244 117.74535700678825 105.36388735473156 50.496978163719177 10.924826920032499 235.00516599416733 32.410320304334164
leaf_count=2128 809 40 60 779 150 51 228 140 445 693 296 35 836 252
internal_value=-1.68629 -1.71613 -1.73984 -1.75571 -1.77533 -1.74243 -1.70035 -1.76148 -1.6465 -1.77249 -1.69551 -1.7152 -1.62979 -1.78446
internal_weight=1441.71 1128.05 886.368 758.911 561.415 270.329 197.497 193.612 127.456 165.693 76.7166 61.4218 241.681 137.774
internal_count=6942 6133 5257 4752 3745 1617 1007 1235 505 1095 382 331 876 945
is_linear=0
shrinkage=1


Tree=1
num_leaves=15
num_cat=0
split_feature=2 20 1 2 18 15 31 30 3 37 3 37 30 30
split_gain=1429.56 414.012 374.889 245.944 191.975 147.121 127.549 111.835 83.9911 82.7426 82.5328 91.6799 71.5813 67.1323
threshold=0.12950000000000003 1.0000000180025095e-35 1.0595000000000001 0.31950000000000006 1.0000000180025095e-35 0.62500000000000011 0.12350000000000001 0.45227272727272733 0.44050000000000006 0.91666666666666685 0.084000000000000019 0.63333333333333341 0.64852941176470602 0.27429467084639503
decision_type=2 2 2 2 2 2 2 2 2 2 2 2 2 2
left_child=1 2 6 4 5 12 13 -5 -6 -8 -4 -12 -2 -1
right_child=3 -3 10 7 8 -7 9 -9 -10 -11 11 -13 -14 -15
leaf_value=-0.021447723964443471 0.089071800921021474 0.1162705684517132 0.018582788248960688 0.097265565925868866 -0.0073629009874648862 0.15369958256680838 0.031562986222873401 0.1835405356094964 0.13183569219267702 0.12413745500047027 0.06813431616872874 0.1220522993912712 0.13614886713082622 0.022395957227261169
leaf_weight=76.929677709937096 139.98594475537539 198.69503559917212 25.387641713023186 30.764981411397457 24.379304707050323 261.26541238278151 36.173920631408691 242.76832544803619 8.6403174847364408 27.258199259638786 105.51806875318289 106.86579410731792 94.606297515332699 197.1208944991231
leaf_count=588 661 832 169 131 172 817 222 572 31 108 564 429 342 1294
internal_value=0.105479 0.0665576 0.0492145 0.14289 0.126385 0.132603 0.0220009 0.174227 0.0318661 0.0726535 0.0875865 0.0957092 0.108554 0.0100552
internal_weight=1576.36 773.949 575.254 802.411 528.877 495.858 337.483 273.533 33.0196 63.4321 237.772 212.384 234.592 274.051
internal_count=6932 4206 3374 2726 2023 1820 2212 703 203 330 1162 993 1003 1882
is_linear=0
shrinkage=0.04


Tree=2
num_leaves=15
num_cat=0
split_feature=11 12 1 8 2 36 30 19 32 22 36 7 1 32
split_gain=1651.88 750.455 567.026 262.071 200.421 109.076 79.2471 66.7815 63.3143 50.2766 49.7563 72.2404 47.3253 43.7687
threshold=1.0000000180025095e-35 1.0000000180025095e-35 2.517500000000001 1.0000000180025095e-35 0.088500000000000009 0.45000000000000007 0.23904761904761906 1.0000000180025095e-35 0.54550000000000021 0.27500000000000008 1.0000000180025095e-35 0.29166666666666669 2.4490000000000007 0.6795000000000001
decision_type=2 2 2 2 2 2 2 2 2 2 2 2 2 2
left_child=1 2 3 4 7 13 -4 12 -8 -3 -9 -12 -1 -6
right_child=-2 9 6 -5 5 -7 8 10 -10 -11 11 -13 -14 -15
leaf_value=-0.0059700788137563307 0.16043604045074411 0.13381672953191595 0.012975810013674151 0.073636954076974598 0.003608048208320197 0.069509356675283657 0.10274342153299333 -0.020747464003750535 0.15809079909711379 0.085587237178437137 0.11794249297027828 -0.040072586901425428 0.085119396090828359 0.11409620878307811
leaf_weight=299.86206199228764 404.9074505418539 227.81899747997522 11.647996962070463 219.96066518127918 74.796921133995056 159.03215222805738 111.92986477911472 9.7292470782995206 56.050491020083427 49.448978245258331 19.600097015500072 5.4255548119544974 8.4127283543348295 5.2202248126268378
leaf_count=2162 824 663 71 997 476 784 417 68 132 201 78 41 39 18
internal_value=0.0902056 0.0675082 0.0510024 0.0365267 0.0224009 0.0504351 0.115076 0.00277467 0.122038 0.125554 0.0545249 0.0834614 -0.00321709 0.0121355
internal_weight=1663.84 1258.94 981.668 802.04 582.079 239.049 179.628 343.03 167.98 277.268 34.7549 25.0257 308.275 80.0171
internal_count=6971 6147 5283 4663 3666 1278 620 2388 549 864 187 119 2201 494
is_linear=0
shrinkage=0.04


Tree=3
num_leaves=15
num_cat=0
split_feature=11 12 2 19 3 36 26 32 31 33 36 2 2 6
split_gain=1101.95 648.06 386.857 196.037 149.899 107.835 77.5134 67.6171 64.2785 57.9993 49.4541 101.525 49.2478 48.7052
threshold=1.0000000180025095e-35 1.0000000180025095e-35 0.13750000000000004 1.0000000180025095e-35 0.22600000000000001 0.18333333333333332 0.12500000000000003 0.38550000000000006 0.21950000000000003 0.31100000000000005 0.63333333333333341 0.085500000000000007 0.17650000000000002 0.37500000000000006
decision_type=2 2 2 2 2 2 2 2 2 2 2 2 2 2
left_child=1 2 3 4 -1 6 -4 -6 9 -7 11 -5 -11 -10
right_child=-2 -3 5 10 7 8 -8 -9 13 12 -12 -13 -14 -15
leaf_value=0.002549566801323453 0.13894779953785077 0.11628843520446949 0.00067275450714567974 0.074464909708228721 0.014553292984593213 0.0073101169581082474 0.073792893064953638 0.070742933028074814 0.1330690945831185 0.049832195119178517 0.10275365594956151 -0.013114578125452601 0.099947413121612802 0.068185106584806213
leaf_weight=324.28066183626652 435.87638525664806 309.55035743117332 39.085763022303581 87.267789602279663 53.886824123561382 17.073925524950027 56.127486005425453 96.194727905094624 85.914051860570908 48.138758689165115 48.366084218025208 27.508577555418015 112.06521856784821 28.062622085213661
leaf_count=2233 817 861 234 384 338 99 234 446 219 227 170 171 397 116
internal_value=0.0837456 0.0656115 0.0501932 0.0309715 0.0178894 0.0817388 0.0440955 0.0507979 0.0938517 0.0778638 0.0686691 0.0535427 0.0852911 0.117826
internal_weight=1769.4 1333.52 1023.97 637.505 474.362 386.468 95.2132 150.082 291.255 177.278 163.142 114.776 160.204 113.977
internal_count=6946 6129 5268 3742 3017 1526 468 784 1058 723 725 555 624 335
is_linear=0
shrinkage=0.04


Tree=4
num_leaves=15
num_cat=0
split_feature=11 12 1 13 19 6 2 22 18 7 35 5 35 31
split_gain=1039.33 476.331 387.579 217.65 144.328 95.1353 93.653 61.7977 61.2394 60.9849 58.8952 51.4648 45.3606 42.8608
threshold=1.0000000180025095e-35 1.0000000180025095e-35 2.517500000000001 1.0000000180025095e-35 1.0000000180025095e-35 0.12500000000000003 0.051500000000000011 -0.57499999999999984 1.0000000180025095e-35 1.0000000180025095e-35 0.5485000000000001 0.20833333333333334 0.52650000000000008 0.036500000000000005
decision_type=2 2 2 2 2 2 2 2 2 2 2 2 2 2
left_child=1 2 3 4 6 -6 -1 -8 -4 -5 -9 -11 -7 -3
right_child=-2 13 8 9 5 12 7 10 -10 11 -12 -13 -14 -15
leaf_value=-0.01092340016767585 0.12630810272338239 -0.037902942605412014 0.099251698635082236 0.041755477753170241 0.10481827274856416 0.045603713112434704 0.091559023616827301 0.0080004478585886489 -0.0014067130239977014 0.10820863581231466 0.061414421429192519 0.052364347237679611 -0.0062264097423526833 0.10186518572525245
leaf_weight=214.50094401091337 477.34125137329102 3.076655685901641 191.48204183578491 84.978998474776745 38.279559731483459 131.46219579875469 19.996495686471462 158.71063392609358 10.152894824743269 72.213589988648891 40.844017274677753 46.498889774084091 33.659982949495316 315.92846134305
leaf_count=1575 804 19 564 455 128 621 88 978 59 220 185 198 192 837
internal_value=0.0755351 0.0576582 0.0444982 0.0324859 0.0209227 0.0486404 0.00785193 0.0261617 0.0942013 0.0683941 0.0191847 0.0869549 0.0350643 0.100403
internal_weight=1839.13 1361.79 1042.78 841.145 637.454 203.402 434.052 219.551 201.635 203.691 199.555 118.712 165.122 319.005
internal_count=6923 6119 5263 4640 3767 941 2826 1251 623 873 1163 418 813 856
is_linear=0
shrinkage=0.04


end of trees

feature_importances:
Column_2=8
Column_1=5
Column_30=5
Column_3=4
Column_11=4
Column_12=4
Column_36=4
Column_13=3
Column_19=3
Column_31=3
Column_32=3
Column_6=2
Column_7=2
Column_8=2
Column_18=2
Column_22=2
Column_23=2
Column_35=2
Column_37=2
Column_5=1
Column_15=1
Column_20=1
Column_26=1
Column_33=1
Column_34=1
Column_38=1
Column_42=1

parameters:
[boosting: gbdt]
[objective: binary]
[metric: binary_logloss]
[tree_learner: serial]
[device_type: cpu]
[data_sample_strategy: bagging]
[data: ]
[valid: ]
[num_iterations: 400]
[learning_rate: 0.04]
[num_leaves: 15]
[num_threads: 0]
[seed: 0]
[deterministic: 0]
[force_col_wise: 0]
[force_row_wise: 0]
[histogram_pool_size: -1]
[max_depth: -1]
[min_data_in_leaf: 25]
[min_sum_hessian_in_leaf: 0.001]
[bagging_fraction: 0.85]
[pos_bagging_fraction: 1]
[neg_bagging_fraction: 1]
[bagging_freq: 1]
[bagging_seed: 3]
[bagging_by_query: 0]
[feature_fraction: 0.85]
[feature_fraction_bynode: 1]
[feature_fraction_seed: 2]
[extra_trees: 0]
[extra_seed: 6]
[early_stopping_round: 0]
[early_stopping_min_delta: 0]
[first_metric_only: 0]
[max_delta_step: 0]
[lambda_l1: 0]
[lambda_l2: 1]
[linear_lambda: 0]
[min_gain_to_split: 0]
[drop_rate: 0.1]
[max_drop: 50]
[skip_drop: 0.5]
[xgboost_dart_mode: 0]
[uniform_drop: 0]
[drop_seed: 4]
[top_rate: 0.2]
[other_rate: 0.1]
[min_data_per_group: 100]
[max_cat_threshold: 32]
[cat_l2: 10]
[cat_smooth: 10]
[max_cat_to_onehot: 4]
[top_k: 20]
[monotone_constraints: ]
[monotone_constraints_method: basic]
[monotone_penalty: 0]
[feature_contri: ]
[forcedsplits_filename: ]
[refit_decay_rate: 0.9]
[cegb_tradeoff: 1]
[cegb_penalty_split: 0]
[cegb_penalty_feature_lazy: ]
[cegb_penalty_feature_coupled: ]
[path_smooth: 0]
[interaction_constraints: ]
[verbosity: -1]
[saved_feature_importance_type: 0]
[use_quantized_grad: 0]
[num_grad_quant_bins: 4]
[quant_train_renew_leaf: 0]
[stochastic_rounding: 1]
[linear_tree: 0]
[max_bin: 255]
[max_bin_by_feature: ]
[min_data_in_bin: 3]
[bin_construct_sample_cnt: 200000]
[data_random_seed: 1]
[is_enable_sparse: 1]
[enable_bundle: 1]
[use_missing: 1]
[zero_as_missing: 0]
[feature_pre_filter: 1]
[pre_partition: 0]
[two_round: 0]
[header: 0]
[label_column: ]
[weight_column: ]
[group_column: ]
[ignore_column: ]
[categorical_feature: ]
[forcedbins_filename: ]
[precise_float_parser: 0]
[parser_config_file: ]
[objective_seed: 5]
[num_class: 1]
[is_unbalance: 0]
[scale_pos_weight: 6]
[sigmoid: 1]
[boost_from_average: 1]
[reg_sqrt: 0]
[alpha: 0.9]
[fair_c: 1]
[poisson_max_delta_step: 0.7]
[tweedie_variance_power: 1.5]
[lambdarank_truncation_level: 30]
[lambdarank_norm: 1]
[label_gain: ]
[lambdarank_position_bias_regularization: 0]
[eval_at: ]
[multi_error_top_k: 1]
[auc_mu_weights: ]
[num_machines: 1]
[local_listen_port: 12400]
[time_out: 120]
[machine_list_filename: ]
[machines: ]
[gpu_platform_id: -1]
[gpu_device_id: -1]
[gpu_device_id_list: ]
[gpu_use_dp: 0]
[num_gpu: 1]

end of parameters

pandas_categorical:null
