tree
version=v4
num_class=1
num_tree_per_iteration=1
label_index=0
max_feature_idx=44
objective=binary sigmoid:1
feature_names=Column_0 Column_1 Column_2 Column_3 Column_4 Column_5 Column_6 Column_7 Column_8 Column_9 Column_10 Column_11 Column_12 Column_13 Column_14 Column_15 Column_16 Column_17 Column_18 Column_19 Column_20 Column_21 Column_22 Column_23 Column_24 Column_25 Column_26 Column_27 Column_28 Column_29 Column_30 Column_31 Column_32 Column_33 Column_34 Column_35 Column_36 Column_37 Column_38 Column_39 Column_40 Column_41 Column_42 Column_43 Column_44
feature_infos=none [-7.4000000000000004:4.4329999999999998] [0:0.94099999999999995] [0:1] [0:1] [0:1] [0:1] [0:1] [0:1] [0:1] [0:1] [0:1] [0:1] [0:1] [0:1] [0.25:1] [0:1] [0:1] [0:1] [-0.3666666666666667:1] [0:1] none [-1.05:1.1499999999999999] [-0.83333333333333337:0.66666666666666663] [-0.56666666666666665:0.53333333333333333] [0:1] [0:1] [0:1] [0.10416666666666674:1] [0.45000000000000001:1] [0:1] [0.010999999999999999:1] [0.010999999999999999:1] [0.048000000000000001:1] [0.014:1] [0.028000000000000001:1] [0:1] [0:1] [0:1] [0:1] [0:1] [0:1] [0:1] [0:1] [0:1]
tree_sizes=1699 1720 1719 1739 1729 1738 1730

Tree=0
num_leaves=15
num_cat=0
split_feature=11 2 12 12 8 1 1 36 9 18 4 38 30 38
split_gain=1973.05 1029.18 422.642 335.044 256.681 243.311 118.437 100.454 110.816 72.8143 60.986 57.45 49.7165 45.244
threshold=1.0000000180025095e-35 0.06950000000000002 1.0000000180025095e-35 1.0000000180025095e-35 1.0000000180025095e-35 2.5795000000000008 -2.0934999999999993 0.45000000000000007 1.0000000180025095e-35 1.0000000180025095e-35 0.27600000000000008 0.42695000000000005 0.23904761904761906 0.43370000000000003
decision_type=2 2 2 2 2 2 2 2 2 2 2 2 2 2
left_child=1 3 5 4 -1 6 -3 8 13 -9 -11 -5 -7 -8
right_child=-2 2 -4 11 -6 12 7 9 -10 10 -12 -13 -14 -15
leaf_value=-1.8160957869175753 -1.5921772667369096 -1.84137428436537 -1.6302435182662482 -1.6300389841971026 -1.7096368122334933 -1.7772624485063568 -1.7057164224434664 -1.6924645759777706 -1.8163262065527224 -1.6598410358615459 -1.7812701492061527 -1.7289505127968026 -1.642408515442763 -1.7692642512287016
leaf_weight=225.42892591655254 231.45320929586887 13.735380887985228 138.67914895713329 20.000641793012619 42.170028328895569 5.3013750314712516 50.363062381744385 151.81210169196129 32.41067935526371 7.5906050354242316 32.772136598825455 23.012786939740181 77.231394097208977 30.964849606156349
leaf_count=1661 621 109 481 66 215 34 253 725 239 28 217 126 286 197
internal_value=-1.6956 -1.72394 -1.69065 -1.78211 -1.79899 -1.71189 -1.72819 -1.72304 -1.75374 -1.70528 -1.75525 -1.67982 -1.65052 -1.72907
internal_weight=1082.93 851.473 540.861 310.612 267.599 402.182 319.649 305.913 113.739 192.175 40.3627 43.0134 82.5328 81.3279
internal_count=5258 4637 2569 2068 1876 2088 1768 1659 689 970 245 192 320 450
is_linear=0
shrinkage=1


Tree=1
num_leaves=15
num_cat=0
split_feature=2 20 17 9 37 2 2 14 17 1 38 34 30 30
split_gain=1076.58 354.77 379.083 165.09 159.811 142.216 113.644 89.9775 81.3849 70.3894 59.9399 77.1431 58.5884 51.2349
threshold=0.16050000000000003 1.0000000180025095e-35 1.0000000180025095e-35 1.0000000180025095e-35 0.63333333333333341 0.06950000000000002 0.046000000000000006 1.0000000180025095e-35 1.0000000180025095e-35 2.3805000000000001 0.60300000000000009 0.42150000000000004 0.65833333333333344 0.53137254901960795
decision_type=2 2 2 2 2 2 2 2 2 2 2 2 2 2
left_child=1 2 5 7 9 -1 10 12 -5 -4 -6 -12 -2 -7
right_child=3 -3 4 8 6 13 -8 -9 -10 -11 11 -13 -14 -15
leaf_value=-0.010471850722270895 0.14752979658266699 0.11877676316655883 0.037523976264148724 0.023175562970179621 0.11279777871685603 0.025442190328208537 0.14014905422907034 0.087860181856627528 0.1183394624719134 0.11028996002937005 -0.02089350882663258 0.13408109101724094 0.18235275358500772 0.087602200653935189
leaf_weight=133.32386781275272 200.80833938717842 192.8179682418704 101.67664504051208 20.20849896967411 18.808765068650246 46.039164319634438 96.412323199212551 29.550590291619301 54.234811753034592 26.683013290166855 19.398875102400783 5.8957780152559272 196.20625606924295 40.307473912835121
leaf_count=1003 661 799 620 131 83 295 342 143 214 112 148 23 481 199
internal_value=0.105771 0.0728656 0.0545399 0.150288 0.0863028 0.0154474 0.115782 0.160018 0.0931557 0.053386 0.0605891 0.018954 0.165154 0.0551298
internal_weight=1182.37 681.364 488.546 501.008 268.875 219.671 140.516 426.565 74.4433 128.36 44.1034 25.2947 397.015 86.3466
internal_count=5254 3624 2825 1630 1328 1497 596 1285 345 732 254 171 1142 494
is_linear=0
shrinkage=0.04


Tree=2
num_leaves=15
num_cat=0
split_feature=11 12 2 8 1 1 1 36 22 34 3 38 34 2
split_gain=1152.16 523 372.386 186.012 171.319 83.6268 74.6541 65.1786 49.8431 46.6053 45.0918 45.0204 44.146 43.5618
threshold=1.0000000180025095e-35 1.0000000180025095e-35 0.10100000000000002 1.0000000180025095e-35 2.8375000000000008 2.4845000000000002 -1.9614999999999998 0.45000000000000007 0.27500000000000008 0.36450000000000005 0.21500000000000005 0.57177500000000003 0.46250000000000008 0.13950000000000001
decision_type=2 2 2 2 2 2 2 2 2 2 2 2 2 2
left_child=1 2 3 5 6 -1 -4 11 -3 -9 -7 13 -11 -8
right_child=-2 8 4 -5 -6 10 7 9 -10 12 -12 -13 -14 -15
leaf_value=0.0048517353782328767 0.15842331300471021 0.13384765323636263 -0.042386985211821528 0.085312446514450593 0.14018819261147664 0.0013267388586624268 -0.0067812421173785199 0.11370185475381293 0.079559297078641636 0.033233341530864512 0.10428268151238944 0.0056805725667068655 0.087074206417919769 0.076343072864796482
leaf_weight=283.08906864374876 299.41183549165726 170.02460339665413 8.8560419082641584 65.931255340576172 65.241112440824509 9.8204545900225657 11.858019977807997 65.994135692715645 38.771348774433136 37.97172799706459 21.369345784187317 31.580117240548134 77.404199033975601 61.106088936328888
leaf_count=1973 638 498 69 287 177 65 77 243 167 208 84 207 329 278
internal_value=0.0900654 0.0683546 0.0524576 0.0247514 0.0815686 0.0118163 0.0681643 0.0717244 0.124194 0.0863053 0.0729141 0.0458504 0.0697923 0.0629248
internal_weight=1248.43 949.018 740.222 380.21 360.011 314.279 294.77 285.914 208.796 181.37 31.1898 104.544 115.376 72.9641
internal_count=5300 4662 3997 2409 1588 2122 1411 1342 665 780 149 562 537 355
is_linear=0
shrinkage=0.04


Tree=3
num_leaves=15
num_cat=0
split_feature=11 12 2 19 13 36 22 22 7 31 34 25 32 30
split_gain=705.339 426.531 307.334 226.598 110.754 97.0775 73.1362 73.2363 68.7435 48.982 48.5987 47.9631 47.8144 42.7316
threshold=1.0000000180025095e-35 1.0000000180025095e-35 0.06950000000000002 1.0000000180025095e-35 1.0000000180025095e-35 0.70833333333333348 0.075000000000000025 -1.0000000180025095e-35 0.37500000000000006 0.17150000000000001 0.38950000000000007 0.41500000000000009 0.44350000000000006 0.84807692307692317
decision_type=2 2 2 2 2 2 2 2 2 2 2 2 2 2
left_child=1 2 3 8 5 13 7 -7 12 -5 -8 -6 -1 -4
right_child=-2 -3 4 9 11 6 10 -9 -10 -11 -12 -13 -14 -15
leaf_value=-0.013588003356711755 0.13568546100669032 0.1146076292023956 0.051943743512448889 0.08884989481336128 0.069694160894059151 0.029202497434091181 0.073521416246816712 0.12931020745257232 0.10315473686925959 -0.039842512859674349 -0.043101812058871584 0.12392698722630523 0.035760744782167148 -0.005580946190716825
leaf_weight=174.76025656610727 315.40051753818989 231.2086837887764 226.45490881055593 69.290969625115395 46.201502524316311 15.053406715393065 13.158388465642931 64.884268254041672 8.8776474595069867 4.520582601428031 8.7359880954027158 79.778840899467468 37.264865353703499 22.523772843182087
leaf_count=1316 629 661 1107 285 213 79 56 164 38 31 63 244 230 138
internal_value=0.083512 0.0669821 0.0525796 0.0203726 0.0724031 0.0605246 0.0934496 0.111052 -4.16735e-06 0.0805409 0.0271379 0.104743 -0.00478747 0.0467383
internal_weight=1318.11 1002.71 771.505 294.714 476.791 350.811 101.832 79.9377 220.903 73.8116 21.8944 125.98 212.025 248.979
internal_count=5254 4625 3964 1900 2064 1607 362 243 1584 316 119 457 1546 1245
is_linear=0
shrinkage=0.04


Tree=4
num_leaves=15
num_cat=0
split_feature=11 12 1 19 18 2 1 1 26 2 30 30 30 35
split_gain=738.513 341.696 222.927 121.894 95.1598 83.1058 69.4151 50.3511 50.2758 61.8442 39.19 33.9953 31.3874 29.3347
threshold=1.0000000180025095e-35 1.0000000180025095e-35 0.93750000000000011 1.0000000180025095e-35 1.0000000180025095e-35 0.15650000000000003 2.5180000000000002 1.2015000000000002 0.041666666666666678 0.11850000000000001 0.73746867167919816 0.19523809523809527 0.30217391304347835 0.26150000000000007
decision_type=2 2 2 2 2 2 2 2 2 2 2 2 2 2
left_child=1 2 3 5 6 12 7 8 9 -4 -6 -8 -1 -9
right_child=-2 -3 4 -5 10 -7 11 13 -10 -11 -12 -13 -14 -15
leaf_value=-0.025366680281479669 0.12587571166382763 0.10032214881296499 -0.013926104623726841 0.057181909237444942 -0.0055449398963422223 0.063753335610681569 0.012506007290242047 0.088465776241544211 0.11267624062267809 0.097464774564293963 0.066509771120341357 0.10168123530122777 0.0075013347803337153 0.040589787502412496
leaf_weight=68.21747375279665 352.79728330671787 241.76601769030094 14.830528289079668 107.7212021201849 40.122724786400795 33.432624220848083 7.5733038634061804 23.870860897004604 46.71269715577364 15.715855583548544 16.196194507181644 118.9553637355566 140.64895238727331 155.11091496795416
leaf_count=521 617 659 105 472 270 142 40 97 147 55 79 337 955 767
internal_value=0.0759384 0.0587429 0.0458931 0.0219897 0.0648544 0.0061732 0.0719859 0.0595612 0.0866971 0.0446564 0.0159754 0.0964836 -0.00330335 0.0474311
internal_weight=1383.67 1030.87 789.109 350.02 439.088 242.299 382.77 256.241 77.2591 30.5464 56.3189 126.529 208.866 178.982
internal_count=5263 4646 3987 2090 1897 1618 1548 1171 307 160 349 377 1476 864
is_linear=0
shrinkage=0.04


Tree=5
num_leaves=15
num_cat=0
split_feature=2 11 19 12 12 31 11 38 1 4 6 32 33 6
split_gain=531.704 240.855 178.414 115.7 95.9476 91.7977 87.0507 85.1546 69.6919 55.5301 50.9163 48.4855 38.9512 37.9161
threshold=0.06950000000000002 1.0000000180025095e-35 1.0000000180025095e-35 1.0000000180025095e-35 1.0000000180025095e-35 0.24550000000000002 1.0000000180025095e-35 0.44345000000000007 -2.0934999999999993 0.57900000000000007 0.37500000000000006 0.44350000000000006 0.42650000000000005 0.95833333333333337
decision_type=2 2 2 2 2 2 2 2 2 2 2 2 2 2
left_child=2 4 3 6 5 8 11 -4 -2 -6 -7 12 -1 -9
right_child=1 -3 7 -5 9 10 -8 13 -10 -11 -12 -13 -14 -15
leaf_value=-0.024354838285266758 -0.029304265851321828 0.1137914973297692 0.093040690282528898 0.074000455027778647 0.1105693346741015 0.11025615714477324 0.075123942565584828 -0.021835792729142135 0.057216822674433926 0.062963751119244543 0.048297666007659654 0.035021132698668835 0.017366647410433596 0.084536859378793766
leaf_weight=130.6237680464983 14.9096417799592 340.25036710500717 86.056121081113815 43.614365801215172 139.13489218056202 86.913397714495659 23.681989371776581 18.108231112360958 387.26432810723782 61.618948832154274 31.122936353087425 40.284647800028324 48.364683717489243 6.4640044420957556
leaf_count=1021 109 551 260 146 293 216 61 108 1616 185 126 235 327 19
internal_value=0.0711443 0.0859169 0.0315588 0.01479 0.0726225 0.0633017 0.00390099 0.0744748 0.0539445 0.0963419 0.0944624 -0.00409737 -0.0130474 0.00835829
internal_weight=1458.41 1061.21 397.198 286.569 720.964 520.21 242.955 110.628 402.174 200.754 118.036 219.273 178.988 24.5722
internal_count=5273 3096 2177 1790 2545 2067 1644 387 1725 478 342 1583 1348 127
is_linear=0
shrinkage=0.04


Tree=6
num_leaves=15
num_cat=0
split_feature=11 2 8 12 36 18 12 4 26 3 3 3 1 22
split_gain=492.584 265.789 156.937 103.222 99.3715 65.9068 54.2442 48.5631 36.1784 82.3818 69.3062 71.8774 58.4323 40.6989
threshold=1.0000000180025095e-35 0.06950000000000002 1.0000000180025095e-35 1.0000000180025095e-35 0.45000000000000007 1.0000000180025095e-35 1.0000000180025095e-35 0.27600000000000008 0.075000000000000011 0.15850000000000003 0.32150000000000006 0.38200000000000006 1.4020000000000004 0.62500000000000011
decision_type=2 2 2 2 2 2 2 2 2 2 2 2 2 2
left_child=1 2 3 -1 6 -6 8 -7 12 -10 -11 -12 13 -3
right_child=-2 4 -4 -5 5 7 -8 -9 9 10 11 -13 -14 -15
leaf_value=-0.0011642783387908707 0.10367221097152203 -0.030291875957621232 0.073025420799169849 0.066027422668466201 0.079219604900604229 0.10641656990107437 0.085720075515720348 0.012012303122985535 0.13918188392102165 -0.020620014028754505 0.10674697353303181 0.014860981464014267 0.048163435523875198 0.082160722884792231
leaf_weight=235.91699711978436 403.59275209903717 41.116019323468208 78.480642661452293 42.287485346198082 488.25097384303808 10.038466975092886 37.24808132648468 43.078940704464912 13.193428069353102 25.178980395197868 25.284630477428436 29.060143813490868 40.975236400961876 4.8953160941600791
leaf_count=1669 633 273 253 139 1410 27 86 235 27 144 70 136 173 20
internal_value=0.0658009 0.0520122 0.0234464 0.00924886 0.0654 0.0746032 0.0421977 0.0314902 0.0327522 0.0500248 0.0336884 0.0587685 0.0139824 -0.0168344
internal_weight=1518.6 1115.01 356.685 278.204 758.32 541.368 216.952 53.1174 179.704 92.7172 79.5238 54.3448 86.9866 46.0113
internal_count=5295 4662 2061 1808 2601 1672 929 262 843 377 350 206 466 293
is_linear=0
shrinkage=0.04


end of trees

feature_importances:
Column_1=11
Column_2=11
Column_12=9
Column_11=7
Column_30=7
Column_38=5
Column_3=4
Column_22=4
Column_34=4
Column_36=4
Column_4=3
Column_8=3
Column_18=3
Column_19=3
Column_6=2
Column_9=2
Column_17=2
Column_26=2
Column_31=2
Column_32=2
Column_7=1
Column_13=1
Column_14=1
Column_20=1
Column_25=1
Column_33=1
Column_35=1
Column_37=1

parameters:
[boosting: gbdt]
[objective: binary]
[metric: binary_logloss]
[tree_learner: serial]
[device_type: cpu]
[data_sample_strategy: bagging]
[data: ]
[valid: ]
[num_iterations: 400]
[learning_rate: 0.04]
[num_leaves: 15]
[num_threads: 0]
[seed: 0]
[deterministic: 0]
[force_col_wise: 0]
[force_row_wise: 0]
[histogram_pool_size: -1]
[max_depth: -1]
[min_data_in_leaf: 25]
[min_sum_hessian_in_leaf: 0.001]
[bagging_fraction: 0.85]
[pos_bagging_fraction: 1]
[neg_bagging_fraction: 1]
[bagging_freq: 1]
[bagging_seed: 3]
[bagging_by_query: 0]
[feature_fraction: 0.85]
[feature_fraction_bynode: 1]
[feature_fraction_seed: 2]
[extra_trees: 0]
[extra_seed: 6]
[early_stopping_round: 0]
[early_stopping_min_delta: 0]
[first_metric_only: 0]
[max_delta_step: 0]
[lambda_l1: 0]
[lambda_l2: 1]
[linear_lambda: 0]
[min_gain_to_split: 0]
[drop_rate: 0.1]
[max_drop: 50]
[skip_drop: 0.5]
[xgboost_dart_mode: 0]
[uniform_drop: 0]
[drop_seed: 4]
[top_rate: 0.2]
[other_rate: 0.1]
[min_data_per_group: 100]
[max_cat_threshold: 32]
[cat_l2: 10]
[cat_smooth: 10]
[max_cat_to_onehot: 4]
[top_k: 20]
[monotone_constraints: ]
[monotone_constraints_method: basic]
[monotone_penalty: 0]
[feature_contri: ]
[forcedsplits_filename: ]
[refit_decay_rate: 0.9]
[cegb_tradeoff: 1]
[cegb_penalty_split: 0]
[cegb_penalty_feature_lazy: ]
[cegb_penalty_feature_coupled: ]
[path_smooth: 0]
[interaction_constraints: ]
[verbosity: -1]
[saved_feature_importance_type: 0]
[use_quantized_grad: 0]
[num_grad_quant_bins: 4]
[quant_train_renew_leaf: 0]
[stochastic_rounding: 1]
[linear_tree: 0]
[max_bin: 255]
[max_bin_by_feature: ]
[min_data_in_bin: 3]
[bin_construct_sample_cnt: 200000]
[data_random_seed: 1]
[is_enable_sparse: 1]
[enable_bundle: 1]
[use_missing: 1]
[zero_as_missing: 0]
[feature_pre_filter: 1]
[pre_partition: 0]
[two_round: 0]
[header: 0]
[label_column: ]
[weight_column: ]
[group_column: ]
[ignore_column: ]
[categorical_feature: ]
[forcedbins_filename: ]
[precise_float_parser: 0]
[parser_config_file: ]
[objective_seed: 5]
[num_class: 1]
[is_unbalance: 0]
[scale_pos_weight: 6]
[sigmoid: 1]
[boost_from_average: 1]
[reg_sqrt: 0]
[alpha: 0.9]
[fair_c: 1]
[poisson_max_delta_step: 0.7]
[tweedie_variance_power: 1.5]
[lambdarank_truncation_level: 30]
[lambdarank_norm: 1]
[label_gain: ]
[lambdarank_position_bias_regularization: 0]
[eval_at: ]
[multi_error_top_k: 1]
[auc_mu_weights: ]
[num_machines: 1]
[local_listen_port: 12400]
[time_out: 120]
[machine_list_filename: ]
[machines: ]
[gpu_platform_id: -1]
[gpu_device_id: -1]
[gpu_use_dp: 0]
[num_gpu: 1]

end of parameters

pandas_categorical:null
