tree
version=v4
num_class=1
num_tree_per_iteration=1
label_index=0
max_feature_idx=44
objective=binary sigmoid:1
feature_names=Column_0 Column_1 Column_2 Column_3 Column_4 Column_5 Column_6 Column_7 Column_8 Column_9 Column_10 Column_11 Column_12 Column_13 Column_14 Column_15 Column_16 Column_17 Column_18 Column_19 Column_20 Column_21 Column_22 Column_23 Column_24 Column_25 Column_26 Column_27 Column_28 Column_29 Column_30 Column_31 Column_32 Column_33 Column_34 Column_35 Column_36 Column_37 Column_38 Column_39 Column_40 Column_41 Column_42 Column_43 Column_44
feature_infos=none [-7.4000000000000004:4.1569999999999991] [0:0.94099999999999995] [0:0.95299999999999996] [0:1] [0:1] [0:1] [0:1] [0:1] [0:1] [0:1] [0:1] [0:1] [0:1] [0:1] [0.25:1] [0:1] [0:1] [0:1] [-0.3666666666666667:1] [0:1] none [-1.05:1.1000000000000001] [-0.83333333333333337:0.53333333333333333] none [0:1] [0:1] [0:1] [0.10416666666666674:1] [0.45000000000000001:1] [0:1] [0.010999999999999999:0.86799999999999999] [0.025000000000000001:0.97499999999999998] [0.048000000000000001:1] [0.014:1] [0.028000000000000001:1] [0:1] [0:1] [0.15050000000000002:0.84949999999999992] [0:1] [0:1] [0:1] [0:1] [0:1] [0:1]
tree_sizes=1693 1705 1732 1715

Tree=0
num_leaves=15
num_cat=0
split_feature=11 12 2 1 19 4 31 13 1 4 4 35 22 2
split_gain=1665.54 999.308 449.004 152.832 137.656 69.7694 60.0237 54.6524 84.9125 75.0755 110.16 52.5588 54.5721 62.3531
threshold=1.0000000180025095e-35 1.0000000180025095e-35 0.081500000000000017 -0.26150000000000012 1.0000000180025095e-35 0.18850000000000003 0.23450000000000001 1.0000000180025095e-35 2.6910000000000003 0.56850000000000012 0.52200000000000013 0.26150000000000007 -0.52499999999999991 0.16300000000000003
decision_type=2 2 2 2 2 2 2 2 2 2 2 2 2 2
left_child=1 2 4 -4 6 -6 -1 8 9 10 11 -5 -13 -14
right_child=-2 -3 3 7 5 -7 -8 -9 -10 -11 -12 12 13 -15
leaf_value=-1.8339539327467487 -1.5952575099901012 -1.6427475691427205 -1.8009132038356011 -1.6639334942362813 -1.8411021803805308 -1.7202167728039628 -1.7077200323259596 -1.6771410386423198 -1.6493300726543763 -1.8120440072242956 -1.6337516549868865 -1.8627993299333359 -1.7870427515001732 -1.6924210945802698
leaf_weight=154.72113987058401 170.66065566241741 131.23133244365454 38.949938468635082 8.6289095282554609 9.587677136063574 31.759180761873722 5.2732224762439719 52.013149008154869 17.857048891484737 21.212735705077648 15.579975560307501 7.6701416969299308 32.118718519806862 17.018127083778381
leaf_count=1181 449 475 270 32 75 165 24 224 64 152 50 64 213 77
internal_value=-1.70402 -1.73852 -1.76935 -1.72873 -1.81218 -1.74804 -1.82911 -1.7126 -1.72903 -1.74449 -1.72713 -1.75186 -1.76771 -1.75235
internal_weight=714.282 543.621 412.39 211.049 201.341 41.3469 159.994 172.099 120.086 102.229 81.0159 65.4359 56.807 49.1368
internal_count=3515 3066 2591 1146 1445 240 1205 876 652 588 436 386 354 290
is_linear=0
shrinkage=1


Tree=1
num_leaves=15
num_cat=0
split_feature=11 2 8 2 37 1 36 19 31 38 31 33 4 4
split_gain=1044.5 496.711 225.216 91.0313 98.5289 62.9896 58.4147 49.733 51.1699 50.0927 49.2615 48.9753 52.0951 48.4654
threshold=1.0000000180025095e-35 0.06950000000000002 1.0000000180025095e-35 0.14450000000000002 0.91666666666666685 1.2015000000000002 0.18333333333333332 1.0000000180025095e-35 0.20550000000000002 0.46355000000000007 0.24450000000000002 0.45100000000000007 0.33850000000000002 0.64850000000000019
decision_type=2 2 2 2 2 2 2 2 2 2 2 2 2 2
left_child=1 2 7 4 5 -3 -5 8 -1 -9 -8 -7 -13 -12
right_child=-2 3 -4 6 -6 11 10 9 -10 -11 13 12 -14 -15
leaf_value=0.0015809584841877011 0.1853666177564875 0.026634247976043541 0.1173945029701858 0.077654229137567435 0.12287765463281318 0.125382457058585 0.11716799879488564 0.11860000339765471 0.10367556057128136 -0.011526326861220825 0.18530970388527462 0.11181101837319661 -0.041361406251496369 0.088732245378635097
leaf_weight=159.50697603076696 199.6507682800293 51.863150991499424 40.135187864303589 37.815356619656086 61.332596808671951 25.676999643445015 105.72541666030884 12.31723775714636 7.2634730562567702 7.0880214348435393 49.702923588454723 5.3310551121830922 7.2474129125475883 13.439584009349344
leaf_count=1162 449 335 174 193 252 102 437 51 31 51 127 21 57 61
internal_value=0.106477 0.0792568 0.0326677 0.108524 0.0838225 0.0561856 0.126134 0.0138729 0.00661901 0.0728341 0.13647 0.0945495 0.0270102 0.166457
internal_weight=784.096 584.445 226.311 358.134 151.451 90.1186 206.683 186.176 166.77 19.4053 168.868 38.2555 12.5785 63.1425
internal_count=3503 3054 1469 1585 767 515 818 1295 1193 102 625 180 78 188
is_linear=0
shrinkage=0.04


Tree=2
num_leaves=15
num_cat=0
split_feature=11 12 3 1 19 4 9 13 8 1 18 33 32 32
split_gain=849.999 541.075 252.577 144.452 89.9818 62.337 59.5545 58.6481 55.2758 65.1896 48.9044 44.2448 43.2188 34.7137
threshold=1.0000000180025095e-35 1.0000000180025095e-35 0.21500000000000005 -0.26150000000000012 1.0000000180025095e-35 0.18850000000000003 1.0000000180025095e-35 1.0000000180025095e-35 1.0000000180025095e-35 2.521500000000001 1.0000000180025095e-35 0.62850000000000017 0.41450000000000004 0.36750000000000005
decision_type=2 2 2 2 2 2 2 2 2 2 2 2 2 2
left_child=1 2 4 -4 7 -6 -2 12 9 13 -9 -10 -1 -5
right_child=6 -3 3 8 5 -7 -8 10 11 -11 -12 -13 -14 -15
leaf_value=-0.022954465299002299 0.16517347523181933 0.1315608336773321 -0.00090256513041806429 0.013965211528005067 -0.023011471834652353 0.083155895792019249 0.10077689149009295 0.10036514986118571 0.12505548678362888 0.13148631696443627 -0.017168985029288104 0.034973555497174451 0.029790793660542391 0.067586954853791986
leaf_weight=112.8346578925848 195.75125460326672 148.50336968898773 36.452832154929638 27.074618130922318 10.976921834051607 37.850444823503494 32.809235006570816 13.965224124491215 65.779240801930428 20.615668654441833 8.7001916617155075 11.132779464125631 30.876238420605659 72.219267450273037
leaf_count=880 361 465 253 169 82 173 103 65 229 65 66 60 196 359
internal_value=0.0908916 0.065588 0.0434985 0.0722423 0.012151 0.0593055 0.156409 -0.00195936 0.0857254 0.0676779 0.0564302 0.112633 -0.0114946 0.0532509
internal_weight=825.542 596.981 448.478 233.274 215.204 48.8274 228.56 166.376 196.822 119.91 22.6654 76.912 143.711 99.2939
internal_count=3526 3062 2597 1135 1462 255 464 1207 882 593 131 289 1076 528
is_linear=0
shrinkage=0.04


Tree=3
num_leaves=15
num_cat=0
split_feature=2 11 19 18 15 37 36 3 37 2 31 2 34 30
split_gain=554.387 222.687 142.908 71.9429 114.662 65.7727 106.255 57.6782 47.483 46.5042 37.7338 37.1124 36.3999 35.8369
threshold=0.081500000000000017 1.0000000180025095e-35 1.0000000180025095e-35 1.0000000180025095e-35 0.62500000000000011 0.91666666666666685 0.77500000000000013 0.081500000000000017 0.45000000000000007 0.12950000000000003 0.098500000000000018 0.039000000000000007 0.33850000000000008 0.60769230769230786
decision_type=2 2 2 2 2 2 2 2 2 2 2 2 2 2
left_child=2 5 3 4 -1 6 9 -4 -6 12 -9 -12 13 -2
right_child=1 -3 7 -5 8 -7 -8 10 -10 -11 11 -13 -14 -15
leaf_value=0.0052881392445466215 0.0073240208515749977 0.13911187435579833 0.013793361491111667 -0.019082652635100231 0.012490374722778952 0.10716660125751921 0.10597142455648849 0.032305556171705982 0.092841642490382292 0.065081860054238119 0.14283727470196847 0.065478168256747141 -0.01302267309386472 0.1297993523015015
leaf_weight=91.922910004854202 8.659761004149912 210.87169346213341 15.274098075926302 53.297856025397778 15.71985789388418 155.71672642230988 87.384954713284969 11.409900262951849 50.244456246495247 85.921502009034157 31.705419071018696 18.309506267309189 28.144042029976845 6.0294188037514678
leaf_count=645 57 380 91 417 99 511 288 57 204 387 78 79 192 20
internal_value=0.0836135 0.106035 0.0380187 0.0208389 0.0343504 0.086955 0.0719671 0.084445 0.0741657 0.0482498 0.101511 0.116356 0.013771 0.062665
internal_weight=870.612 582.728 287.884 211.185 157.887 371.856 216.14 76.6989 65.9643 128.755 61.4248 50.0149 42.8332 14.6892
internal_count=3505 1835 1670 1365 948 1455 944 305 303 656 214 157 269 77
is_linear=0
shrinkage=0.04


end of trees

feature_importances:
Column_2=7
Column_4=6
Column_1=5
Column_11=4
Column_19=4
Column_31=4
Column_37=3
Column_3=2
Column_8=2
Column_12=2
Column_13=2
Column_18=2
Column_32=2
Column_33=2
Column_36=2
Column_9=1
Column_15=1
Column_22=1
Column_30=1
Column_34=1
Column_35=1
Column_38=1

parameters:
[boosting: gbdt]
[objective: binary]
[metric: binary_logloss]
[tree_learner: serial]
[device_type: cpu]
[data_sample_strategy: bagging]
[data: ]
[valid: ]
[num_iterations: 400]
[learning_rate: 0.04]
[num_leaves: 15]
[num_threads: 0]
[seed: 0]
[deterministic: 0]
[force_col_wise: 0]
[force_row_wise: 0]
[histogram_pool_size: -1]
[max_depth: -1]
[min_data_in_leaf: 25]
[min_sum_hessian_in_leaf: 0.001]
[bagging_fraction: 0.85]
[pos_bagging_fraction: 1]
[neg_bagging_fraction: 1]
[bagging_freq: 1]
[bagging_seed: 3]
[bagging_by_query: 0]
[feature_fraction: 0.85]
[feature_fraction_bynode: 1]
[feature_fraction_seed: 2]
[extra_trees: 0]
[extra_seed: 6]
[early_stopping_round: 0]
[early_stopping_min_delta: 0]
[first_metric_only: 0]
[max_delta_step: 0]
[lambda_l1: 0]
[lambda_l2: 1]
[linear_lambda: 0]
[min_gain_to_split: 0]
[drop_rate: 0.1]
[max_drop: 50]
[skip_drop: 0.5]
[xgboost_dart_mode: 0]
[uniform_drop: 0]
[drop_seed: 4]
[top_rate: 0.2]
[other_rate: 0.1]
[min_data_per_group: 100]
[max_cat_threshold: 32]
[cat_l2: 10]
[cat_smooth: 10]
[max_cat_to_onehot: 4]
[top_k: 20]
[monotone_constraints: ]
[monotone_constraints_method: basic]
[monotone_penalty: 0]
[feature_contri: ]
[forcedsplits_filename: ]
[refit_decay_rate: 0.9]
[cegb_tradeoff: 1]
[cegb_penalty_split: 0]
[cegb_penalty_feature_lazy: ]
[cegb_penalty_feature_coupled: ]
[path_smooth: 0]
[interaction_constraints: ]
[verbosity: -1]
[saved_feature_importance_type: 0]
[use_quantized_grad: 0]
[num_grad_quant_bins: 4]
[quant_train_renew_leaf: 0]
[stochastic_rounding: 1]
[linear_tree: 0]
[max_bin: 255]
[max_bin_by_feature: ]
[min_data_in_bin: 3]
[bin_construct_sample_cnt: 200000]
[data_random_seed: 1]
[is_enable_sparse: 1]
[enable_bundle: 1]
[use_missing: 1]
[zero_as_missing: 0]
[feature_pre_filter: 1]
[pre_partition: 0]
[two_round: 0]
[header: 0]
[label_column: ]
[weight_column: ]
[group_column: ]
[ignore_column: ]
[categorical_feature: ]
[forcedbins_filename: ]
[precise_float_parser: 0]
[parser_config_file: ]
[objective_seed: 5]
[num_class: 1]
[is_unbalance: 0]
[scale_pos_weight: 6]
[sigmoid: 1]
[boost_from_average: 1]
[reg_sqrt: 0]
[alpha: 0.9]
[fair_c: 1]
[poisson_max_delta_step: 0.7]
[tweedie_variance_power: 1.5]
[lambdarank_truncation_level: 30]
[lambdarank_norm: 1]
[label_gain: ]
[lambdarank_position_bias_regularization: 0]
[eval_at: ]
[multi_error_top_k: 1]
[auc_mu_weights: ]
[num_machines: 1]
[local_listen_port: 12400]
[time_out: 120]
[machine_list_filename: ]
[machines: ]
[gpu_platform_id: -1]
[gpu_device_id: -1]
[gpu_use_dp: 0]
[num_gpu: 1]

end of parameters

pandas_categorical:null
