tree
version=v4
num_class=1
num_tree_per_iteration=1
label_index=0
max_feature_idx=44
objective=binary sigmoid:1
feature_names=Column_0 Column_1 Column_2 Column_3 Column_4 Column_5 Column_6 Column_7 Column_8 Column_9 Column_10 Column_11 Column_12 Column_13 Column_14 Column_15 Column_16 Column_17 Column_18 Column_19 Column_20 Column_21 Column_22 Column_23 Column_24 Column_25 Column_26 Column_27 Column_28 Column_29 Column_30 Column_31 Column_32 Column_33 Column_34 Column_35 Column_36 Column_37 Column_38 Column_39 Column_40 Column_41 Column_42 Column_43 Column_44
feature_infos=none [-7.4000000000000004:4.4329999999999998] [0:0.94099999999999995] [0:1] [0:1] [0:1] [0:1] [0:1] [0:1] [0:1] [0:1] [0:1] [0:1] [0:1] [0:1] [0.25:1] [0:1] [0:1] [0:1] [-0.3666666666666667:1] [0:1] none [-1.05:1.1499999999999999] [-0.83333333333333337:0.66666666666666663] [-0.56666666666666665:0.53333333333333333] [0:1] [0:1] [0:1] [0.10416666666666674:1] [0.45000000000000001:1] [0:1] [0.010999999999999999:1] [0.010999999999999999:1] [0.048000000000000001:1] [0.014:1] [0.028000000000000001:1] [0:1] [0:1] [0:1] [0:1] [0:1] [0:1] [0:1] [0:1] [0:1]
tree_sizes=1698 1719 1718 1726 1733 1739 1725

Tree=0
num_leaves=15
num_cat=0
split_feature=11 2 12 12 8 1 1 36 9 18 4 38 30 38
split_gain=1961.9 1028.3 415.203 335.746 258.796 242.563 118.719 102.031 110.369 74.5177 61.3465 57.4487 49.7149 45.9189
threshold=1.0000000180025095e-35 0.06950000000000002 1.0000000180025095e-35 1.0000000180025095e-35 1.0000000180025095e-35 2.5795000000000008 -2.0934999999999993 0.45000000000000007 1.0000000180025095e-35 1.0000000180025095e-35 0.27600000000000008 0.42695000000000005 0.23904761904761906 0.43370000000000003
decision_type=2 2 2 2 2 2 2 2 2 2 2 2 2 2
left_child=1 3 5 4 -1 6 -3 8 13 -9 -11 -5 -7 -8
right_child=-2 2 -4 11 -6 12 7 9 -10 10 -12 -13 -14 -15
leaf_value=-1.816165302375232 -1.5926128035408016 -1.8413241384565888 -1.6307287506727415 -1.6299962821446541 -1.7091683487040963 -1.7772141952808156 -1.7056712305397701 -1.6921787015424872 -1.8162769956116467 -1.6597967544033081 -1.7815049714014839 -1.728904365629494 -1.642365670072969 -1.7695605075421388
leaf_weight=226.03967326879501 230.9797759577632 13.735886305570601 137.96131604164839 20.001378580927849 42.051090888679028 5.3015701770782462 50.364916890859604 153.02259449660778 32.411872126162052 7.5908846333622924 32.893833123147488 23.013634242117405 77.234238885343075 31.086479678750038
leaf_count=1666 622 109 480 66 214 34 253 730 239 28 218 126 286 198
internal_value=-1.69588 -1.72409 -1.69083 -1.78218 -1.79905 -1.71178 -1.728 -1.72286 -1.7538 -1.70506 -1.75551 -1.67977 -1.65048 -1.72922
internal_weight=1083.69 852.709 541.604 311.106 268.091 403.642 321.106 307.371 113.863 193.507 40.4847 43.015 82.5358 81.4514
internal_count=5269 4647 2575 2072 1880 2095 1775 1666 690 976 246 192 320 451
is_linear=0
shrinkage=1


Tree=1
num_leaves=15
num_cat=0
split_feature=2 20 17 9 37 2 2 14 17 1 30 38 34 30
split_gain=1073.33 356.766 378.323 163.4 159.813 141.739 112.859 83.7413 81.3989 70.6517 60.0039 59.902 77.1231 51.6294
threshold=0.16050000000000003 1.0000000180025095e-35 1.0000000180025095e-35 1.0000000180025095e-35 0.63333333333333341 0.06950000000000002 0.046000000000000006 1.0000000180025095e-35 1.0000000180025095e-35 2.3805000000000001 0.19523809523809527 0.60300000000000009 0.42150000000000004 0.53137254901960795
decision_type=2 2 2 2 2 2 2 2 2 2 2 2 2 2
left_child=1 2 5 7 9 -1 11 10 -5 -4 -2 -6 -13 -7
right_child=3 -3 4 8 6 13 -8 -9 -10 -11 -12 12 -14 -15
leaf_value=-0.010470075746602423 0.092630900407006958 0.11888807815724559 0.037410508924303761 0.023179411703377041 0.11280308614690465 0.025261827097078152 0.13989954800830856 0.090946545086575251 0.11835444825235017 0.11029578041346697 0.16861374839279131 -0.020878601110357768 0.13408637430245401 0.087611320245348109
leaf_weight=133.31854681670666 21.594463989138603 192.68828687816858 101.81362098455429 20.20748246461153 18.80815277993679 46.15765081346035 96.542267240583897 30.603857755661011 54.23020900785923 26.682071834802628 376.21995729953051 19.390322610735897 5.895586445927619 40.30489507317543
leaf_count=1003 97 798 621 131 83 296 343 146 214 112 1052 148 23 199
internal_value=0.105706 0.0728242 0.0544641 0.150043 0.0861762 0.0154168 0.115644 0.159685 0.0931672 0.05328 0.164732 0.0606134 0.0189791 0.0549957
internal_weight=1184.46 681.601 488.913 502.856 269.132 219.781 140.636 428.418 74.4377 128.496 397.814 44.0941 25.2859 86.4625
internal_count=5266 3626 2828 1640 1330 1498 597 1295 345 733 1149 254 171 495
is_linear=0
shrinkage=0.04


Tree=2
num_leaves=15
num_cat=0
split_feature=11 12 2 8 1 1 1 36 22 34 34 3 38 2
split_gain=1157.48 518.926 378.862 186.093 167.783 83.7607 75.6178 70.7838 49.0691 47.1885 46.0527 45.0948 44.1693 43.7015
threshold=1.0000000180025095e-35 1.0000000180025095e-35 0.10100000000000002 1.0000000180025095e-35 2.8375000000000008 2.4845000000000002 -1.9614999999999998 0.45000000000000007 0.27500000000000008 0.36450000000000005 0.46250000000000008 0.21500000000000005 0.57177500000000003 0.13950000000000001
decision_type=2 2 2 2 2 2 2 2 2 2 2 2 2 2
left_child=1 2 3 5 6 -1 -4 12 -3 -9 -11 -7 13 -8
right_child=-2 8 4 -5 -6 11 7 9 -10 10 -12 -13 -14 -15
leaf_value=0.0048056378813262383 0.15860083560979013 0.1336645283175594 -0.04242855570051652 0.085266655200029601 0.13991673563065024 0.0013290471670808848 -0.007171987450875281 0.11465576469636288 0.079718814667879528 0.033324108259688089 0.0881777065228566 0.10429111428432303 0.0056113695521214021 0.075655028057714235
leaf_weight=283.34131415188313 300.33418168127537 170.20563904941082 8.880565792322157 65.952302902936935 65.329798802733421 9.8200252354145068 11.984279006719587 67.067344784736633 38.726768374443054 37.933949276804924 78.52994105219841 21.368197962641716 31.637786872684956 61.444204762578011
leaf_count=1975 641 500 69 287 177 65 78 245 167 208 332 84 208 280
internal_value=0.0901879 0.0684664 0.0526846 0.0246995 0.0818844 0.0117695 0.0687137 0.0722684 0.124093 0.0873268 0.0707469 0.0729206 0.045389 0.0622221
internal_weight=1252.56 952.222 743.29 380.482 362.808 314.53 297.478 288.598 208.932 183.531 116.464 31.1882 105.066 73.4285
internal_count=5316 4675 4008 2411 1597 2124 1420 1351 667 785 540 149 566 358
is_linear=0
shrinkage=0.04


Tree=3
num_leaves=15
num_cat=0
split_feature=11 12 9 2 36 13 34 33 33 2 6 4 31 30
split_gain=706.842 427.294 309.113 160.67 133.131 116.771 117.21 54.1871 48.7311 41.345 40.8026 51.5114 39.4258 39.1203
threshold=1.0000000180025095e-35 1.0000000180025095e-35 1.0000000180025095e-35 0.06950000000000002 0.70833333333333348 1.0000000180025095e-35 0.26150000000000007 0.53000000000000014 0.34350000000000008 0.10600000000000001 0.12500000000000003 0.63450000000000017 0.11050000000000001 0.27922077922077926
decision_type=2 2 2 2 2 2 2 2 2 2 2 2 2 2
left_child=1 2 4 -4 5 6 -1 -5 9 -6 12 -12 -8 -14
right_child=-2 -3 3 7 8 -7 10 -9 -10 -11 11 -13 13 -15
leaf_value=-0.023165764483325472 0.13576528654105838 0.11469393494997798 -0.0033724359250536808 0.059271152974984809 -0.040382046720324381 0.10888912447672862 0.0024667252121843247 -0.017206572595584425 0.12361345490236265 0.089055392701873459 0.051306606428908358 -0.043686251171920432 0.016602924710595955 0.099757454101733839
leaf_weight=31.009068161249161 315.31285437941551 231.09920464456081 171.8135541677475 148.97923352569342 5.4890661835670462 66.286249503493309 9.4599737450480443 16.012323416769505 94.984978869557381 9.7894055992364866 129.38831067085266 9.0775308609008771 10.877835236489771 70.359611019492149
leaf_count=229 631 661 1247 726 41 233 59 104 276 36 634 63 64 259
internal_value=0.0835155 0.0669976 0.0526181 0.0237235 0.0747969 0.0616152 0.0492 0.0517901 0.11292 0.0429287 0.0590502 0.0448105 0.080064 0.0889602
internal_weight=1319.94 1004.63 773.527 336.805 436.722 326.459 260.172 164.992 110.263 15.2785 229.163 138.466 90.6974 81.2374
internal_count=5263 4632 3971 2077 1894 1541 1308 830 353 77 1079 697 382 323
is_linear=0
shrinkage=0.04


Tree=4
num_leaves=15
num_cat=0
split_feature=11 12 1 19 18 2 1 25 32 5 37 33 1 30
split_gain=745.356 340.155 222.264 137.65 95.9968 79.0696 67.502 46.4554 60.158 49.3401 47.9321 49.3954 45.3466 39.0171
threshold=1.0000000180025095e-35 1.0000000180025095e-35 0.93750000000000011 1.0000000180025095e-35 1.0000000180025095e-35 0.15650000000000003 2.5180000000000002 0.29000000000000009 0.60350000000000004 1.0000000180025095e-35 0.63333333333333341 0.34350000000000008 1.2015000000000002 0.73746867167919816
decision_type=2 2 2 2 2 2 2 2 2 2 2 2 2 2
left_child=1 2 3 5 6 -1 7 10 9 -9 11 -4 -11 -6
right_child=-2 -3 4 -5 13 -7 -8 8 -10 12 -12 -13 -14 -15
leaf_value=-0.0036526789405330875 0.12609104336501226 0.10035214774655789 0.060524222122054057 0.059805047424904959 -0.0055513664835134726 0.061090256954238822 0.096293435154127693 0.12554394704206615 0.0037676462826022618 0.10026210037793108 0.071855742455737476 -0.014535515926140146 0.046776764514853852 0.066281609807412115
leaf_weight=210.32143463939428 355.09494899213314 241.72395919263363 21.521094411611557 107.3555401712656 40.170847371220589 34.220906876027584 126.67297845333815 32.253636941313744 17.994778655469418 42.680495962500572 37.337162338197231 36.434845194220543 69.414825245738029 16.229995988309383
leaf_count=1479 621 659 105 468 271 145 377 95 98 148 170 244 316 79
internal_value=0.0761054 0.0588398 0.0460691 0.0222727 0.0649766 0.00561925 0.072117 0.0599038 0.0729727 0.0815146 0.0371125 0.0138907 0.0678479 0.015914
internal_weight=1389.43 1034.33 792.609 351.898 440.711 244.542 384.31 257.637 162.344 144.349 95.2931 57.9559 112.095 56.4008
internal_count=5275 4654 3995 2092 1903 1624 1553 1176 657 559 519 349 464 350
is_linear=0
shrinkage=0.04


Tree=5
num_leaves=15
num_cat=0
split_feature=2 11 19 12 12 31 11 38 1 4 32 6 38 33
split_gain=535.299 240.004 185.87 116.389 94.703 92.8399 88.1287 84.3966 70.6206 56.5049 51.6436 46.455 39.3408 39.4786
threshold=0.06950000000000002 1.0000000180025095e-35 1.0000000180025095e-35 1.0000000180025095e-35 1.0000000180025095e-35 0.24550000000000002 1.0000000180025095e-35 0.44345000000000007 -2.0934999999999993 0.57900000000000007 0.44350000000000006 0.37500000000000006 0.92475000000000007 0.46550000000000008
decision_type=2 2 2 2 2 2 2 2 2 2 2 2 2 2
left_child=2 4 3 6 5 8 10 -4 -2 -6 12 -7 13 -1
right_child=1 -3 7 -5 9 11 -8 -9 -10 -11 -12 -13 -14 -15
leaf_value=-0.025324692484026565 -0.029554135269107544 0.11359202934681159 0.093751650451479179 0.073591484949043814 0.11038174623648049 0.10961977532950588 0.075128745051842444 0.0090360039106344141 0.057182432856937429 0.06249451716602996 0.036157295339674538 0.04987587164329306 0.091516204547598443 0.024516423870425037
leaf_weight=147.08794617652893 15.036792322993277 339.2688594609499 85.639008641242981 43.76340414583683 139.29811370372772 87.226520508527756 23.681242436170578 24.326690867543221 389.59612207859755 61.893691599369049 39.812504313886166 30.682981938123703 4.5462051928043357 29.864078782498837
leaf_count=1137 109 552 259 147 294 216 61 127 1625 187 237 126 22 193
internal_value=0.0708753 0.0856967 0.0312456 0.0142814 0.0724814 0.0632477 0.00343061 0.0752611 0.0538943 0.0960319 -0.00454484 0.0946231 -0.0136223 -0.0168225
internal_weight=1461.72 1063 398.721 288.755 723.734 522.542 244.992 109.966 404.633 201.192 221.311 117.91 181.498 176.952
internal_count=5292 3109 2183 1797 2557 2076 1650 386 1734 481 1589 342 1352 1330
is_linear=0
shrinkage=0.04


Tree=6
num_leaves=15
num_cat=0
split_feature=11 2 8 12 36 18 12 4 26 3 3 3 1 22
split_gain=497.258 267.143 160.115 104.819 100.282 65.4368 53.2593 48.7167 37.1341 79.4072 68.74 71.0166 58.6491 40.279
threshold=1.0000000180025095e-35 0.06950000000000002 1.0000000180025095e-35 1.0000000180025095e-35 0.45000000000000007 1.0000000180025095e-35 1.0000000180025095e-35 0.27600000000000008 0.075000000000000011 0.15850000000000003 0.32150000000000006 0.38200000000000006 1.4020000000000004 0.62500000000000011
decision_type=2 2 2 2 2 2 2 2 2 2 2 2 2 2
left_child=1 2 3 -1 6 -6 8 -7 12 -10 -11 -12 13 -3
right_child=-2 4 -4 -5 5 7 -8 -9 9 10 11 -13 -14 -15
leaf_value=-0.0013889500349921955 0.10376557624764042 -0.030403236456546558 0.073537443937847891 0.066387980176157019 0.079196816661836811 0.1067365704167297 0.085076131567430602 0.0121068416959318 0.13730783617705405 -0.020352703972406495 0.10660524647060257 0.015161782780992606 0.047992097821691795 0.081076616775697108
leaf_weight=236.97382748872042 404.89481936395168 41.301780842244625 78.172134891152382 42.149456232786179 488.42537596821785 10.018485724925993 37.426539808511734 43.05563759803772 13.320653796195982 24.944663286209106 25.303423777222633 28.918563172221184 41.021110832691193 4.9399033784866324
leaf_count=1671 635 274 252 138 1413 27 87 236 27 143 70 136 173 20
internal_value=0.0657888 0.0519296 0.0233221 0.00904627 0.0653538 0.0745999 0.0420638 0.0316131 0.0326869 0.0502314 0.0340498 0.0589928 0.0137335 -0.01703
internal_weight=1520.87 1115.97 357.295 279.123 758.676 541.499 217.177 53.0741 179.75 92.4873 79.1667 54.222 87.2628 46.2417
internal_count=5302 4667 2061 1809 2606 1676 930 263 843 376 349 206 467 294
is_linear=0
shrinkage=0.04


end of trees

feature_importances:
Column_1=11
Column_2=11
Column_12=9
Column_11=7
Column_38=6
Column_30=5
Column_3=4
Column_4=4
Column_33=4
Column_34=4
Column_36=4
Column_8=3
Column_9=3
Column_18=3
Column_6=2
Column_17=2
Column_19=2
Column_22=2
Column_31=2
Column_32=2
Column_37=2
Column_5=1
Column_13=1
Column_14=1
Column_20=1
Column_25=1
Column_26=1

parameters:
[boosting: gbdt]
[objective: binary]
[metric: binary_logloss]
[tree_learner: serial]
[device_type: cpu]
[data_sample_strategy: bagging]
[data: ]
[valid: ]
[num_iterations: 400]
[learning_rate: 0.04]
[num_leaves: 15]
[num_threads: 0]
[seed: 0]
[deterministic: 0]
[force_col_wise: 0]
[force_row_wise: 0]
[histogram_pool_size: -1]
[max_depth: -1]
[min_data_in_leaf: 25]
[min_sum_hessian_in_leaf: 0.001]
[bagging_fraction: 0.85]
[pos_bagging_fraction: 1]
[neg_bagging_fraction: 1]
[bagging_freq: 1]
[bagging_seed: 3]
[bagging_by_query: 0]
[feature_fraction: 0.85]
[feature_fraction_bynode: 1]
[feature_fraction_seed: 2]
[extra_trees: 0]
[extra_seed: 6]
[early_stopping_round: 0]
[early_stopping_min_delta: 0]
[first_metric_only: 0]
[max_delta_step: 0]
[lambda_l1: 0]
[lambda_l2: 1]
[linear_lambda: 0]
[min_gain_to_split: 0]
[drop_rate: 0.1]
[max_drop: 50]
[skip_drop: 0.5]
[xgboost_dart_mode: 0]
[uniform_drop: 0]
[drop_seed: 4]
[top_rate: 0.2]
[other_rate: 0.1]
[min_data_per_group: 100]
[max_cat_threshold: 32]
[cat_l2: 10]
[cat_smooth: 10]
[max_cat_to_onehot: 4]
[top_k: 20]
[monotone_constraints: ]
[monotone_constraints_method: basic]
[monotone_penalty: 0]
[feature_contri: ]
[forcedsplits_filename: ]
[refit_decay_rate: 0.9]
[cegb_tradeoff: 1]
[cegb_penalty_split: 0]
[cegb_penalty_feature_lazy: ]
[cegb_penalty_feature_coupled: ]
[path_smooth: 0]
[interaction_constraints: ]
[verbosity: -1]
[saved_feature_importance_type: 0]
[use_quantized_grad: 0]
[num_grad_quant_bins: 4]
[quant_train_renew_leaf: 0]
[stochastic_rounding: 1]
[linear_tree: 0]
[max_bin: 255]
[max_bin_by_feature: ]
[min_data_in_bin: 3]
[bin_construct_sample_cnt: 200000]
[data_random_seed: 1]
[is_enable_sparse: 1]
[enable_bundle: 1]
[use_missing: 1]
[zero_as_missing: 0]
[feature_pre_filter: 1]
[pre_partition: 0]
[two_round: 0]
[header: 0]
[label_column: ]
[weight_column: ]
[group_column: ]
[ignore_column: ]
[categorical_feature: ]
[forcedbins_filename: ]
[precise_float_parser: 0]
[parser_config_file: ]
[objective_seed: 5]
[num_class: 1]
[is_unbalance: 0]
[scale_pos_weight: 6]
[sigmoid: 1]
[boost_from_average: 1]
[reg_sqrt: 0]
[alpha: 0.9]
[fair_c: 1]
[poisson_max_delta_step: 0.7]
[tweedie_variance_power: 1.5]
[lambdarank_truncation_level: 30]
[lambdarank_norm: 1]
[label_gain: ]
[lambdarank_position_bias_regularization: 0]
[eval_at: ]
[multi_error_top_k: 1]
[auc_mu_weights: ]
[num_machines: 1]
[local_listen_port: 12400]
[time_out: 120]
[machine_list_filename: ]
[machines: ]
[gpu_platform_id: -1]
[gpu_device_id: -1]
[gpu_use_dp: 0]
[num_gpu: 1]

end of parameters

pandas_categorical:null
