tree
version=v4
num_class=1
num_tree_per_iteration=1
label_index=0
max_feature_idx=44
objective=binary sigmoid:1
feature_names=Column_0 Column_1 Column_2 Column_3 Column_4 Column_5 Column_6 Column_7 Column_8 Column_9 Column_10 Column_11 Column_12 Column_13 Column_14 Column_15 Column_16 Column_17 Column_18 Column_19 Column_20 Column_21 Column_22 Column_23 Column_24 Column_25 Column_26 Column_27 Column_28 Column_29 Column_30 Column_31 Column_32 Column_33 Column_34 Column_35 Column_36 Column_37 Column_38 Column_39 Column_40 Column_41 Column_42 Column_43 Column_44
feature_infos=none [-7.4000000000000004:4.4329999999999998] [0:0.94099999999999995] [0:1] [0:1] [0:1] [0:1] [0:1] [0:1] [0:1] [0:1] [0:1] [0:1] [0:1] [0:1] [0.25:1] [0:1] [0:1] [0:1] [-0.3666666666666667:1] [0:1] none [-1.05:1.1000000000000001] [-0.83333333333333337:0.66666666666666663] [-0.56666666666666665:0.53333333333333333] [0:1] [0:1] [0:1] [0.10416666666666674:1] [0.45000000000000001:1] [0:1] [0.010999999999999999:1] [0.010999999999999999:1] [0.048000000000000001:1] [0.014:1] [0.028000000000000001:1] [0:1] [0:1] [0:1] [0:1] [0:1] [0:1] [0:1] [0:1] [0:1]
tree_sizes=1696 1721 1714 1729 1725 1735 1749 1746

Tree=0
num_leaves=15
num_cat=0
split_feature=11 2 12 12 1 8 1 36 9 18 4 38 30 37
split_gain=1937.14 1012.25 409.332 353.003 245.033 224.724 119.146 86.8929 107.734 64.6 64.8271 53.1632 49.7366 49.6289
threshold=1.0000000180025095e-35 0.06950000000000002 1.0000000180025095e-35 1.0000000180025095e-35 2.580000000000001 1.0000000180025095e-35 -2.0449999999999995 0.45000000000000007 1.0000000180025095e-35 1.0000000180025095e-35 0.27600000000000008 0.42695000000000005 0.23904761904761906 0.63333333333333341
decision_type=2 2 2 2 2 2 2 2 2 2 2 2 2 2
left_child=1 3 4 5 6 -1 -3 8 -8 13 -11 -5 -6 -9
right_child=-2 2 -4 11 12 -7 7 9 -10 10 -12 -13 -14 -15
leaf_value=-1.8168167894781986 -1.592613042804524 -1.84215494374975 -1.6313619805498412 -1.6292373727148275 -1.7778618734651093 -1.7152015739140822 -1.7284745640773884 -1.7168452814181792 -1.8156152209577578 -1.6545889873013837 -1.7812939659500306 -1.7261289789483154 -1.6429408933989218 -1.6661196654484427
leaf_weight=220.50866653770208 225.92804622650146 13.849533967673777 135.84586180746555 19.871070198714733 5.2989521026611319 40.344294272363186 80.568157888948917 85.626248456537724 31.432420514523983 7.3462744429707518 32.51629701256752 22.400115638971329 77.196097053587437 61.901394605636597
leaf_count=1626 606 110 473 65 34 210 444 451 231 26 215 121 286 259
internal_value=-1.69638 -1.72469 -1.69147 -1.78317 -1.71252 -1.80078 -1.72917 -1.72387 -1.75272 -1.70705 -1.75459 -1.67734 -1.65106 -1.6947
internal_weight=1060.63 834.705 531.581 303.124 395.735 260.853 313.24 299.391 112.001 187.39 39.8626 42.2712 82.495 147.528
internal_count=5157 4551 2529 2022 2056 1836 1736 1626 675 951 241 186 320 710
is_linear=0
shrinkage=1


Tree=1
num_leaves=15
num_cat=0
split_feature=2 20 2 9 17 37 17 15 14 18 37 30 1 33
split_gain=1106.99 353.351 387.839 134.1 130.71 118.833 100.113 84.973 83.6589 76.4455 69.946 64.3872 58.7213 52.7075
threshold=0.16050000000000003 1.0000000180025095e-35 0.051500000000000011 1.0000000180025095e-35 1.0000000180025095e-35 0.63333333333333341 1.0000000180025095e-35 0.62500000000000011 1.0000000180025095e-35 1.0000000180025095e-35 0.45000000000000007 0.19523809523809527 0.51650000000000007 0.31900000000000006
decision_type=2 2 2 2 2 2 2 2 2 2 2 2 2 2
left_child=1 2 6 8 13 -6 -1 -8 11 10 -5 -2 -9 -4
right_child=3 -3 4 9 5 -7 7 12 -10 -11 -12 -13 -14 -15
leaf_value=-0.011815502304963064 0.088258590672390225 0.11755493620238225 0.089203321360041485 0.040887834654790858 0.067898451490508507 0.13935732789291677 0.003178172266079598 -0.0044088265901713972 0.088927433096146452 0.0084847041991611832 0.1416358650878223 0.16809892972213053 0.097204488130252037 0.026884930004294295
leaf_weight=117.83278828859329 20.56255816668272 185.54356726258993 32.816354788839817 15.877598792314528 70.195487760007381 87.797817274928093 48.070079915225506 11.39467056840658 29.318995490670204 12.853110976517199 44.890053570270538 369.34837618470192 42.572609387338161 64.621600337326527
leaf_count=891 95 776 164 93 366 307 343 81 142 88 153 1038 205 413
internal_value=0.104801 0.0707889 0.0523243 0.15017 0.0857518 0.108235 0.0132779 0.0420892 0.15909 0.0979259 0.1164 0.164125 0.0760599 0.0485663
internal_weight=1153.7 660.845 475.301 492.851 255.431 157.993 219.87 102.037 419.23 73.6208 60.7677 389.911 53.9673 97.438
internal_count=5155 3546 2770 1609 1250 673 1520 629 1275 334 246 1133 286 577
is_linear=0
shrinkage=0.04


Tree=2
num_leaves=15
num_cat=0
split_feature=11 12 2 19 1 3 9 37 4 1 38 34 36 3
split_gain=1123.42 487.086 384.14 157.491 156.314 133.081 61.2329 51.8381 46.1186 45.9628 43.6689 43.0202 83.1837 63.7171
threshold=1.0000000180025095e-35 1.0000000180025095e-35 0.11250000000000002 1.0000000180025095e-35 2.8375000000000008 0.22600000000000001 1.0000000180025095e-35 0.45000000000000007 0.44250000000000006 2.5180000000000002 0.69500000000000006 0.36050000000000004 0.45000000000000007 0.27050000000000002
decision_type=2 2 2 2 2 2 2 2 2 2 2 2 2 2
left_child=1 2 3 5 6 -1 11 8 -3 10 -7 12 -4 -13
right_child=-2 7 4 -5 -6 9 -8 -9 -10 -11 -12 13 -14 -15
leaf_value=-0.0030671806006833066 0.15891346017091298 0.11722433104218501 0.038948405846347928 0.071647622310190118 0.14359275082187722 0.011679777085264456 0.041593630660603724 0.13250063769358006 0.017243854446867806 0.10556560661537681 0.079195775045121056 -0.011523026246291874 0.14141616190806311 0.079820648006337008
leaf_weight=219.8412901610136 295.2834883928299 15.23499244451523 18.87051248550415 97.756774827837944 61.580615177750587 40.609661094844341 77.603098168969154 174.00026746094227 14.275406405329703 21.186406157910824 24.042198918759823 13.46791337430477 44.762694709002972 109.911492228508
leaf_count=1586 629 52 101 465 163 268 439 520 77 83 121 87 132 480
internal_value=0.0909649 0.0693161 0.0539218 0.0277168 0.0861481 0.0134798 0.0722894 0.123975 0.07101 0.0554059 0.0376109 0.0847381 0.112102 0.0698372
internal_weight=1228.43 933.143 729.633 403.436 326.196 305.68 264.616 203.511 29.5104 85.8383 64.6519 187.013 63.6332 123.379
internal_count=5203 4574 3925 2523 1402 2058 1239 649 129 472 389 800 233 567
is_linear=0
shrinkage=0.04


Tree=3
num_leaves=15
num_cat=0
split_feature=11 12 9 2 36 10 33 22 2 35 13 36 26 4
split_gain=734.282 394.125 288.472 151.828 108.614 84.6376 73.4758 66.645 48.5594 50.6781 48.0967 43.8789 42.3698 40.6959
threshold=1.0000000180025095e-35 1.0000000180025095e-35 1.0000000180025095e-35 0.06950000000000002 0.29166666666666674 1.0000000180025095e-35 0.53000000000000014 -0.12499999999999999 0.046000000000000006 0.39450000000000007 1.0000000180025095e-35 0.45000000000000007 0.45833333333333343 0.57900000000000007
decision_type=2 2 2 2 2 2 2 2 2 2 2 2 2 2
left_child=1 2 4 -4 5 13 11 10 9 -9 -6 -5 -7 -1
right_child=-2 -3 3 6 7 12 -8 8 -10 -11 -12 -13 -14 -15
leaf_value=0.083602914762584149 0.1381341382585741 0.11399246882459735 -0.0011016095725622443 0.026316008040839143 0.049415142601693954 -0.0050819000301468107 -0.029893850877490868 -0.019909299697646078 0.11526995308953032 0.11643561130254129 0.097446247431709168 0.075644779890740421 0.10187244421373975 -0.0019002176338231245
leaf_weight=64.675906389951706 312.62022367119789 226.24927538633347 168.62152802944183 41.816794209182262 90.360631570219994 50.895236104726791 14.876101411879061 9.6573538184165972 136.20402690768242 6.6083446592092505 56.729477807879448 103.93869499862194 5.6960204765200606 10.253078728914259
leaf_count=262 610 651 1222 248 455 338 103 73 415 25 209 465 19 59
internal_value=0.0847151 0.0676654 0.0537484 0.0254453 0.075257 0.0444289 0.053147 0.0885991 0.107443 0.0390197 0.0684726 0.0617683 0.00726523 0.072032
internal_weight=1299.2 986.582 760.333 329.253 431.08 131.52 160.632 299.56 152.47 16.2657 147.09 145.755 56.5913 74.929
internal_count=5154 4544 3893 2038 1855 678 816 1177 513 98 664 713 357 321
is_linear=0
shrinkage=0.04


Tree=4
num_leaves=15
num_cat=0
split_feature=11 12 2 19 1 1 32 31 32 2 30 26 31 30
split_gain=738.661 356.302 237.227 168.685 101.377 65.1869 52.58 43.3488 54.9371 55.1697 39.1187 45.5918 37.3753 40.8713
threshold=1.0000000180025095e-35 1.0000000180025095e-35 0.06950000000000002 1.0000000180025095e-35 2.5015000000000005 -2.0449999999999995 0.44350000000000006 0.058500000000000003 0.43850000000000006 0.39600000000000007 0.4188596491228071 0.22500000000000003 0.28150000000000003 0.81534090909090928
decision_type=2 2 2 2 2 2 2 2 2 2 2 2 2 2
left_child=1 2 3 6 5 -4 -1 -7 9 -9 11 -5 13 -6
right_child=-2 -3 4 10 12 7 -8 8 -10 -11 -12 -13 -14 -15
leaf_value=-0.01046155672879452 0.12602185210555639 0.10110187253893266 -0.029510235110934632 -0.0078335628250599323 0.085327856556448867 -0.0066180007533593937 0.040889050278566728 0.066314622673725246 0.039925682423175186 0.15394019083990473 0.091240447330372579 0.1067656727008961 0.12827095840601321 -0.013858901130403545
leaf_weight=179.39520033448935 347.09866754710674 237.38008499145508 14.809667669236658 17.73847991228104 80.690095029771328 17.382781594991684 37.7602698802948 161.74702506512403 153.11530409753323 12.179323136806486 45.572822496294975 7.0070808976888648 36.666801393032074 6.954985797405242
leaf_count=1338 604 643 105 105 267 107 229 700 733 21 171 21 72 38
internal_value=0.075711 0.0582859 0.0449899 0.0161369 0.0620747 0.0510398 -0.00138591 0.0545788 0.0578417 0.0732956 0.0695111 0.0275035 0.0933012 0.0773894
internal_weight=1355.5 1008.4 771.02 287.474 483.546 359.234 217.155 344.424 327.042 173.926 70.3184 24.7456 124.312 87.6451
internal_count=5154 4550 3907 1864 2043 1666 1567 1561 1454 721 297 126 377 305
is_linear=0
shrinkage=0.04


Tree=5
num_leaves=15
num_cat=0
split_feature=2 11 19 12 12 31 38 11 1 33 38 31 2 4
split_gain=510.604 233.893 168.89 108.194 107.474 86.4234 76.6991 73.987 69.749 56.603 49.6427 50.3209 49.4529 46.4263
threshold=0.06950000000000002 1.0000000180025095e-35 1.0000000180025095e-35 1.0000000180025095e-35 1.0000000180025095e-35 0.24450000000000002 0.44345000000000007 1.0000000180025095e-35 -2.0449999999999995 0.42650000000000005 0.92475000000000007 0.025500000000000005 0.039000000000000007 0.58150000000000002
decision_type=2 2 2 2 2 2 2 2 2 2 2 2 2 2
left_child=2 4 3 7 5 8 -4 9 -2 10 11 -1 -11 -6
right_child=1 -3 6 -5 13 -7 -8 -9 -10 12 -12 -13 -14 -15
leaf_value=0.10341020848214495 -0.029637421595593693 0.1133995600020357 0.092563439265389666 0.073397585768206389 0.11011014066343101 0.092399932485327657 0.010435728945206562 0.071845976631568803 0.056351447585510785 0.05555042653023879 0.10906397876520138 -0.02463040337806132 -0.016349301765337814 0.06630899579191582
leaf_weight=4.111318737268447 15.132155515253542 329.57135480642319 81.34736579656601 41.867504835128784 140.95541150867939 118.11337371170521 23.707168266177177 22.407437950372696 376.69794225692749 39.314461506903172 3.9138860777020446 143.07385903596878 24.075476340949535 61.950767710804939
leaf_count=19 110 535 248 139 296 351 122 59 1568 233 16 1114 177 184
internal_value=0.070876 0.0853954 0.0313231 0.014918 0.0723075 0.0622609 0.0743032 0.0043176 0.0529636 -0.00303769 -0.0163322 -0.0203801 0.0284131 0.0971277
internal_weight=1426.24 1042.42 383.818 278.764 712.85 509.943 105.055 236.896 391.83 214.489 151.099 147.185 63.3899 202.906
internal_count=5171 3044 2127 1757 2509 2029 370 1618 1678 1559 1149 1133 410 480
is_linear=0
shrinkage=0.04


Tree=6
num_leaves=15
num_cat=0
split_feature=11 2 8 12 13 1 12 38 33 7 38 15 35 37
split_gain=472.44 245.199 123.928 86.1053 103.757 136.628 70.8754 44.7106 48.2641 43.2391 46.9385 35.1753 50.5431 34.3161
threshold=1.0000000180025095e-35 0.061000000000000006 1.0000000180025095e-35 1.0000000180025095e-35 1.0000000180025095e-35 2.7990000000000008 1.0000000180025095e-35 0.43055000000000004 0.36750000000000005 0.12500000000000003 0.92475000000000007 0.62500000000000011 0.36300000000000004 1.0000000180025095e-35
decision_type=2 2 2 2 2 2 2 2 2 2 2 2 2 2
left_child=1 2 6 4 5 7 9 8 11 10 -1 -3 -13 -9
right_child=-2 3 -4 -5 -6 -7 -8 13 -10 -11 -12 12 -14 -15
leaf_value=-0.0097347632072714348 0.1035893774651165 0.095491275119273578 0.070261940944507606 0.086340789380368918 0.085403542052678111 0.087766850684281958 0.061575504883741909 -0.0090274067942784381 0.027514040656911765 0.044737587546138116 0.095487108594425718 0.094542739666995126 -0.026257243897406086 0.030201041652300285
leaf_weight=182.31216901540756 391.73988193273544 43.696453161537647 68.586689934134483 213.41333644092083 143.97425502538681 94.768220648169518 35.492138504981995 47.855104371905327 73.411466017365456 30.507700629532337 6.0472218394279471 9.3148095309734362 11.260051809251307 134.89744167774916
leaf_count=1361 614 133 231 495 466 234 119 277 330 161 26 29 67 651
internal_value=0.065881 0.0523151 0.0229492 0.0645447 0.0560868 0.0457402 0.00996643 0.0330765 0.0502496 0.00135535 -0.00587022 0.0753991 0.0302795 0.0199356
internal_weight=1487.28 1095.54 322.946 772.591 559.178 415.204 254.359 320.435 137.683 218.867 188.359 64.2713 20.5749 182.753
internal_count=5194 4580 1898 2682 2187 1721 1667 1487 559 1548 1387 229 96 928
is_linear=0
shrinkage=0.04


Tree=7
num_leaves=15
num_cat=0
split_feature=11 9 36 2 13 34 37 13 31 31 22 31 22 34
split_gain=388.513 218.359 138.086 134.33 82.1495 88.7219 52.7687 42.4948 41.5975 54.286 39.2297 37.7348 37.6154 36.7334
threshold=1.0000000180025095e-35 1.0000000180025095e-35 0.63333333333333341 0.067000000000000018 1.0000000180025095e-35 0.26150000000000007 0.45000000000000007 1.0000000180025095e-35 0.099500000000000019 0.071500000000000008 0.57500000000000007 0.23350000000000004 0.27500000000000008 0.41250000000000003
decision_type=2 2 2 2 2 2 2 2 2 2 2 2 2 2
left_child=1 2 4 8 5 -1 7 -5 9 -3 -8 12 -10 -12
right_child=-2 3 -4 6 -6 -7 10 -9 11 -11 13 -13 -14 -15
leaf_value=-0.024869609950199174 0.094085087510078977 -0.00030700428842332623 0.082463014037038387 -0.0010031646191390755 0.090260228895404873 0.04502463454345796 0.064002383168186794 0.078444972480427519 0.0046025303667844124 0.070157901140214321 0.049750463577351869 0.08708749204655733 -0.041768539501806139 -0.046170235186796534
leaf_weight=31.675261557102203 410.2357369363308 50.713261492550373 309.93647660315037 53.741511441767216 56.809760332107544 287.73112871497869 158.82651621848345 12.464445218443869 55.049140423536301 25.697244763374329 13.876760736107828 4.6701308339834204 55.565955564379692 10.219925090670584
leaf_count=218 627 344 795 287 157 1125 538 43 370 122 56 19 451 63
internal_value=0.0607433 0.0485338 0.0626441 0.0264786 0.0461415 0.0380373 0.0457871 0.014899 0.00127784 0.0239909 0.0568247 -0.0138531 -0.0188569 0.00884974
internal_weight=1537.21 1126.98 686.153 440.825 376.216 319.406 249.129 66.206 191.696 76.4105 182.923 115.285 110.615 24.0967
internal_count=5215 4588 2295 2293 1500 1343 987 330 1306 466 657 840 821 119
is_linear=0
shrinkage=0.04


end of trees

feature_importances:
Column_2=12
Column_1=9
Column_12=9
Column_11=8
Column_31=7
Column_37=6
Column_38=6
Column_9=5
Column_36=5
Column_4=4
Column_13=4
Column_30=4
Column_33=4
Column_19=3
Column_22=3
Column_34=3
Column_3=2
Column_8=2
Column_15=2
Column_17=2
Column_18=2
Column_26=2
Column_32=2
Column_35=2
Column_7=1
Column_10=1
Column_14=1
Column_20=1

parameters:
[boosting: gbdt]
[objective: binary]
[metric: binary_logloss]
[tree_learner: serial]
[device_type: cpu]
[data_sample_strategy: bagging]
[data: ]
[valid: ]
[num_iterations: 400]
[learning_rate: 0.04]
[num_leaves: 15]
[num_threads: 0]
[seed: 0]
[deterministic: 0]
[force_col_wise: 0]
[force_row_wise: 0]
[histogram_pool_size: -1]
[max_depth: -1]
[min_data_in_leaf: 25]
[min_sum_hessian_in_leaf: 0.001]
[bagging_fraction: 0.85]
[pos_bagging_fraction: 1]
[neg_bagging_fraction: 1]
[bagging_freq: 1]
[bagging_seed: 3]
[bagging_by_query: 0]
[feature_fraction: 0.85]
[feature_fraction_bynode: 1]
[feature_fraction_seed: 2]
[extra_trees: 0]
[extra_seed: 6]
[early_stopping_round: 0]
[early_stopping_min_delta: 0]
[first_metric_only: 0]
[max_delta_step: 0]
[lambda_l1: 0]
[lambda_l2: 1]
[linear_lambda: 0]
[min_gain_to_split: 0]
[drop_rate: 0.1]
[max_drop: 50]
[skip_drop: 0.5]
[xgboost_dart_mode: 0]
[uniform_drop: 0]
[drop_seed: 4]
[top_rate: 0.2]
[other_rate: 0.1]
[min_data_per_group: 100]
[max_cat_threshold: 32]
[cat_l2: 10]
[cat_smooth: 10]
[max_cat_to_onehot: 4]
[top_k: 20]
[monotone_constraints: ]
[monotone_constraints_method: basic]
[monotone_penalty: 0]
[feature_contri: ]
[forcedsplits_filename: ]
[refit_decay_rate: 0.9]
[cegb_tradeoff: 1]
[cegb_penalty_split: 0]
[cegb_penalty_feature_lazy: ]
[cegb_penalty_feature_coupled: ]
[path_smooth: 0]
[interaction_constraints: ]
[verbosity: -1]
[saved_feature_importance_type: 0]
[use_quantized_grad: 0]
[num_grad_quant_bins: 4]
[quant_train_renew_leaf: 0]
[stochastic_rounding: 1]
[linear_tree: 0]
[max_bin: 255]
[max_bin_by_feature: ]
[min_data_in_bin: 3]
[bin_construct_sample_cnt: 200000]
[data_random_seed: 1]
[is_enable_sparse: 1]
[enable_bundle: 1]
[use_missing: 1]
[zero_as_missing: 0]
[feature_pre_filter: 1]
[pre_partition: 0]
[two_round: 0]
[header: 0]
[label_column: ]
[weight_column: ]
[group_column: ]
[ignore_column: ]
[categorical_feature: ]
[forcedbins_filename: ]
[precise_float_parser: 0]
[parser_config_file: ]
[objective_seed: 5]
[num_class: 1]
[is_unbalance: 0]
[scale_pos_weight: 6]
[sigmoid: 1]
[boost_from_average: 1]
[reg_sqrt: 0]
[alpha: 0.9]
[fair_c: 1]
[poisson_max_delta_step: 0.7]
[tweedie_variance_power: 1.5]
[lambdarank_truncation_level: 30]
[lambdarank_norm: 1]
[label_gain: ]
[lambdarank_position_bias_regularization: 0]
[eval_at: ]
[multi_error_top_k: 1]
[auc_mu_weights: ]
[num_machines: 1]
[local_listen_port: 12400]
[time_out: 120]
[machine_list_filename: ]
[machines: ]
[gpu_platform_id: -1]
[gpu_device_id: -1]
[gpu_use_dp: 0]
[num_gpu: 1]

end of parameters

pandas_categorical:null
