tree
version=v4
num_class=1
num_tree_per_iteration=1
label_index=0
max_feature_idx=44
objective=binary sigmoid:1
feature_names=Column_0 Column_1 Column_2 Column_3 Column_4 Column_5 Column_6 Column_7 Column_8 Column_9 Column_10 Column_11 Column_12 Column_13 Column_14 Column_15 Column_16 Column_17 Column_18 Column_19 Column_20 Column_21 Column_22 Column_23 Column_24 Column_25 Column_26 Column_27 Column_28 Column_29 Column_30 Column_31 Column_32 Column_33 Column_34 Column_35 Column_36 Column_37 Column_38 Column_39 Column_40 Column_41 Column_42 Column_43 Column_44
feature_infos=none [-7.4000000000000004:4.4329999999999998] [0:0.94099999999999995] [0:1] [0:1] [0:1] [0:1] [0:1] [0:1] [0:1] [0:1] [0:1] [0:1] [0:1] [0:1] [0.25:1] [0:1] [0:1] [0:1] [-0.3666666666666667:1] [0:1] none [-1.05:1.1499999999999999] [-1:0.66666666666666663] [-0.90000000000000002:0.66666666666666663] [0:1] [0:1] [0:1] [0.0625:1] [0.45000000000000001:1] [0:1] [0.010999999999999999:1] [0.010999999999999999:1] [0.048000000000000001:1] [0.014:1] [0.028000000000000001:1] [0:1] [0:1] [0:1] [0:1] [0:1] [0:1] [0:1] [0:1] [0:1]
tree_sizes=1703 1715 1732 1725

Tree=0
num_leaves=15
num_cat=0
split_feature=11 12 1 8 2 13 14 13 34 3 22 30 1 18
split_gain=3067.91 1529.5 867.711 606.002 363.034 140.659 136.868 128.23 115.506 88.7422 86.5035 71.7438 58.4252 68.626
threshold=1.0000000180025095e-35 1.0000000180025095e-35 2.6165000000000003 1.0000000180025095e-35 0.06950000000000002 1.0000000180025095e-35 1.0000000180025095e-35 1.0000000180025095e-35 0.38750000000000007 0.45600000000000002 -1.0000000180025095e-35 0.23904761904761906 0.68399999999999972 1.0000000180025095e-35
decision_type=2 2 2 2 2 2 2 2 2 2 2 2 2 2
left_child=1 2 3 4 12 6 9 -5 10 -6 -8 -4 -1 -14
right_child=-2 -3 11 7 5 -7 8 -9 -10 -11 -12 -13 13 -15
leaf_value=-1.8206212094344718 -1.5779219160393598 -1.6284778147325305 -1.7551180553170562 -1.7173706110371114 -1.7974525656007403 -1.6976958934820405 -1.7749860901658567 -1.6478310865223258 -1.7687867259802954 -1.7028121985358524 -1.6309845508626903 -1.6362525821393972 -1.7684368069445806 -1.8300720736975207
leaf_weight=169.76280219107866 336.48762088268995 258.22903291136026 9.721563518047331 150.68423484265804 116.29420324414968 80.202899292111397 9.357004873454569 62.461046010255814 35.483706802129745 17.377294845879078 26.734299883246422 124.4360139220953 100.86122138798237 39.493851594626904
leaf_count=1297 864 935 60 825 832 405 62 249 232 88 95 469 660 310
internal_value=-1.68456 -1.7146 -1.73835 -1.7541 -1.7749 -1.74243 -1.76034 -1.69637 -1.71608 -1.7845 -1.66657 -1.64445 -1.80488 -1.78585
internal_weight=1537.59 1201.1 942.87 808.713 595.567 285.449 205.247 213.145 71.575 133.671 36.0913 134.158 310.118 140.355
internal_count=7383 6519 5584 5055 3981 1714 1309 1074 389 920 157 529 2267 970
is_linear=0
shrinkage=1


Tree=1
num_leaves=15
num_cat=0
split_feature=2 18 37 20 2 1 9 30 2 30 2 15 30 15
split_gain=1488.09 447.499 409.884 361.162 227.156 219.574 121.81 110.193 105.392 93.8157 85.8044 83.1354 78.2255 77.415
threshold=0.16050000000000003 1.0000000180025095e-35 0.91666666666666685 1.0000000180025095e-35 0.40750000000000003 1.0854999999999999 1.0000000180025095e-35 0.65192307692307705 0.085500000000000007 0.69782608695652182 0.035500000000000011 0.62500000000000011 0.36602870813397131 0.62500000000000011
decision_type=2 2 2 2 2 2 2 2 2 2 2 2 2 2
left_child=1 2 3 5 6 12 7 11 -3 -10 -4 -2 -1 -7
right_child=4 8 10 -5 -6 13 -8 -9 9 -11 -12 -13 -14 -15
leaf_value=-0.018107146585367224 0.098569187043789322 -0.016774895671083496 0.075919798778713091 0.11010191293995653 0.18887976334894194 0.052316605349123559 0.094843227547054362 0.16843288862517111 0.01683994213321496 0.14255958063070576 0.13478270329850728 0.14753846279511901 0.032088346104387572 0.11220542029961988
leaf_weight=76.165152661502361 112.65117624402046 97.328724950551987 53.93699973076582 176.07436211407185 176.45104195177555 86.267895266413689 105.53585220873356 191.17860494554043 29.795899033546448 13.167091518640516 220.28035930544138 135.6344019472599 139.07975389063358 60.877808704972267
leaf_count=576 500 747 277 763 389 488 480 530 195 48 801 442 867 251
internal_value=0.10525 0.0723152 0.0836912 0.0632154 0.148594 0.0401944 0.135228 0.144689 0.00629054 0.0577362 0.123523 0.125805 0.0143249 0.0776842
internal_weight=1674.43 952.974 812.682 538.465 721.451 362.391 545 439.464 140.292 42.963 274.217 248.286 215.245 147.146
internal_count=7354 5013 4023 2945 2341 2182 1952 1472 990 243 1078 942 1443 739
is_linear=0
shrinkage=0.04


Tree=2
num_leaves=15
num_cat=0
split_feature=11 12 1 8 13 2 14 32 2 1 5 5 34 13
split_gain=1745.61 784.882 594.559 333.38 217.335 120.427 104.548 73.9332 69.8974 66.6718 74.7513 63.271 61.5963 59.5608
threshold=1.0000000180025095e-35 1.0000000180025095e-35 2.517500000000001 1.0000000180025095e-35 1.0000000180025095e-35 0.23600000000000002 1.0000000180025095e-35 0.58150000000000002 0.032500000000000008 1.1134999999999999 0.37500000000000006 0.12500000000000003 0.38550000000000006 1.0000000180025095e-35
decision_type=2 2 2 2 2 2 2 2 2 2 2 2 2 2
left_child=1 2 3 4 5 6 -1 -4 -8 -6 -11 -7 -10 -5
right_child=-2 -3 7 13 9 11 8 -9 12 10 -12 -13 -14 -15
leaf_value=-0.0080710222024308435 0.1599919502652471 0.12537591069506876 0.099874299364209579 0.063837308051078206 0.040706987019619112 0.13506581674561721 -0.024819219822939078 0.16081662431421703 0.080193556634952645 0.12073698879643763 0.0094867838616193075 0.023705392100099601 0.012056093245098168 0.10925994301164745
leaf_weight=334.13931261748075 435.51104359328747 294.02525296807289 141.65153476595879 170.98554082214832 78.403733104467392 16.298657283186913 22.913551993668079 46.139697566628456 51.874205388128757 46.223547853529453 12.37599056959152 16.436253771185875 36.147025920450687 67.638013809919357
leaf_count=2407 888 911 542 824 447 52 174 104 243 169 75 95 231 233
internal_value=0.0904941 0.0677236 0.0513388 0.0370755 0.0214354 0.00864515 0.00311515 0.11562 0.0365794 0.0656565 0.0977948 0.0815117 0.0526618 0.0771146
internal_weight=1770.76 1335.25 1041.23 853.436 614.812 477.809 445.074 187.791 110.935 137.003 58.5995 32.7349 88.0212 238.624
internal_count=7395 6507 5596 4950 3893 3202 3055 646 648 691 244 147 474 1057
is_linear=0
shrinkage=0.04


Tree=3
num_leaves=15
num_cat=0
split_feature=11 12 2 19 3 36 32 31 36 2 40 31 22 33
split_gain=1177 647.683 395.79 284.637 134.662 101.807 82.8867 74.2634 64.2186 92.2274 61.9699 61.01 54.2915 52.8543
threshold=1.0000000180025095e-35 1.0000000180025095e-35 0.14000000000000004 1.0000000180025095e-35 0.22750000000000001 0.29166666666666674 0.38550000000000006 0.27200000000000008 0.63333333333333341 0.085500000000000007 1.0000000180025095e-35 0.37400000000000005 -0.57499999999999984 0.46000000000000008
decision_type=2 2 2 2 2 2 2 2 2 2 2 2 2 2
left_child=1 2 3 4 10 11 -6 -7 9 -5 -1 -4 -9 -12
right_child=-2 -3 5 8 6 7 -8 12 -10 -11 13 -13 -14 -15
leaf_value=-0.0063505844417641732 0.13902840136100189 0.11483087947316056 0.034420501605359637 0.078081238528115035 0.0071703383410857951 0.08152197142772187 0.06954488628666812 0.039310594322728647 0.1113819089242164 -0.0016845472446014071 0.0080407828840769243 0.1203067119162628 0.14253425945988496 0.076647265526541608
leaf_weight=272.2956130951643 467.20229974389076 329.71775197982788 92.057116791605949 92.413820825517178 52.599309869110584 231.02272670716047 97.180494554340839 10.385857999324797 54.67777855694294 30.796964019536972 47.263149119913578 14.838155850768088 64.069312274456024 28.255797900259495
leaf_count=1952 874 922 475 406 342 920 455 48 182 184 300 41 142 130
internal_value=0.0839785 0.06575 0.0507823 0.0318544 0.01626 0.0816348 0.0478332 0.0934395 0.0751406 0.0582905 0.00256544 0.0473469 0.128847 0.0343765
internal_weight=1884.78 1417.57 1087.86 675.483 497.594 412.373 149.78 305.478 177.889 123.211 347.815 106.895 74.4552 75.5189
internal_count=7373 6499 5577 3951 3179 1626 797 1110 772 590 2382 516 190 430
is_linear=0
shrinkage=0.04


end of trees

feature_importances:
Column_2=9
Column_1=5
Column_13=4
Column_30=4
Column_11=3
Column_12=3
Column_3=2
Column_5=2
Column_8=2
Column_14=2
Column_15=2
Column_18=2
Column_22=2
Column_31=2
Column_32=2
Column_34=2
Column_36=2
Column_9=1
Column_19=1
Column_20=1
Column_33=1
Column_37=1
Column_40=1

parameters:
[boosting: gbdt]
[objective: binary]
[metric: binary_logloss]
[tree_learner: serial]
[device_type: cpu]
[data_sample_strategy: bagging]
[data: ]
[valid: ]
[num_iterations: 400]
[learning_rate: 0.04]
[num_leaves: 15]
[num_threads: 0]
[seed: 0]
[deterministic: 0]
[force_col_wise: 0]
[force_row_wise: 0]
[histogram_pool_size: -1]
[max_depth: -1]
[min_data_in_leaf: 25]
[min_sum_hessian_in_leaf: 0.001]
[bagging_fraction: 0.85]
[pos_bagging_fraction: 1]
[neg_bagging_fraction: 1]
[bagging_freq: 1]
[bagging_seed: 3]
[bagging_by_query: 0]
[feature_fraction: 0.85]
[feature_fraction_bynode: 1]
[feature_fraction_seed: 2]
[extra_trees: 0]
[extra_seed: 6]
[early_stopping_round: 0]
[early_stopping_min_delta: 0]
[first_metric_only: 0]
[max_delta_step: 0]
[lambda_l1: 0]
[lambda_l2: 1]
[linear_lambda: 0]
[min_gain_to_split: 0]
[drop_rate: 0.1]
[max_drop: 50]
[skip_drop: 0.5]
[xgboost_dart_mode: 0]
[uniform_drop: 0]
[drop_seed: 4]
[top_rate: 0.2]
[other_rate: 0.1]
[min_data_per_group: 100]
[max_cat_threshold: 32]
[cat_l2: 10]
[cat_smooth: 10]
[max_cat_to_onehot: 4]
[top_k: 20]
[monotone_constraints: ]
[monotone_constraints_method: basic]
[monotone_penalty: 0]
[feature_contri: ]
[forcedsplits_filename: ]
[refit_decay_rate: 0.9]
[cegb_tradeoff: 1]
[cegb_penalty_split: 0]
[cegb_penalty_feature_lazy: ]
[cegb_penalty_feature_coupled: ]
[path_smooth: 0]
[interaction_constraints: ]
[verbosity: -1]
[saved_feature_importance_type: 0]
[use_quantized_grad: 0]
[num_grad_quant_bins: 4]
[quant_train_renew_leaf: 0]
[stochastic_rounding: 1]
[linear_tree: 0]
[max_bin: 255]
[max_bin_by_feature: ]
[min_data_in_bin: 3]
[bin_construct_sample_cnt: 200000]
[data_random_seed: 1]
[is_enable_sparse: 1]
[enable_bundle: 1]
[use_missing: 1]
[zero_as_missing: 0]
[feature_pre_filter: 1]
[pre_partition: 0]
[two_round: 0]
[header: 0]
[label_column: ]
[weight_column: ]
[group_column: ]
[ignore_column: ]
[categorical_feature: ]
[forcedbins_filename: ]
[precise_float_parser: 0]
[parser_config_file: ]
[objective_seed: 5]
[num_class: 1]
[is_unbalance: 0]
[scale_pos_weight: 6]
[sigmoid: 1]
[boost_from_average: 1]
[reg_sqrt: 0]
[alpha: 0.9]
[fair_c: 1]
[poisson_max_delta_step: 0.7]
[tweedie_variance_power: 1.5]
[lambdarank_truncation_level: 30]
[lambdarank_norm: 1]
[label_gain: ]
[lambdarank_position_bias_regularization: 0]
[eval_at: ]
[multi_error_top_k: 1]
[auc_mu_weights: ]
[num_machines: 1]
[local_listen_port: 12400]
[time_out: 120]
[machine_list_filename: ]
[machines: ]
[gpu_platform_id: -1]
[gpu_device_id: -1]
[gpu_device_id_list: ]
[gpu_use_dp: 0]
[num_gpu: 1]

end of parameters

pandas_categorical:null
