tree
version=v4
num_class=1
num_tree_per_iteration=1
label_index=0
max_feature_idx=44
objective=binary sigmoid:1
feature_names=Column_0 Column_1 Column_2 Column_3 Column_4 Column_5 Column_6 Column_7 Column_8 Column_9 Column_10 Column_11 Column_12 Column_13 Column_14 Column_15 Column_16 Column_17 Column_18 Column_19 Column_20 Column_21 Column_22 Column_23 Column_24 Column_25 Column_26 Column_27 Column_28 Column_29 Column_30 Column_31 Column_32 Column_33 Column_34 Column_35 Column_36 Column_37 Column_38 Column_39 Column_40 Column_41 Column_42 Column_43 Column_44
feature_infos=none [-7.4000000000000004:4.4329999999999998] [0:0.94099999999999995] [0:1] [0:1] [0:1] [0:1] [0:1] [0:1] [0:1] [0:1] [0:1] [0:1] [0:1] [0:1] [0.25:1] [0:1] [0:1] [0:1] [-0.3666666666666667:1] [0:1] none [-1.05:1.1499999999999999] [-0.83333333333333337:0.66666666666666663] [-0.73333333333333339:0.53333333333333333] [0:1] [0:1] [0:1] [0.0625:1] [0.45000000000000001:1] [0:1] [0.010999999999999999:1] [0.010999999999999999:1] [0.048000000000000001:1] [0.014:1] [0.028000000000000001:1] [0:1] [0:1] [0:1] [0:1] [0:1] [0:1] [0:1] [0:1] [0:1]
tree_sizes=1691 1726 1722 1733 1716 1731 1741

Tree=0
num_leaves=15
num_cat=0
split_feature=11 12 2 1 8 36 38 26 18 1 30 1 4 37
split_gain=2187.61 1179.05 749.149 269.615 254.602 115.219 127.164 70.2978 66.59 63.7892 63.1745 62.2583 59.6974 57.2542
threshold=1.0000000180025095e-35 1.0000000180025095e-35 0.06950000000000002 2.5795000000000008 1.0000000180025095e-35 0.45000000000000007 0.43370000000000003 0.075000000000000011 1.0000000180025095e-35 3.0100000000000007 0.19523809523809527 -2.0449999999999995 0.27600000000000008 0.45000000000000007
decision_type=2 2 2 2 2 2 2 2 2 2 2 2 2 2
left_child=1 2 4 5 9 6 -4 -8 11 -1 -5 -7 -10 -3
right_child=-2 13 3 10 -6 8 7 -9 12 -11 -12 -13 -14 -15
leaf_value=-1.8138845666016141 -1.5888976194880728 -1.6929167473255078 -1.7192265076434274 -1.8024717000914807 -1.7076163009107677 -1.7933632502082895 -1.8322805294118911 -1.748775072724235 -1.6648556117499316 -1.6772279188932628 -1.6420260209986091 -1.6932899793028378 -1.7819620027751792 -1.6259612882107448
leaf_weight=243.40124063938856 254.03116006404161 31.40661096572876 63.658784873783588 4.2278131023049346 44.210844799876213 10.992314048111437 39.258264757692814 25.9708516523242 7.9724473357200614 4.5901969522237769 83.95228623598814 163.19358246773481 34.668067313730717 169.35410787165165
leaf_count=1795 678 150 342 30 226 76 305 155 31 18 315 791 232 582
internal_value=-1.69276 -1.72144 -1.74532 -1.71204 -1.79491 -1.7284 -1.75899 -1.7986 -1.71053 -1.81083 -1.64954 -1.69947 -1.75723 -1.6358
internal_weight=1180.89 926.857 726.097 433.894 292.202 345.714 128.888 65.2291 216.826 247.991 88.1801 174.186 42.6405 200.761
internal_count=5726 5048 4316 2277 2039 1932 802 460 1130 1813 345 867 263 732
is_linear=0
shrinkage=1


Tree=1
num_leaves=15
num_cat=0
split_feature=2 20 17 9 37 2 14 17 2 30 15 38 32 28
split_gain=1214.84 346.888 353.948 220.758 167.605 140.564 137.706 116.103 111.698 96.3392 67.6296 59.7143 64.0365 58.0146
threshold=0.12950000000000003 1.0000000180025095e-35 1.0000000180025095e-35 1.0000000180025095e-35 0.63333333333333341 0.035500000000000011 1.0000000180025095e-35 1.0000000180025095e-35 0.06950000000000002 0.6858552631578948 0.62500000000000011 0.60300000000000009 0.52850000000000008 0.65625000000000011
decision_type=2 2 2 2 2 2 2 2 2 2 2 2 2 2
left_child=1 2 8 6 -4 11 9 -5 -1 -2 13 -6 -13 -9
right_child=3 -3 4 7 5 -7 -8 10 -10 -11 -12 12 -14 -15
leaf_value=-0.0089509124838244702 0.14451522917409967 0.11605152980031987 0.045932327766095161 0.029669563481776996 0.0977179122150547 0.13540025519891732 0.081055744458124523 -0.0173736648444828 0.051374591636851118 0.18328095436545164 0.14743471155320614 -0.04406427048996038 0.12816997657529969 0.10052529680354894
leaf_weight=146.86833792924881 287.6583826392889 163.77976626902819 120.72097071260214 34.054477356374264 14.232421539723871 98.956572532653809 40.527931094169617 8.5988481715321523 72.605721637606621 203.70533594489098 50.880104176700115 15.487360678613188 3.3727659136056891 25.267317183315754
leaf_count=1095 973 692 711 215 66 364 203 61 420 494 164 124 11 111
internal_value=0.105451 0.0659761 0.0484008 0.143876 0.0805749 0.111662 0.155004 0.0931776 0.0111483 0.160926 0.118054 0.0387895 -0.00836078 0.0709502
internal_weight=1286.72 636.024 472.244 650.692 252.77 132.049 531.892 118.801 219.474 491.364 84.7463 33.0925 18.8601 33.8662
internal_count=5704 3483 2791 2221 1276 565 1670 551 1515 1467 336 201 135 172
is_linear=0
shrinkage=0.04


Tree=2
num_leaves=15
num_cat=0
split_feature=11 12 2 19 1 3 36 1 1 34 1 38 36 38
split_gain=1283.17 619.95 394.634 204.102 193.845 117.634 73.8113 62.7726 58.7165 43.7333 52.6176 43.0464 40.3758 41.4904
threshold=1.0000000180025095e-35 1.0000000180025095e-35 0.10100000000000002 1.0000000180025095e-35 2.8375000000000008 0.21500000000000005 0.45000000000000007 2.5015000000000005 -0.48349999999999999 0.35050000000000003 0.026500000000000062 0.46625000000000005 0.81666666666666676 0.92475000000000007
decision_type=2 2 2 2 2 2 2 2 2 2 2 2 2 2
left_child=1 2 3 5 6 12 8 -7 -4 -8 -11 -10 13 -1
right_child=-2 -3 4 -5 -6 7 9 -9 11 10 -12 -13 -14 -15
leaf_value=-0.0013348303942644078 0.15870324216481638 0.12562422121751327 -0.043526738461064335 0.075123824553287449 0.14115052753590548 0.027688057173404924 0.10903286074211152 0.10613651572674551 0.069164928341679824 0.015815171133111715 0.079411351436672828 0.015466816058407381 -0.03699569511749589 0.098611410108597183
leaf_weight=169.08375699073076 332.37151576578617 233.12337705492973 11.164158239960669 94.970305249094963 68.70875583589077 67.020401835441589 64.935086712241173 21.102493390440941 66.951042845845222 26.110915943980217 114.11326470226049 37.922654934227467 52.901110276579857 5.9165420383214942
leaf_count=1211 700 725 85 445 187 421 246 82 314 155 507 239 419 27
internal_value=0.0903831 0.0682905 0.0514662 0.024029 0.0802519 0.0084856 0.0668272 0.047454 0.0407763 0.0812923 0.0677651 0.050077 -0.00672382 0.00258532
internal_weight=1366.4 1034.02 800.9 410.995 389.906 316.024 321.197 88.1229 116.038 205.159 140.224 104.874 227.901 175
internal_count=5763 5063 4338 2605 1733 2160 1546 503 638 908 662 553 1657 1238
is_linear=0
shrinkage=0.04


Tree=3
num_leaves=15
num_cat=0
split_feature=11 12 2 19 2 36 13 22 7 22 2 34 31 24
split_gain=800.759 499.8 320.551 168.593 149.614 76.6433 68.2177 62.0313 59.6329 59.43 54.0175 53.8193 51.2193 45.179
threshold=1.0000000180025095e-35 1.0000000180025095e-35 0.16900000000000001 1.0000000180025095e-35 0.06950000000000002 0.63333333333333341 1.0000000180025095e-35 -1.0000000180025095e-35 0.37500000000000006 1.0000000180025095e-35 0.11600000000000001 0.5525000000000001 0.077500000000000013 0.15000000000000002
decision_type=2 2 2 2 2 2 2 2 2 2 2 2 2 2
left_child=1 2 3 4 8 6 -4 -6 13 -9 -11 -5 -7 -1
right_child=-2 -3 5 11 7 12 -8 9 -10 10 -12 -13 -14 -15
leaf_value=-0.004713382846568308 0.13656636669498812 0.11560097356788966 0.050713399103686357 0.077680190573688843 0.0070348966027320393 -0.036089434441078518 0.11441178164094944 0.10133318540528471 0.095504790978984122 0.067558918448947985 0.0090305309354004465 -0.0012256160652807427 0.12235069196075678 0.12350230033790645
leaf_weight=228.79716093093157 349.64180213212967 257.22031278908253 93.665684580802917 149.43319066613913 43.584177628159523 2.958714857697486 38.97048108279705 42.325179755687714 9.4271161779761297 63.902675420045853 41.845240667462349 15.196950629353521 99.818867787718773 3.4832853823900214
leaf_count=1670 686 718 449 628 270 21 127 142 44 315 251 89 286 11
internal_value=0.0838916 0.0668951 0.0517422 0.0360735 0.0228886 0.0912227 0.070145 0.0491837 0.00192171 0.0614594 0.0447004 0.070433 0.117486 -0.00226948
internal_weight=1440.27 1090.63 833.409 597.995 433.365 235.414 132.636 191.657 241.708 148.073 105.748 164.63 102.778 232.28
internal_count=5707 5021 4303 3420 2703 883 576 978 1725 708 566 717 307 1681
is_linear=0
shrinkage=0.04


Tree=4
num_leaves=15
num_cat=0
split_feature=11 12 1 19 25 2 1 30 1 37 33 32 5 38
split_gain=822.414 384.612 250.767 140.565 105.771 81.0803 55.4743 47.1664 43.0833 42.5991 67.372 50.6803 41.1231 38.8404
threshold=1.0000000180025095e-35 1.0000000180025095e-35 0.93249999999999966 1.0000000180025095e-35 0.29000000000000009 0.39600000000000007 2.5670000000000006 0.30217391304347835 3.4255 0.63333333333333341 0.33800000000000008 0.40750000000000003 1.0000000180025095e-35 0.43055000000000004
decision_type=2 2 2 2 2 2 2 2 2 2 2 2 2 2
left_child=1 2 3 5 6 7 9 -1 12 10 13 -11 -6 -4
right_child=-2 -3 4 -5 8 -7 -8 -9 -10 11 -12 -13 -14 -15
leaf_value=-0.023614069759543985 0.12600902286858581 0.10006243522539132 0.11058479231705771 0.057120514488913837 0.10586336823946611 0.14491484165413218 0.076321543816842294 0.012797479042888103 0.13419368525629063 0.0089614541093724995 -0.019097883001005192 0.082824719201305685 0.065857028705100559 0.017470329017016447
leaf_weight=83.01060838997364 385.97021320462227 267.39271302521229 11.38145022839308 116.79739160835743 56.424830913543701 5.4251202046871176 52.523055851459503 175.5345501974225 22.53873136639595 25.302323549985886 50.887529425323009 35.971942842006683 199.05497630685568 18.124461241066456
leaf_count=621 668 719 40 509 180 10 189 1145 40 162 349 156 815 110
internal_value=0.0756704 0.0582318 0.0450168 0.0207852 0.0644708 0.00455319 0.0414734 0.00106095 0.0803279 0.0281091 0.00875216 0.0529576 0.0750711 0.0558354
internal_weight=1506.34 1120.37 852.977 380.768 472.209 263.97 194.191 258.545 278.019 141.668 80.3934 61.2743 255.48 29.5059
internal_count=5713 5045 4326 2285 2041 1776 1006 1766 1035 817 499 318 995 150
is_linear=0
shrinkage=0.04


Tree=5
num_leaves=15
num_cat=0
split_feature=11 2 19 12 12 31 38 1 6 4 1 37 18 35
split_gain=598.272 352.416 134.651 160.993 124.144 113.449 70.2073 57.9983 57.568 56.2623 46.4293 49.6716 47.7488 58.6278
threshold=1.0000000180025095e-35 0.06950000000000002 1.0000000180025095e-35 1.0000000180025095e-35 1.0000000180025095e-35 0.24550000000000002 0.44345000000000007 3.0100000000000007 0.37500000000000006 0.57900000000000007 -2.1819999999999995 0.81666666666666676 1.0000000180025095e-35 0.59850000000000014
decision_type=2 2 2 2 2 2 2 2 2 2 2 2 2 2
left_child=1 2 3 7 5 10 -4 -1 -7 -6 -3 -12 -13 -14
right_child=-2 4 6 -5 9 8 -8 -9 -10 -11 11 12 13 -15
leaf_value=-0.0057847517949167395 0.11195754119700428 -0.015706703491527745 0.085887221392097521 0.074427320232430663 0.11133078669320162 0.1114589561675518 0.0077037370362554669 0.10235646399064932 0.048193535994496529 0.066438677840325436 0.043152734382215563 0.084437384143111791 0.0068055283845466306 0.13789840856763491
leaf_weight=234.52141550183296 423.33564032614231 15.403853610157965 71.693967625498772 52.667091265320778 151.64305505156517 92.213641263544559 24.875645279884338 7.2121968418359748 33.636408016085625 71.90663006901741 260.74313794076443 118.63707205653191 30.296197101473808 5.6900424212217322
leaf_count=1709 703 103 241 161 316 230 128 21 138 212 1186 397 178 14
internal_value=0.0711975 0.0563809 0.0252959 0.011755 0.0719064 0.0615713 0.0660331 -0.00214994 0.095063 0.097251 0.0515891 0.0541165 0.0722088 0.0307015
internal_weight=1594.48 1171.14 390.97 294.401 780.17 556.62 96.5696 241.734 125.85 223.55 430.77 415.366 154.623 35.9862
internal_count=5737 5034 2260 1891 2774 2246 369 1730 368 528 1878 1775 589 192
is_linear=0
shrinkage=0.04


Tree=6
num_leaves=15
num_cat=0
split_feature=11 2 8 36 12 18 12 1 4 33 36 13 37 7
split_gain=544.031 274.343 151.147 132.169 123.263 77.3673 67.8464 51.933 48.7872 41.5672 36.1453 51.5222 65.0063 45.7552
threshold=1.0000000180025095e-35 0.06950000000000002 1.0000000180025095e-35 0.45000000000000007 1.0000000180025095e-35 1.0000000180025095e-35 1.0000000180025095e-35 3.0100000000000007 0.27600000000000008 0.45350000000000007 0.70833333333333348 1.0000000180025095e-35 0.91666666666666685 0.20833333333333334
decision_type=2 2 2 2 2 2 2 2 2 2 2 2 2 2
left_child=1 2 4 6 7 10 -3 -1 -7 -6 11 12 13 -5
right_child=-2 3 -4 5 9 8 -8 -9 -10 -11 -12 -13 -14 -15
leaf_value=-0.0025759730768312593 0.10388234955318573 0.029102694317337283 0.073035337197118994 0.055995132283223538 0.08251827348956503 0.10376910060507022 0.085810474624033337 0.098770056875485734 0.010325935006301521 -0.017676270642973613 0.089404579865473371 0.095885902855340835 0.087116256111881965 0.001326158627250688
leaf_weight=254.17831152677536 444.71089674532413 191.07768101245165 80.579734206199646 60.125572755932808 43.791431188583374 10.27294474840164 40.663293898105621 7.3549435734748831 44.560974612832069 7.4042037576436988 302.76308919489384 71.241682380437851 59.544093981385231 40.957739740610123
leaf_count=1803 686 912 267 230 116 31 94 19 252 36 754 205 157 197
internal_value=0.0660259 0.0520903 0.0245332 0.0652426 0.0118428 0.0753265 0.0393791 0.000639484 0.0293772 0.0679665 0.0799756 0.0673327 0.0541539 0.0340739
internal_weight=1659.23 1214.52 393.309 821.207 312.729 589.466 231.741 261.533 54.8339 51.1956 534.632 231.869 160.627 101.083
internal_count=5759 5073 2241 2832 1974 1826 1006 1822 283 152 1543 789 584 427
is_linear=0
shrinkage=0.04


end of trees

feature_importances:
Column_1=13
Column_2=11
Column_12=8
Column_11=6
Column_36=6
Column_38=6
Column_37=5
Column_19=4
Column_4=3
Column_18=3
Column_30=3
Column_7=2
Column_8=2
Column_13=2
Column_17=2
Column_22=2
Column_31=2
Column_32=2
Column_33=2
Column_34=2
Column_3=1
Column_5=1
Column_6=1
Column_9=1
Column_14=1
Column_15=1
Column_20=1
Column_24=1
Column_25=1
Column_26=1
Column_28=1
Column_35=1

parameters:
[boosting: gbdt]
[objective: binary]
[metric: binary_logloss]
[tree_learner: serial]
[device_type: cpu]
[data_sample_strategy: bagging]
[data: ]
[valid: ]
[num_iterations: 400]
[learning_rate: 0.04]
[num_leaves: 15]
[num_threads: 0]
[seed: 0]
[deterministic: 0]
[force_col_wise: 0]
[force_row_wise: 0]
[histogram_pool_size: -1]
[max_depth: -1]
[min_data_in_leaf: 25]
[min_sum_hessian_in_leaf: 0.001]
[bagging_fraction: 0.85]
[pos_bagging_fraction: 1]
[neg_bagging_fraction: 1]
[bagging_freq: 1]
[bagging_seed: 3]
[bagging_by_query: 0]
[feature_fraction: 0.85]
[feature_fraction_bynode: 1]
[feature_fraction_seed: 2]
[extra_trees: 0]
[extra_seed: 6]
[early_stopping_round: 0]
[early_stopping_min_delta: 0]
[first_metric_only: 0]
[max_delta_step: 0]
[lambda_l1: 0]
[lambda_l2: 1]
[linear_lambda: 0]
[min_gain_to_split: 0]
[drop_rate: 0.1]
[max_drop: 50]
[skip_drop: 0.5]
[xgboost_dart_mode: 0]
[uniform_drop: 0]
[drop_seed: 4]
[top_rate: 0.2]
[other_rate: 0.1]
[min_data_per_group: 100]
[max_cat_threshold: 32]
[cat_l2: 10]
[cat_smooth: 10]
[max_cat_to_onehot: 4]
[top_k: 20]
[monotone_constraints: ]
[monotone_constraints_method: basic]
[monotone_penalty: 0]
[feature_contri: ]
[forcedsplits_filename: ]
[refit_decay_rate: 0.9]
[cegb_tradeoff: 1]
[cegb_penalty_split: 0]
[cegb_penalty_feature_lazy: ]
[cegb_penalty_feature_coupled: ]
[path_smooth: 0]
[interaction_constraints: ]
[verbosity: -1]
[saved_feature_importance_type: 0]
[use_quantized_grad: 0]
[num_grad_quant_bins: 4]
[quant_train_renew_leaf: 0]
[stochastic_rounding: 1]
[linear_tree: 0]
[max_bin: 255]
[max_bin_by_feature: ]
[min_data_in_bin: 3]
[bin_construct_sample_cnt: 200000]
[data_random_seed: 1]
[is_enable_sparse: 1]
[enable_bundle: 1]
[use_missing: 1]
[zero_as_missing: 0]
[feature_pre_filter: 1]
[pre_partition: 0]
[two_round: 0]
[header: 0]
[label_column: ]
[weight_column: ]
[group_column: ]
[ignore_column: ]
[categorical_feature: ]
[forcedbins_filename: ]
[precise_float_parser: 0]
[parser_config_file: ]
[objective_seed: 5]
[num_class: 1]
[is_unbalance: 0]
[scale_pos_weight: 6]
[sigmoid: 1]
[boost_from_average: 1]
[reg_sqrt: 0]
[alpha: 0.9]
[fair_c: 1]
[poisson_max_delta_step: 0.7]
[tweedie_variance_power: 1.5]
[lambdarank_truncation_level: 30]
[lambdarank_norm: 1]
[label_gain: ]
[lambdarank_position_bias_regularization: 0]
[eval_at: ]
[multi_error_top_k: 1]
[auc_mu_weights: ]
[num_machines: 1]
[local_listen_port: 12400]
[time_out: 120]
[machine_list_filename: ]
[machines: ]
[gpu_platform_id: -1]
[gpu_device_id: -1]
[gpu_use_dp: 0]
[num_gpu: 1]

end of parameters

pandas_categorical:null
