tree
version=v4
num_class=1
num_tree_per_iteration=1
label_index=0
max_feature_idx=44
objective=binary sigmoid:1
feature_names=Column_0 Column_1 Column_2 Column_3 Column_4 Column_5 Column_6 Column_7 Column_8 Column_9 Column_10 Column_11 Column_12 Column_13 Column_14 Column_15 Column_16 Column_17 Column_18 Column_19 Column_20 Column_21 Column_22 Column_23 Column_24 Column_25 Column_26 Column_27 Column_28 Column_29 Column_30 Column_31 Column_32 Column_33 Column_34 Column_35 Column_36 Column_37 Column_38 Column_39 Column_40 Column_41 Column_42 Column_43 Column_44
feature_infos=none [-7.4000000000000004:4.1569999999999991] [0:0.94099999999999995] [0:1] [0:1] [0:1] [0:1] [0:1] [0:1] [0:1] [0:1] [0:1] [0:1] [0:1] [0:1] [0.25:1] [0:1] [0:1] [0:1] [-0.3666666666666667:1] [0:1] none [-1.05:1.1000000000000001] [-0.83333333333333337:0.59999999999999998] [-0.56666666666666665:0.5] [0:1] [0:1] [0:1] [0.10416666666666674:1] [0.45000000000000001:1] [0:1] [0.010999999999999999:1] [0.010999999999999999:1] [0.048000000000000001:1] [0.014:1] [0.028000000000000001:1] [0:1] [0:1] [0.15050000000000002:0.84949999999999992] [0:1] [0:1] [0:1] [0:1] [0:1] [0:1]
tree_sizes=1695 1717 1725 1724 1733

Tree=0
num_leaves=15
num_cat=0
split_feature=11 12 2 6 1 1 36 8 37 22 9 18 37 30
split_gain=1773.22 985.496 588.526 172.651 125.955 92.7425 93.2747 77.4762 72.6727 68.921 53.633 63.1153 58.2885 54.1917
threshold=1.0000000180025095e-35 1.0000000180025095e-35 0.06950000000000002 0.62500000000000011 2.7975000000000008 -2.0694999999999997 0.18333333333333332 1.0000000180025095e-35 0.45000000000000007 -0.62499999999999989 1.0000000180025095e-35 1.0000000180025095e-35 0.45000000000000007 0.73941798941798953
decision_type=2 2 2 2 2 2 2 2 2 2 2 2 2 2
left_child=1 2 3 9 5 -4 7 -7 -3 -1 -8 12 -12 -13
right_child=-2 8 4 -5 -6 6 10 -9 -10 -11 11 13 -14 -15
leaf_value=-1.7701204024832771 -1.5968635182252662 -1.7206573938294629 -1.8461781232176262 -1.7101831009634578 -1.6544947603438003 -1.811444434669278 -1.6964844024115313 -1.7248248763536087 -1.6334632759892076 -1.83657826650818 -1.7951743774767526 -1.850087132289574 -1.6917465417482891 -1.7234361255551123
leaf_weight=28.499189347028732 189.43578395247459 21.91324208676815 11.37572695314884 21.913242056965828 34.965391457080841 37.120793044567108 102.02230715751648 29.217656135559082 125.37248210608959 161.65506699681282 12.57317180931568 13.890361338853838 33.049479752779007 7.5439030081033698
leaf_count=178 502 113 90 108 132 265 482 154 427 1240 85 111 151 38
internal_value=-1.70418 -1.73619 -1.7635 -1.81391 -1.72572 -1.73645 -1.73107 -1.7724 -1.64566 -1.82639 -1.71524 -1.74522 -1.71905 -1.80307
internal_weight=830.548 641.112 493.826 212.067 281.759 246.793 235.418 66.3384 147.286 190.154 169.079 67.0569 45.6227 21.4343
internal_count=4076 3574 3034 1526 1508 1376 1286 419 540 1418 867 385 236 149
is_linear=0
shrinkage=1


Tree=1
num_leaves=15
num_cat=0
split_feature=2 8 3 31 37 9 18 18 37 33 8 31 3 1
split_gain=1017.99 361.348 239.452 94.6314 125.868 88.1301 81.2119 75.3967 107.69 57.7317 58.4748 76.7012 72.9261 57.3258
threshold=0.06950000000000002 1.0000000180025095e-35 0.46500000000000002 0.24450000000000002 0.91666666666666685 1.0000000180025095e-35 1.0000000180025095e-35 1.0000000180025095e-35 0.45000000000000007 0.62750000000000006 1.0000000180025095e-35 0.18650000000000003 0.28250000000000003 0.79499999999999971
decision_type=2 2 2 2 2 2 2 2 2 2 2 2 2 2
left_child=1 7 3 4 9 -4 -6 8 -1 10 -2 12 -12 -5
right_child=2 -3 5 13 6 -7 -8 -9 -10 -11 11 -13 -14 -15
leaf_value=-0.0061320891213482434 0.075403719363595786 0.13011418269984101 0.17627586998302067 0.043628884288855946 0.14674154026815819 0.066516931990769065 0.056624425209242366 -0.02322658762362971 0.058313712257736273 0.0046600352443000601 0.066236760218991678 -0.0058157534887258375 0.18355369900141824 0.1675533121024369
leaf_weight=71.388707831501961 134.48518681526184 57.437490522861481 194.07421831041574 7.4352421909570685 123.95179148763418 14.162459015846251 20.321197375655174 52.779949650168419 97.469372346997261 13.727045178413389 14.202010363340376 5.9134328067302695 28.288797363638878 70.61564402282238
leaf_count=531 703 227 503 42 418 73 118 419 562 89 73 40 73 208
internal_value=0.105358 0.0416054 0.133614 0.115583 0.105796 0.169165 0.134525 0.0181869 0.031192 0.0841403 0.090048 0.128386 0.146767 0.156449
internal_weight=906.253 279.076 627.177 418.94 340.889 208.237 144.273 221.638 168.858 196.616 182.889 48.4042 42.4908 78.0509
internal_count=4079 1739 2340 1764 1514 576 536 1512 1093 978 889 186 146 250
is_linear=0
shrinkage=0.04


Tree=2
num_leaves=15
num_cat=0
split_feature=11 12 2 7 1 22 9 36 8 3 38 38 14 34
split_gain=968.688 486.321 372.607 194.453 104.223 54.3827 46.3838 46.1697 48.4583 45.7817 62.9123 44.3378 42.971 41.7121
threshold=1.0000000180025095e-35 1.0000000180025095e-35 0.11450000000000002 0.37500000000000006 2.7975000000000008 -0.62499999999999989 1.0000000180025095e-35 0.18333333333333332 1.0000000180025095e-35 0.20900000000000005 0.66850000000000009 0.44555000000000006 1.0000000180025095e-35 0.62600000000000011
decision_type=2 2 2 2 2 2 2 2 2 2 2 2 2 2
left_child=1 2 3 5 7 12 -2 8 -4 -7 11 -11 -1 -3
right_child=6 13 4 -5 -6 9 -8 -9 -10 10 -12 -13 -14 -15
leaf_value=0.019294703274387506 0.16763662350908426 0.1355129834562826 0.00082894892742162488 0.087479013404007766 0.14794730215554361 -0.013730476783317859 0.11094584269365507 0.086522000822262385 0.078189165511670003 0.037176599239103499 0.074392816649441459 -0.044899045503476433 0.11141273850520339 0.072276988051663521
leaf_weight=24.981298290193081 211.43864507973194 145.20844964683056 24.981063723564148 56.0531035810709 38.269664198160172 153.78163582831621 35.33156181871891 145.50794916599989 25.961245656013489 19.431060522794724 25.077750086784363 20.749828144907951 11.398988842964171 23.139273673295975
leaf_count=159 404 435 169 246 98 1165 117 631 114 114 133 164 48 94
internal_value=0.091746 0.0679834 0.0495018 0.0207103 0.0874581 0.00577368 0.16 0.0749848 0.0409996 -0.00182793 0.0260043 -0.00526917 0.0503663 0.127299
internal_weight=961.312 714.541 546.194 311.474 234.72 255.421 246.77 196.45 50.9423 219.04 65.2586 40.1809 36.3803 168.348
internal_count=4091 3570 3041 2029 1012 1783 521 914 283 1576 411 278 207 529
is_linear=0
shrinkage=0.04


Tree=3
num_leaves=15
num_cat=0
split_feature=11 12 2 19 2 4 3 33 2 33 36 2 33 36
split_gain=659.501 438.768 241.742 129.38 114.616 55.2142 57.6468 47.3734 66.9051 47.9178 37.9069 42.4827 37.1245 36.4239
threshold=1.0000000180025095e-35 1.0000000180025095e-35 0.16900000000000001 1.0000000180025095e-35 0.061000000000000006 0.18850000000000003 0.18850000000000003 0.45650000000000007 0.035500000000000011 0.52100000000000013 0.18333333333333332 0.23600000000000002 0.58000000000000007 0.29166666666666674
decision_type=2 2 2 2 2 2 2 2 2 2 2 2 2 2
left_child=1 2 3 4 7 -5 -7 -1 9 -9 11 -4 13 -6
right_child=-2 -3 10 5 12 6 -8 8 -10 -11 -12 -13 -14 -15
leaf_value=-0.016683265220764021 0.1385161349162525 0.1172658952404889 0.088297212001671815 -0.0098049283808762048 0.011780377457493323 0.11243115657778337 0.049353058275891544 0.13192662786616766 -0.028400285861182262 0.008073464222686632 0.09991911559889205 -0.00086957574603939035 -0.041603175779454001 0.061299021736229274
leaf_weight=129.30804169923067 262.6299951672554 190.26483246684074 18.684130400419235 12.884127065539358 32.227727293968201 42.584757156670094 55.875424325466156 11.352850005030634 14.70784194767475 8.626275107264517 121.57492482662201 15.079001531004904 6.9253707230091086 95.84253241866827
leaf_count=998 513 536 78 85 206 155 273 48 116 61 419 89 52 463
internal_value=0.0839317 0.0648098 0.0469903 0.0307694 0.0169518 0.0673922 0.0774909 -0.00553158 0.0353429 0.0813851 0.0893682 0.0495948 0.0441049 0.0490259
internal_weight=1018.57 755.938 565.673 410.335 298.991 111.344 98.4602 163.995 34.687 19.9791 155.338 33.7631 134.996 128.07
internal_count=4092 3579 3043 2457 1944 513 428 1223 225 109 586 167 721 669
is_linear=0
shrinkage=0.04


Tree=4
num_leaves=15
num_cat=0
split_feature=11 12 2 8 1 2 30 22 37 18 1 7 1 9
split_gain=673.639 388.109 191.329 106.048 86.3386 76.9768 58.4828 56.2049 46.8356 52.5878 40.5222 38.8547 54.1679 47.6709
threshold=1.0000000180025095e-35 1.0000000180025095e-35 0.11450000000000002 1.0000000180025095e-35 2.7975000000000008 0.032500000000000008 0.54006410256410264 0.22500000000000003 0.29166666666666674 1.0000000180025095e-35 1.0680000000000003 0.62500000000000011 1.3155000000000003 1.0000000180025095e-35
decision_type=2 2 2 2 2 2 2 2 2 2 2 2 2 2
left_child=1 2 3 5 11 -1 -5 -7 -9 -10 -11 13 -13 -4
right_child=-2 -3 4 6 -6 7 -8 8 9 10 -12 12 -14 -15
leaf_value=-0.019777002896205063 0.12744275116518158 0.10435908917164226 0.081461418111127698 0.083768828449231295 0.11636568311181707 0.0024919635596254252 -0.021853444826278517 -0.0065943831321591696 0.093322322286398154 -0.026722540768425167 0.088326865160227475 0.047542835561882914 -0.046353252194720217 0.036697645827378472
leaf_weight=99.398967996239662 293.72682501375675 198.4351209551096 96.42840339243412 49.889558479189873 43.71928209066391 86.379780933260918 9.6093286871910077 18.076032780110836 38.527375347912312 13.480738982558252 6.4294975548982611 34.064856201410294 12.759342536330221 67.035827450454235
leaf_count=773 504 523 357 189 102 569 59 132 178 108 30 148 80 342
internal_value=0.0759014 0.0562087 0.0394626 0.0188838 0.0653568 0.00784075 0.0666311 0.0247112 0.0494397 0.0665916 0.012877 0.0542514 0.0215224 0.0634388
internal_weight=1067.96 774.234 575.799 321.791 254.008 262.292 59.4989 162.893 76.5136 58.4376 19.9102 210.288 46.8242 163.464
internal_count=4094 3590 3067 2038 1029 1790 248 1017 448 316 138 927 228 699
is_linear=0
shrinkage=0.04


end of trees

feature_importances:
Column_2=9
Column_1=7
Column_8=5
Column_37=5
Column_3=4
Column_9=4
Column_11=4
Column_12=4
Column_18=4
Column_33=4
Column_36=4
Column_22=3
Column_7=2
Column_30=2
Column_31=2
Column_38=2
Column_4=1
Column_6=1
Column_14=1
Column_19=1
Column_34=1

parameters:
[boosting: gbdt]
[objective: binary]
[metric: binary_logloss]
[tree_learner: serial]
[device_type: cpu]
[data_sample_strategy: bagging]
[data: ]
[valid: ]
[num_iterations: 400]
[learning_rate: 0.04]
[num_leaves: 15]
[num_threads: 0]
[seed: 0]
[deterministic: 0]
[force_col_wise: 0]
[force_row_wise: 0]
[histogram_pool_size: -1]
[max_depth: -1]
[min_data_in_leaf: 25]
[min_sum_hessian_in_leaf: 0.001]
[bagging_fraction: 0.85]
[pos_bagging_fraction: 1]
[neg_bagging_fraction: 1]
[bagging_freq: 1]
[bagging_seed: 3]
[bagging_by_query: 0]
[feature_fraction: 0.85]
[feature_fraction_bynode: 1]
[feature_fraction_seed: 2]
[extra_trees: 0]
[extra_seed: 6]
[early_stopping_round: 0]
[early_stopping_min_delta: 0]
[first_metric_only: 0]
[max_delta_step: 0]
[lambda_l1: 0]
[lambda_l2: 1]
[linear_lambda: 0]
[min_gain_to_split: 0]
[drop_rate: 0.1]
[max_drop: 50]
[skip_drop: 0.5]
[xgboost_dart_mode: 0]
[uniform_drop: 0]
[drop_seed: 4]
[top_rate: 0.2]
[other_rate: 0.1]
[min_data_per_group: 100]
[max_cat_threshold: 32]
[cat_l2: 10]
[cat_smooth: 10]
[max_cat_to_onehot: 4]
[top_k: 20]
[monotone_constraints: ]
[monotone_constraints_method: basic]
[monotone_penalty: 0]
[feature_contri: ]
[forcedsplits_filename: ]
[refit_decay_rate: 0.9]
[cegb_tradeoff: 1]
[cegb_penalty_split: 0]
[cegb_penalty_feature_lazy: ]
[cegb_penalty_feature_coupled: ]
[path_smooth: 0]
[interaction_constraints: ]
[verbosity: -1]
[saved_feature_importance_type: 0]
[use_quantized_grad: 0]
[num_grad_quant_bins: 4]
[quant_train_renew_leaf: 0]
[stochastic_rounding: 1]
[linear_tree: 0]
[max_bin: 255]
[max_bin_by_feature: ]
[min_data_in_bin: 3]
[bin_construct_sample_cnt: 200000]
[data_random_seed: 1]
[is_enable_sparse: 1]
[enable_bundle: 1]
[use_missing: 1]
[zero_as_missing: 0]
[feature_pre_filter: 1]
[pre_partition: 0]
[two_round: 0]
[header: 0]
[label_column: ]
[weight_column: ]
[group_column: ]
[ignore_column: ]
[categorical_feature: ]
[forcedbins_filename: ]
[precise_float_parser: 0]
[parser_config_file: ]
[objective_seed: 5]
[num_class: 1]
[is_unbalance: 0]
[scale_pos_weight: 6]
[sigmoid: 1]
[boost_from_average: 1]
[reg_sqrt: 0]
[alpha: 0.9]
[fair_c: 1]
[poisson_max_delta_step: 0.7]
[tweedie_variance_power: 1.5]
[lambdarank_truncation_level: 30]
[lambdarank_norm: 1]
[label_gain: ]
[lambdarank_position_bias_regularization: 0]
[eval_at: ]
[multi_error_top_k: 1]
[auc_mu_weights: ]
[num_machines: 1]
[local_listen_port: 12400]
[time_out: 120]
[machine_list_filename: ]
[machines: ]
[gpu_platform_id: -1]
[gpu_device_id: -1]
[gpu_use_dp: 0]
[num_gpu: 1]

end of parameters

pandas_categorical:null
