tree
version=v4
num_class=1
num_tree_per_iteration=1
label_index=0
max_feature_idx=44
objective=binary sigmoid:1
feature_names=Column_0 Column_1 Column_2 Column_3 Column_4 Column_5 Column_6 Column_7 Column_8 Column_9 Column_10 Column_11 Column_12 Column_13 Column_14 Column_15 Column_16 Column_17 Column_18 Column_19 Column_20 Column_21 Column_22 Column_23 Column_24 Column_25 Column_26 Column_27 Column_28 Column_29 Column_30 Column_31 Column_32 Column_33 Column_34 Column_35 Column_36 Column_37 Column_38 Column_39 Column_40 Column_41 Column_42 Column_43 Column_44
feature_infos=none [-7.4000000000000004:4.4329999999999998] [0:0.94099999999999995] [0:1] [0:1] [0:1] [0:1] [0:1] [0:1] [0:1] [0:1] [0:1] [0:1] [0:1] [0:1] [0.25:1] [0:1] [0:1] [0:1] [-0.3666666666666667:1] [0:1] none [-1.05:1.1499999999999999] [-1:0.66666666666666663] [-0.90000000000000002:0.66666666666666663] [0:1] [0:1] [0:1] [0.0625:1] [0.45000000000000001:1] [0:1] [0.010999999999999999:1] [0.010999999999999999:1] [0.048000000000000001:1] [0.014:1] [0.028000000000000001:1] [0:1] [0:1] [0:1] [0:1] [0:1] [0:1] [0:1] [0:1] [0:1]
tree_sizes=1699 1727 1721 1723 1728 1738

Tree=0
num_leaves=15
num_cat=0
split_feature=11 12 1 19 2 36 36 38 1 30 23 38 19 2
split_gain=2465.61 1249.11 701.937 480.836 340.746 171.102 99.4513 94.3192 56.8673 51.9454 49.2617 48.9388 40.1949 39.2411
threshold=1.0000000180025095e-35 1.0000000180025095e-35 2.617500000000001 1.0000000180025095e-35 0.06950000000000002 0.81666666666666676 0.29166666666666674 0.43370000000000003 -1.9709999999999999 0.23904761904761906 -0.34999999999999992 0.47915000000000002 1.0000000180025095e-35 0.24100000000000002
decision_type=2 2 2 2 2 2 2 2 2 2 2 2 2 2
left_child=1 2 3 4 -1 -5 7 -6 -8 -4 -3 13 -2 -10
right_child=12 10 9 5 6 -7 8 -9 11 -11 -12 -13 -14 -15
leaf_value=-1.8111769338919546 -1.6125898076044987 -1.7513038258097078 -1.7506907709628368 -1.7247741398648306 -1.7204075391848295 -1.6331816642655521 -1.823818037908415 -1.8228661705545066 -1.7146784294308981 -1.641465209190873 -1.6290108493391278 -1.7416840096954971 -1.5699629318413384 -1.6354224061154436
leaf_weight=247.32022500038147 93.06317138671875 6.5435042381286612 8.8458483219146711 177.28049445152283 21.084624767303467 40.715137481689453 8.8458483219146711 40.472785472869873 49.682161808013916 105.90782785415649 210.36154365539551 90.033771276473999 186.61104679107666 14.662296533584593
leaf_count=1826 298 39 53 988 114 146 68 309 265 404 751 533 435 51
internal_value=-1.68852 -1.71748 -1.74059 -1.75597 -1.77876 -1.70695 -1.74323 -1.78696 -1.72696 -1.64933 -1.63243 -1.72133 -1.58341 -1.69428
internal_weight=1301.43 1021.76 804.851 690.097 472.102 217.996 224.781 61.5574 163.224 114.754 216.905 154.378 279.674 64.3445
internal_count=6280 5547 4757 4300 3166 1134 1340 423 917 457 790 849 733 316
is_linear=0
shrinkage=1


Tree=1
num_leaves=15
num_cat=0
split_feature=2 20 1 9 37 18 14 37 30 30 31 18 2 34
split_gain=1248.62 348.707 333.167 185.719 158.843 195.002 131.011 116.887 102.836 98.4008 88.1852 83.7449 81.9408 60.5051
threshold=0.14450000000000002 1.0000000180025095e-35 1.0635000000000008 1.0000000180025095e-35 0.91666666666666685 1.0000000180025095e-35 1.0000000180025095e-35 0.63333333333333341 0.64852941176470602 0.42481203007518803 0.10450000000000001 1.0000000180025095e-35 0.035500000000000011 0.30450000000000005
decision_type=2 2 2 2 2 2 2 2 2 2 2 2 2 2
left_child=1 2 4 6 9 12 8 -4 -2 -1 -5 -9 -6 -11
right_child=3 -3 7 10 5 -7 -8 11 -10 13 -12 -13 -14 -15
leaf_value=-0.024921300465013774 0.14156931936007244 0.11549783354739707 0.061074400923352867 -0.019622255482067877 0.034458488098343107 -0.0022256091558498872 0.08255909580104577 0.13414888600537503 0.18007358998259648 0.063763648512772095 0.1066933111940172 0.046177050286941516 0.13139011550547669 0.0058326125179652645
leaf_weight=89.452086269855499 257.84157019853592 203.90683916211128 119.18155665695667 9.4509326517581922 20.197144776582718 43.216541483998299 40.042600847780704 97.0488650649786 253.89824642241001 49.318339593708515 92.720304451882839 22.717204019427299 51.626446202397346 68.12737413495779
leaf_count=692 879 837 660 69 125 312 199 365 626 281 402 137 200 469
internal_value=0.105572 0.0707225 0.0542681 0.146159 0.0275722 0.0650345 0.155455 0.0899711 0.160987 0.0065296 0.0949321 0.117983 0.10498 0.0304922
internal_weight=1418.75 764.792 560.886 653.954 321.938 115.04 551.782 238.948 511.74 206.898 102.171 119.766 71.8236 117.446
internal_count=6253 4078 3241 2175 2079 637 1704 1162 1505 1442 471 502 325 750
is_linear=0
shrinkage=0.04


Tree=2
num_leaves=15
num_cat=0
split_feature=11 12 1 8 2 2 36 32 25 28 4 2 4 34
split_gain=1424.81 639.652 471.192 259.5 181.039 90.8028 80.9255 65.5535 62.1343 55.1111 54.9531 44.3299 45.7121 46.0247
threshold=1.0000000180025095e-35 1.0000000180025095e-35 2.517500000000001 1.0000000180025095e-35 0.088500000000000009 0.46350000000000008 0.45000000000000007 0.54550000000000021 0.29000000000000009 0.53125000000000011 0.36150000000000004 0.31650000000000006 0.42350000000000004 0.49150000000000005
decision_type=2 2 2 2 2 2 2 2 2 2 2 2 2 2
left_child=1 2 3 4 -1 6 -6 10 9 -8 -4 12 -5 -14
right_child=-2 -3 7 11 5 -7 8 -9 -10 -11 -12 -13 13 -15
leaf_value=0.0039393015728033101 0.15960603537226503 0.12460822724665191 0.13937829042710906 0.062360925002862284 0.0090609589703411868 0.16066345227862663 -0.029031160253166901 0.15105943567147154 0.0955901265997217 0.054846427807630882 0.074324479964431853 0.016666457550105263 0.13040678148021276 0.068535533781787436
leaf_weight=311.26274038106203 358.42603045701981 249.71070528030396 31.233375109732151 92.907600186765194 67.784210927784443 10.694410905241964 14.573010087013243 53.244604617357254 54.525062538683414 69.638764418661594 77.495494768023491 18.234348267316818 48.971083849668503 38.449420571327209
leaf_count=2152 745 781 96 453 435 23 105 132 232 364 334 104 161 176
internal_value=0.0901025 0.0681047 0.0521115 0.0382658 0.0235365 0.0514718 0.0450705 0.113644 0.0624734 0.0401609 0.0941117 0.0771537 0.0831444 0.104277
internal_weight=1497.15 1138.72 889.014 727.041 528.478 217.215 206.521 161.973 138.737 84.2118 108.729 198.562 180.328 87.4205
internal_count=6293 5548 4767 4205 3311 1159 1136 562 701 469 430 894 790 337
is_linear=0
shrinkage=0.04


Tree=3
num_leaves=15
num_cat=0
split_feature=11 12 2 19 3 13 36 34 32 26 31 6 36 2
split_gain=949.81 560.84 335.71 177.393 139.305 117.291 96.3 69.5429 67.574 63.1461 59.4934 63.2666 56.6443 91.0563
threshold=1.0000000180025095e-35 1.0000000180025095e-35 0.13950000000000001 1.0000000180025095e-35 0.22750000000000001 1.0000000180025095e-35 0.18333333333333332 0.26150000000000007 0.38550000000000006 0.12500000000000003 0.27200000000000008 0.29166666666666669 0.63333333333333341 0.085500000000000007
decision_type=2 2 2 2 2 2 2 2 2 2 2 2 2 2
left_child=1 2 3 4 5 -1 9 -7 -6 -4 -8 -12 13 -5
right_child=-2 -3 6 12 8 7 10 -9 -10 -11 11 -13 -14 -15
leaf_value=-0.0053400799189894524 0.13867725806256134 0.11629792266243627 0.001653240707911208 0.073086294785669401 0.014640118990815337 0.13088998056316059 0.082832009401602097 0.024778303172017246 0.074984538332531117 0.072592468457584311 0.1499960866488696 0.049515625005295529 0.10786909635275463 -0.016494669346502362
leaf_weight=259.19945015013218 387.39183607697487 279.24088017642498 33.696281000971794 80.380051806569099 46.191813178360462 15.436809651553629 203.12723628431559 26.315348133444786 85.124212950468063 48.846103549003601 49.618316277861595 14.124785065650938 45.157015755772591 22.950829640030861
leaf_count=1828 740 776 207 355 294 60 794 164 392 208 99 65 148 143
internal_value=0.0841765 0.066619 0.0515963 0.0328648 0.0198206 0.00476486 0.0825471 0.0661544 0.0540288 0.0439994 0.094261 0.128839 0.0704513 0.0532221
internal_weight=1596.8 1209.41 930.168 580.756 432.268 300.952 349.413 41.7522 131.316 82.5424 266.87 63.7431 148.488 103.331
internal_count=6273 5533 4757 3384 2738 2052 1373 224 686 415 958 164 646 498
is_linear=0
shrinkage=0.04


Tree=4
num_leaves=15
num_cat=0
split_feature=11 12 1 8 2 2 30 2 31 19 32 32 35 31
split_gain=924.787 437.914 301.426 184.213 149.534 65.0887 64.9675 54.7607 52.4064 49.1807 43.6565 42.3045 42.7925 37.3727
threshold=1.0000000180025095e-35 1.0000000180025095e-35 2.5015000000000005 1.0000000180025095e-35 0.06950000000000002 0.37250000000000005 0.32071428571428579 0.32150000000000006 0.26550000000000007 1.0000000180025095e-35 0.36050000000000004 0.29750000000000004 0.64200000000000013 0.30350000000000005
decision_type=2 2 2 2 2 2 2 2 2 2 2 2 2 2
left_child=1 2 3 4 9 11 -6 13 -4 10 -1 -5 -13 -8
right_child=-2 -3 8 5 6 -7 7 -9 -10 -11 -12 12 -14 -15
leaf_value=-0.016263927023463187 0.126485367706626 0.10090696154065411 0.075870296125140679 0.012366492346969207 0.0021546320323811872 -0.043362046250096056 0.039359238814807171 0.10429530892568079 0.12489602155085389 0.048959708822025431 0.020094671478853729 0.081322414255360645 0.011306435926614502 0.11900312128623025
leaf_weight=173.6715984493494 424.93059758841991 291.13552193343639 134.8114995136857 19.198328822851181 52.374646902084351 7.8630898147821418 182.89564874023199 27.279504895210266 52.246660754084587 28.95713683962822 74.798682376742363 168.18608929216862 15.60664142668247 9.2711073681712133
leaf_count=1298 725 777 495 100 320 53 959 80 102 136 486 631 81 26
internal_value=0.0755861 0.0580317 0.0447602 0.033485 0.0212153 0.0651951 0.0422428 0.0517573 0.0901548 0.000535135 -0.00528198 0.0695921 0.0754704 0.0437978
internal_weight=1663.23 1238.3 947.161 760.102 549.248 210.854 271.821 219.446 187.058 277.427 248.47 202.991 183.793 192.167
internal_count=6269 5544 4767 4170 3305 865 1385 1065 597 1920 1784 812 712 985
is_linear=0
shrinkage=0.04


Tree=5
num_leaves=15
num_cat=0
split_feature=11 2 36 19 12 18 1 36 38 37 1 4 31 25
split_gain=651.128 370.638 154.224 138.549 168.051 127.413 82.3849 66.0203 63.4036 54.2831 53.8835 45.0998 36.9183 35.6306
threshold=1.0000000180025095e-35 0.06950000000000002 0.45000000000000007 1.0000000180025095e-35 1.0000000180025095e-35 1.0000000180025095e-35 2.8515000000000001 0.70833333333333348 0.44345000000000007 0.91666666666666685 -0.48549999999999965 0.27600000000000008 0.23550000000000001 0.63000000000000012
decision_type=2 2 2 2 2 2 2 2 2 2 2 2 2 2
left_child=1 3 10 4 6 7 12 9 -5 -4 -3 -7 -1 -9
right_child=-2 2 5 8 -6 11 -8 13 -10 -11 -12 -13 -14 -15
leaf_value=-0.007922577452398159 0.11184168541196268 -0.010784721925489238 0.056328279503628044 0.083621471662622376 0.07516900655345285 0.10101729041310906 0.096514653027030287 0.080377574077372477 0.014419118688100741 0.096631563336937246 0.050063871226944723 0.0070883011103389819 0.079972076778676016 0.11022788636421334
leaf_weight=252.50694344937801 450.82618062198162 25.804238766431808 157.09120693057775 78.20178534090519 56.096178397536278 8.9479947090148908 12.37134465575218 117.70730777829885 29.568484023213387 87.075744017958641 210.68454628437757 47.027237169444561 6.8876750171184531 203.21971440315247
leaf_count=1817 744 164 634 262 169 32 34 364 146 249 911 265 31 452
internal_value=0.0704426 0.055935 0.0711915 0.0258077 0.0127858 0.0816844 -0.000319336 0.0873848 0.0649418 0.0710369 0.043407 0.0236129 -0.00529056 0.0995633
internal_weight=1744.02 1293.19 857.558 435.632 327.862 621.069 271.766 565.094 107.77 244.167 236.489 55.9752 259.395 320.927
internal_count=6274 5530 3071 2459 2051 1996 1882 1699 408 883 1075 297 1848 816
is_linear=0
shrinkage=0.04


end of trees

feature_importances:
Column_2=13
Column_1=7
Column_36=7
Column_11=5
Column_12=5
Column_19=5
Column_31=5
Column_30=4
Column_32=4
Column_4=3
Column_18=3
Column_34=3
Column_37=3
Column_38=3
Column_8=2
Column_25=2
Column_3=1
Column_6=1
Column_9=1
Column_13=1
Column_14=1
Column_20=1
Column_23=1
Column_26=1
Column_28=1
Column_35=1

parameters:
[boosting: gbdt]
[objective: binary]
[metric: binary_logloss]
[tree_learner: serial]
[device_type: cpu]
[data_sample_strategy: bagging]
[data: ]
[valid: ]
[num_iterations: 400]
[learning_rate: 0.04]
[num_leaves: 15]
[num_threads: 0]
[seed: 0]
[deterministic: 0]
[force_col_wise: 0]
[force_row_wise: 0]
[histogram_pool_size: -1]
[max_depth: -1]
[min_data_in_leaf: 25]
[min_sum_hessian_in_leaf: 0.001]
[bagging_fraction: 0.85]
[pos_bagging_fraction: 1]
[neg_bagging_fraction: 1]
[bagging_freq: 1]
[bagging_seed: 3]
[bagging_by_query: 0]
[feature_fraction: 0.85]
[feature_fraction_bynode: 1]
[feature_fraction_seed: 2]
[extra_trees: 0]
[extra_seed: 6]
[early_stopping_round: 0]
[early_stopping_min_delta: 0]
[first_metric_only: 0]
[max_delta_step: 0]
[lambda_l1: 0]
[lambda_l2: 1]
[linear_lambda: 0]
[min_gain_to_split: 0]
[drop_rate: 0.1]
[max_drop: 50]
[skip_drop: 0.5]
[xgboost_dart_mode: 0]
[uniform_drop: 0]
[drop_seed: 4]
[top_rate: 0.2]
[other_rate: 0.1]
[min_data_per_group: 100]
[max_cat_threshold: 32]
[cat_l2: 10]
[cat_smooth: 10]
[max_cat_to_onehot: 4]
[top_k: 20]
[monotone_constraints: ]
[monotone_constraints_method: basic]
[monotone_penalty: 0]
[feature_contri: ]
[forcedsplits_filename: ]
[refit_decay_rate: 0.9]
[cegb_tradeoff: 1]
[cegb_penalty_split: 0]
[cegb_penalty_feature_lazy: ]
[cegb_penalty_feature_coupled: ]
[path_smooth: 0]
[interaction_constraints: ]
[verbosity: -1]
[saved_feature_importance_type: 0]
[use_quantized_grad: 0]
[num_grad_quant_bins: 4]
[quant_train_renew_leaf: 0]
[stochastic_rounding: 1]
[linear_tree: 0]
[max_bin: 255]
[max_bin_by_feature: ]
[min_data_in_bin: 3]
[bin_construct_sample_cnt: 200000]
[data_random_seed: 1]
[is_enable_sparse: 1]
[enable_bundle: 1]
[use_missing: 1]
[zero_as_missing: 0]
[feature_pre_filter: 1]
[pre_partition: 0]
[two_round: 0]
[header: 0]
[label_column: ]
[weight_column: ]
[group_column: ]
[ignore_column: ]
[categorical_feature: ]
[forcedbins_filename: ]
[precise_float_parser: 0]
[parser_config_file: ]
[objective_seed: 5]
[num_class: 1]
[is_unbalance: 0]
[scale_pos_weight: 6]
[sigmoid: 1]
[boost_from_average: 1]
[reg_sqrt: 0]
[alpha: 0.9]
[fair_c: 1]
[poisson_max_delta_step: 0.7]
[tweedie_variance_power: 1.5]
[lambdarank_truncation_level: 30]
[lambdarank_norm: 1]
[label_gain: ]
[lambdarank_position_bias_regularization: 0]
[eval_at: ]
[multi_error_top_k: 1]
[auc_mu_weights: ]
[num_machines: 1]
[local_listen_port: 12400]
[time_out: 120]
[machine_list_filename: ]
[machines: ]
[gpu_platform_id: -1]
[gpu_device_id: -1]
[gpu_use_dp: 0]
[num_gpu: 1]

end of parameters

pandas_categorical:null
