tree
version=v4
num_class=1
num_tree_per_iteration=1
label_index=0
max_feature_idx=44
objective=binary sigmoid:1
feature_names=Column_0 Column_1 Column_2 Column_3 Column_4 Column_5 Column_6 Column_7 Column_8 Column_9 Column_10 Column_11 Column_12 Column_13 Column_14 Column_15 Column_16 Column_17 Column_18 Column_19 Column_20 Column_21 Column_22 Column_23 Column_24 Column_25 Column_26 Column_27 Column_28 Column_29 Column_30 Column_31 Column_32 Column_33 Column_34 Column_35 Column_36 Column_37 Column_38 Column_39 Column_40 Column_41 Column_42 Column_43 Column_44
feature_infos=none [-7.4000000000000004:4.4329999999999998] [0:0.94099999999999995] [0:1] [0:1] [0:1] [0:1] [0:1] [0:1] [0:1] [0:1] [0:1] [0:1] [0:1] [0:1] [0.25:1] [0:1] [0:1] [0:1] [-0.3666666666666667:1] [0:1] none [-1.05:1.1000000000000001] [-0.83333333333333337:0.59999999999999998] [-0.56666666666666665:0.5] [0:1] [0:1] [0:1] [0.10416666666666674:1] [0.45000000000000001:1] [0:1] [0.010999999999999999:1] [0.010999999999999999:1] [0.048000000000000001:1] [0.014:1] [0.028000000000000001:1] [0:1] [0:1] [0.15050000000000002:0.84949999999999992] [0:1] [0:1] [0:1] [0:1] [0:1] [0:1]
tree_sizes=1700 1721 1725 1736 1726 1735 1735

Tree=0
num_leaves=15
num_cat=0
split_feature=11 12 2 6 1 1 37 2 36 26 28 9 22 14
split_gain=1771.03 1038.18 683.364 240.713 198.859 111.742 86.8493 83.3744 79.0139 74.2693 74.5161 62.6614 61.1343 81.6715
threshold=1.0000000180025095e-35 1.0000000180025095e-35 0.06950000000000002 0.62500000000000011 2.8120000000000003 -2.0854999999999997 0.45000000000000007 0.10750000000000003 0.45000000000000007 0.075000000000000011 0.48958333333333337 1.0000000180025095e-35 -0.62499999999999989 1.0000000180025095e-35
decision_type=2 2 2 2 2 2 2 2 2 2 2 2 2 2
left_child=1 2 3 12 5 -4 -3 -6 9 -7 -11 -2 13 -1
right_child=11 6 4 -5 7 8 -8 -9 -10 10 -12 -13 -14 -15
leaf_value=-1.8189526592451779 -1.5854910240202225 -1.7206854710078487 -1.8454549993630718 -1.6971610610027323 -1.7751796633702921 -1.7958748376901199 -1.6284604470902362 -1.6229267552092903 -1.7101938911529981 -1.8588433425412878 -1.7098638324611903 -1.6602786086308388 -1.8328011275630469 -1.6825808665003705
leaf_weight=20.406203404068947 172.01229355484247 22.446823887526989 12.963940963149069 26.287991650402546 7.4422624409198752 44.173428609967232 138.64214830845594 41.652662761509418 168.77130694687366 5.5216785520315161 48.494742542505264 30.72934190928936 174.05291123688221 9.7229558303952235
leaf_count=150 423 117 103 124 47 303 465 132 856 46 244 121 1330 41
internal_value=-1.70026 -1.72987 -1.75584 -1.80874 -1.71893 -1.73253 -1.64062 -1.64466 -1.72697 -1.75662 -1.72553 -1.59599 -1.82364 -1.77196
internal_weight=923.321 720.579 559.49 230.47 329.02 279.925 161.089 49.0949 266.961 98.1898 54.0164 202.742 204.182 30.1292
internal_count=4502 3958 3376 1645 1731 1552 582 179 1449 593 290 544 1521 191
is_linear=0
shrinkage=1


Tree=1
num_leaves=15
num_cat=0
split_feature=2 20 2 17 9 17 30 1 37 30 18 37 37 1
split_gain=1083.69 378.834 319.542 133.69 122.437 93.4097 81.9203 81.0801 74.8234 73.9044 72.8477 67.5651 64.0095 60.6028
threshold=0.16050000000000003 1.0000000180025095e-35 0.06950000000000002 1.0000000180025095e-35 1.0000000180025095e-35 1.0000000180025095e-35 0.16025641025641027 0.3369999999999998 0.45000000000000007 0.65833333333333344 1.0000000180025095e-35 0.63333333333333341 0.45000000000000007 2.1670000000000003
decision_type=2 2 2 2 2 2 2 2 2 2 2 2 2 2
left_child=1 2 3 -1 9 -4 -7 -5 13 -2 12 -8 -6 -9
right_child=4 -3 5 7 10 6 11 8 -10 -11 -12 -13 -14 -15
leaf_value=-0.013590973568654361 0.14226161963397305 0.12057864583969581 0.050924635136442381 -0.030701545105464901 0.045529123753726634 -0.014108683225331511 0.078602335447646277 -0.04374768101283643 0.083962725902634303 0.18201290197373632 0.011309266591098439 0.14780461048533852 0.14559494555453631 0.096740869397112988
leaf_weight=117.03372242301702 181.19345271587372 162.20896724611521 72.912886023521423 16.854953557252884 15.043501511216162 7.6613077968358985 43.218968123197556 15.384331881999971 67.157957933843136 182.95046485960484 12.114617735147474 59.447572082281113 41.500767216086388 6.0170781463384619
leaf_count=893 624 673 420 132 87 54 217 127 348 454 79 202 142 29
internal_value=0.105552 0.0690174 0.0481556 0.0158087 0.15322 0.0871248 0.110376 0.04827 0.0634751 0.162677 0.101447 0.119712 0.120226 -0.00169357
internal_weight=1000.7 567.898 405.689 222.448 432.803 183.241 110.328 105.414 88.5594 364.144 68.6589 102.667 56.5443 21.4014
internal_count=4481 3095 2422 1529 1386 893 473 636 504 1078 308 419 229 156
is_linear=0
shrinkage=0.04


Tree=2
num_leaves=15
num_cat=0
split_feature=11 12 2 8 1 1 2 27 9 34 36 3 38 1
split_gain=1026.91 543.664 366.067 181.671 140.098 50.6528 47.4887 55.8895 46.2198 51.64 63.1337 59.5478 56.5683 42.8065
threshold=1.0000000180025095e-35 1.0000000180025095e-35 0.11450000000000002 1.0000000180025095e-35 2.8120000000000003 1.0680000000000003 0.078000000000000014 0.58333333333333337 1.0000000180025095e-35 0.36450000000000005 0.45000000000000007 0.28250000000000003 0.54027500000000017 -0.41099999999999987
decision_type=2 2 2 2 2 2 2 2 2 2 2 2 2 2
left_child=1 2 3 5 8 -1 -7 -8 9 10 12 -11 -4 -13
right_child=-2 -3 4 -5 -6 6 7 -9 -10 11 -12 13 -14 -15
leaf_value=-0.0033009353177811253 0.15876423010684979 0.12747732611992935 0.10562374367340054 0.083696891246673039 0.14328065574012053 0.0080514174699348913 0.093746283394659735 -0.018743958329701944 0.040957084149672557 -0.012333775607450879 0.14405288960675289 -0.013883787546310122 -0.041614677669512642 0.084587131845680355
leaf_weight=193.40325297415257 263.22644558548927 185.81420951336622 8.6793079078197461 61.370429590344429 51.646405920386314 52.374311752617359 28.204876810312271 8.9320167005062086 67.256131358444691 13.781022295355795 35.432381056249142 7.4478837251663199 6.5982810929417601 80.619828447699547
leaf_count=1399 564 577 32 277 132 364 126 61 376 89 104 49 48 341
internal_value=0.0902824 0.0676236 0.0493841 0.0218947 0.0840396 0.0082409 0.0329398 0.0669085 0.0695348 0.0817847 0.115149 0.0642146 0.0433826 0.0761971
internal_weight=1064.79 801.56 615.746 344.285 271.461 282.914 89.5112 37.1369 219.815 152.559 50.71 101.849 15.2776 88.0677
internal_count=4539 3975 3398 2227 1171 1950 551 187 1039 663 184 479 80 390
is_linear=0
shrinkage=0.04


Tree=3
num_leaves=15
num_cat=0
split_feature=9 36 2 11 33 12 11 36 34 33 10 2 26 31
split_gain=624.441 338.139 226.876 113.351 80.1396 69.5422 79.2974 67.3993 77.6015 46.6849 43.8098 40.6357 38.2657 37.145
threshold=1.0000000180025095e-35 0.81666666666666676 0.06950000000000002 1.0000000180025095e-35 0.53000000000000014 1.0000000180025095e-35 1.0000000180025095e-35 0.29166666666666674 0.31850000000000006 0.42650000000000005 1.0000000180025095e-35 0.23850000000000002 0.25833333333333336 0.056500000000000009
decision_type=2 2 2 2 2 2 2 2 2 2 2 2 2 2
left_child=1 3 5 7 13 6 9 8 -1 -2 11 -10 -12 -4
right_child=2 -3 4 -5 -6 -7 -8 -9 10 -11 12 -13 -14 -15
leaf_value=-0.017342814045219306 -0.022773802340569853 0.13397821757731634 0.0023024095934303431 0.13134290702500673 -0.0027405245916354887 0.073905169632715123 0.091559999290070165 0.083817657307570598 0.09651440081905914 0.026779599633634264 -0.011459191409906627 0.018117087214499825 0.079163187894700879 0.083698658095739578
leaf_weight=24.711256273090839 102.28584136813879 357.06408315896988 9.5024401396512967 57.138764664530754 20.929560869932175 22.786426424980164 12.966496512293814 202.00682070106268 50.552402749657631 42.173270866274834 20.164697907865051 13.977896109223364 10.637986846268175 178.59405660629272
leaf_count=179 806 811 59 115 124 90 44 823 190 284 135 72 43 721
internal_value=0.08428 0.105939 0.0431442 0.0792537 0.0714 0.0101575 0.000522163 0.069634 0.0452708 -0.00822257 0.0615124 0.0800684 0.0213432 0.0796205
internal_weight=1125.49 736.254 389.238 379.19 209.026 180.212 157.426 322.051 120.044 144.459 95.333 64.5303 30.8027 188.096
internal_count=4496 2368 2128 1557 904 1224 1134 1442 619 1090 440 262 178 780
is_linear=0
shrinkage=0.04


Tree=4
num_leaves=15
num_cat=0
split_feature=11 12 2 19 1 7 1 31 32 33 2 30 26 31
split_gain=712.255 415.948 223.488 157.715 81.4071 60.1913 55.9787 41.7964 45.5575 61.2724 41.4003 40.5446 35.9309 34.6988
threshold=1.0000000180025095e-35 1.0000000180025095e-35 0.06950000000000002 1.0000000180025095e-35 2.521500000000001 0.37500000000000006 -2.0854999999999997 0.058500000000000003 0.45850000000000007 0.34900000000000003 0.39600000000000007 0.4188596491228071 0.22500000000000003 0.20750000000000002
decision_type=2 2 2 2 2 2 2 2 2 2 2 2 2 2
left_child=1 2 3 5 6 -1 -4 -8 10 13 -9 12 -5 -10
right_child=-2 -3 4 11 -6 -7 7 8 9 -11 -12 -13 -14 -15
leaf_value=-0.011960421780316997 0.12781051430803947 0.10536506367247959 -0.027866120534302791 -0.015337581799940174 0.093537294539357468 0.096039478848483587 -0.013173267936586972 0.06382492252467499 0.019528600305546703 0.018370387735208622 0.14589264646852546 0.088565702477466743 0.093547697282275272 0.11040140267944087
leaf_weight=180.84291636198759 306.69686219096184 212.59965516626835 13.692860238254069 14.752342343330385 87.448795422911644 7.6541523560881606 14.137872137129305 162.94951857626438 10.233553320169447 84.873796589672565 10.273540094494818 41.212250024080276 6.0678371042013159 21.843739502131939
leaf_count=1374 538 563 99 90 263 30 92 696 54 439 19 156 20 68
internal_value=0.0754406 0.0568231 0.0409546 0.011189 0.0592739 -0.00709128 0.0495881 0.0531531 0.0564188 0.036616 0.0695017 0.0659682 0.0192289 0.0828773
internal_weight=1175.28 868.583 655.983 250.529 405.454 188.497 318.005 304.312 290.174 116.951 173.223 62.0324 20.8202 32.0773
internal_count=4501 3963 3400 1670 1730 1404 1467 1368 1276 561 715 266 110 122
is_linear=0
shrinkage=0.04


Tree=5
num_leaves=15
num_cat=0
split_feature=2 11 19 12 12 31 38 33 1 4 1 37 18 36
split_gain=528.54 195.747 163.145 135.27 120.393 76.412 69.7661 66.9813 59.9481 58.5978 53.4034 47.9002 86.2316 42.7346
threshold=0.06950000000000002 1.0000000180025095e-35 1.0000000180025095e-35 1.0000000180025095e-35 1.0000000180025095e-35 0.24450000000000002 0.44345000000000007 0.46550000000000008 -2.0854999999999997 0.58150000000000002 1.6345000000000001 0.91666666666666685 1.0000000180025095e-35 0.45000000000000007
decision_type=2 2 2 2 2 2 2 2 2 2 2 2 2 2
left_child=2 4 3 7 5 8 -4 11 -2 -6 -11 -1 -13 -7
right_child=1 -3 6 -5 9 13 -8 -9 -10 10 -12 12 -14 -15
leaf_value=-0.030411550318497849 -0.027666181481662694 0.11419086966427058 0.091391411506765136 0.078206004607342158 0.11585240361545358 0.05136796068084621 0.011342433360676885 0.040850467574944316 0.056168102466003678 0.08157199639082767 -0.023057053753141307 0.057799424940580081 -0.044149994082190745 0.11130608752635994
leaf_weight=105.43945442140102 13.68594954907894 291.24075971543789 71.834575057029724 38.339552983641624 130.55168697237968 30.277375213801861 23.304085493087769 42.951505616307259 318.5011393725872 44.037391573190689 8.9800853133201581 31.175004452466965 21.667277656495571 67.121032536029816
leaf_count=844 101 477 219 120 265 127 120 251 1322 115 45 163 187 161
internal_value=0.071131 0.087016 0.028078 0.0103668 0.0739434 0.0620746 0.0721055 -0.00288089 0.0526415 0.101232 0.0637512 -0.0149298 0.0159528 0.0933851
internal_weight=1239.11 904.395 334.711 239.573 613.155 429.585 95.1387 201.233 332.187 183.569 53.0175 158.282 52.8423 97.3984
internal_count=4517 2613 1904 1565 2136 1711 339 1445 1423 425 160 1194 350 288
is_linear=0
shrinkage=0.04


Tree=6
num_leaves=15
num_cat=0
split_feature=11 2 12 20 12 13 1 35 37 33 4 4 35 23
split_gain=440.203 280.344 120.457 126.11 84.7239 103.171 108.22 58.8245 47.751 43.3048 44.6254 43.0047 42.591 36.4764
threshold=1.0000000180025095e-35 0.063000000000000014 1.0000000180025095e-35 1.0000000180025095e-35 1.0000000180025095e-35 1.0000000180025095e-35 2.8120000000000003 0.35800000000000004 0.22500000000000001 0.45650000000000007 0.10900000000000001 0.13450000000000004 0.39550000000000007 -0.41666666666666657
decision_type=2 2 2 2 2 2 2 2 2 2 2 2 2 2
left_child=1 2 3 9 5 6 7 -3 -9 -1 -11 -5 -10 -12
right_child=-2 4 -4 11 -6 -7 -8 8 12 10 13 -13 -14 -15
leaf_value=-0.021252173449436983 0.10489720794692955 0.055272065986916842 0.076017437543337826 -0.021790396085969888 0.088955915687597767 0.087287298704904495 0.088130057049554122 -0.022625144235897246 -0.045266288255467829 0.1118187420202794 0.10384281503546081 0.068560983147292878 0.036718556485091237 -0.012353298194482753
leaf_weight=135.00969071686268 347.27288083732128 108.91013426333666 48.00764262676239 9.4691204875707609 192.7507489323616 129.84845696389675 72.31445324420929 36.637814819812775 10.339879922568796 6.8274450898170462 4.0821172297000876 53.914986252784729 107.19441716372967 28.009997196495533
leaf_count=1086 551 454 137 57 440 415 174 220 67 27 17 199 473 201
internal_value=0.0663911 0.0521193 0.0189174 0.0070958 0.0664658 0.0569774 0.0450184 0.0328793 0.0168063 -0.0105521 0.0261683 0.0549344 0.029185 0.0051182
internal_weight=1290.59 943.317 285.321 237.313 657.996 465.245 335.397 263.082 154.172 173.929 38.9196 63.3841 117.534 32.0921
internal_count=4518 3967 1724 1587 2243 1803 1388 1214 760 1331 245 256 540 218
is_linear=0
shrinkage=0.04


end of trees

feature_importances:
Column_1=12
Column_2=12
Column_12=8
Column_11=7
Column_37=6
Column_33=5
Column_36=5
Column_9=4
Column_31=4
Column_4=3
Column_26=3
Column_30=3
Column_17=2
Column_18=2
Column_19=2
Column_20=2
Column_34=2
Column_35=2
Column_38=2
Column_3=1
Column_6=1
Column_7=1
Column_8=1
Column_10=1
Column_13=1
Column_14=1
Column_22=1
Column_23=1
Column_27=1
Column_28=1
Column_32=1

parameters:
[boosting: gbdt]
[objective: binary]
[metric: binary_logloss]
[tree_learner: serial]
[device_type: cpu]
[data_sample_strategy: bagging]
[data: ]
[valid: ]
[num_iterations: 400]
[learning_rate: 0.04]
[num_leaves: 15]
[num_threads: 0]
[seed: 0]
[deterministic: 0]
[force_col_wise: 0]
[force_row_wise: 0]
[histogram_pool_size: -1]
[max_depth: -1]
[min_data_in_leaf: 25]
[min_sum_hessian_in_leaf: 0.001]
[bagging_fraction: 0.85]
[pos_bagging_fraction: 1]
[neg_bagging_fraction: 1]
[bagging_freq: 1]
[bagging_seed: 3]
[bagging_by_query: 0]
[feature_fraction: 0.85]
[feature_fraction_bynode: 1]
[feature_fraction_seed: 2]
[extra_trees: 0]
[extra_seed: 6]
[early_stopping_round: 0]
[early_stopping_min_delta: 0]
[first_metric_only: 0]
[max_delta_step: 0]
[lambda_l1: 0]
[lambda_l2: 1]
[linear_lambda: 0]
[min_gain_to_split: 0]
[drop_rate: 0.1]
[max_drop: 50]
[skip_drop: 0.5]
[xgboost_dart_mode: 0]
[uniform_drop: 0]
[drop_seed: 4]
[top_rate: 0.2]
[other_rate: 0.1]
[min_data_per_group: 100]
[max_cat_threshold: 32]
[cat_l2: 10]
[cat_smooth: 10]
[max_cat_to_onehot: 4]
[top_k: 20]
[monotone_constraints: ]
[monotone_constraints_method: basic]
[monotone_penalty: 0]
[feature_contri: ]
[forcedsplits_filename: ]
[refit_decay_rate: 0.9]
[cegb_tradeoff: 1]
[cegb_penalty_split: 0]
[cegb_penalty_feature_lazy: ]
[cegb_penalty_feature_coupled: ]
[path_smooth: 0]
[interaction_constraints: ]
[verbosity: -1]
[saved_feature_importance_type: 0]
[use_quantized_grad: 0]
[num_grad_quant_bins: 4]
[quant_train_renew_leaf: 0]
[stochastic_rounding: 1]
[linear_tree: 0]
[max_bin: 255]
[max_bin_by_feature: ]
[min_data_in_bin: 3]
[bin_construct_sample_cnt: 200000]
[data_random_seed: 1]
[is_enable_sparse: 1]
[enable_bundle: 1]
[use_missing: 1]
[zero_as_missing: 0]
[feature_pre_filter: 1]
[pre_partition: 0]
[two_round: 0]
[header: 0]
[label_column: ]
[weight_column: ]
[group_column: ]
[ignore_column: ]
[categorical_feature: ]
[forcedbins_filename: ]
[precise_float_parser: 0]
[parser_config_file: ]
[objective_seed: 5]
[num_class: 1]
[is_unbalance: 0]
[scale_pos_weight: 6]
[sigmoid: 1]
[boost_from_average: 1]
[reg_sqrt: 0]
[alpha: 0.9]
[fair_c: 1]
[poisson_max_delta_step: 0.7]
[tweedie_variance_power: 1.5]
[lambdarank_truncation_level: 30]
[lambdarank_norm: 1]
[label_gain: ]
[lambdarank_position_bias_regularization: 0]
[eval_at: ]
[multi_error_top_k: 1]
[auc_mu_weights: ]
[num_machines: 1]
[local_listen_port: 12400]
[time_out: 120]
[machine_list_filename: ]
[machines: ]
[gpu_platform_id: -1]
[gpu_device_id: -1]
[gpu_use_dp: 0]
[num_gpu: 1]

end of parameters

pandas_categorical:null
