tree
version=v4
num_class=1
num_tree_per_iteration=1
label_index=0
max_feature_idx=44
objective=binary sigmoid:1
feature_names=Column_0 Column_1 Column_2 Column_3 Column_4 Column_5 Column_6 Column_7 Column_8 Column_9 Column_10 Column_11 Column_12 Column_13 Column_14 Column_15 Column_16 Column_17 Column_18 Column_19 Column_20 Column_21 Column_22 Column_23 Column_24 Column_25 Column_26 Column_27 Column_28 Column_29 Column_30 Column_31 Column_32 Column_33 Column_34 Column_35 Column_36 Column_37 Column_38 Column_39 Column_40 Column_41 Column_42 Column_43 Column_44
feature_infos=none [-7.4000000000000004:4.6560000000000006] [0:0.94099999999999995] [0:1] [0:1] [0:1] [0:1] [0:1] [0:1] [0:1] [0:1] [0:1] [0:1] [0:1] [0:1] [0.25:1] [0:1] [0:1] [0:1] [-0.3666666666666667:1] [0:1] none [-1.05:1.1499999999999999] [-1:0.66666666666666663] [-0.90000000000000002:0.66666666666666663] [0:1] [0:1] [0:1] [0.0625:1] [0.45000000000000001:1] [0:1] [0.010999999999999999:1] [0.010999999999999999:1] [0.048000000000000001:1] [0.014:1] [0.028000000000000001:1] [0:1] [0:1] [0:1] [0:1] [0:1] [0:1] [0:1] [0:1] [0:1]
tree_sizes=1703 1727 1723 1731 1738 1755

Tree=0
num_leaves=15
num_cat=0
split_feature=11 12 1 8 2 13 14 34 13 18 3 22 30 6
split_gain=3073.56 1522.44 839.993 634.82 358.192 136.136 146.68 117.638 108.1 107.394 86.6051 83.4997 76.2715 57.2756
threshold=1.0000000180025095e-35 1.0000000180025095e-35 2.5760000000000001 1.0000000180025095e-35 0.06950000000000002 1.0000000180025095e-35 1.0000000180025095e-35 0.38750000000000007 1.0000000180025095e-35 1.0000000180025095e-35 0.45600000000000002 -1.0000000180025095e-35 0.23904761904761906 0.12500000000000003
decision_type=2 2 2 2 2 2 2 2 2 2 2 2 2 2
left_child=1 2 3 4 -1 6 10 11 13 12 -6 -8 -4 -5
right_child=-2 -3 9 8 5 -7 7 -9 -10 -11 -12 -13 -14 -15
leaf_value=-1.8087521806592055 -1.5805946147127823 -1.6311378898933824 -1.7614127173651328 -1.6536271858518625 -1.8022672502597596 -1.7021251782639122 -1.776450222595465 -1.7714647021683907 -1.6525952287600365 -1.7968982873101047 -1.7096569699868587 -1.6329146468908702 -1.6420436345087484 -1.7280129765876817
leaf_weight=307.90084490180016 334.69064757972956 257.35177203267813 10.061326853930948 19.758991427719593 114.79610245674849 79.15718624740839 9.0915604010224325 35.154033556580544 60.489182330667973 8.4854563623666746 17.819458462297916 26.547356612980366 141.82834342122078 132.49434062093496
leaf_count=2260 861 933 63 78 827 403 60 230 244 60 92 94 545 748
internal_value=-1.68787 -1.71744 -1.74065 -1.75745 -1.77889 -1.74645 -1.76413 -1.71805 -1.69836 -1.6573 -1.7892 -1.66773 -1.64961 -1.71743
internal_weight=1555.63 1220.94 963.584 803.209 590.467 282.566 203.409 70.793 212.743 160.375 132.616 35.6389 151.89 152.253
internal_count=7498 6637 5704 5036 3966 1706 1303 384 1070 668 919 154 608 826
is_linear=0
shrinkage=1


Tree=1
num_leaves=15
num_cat=0
split_feature=2 18 37 20 2 15 18 15 30 2 30 1 15 23
split_gain=1451.98 471.016 415.942 353.779 240.347 232.102 134.515 108.494 120.355 106.134 95.9326 89.2792 89.1259 85.2768
threshold=0.16050000000000003 1.0000000180025095e-35 0.91666666666666685 1.0000000180025095e-35 0.39600000000000007 0.62500000000000011 1.0000000180025095e-35 0.62500000000000011 0.66071428571428581 0.085500000000000007 0.69782608695652182 1.1020000000000005 0.87500000000000011 -0.34999999999999992
decision_type=2 2 2 2 2 2 2 2 2 2 2 2 2 2
left_child=1 2 3 5 6 11 7 8 -2 -3 -11 -1 -7 -4
right_child=4 9 13 -5 -6 12 -8 -9 -10 10 -12 -13 -14 -15
leaf_value=-0.00016835836720283342 0.0912786283696915 -0.017321189437101911 0.015279346215635797 0.11010291422151415 0.18660786134044316 0.10523935959230198 0.042913015493226951 0.15585267695867422 0.14947523517397793 0.016220120761952731 0.14319386195738004 0.050601586614009327 0.026876080200911773 0.12910648725942753
leaf_weight=154.53591338545084 137.6950476244092 98.911126367747784 11.265378482639788 177.58910077065229 193.54671762883663 91.977658778429031 26.199207693338394 272.60459790378809 107.58788524568081 30.161875210702419 13.122219398617743 85.399045512080193 32.079473070800304 264.21272555738688
leaf_count=1103 639 753 72 769 442 396 156 836 354 201 48 491 202 1015
internal_value=0.105373 0.0728016 0.0844816 0.063922 0.147576 0.0411508 0.133374 0.137859 0.117309 0.00556642 0.0570784 0.018037 0.0853526 0.124524
internal_weight=1696.89 959.255 817.059 541.581 737.633 363.992 544.087 517.888 245.283 142.195 43.2841 239.935 124.057 275.478
internal_count=7477 5050 4048 2961 2427 2192 1985 1829 993 1002 249 1594 598 1087
is_linear=0
shrinkage=0.04


Tree=2
num_leaves=15
num_cat=0
split_feature=11 12 1 8 13 2 18 36 1 5 5 16 38 13
split_gain=1732.44 778.061 585.264 324.715 218.02 120.133 85.8603 69.8975 68.0258 75.2586 64.8497 58.4445 72.2978 57.1366
threshold=1.0000000180025095e-35 1.0000000180025095e-35 2.517500000000001 1.0000000180025095e-35 1.0000000180025095e-35 0.23600000000000002 1.0000000180025095e-35 0.45000000000000007 1.1134999999999999 0.37500000000000006 0.12500000000000003 1.0000000180025095e-35 0.44345000000000007 1.0000000180025095e-35
decision_type=2 2 2 2 2 2 2 2 2 2 2 2 2 2
left_child=1 2 3 4 5 -1 7 -4 11 -10 -7 -6 -13 -5
right_child=-2 -3 6 13 8 10 -8 -9 9 -11 -12 12 -14 -15
leaf_value=0.0036752042801057373 0.16038694288772681 0.12561630573765442 0.06787155825500317 0.06407248600441047 0.0090228605101540724 0.13669184569532214 -0.00048689297865073499 0.12942293141273126 0.12215186658188872 0.010016114134255572 0.02373435465722375 -0.018769084022040212 0.11027210582404953 0.1088518333252239
leaf_weight=445.1441523656249 431.29352398216724 296.35416039824486 40.664220854640007 172.77609865367413 42.441996790468693 16.155109733343124 10.382244579493998 160.97509479522705 45.853845417499542 12.273426562547682 16.429115638136864 8.928132161498068 26.646385833621025 66.3296949416399
leaf_count=3059 878 915 182 833 277 52 74 501 169 75 95 61 108 232
internal_value=0.0905665 0.068345 0.0523054 0.0374389 0.0219701 0.00918747 0.111658 0.117406 0.0664302 0.0990445 0.0821407 0.0411845 0.0782589 0.0768962
internal_weight=1792.65 1361.35 1065 852.978 613.872 477.728 212.022 201.639 136.144 58.1273 32.5842 78.0165 35.5745 239.106
internal_count=7511 6633 5718 4961 3896 3206 757 683 690 244 147 446 169 1065
is_linear=0
shrinkage=0.04


Tree=3
num_leaves=15
num_cat=0
split_feature=11 12 2 19 3 36 32 31 36 2 40 32 33 33
split_gain=1186.32 621.961 421.449 251.011 135.967 126.679 86.9765 85.6514 71.3599 86.7823 66.1189 62.285 58.2916 65.78
threshold=1.0000000180025095e-35 1.0000000180025095e-35 0.14000000000000004 1.0000000180025095e-35 0.22750000000000001 0.29166666666666674 0.38550000000000006 0.27200000000000008 0.63333333333333341 0.085500000000000007 1.0000000180025095e-35 0.70850000000000002 0.46000000000000008 0.58000000000000007
decision_type=2 2 2 2 2 2 2 2 2 2 2 2 2 2
left_child=1 2 3 4 10 11 -6 -7 9 -5 -1 -4 -12 -14
right_child=-2 -3 5 8 6 7 -8 -9 -10 -11 12 -13 13 -15
leaf_value=-0.0057893218123958234 0.13925257988719303 0.11420886347601257 0.03171665728674615 0.074141800423302609 0.0070977894493315539 0.081458108413296773 0.070787688207724311 0.12890050054669427 0.11020272416707863 -0.0026478810794343462 0.0079534391967386771 0.11749430692338703 0.10652711627413379 -0.040355259233462101
leaf_weight=274.37639421224594 464.18720299005508 326.55579933524132 95.325928173959255 91.44874033331871 52.799126870930195 238.46875557303429 98.252058327198029 87.933893755078316 55.092648208141327 31.50472567230463 47.434723168611526 15.121142044663427 24.167491801083091 5.487488664686679
leaf_count=1958 869 915 503 406 348 951 463 230 185 190 305 44 97 41
internal_value=0.0836367 0.0656741 0.0514007 0.0316444 0.0171154 0.0820363 0.0487183 0.0945939 0.0723267 0.0546031 0.00343351 0.0444092 0.035913 0.0789176
internal_weight=1908.16 1443.97 1117.41 680.563 502.517 436.85 151.051 326.403 178.046 122.953 351.466 110.447 77.0897 29.655
internal_count=7505 6636 5721 3993 3212 1728 811 1181 781 596 2401 547 443 138
is_linear=0
shrinkage=0.04


Tree=4
num_leaves=15
num_cat=0
split_feature=11 12 1 19 2 35 5 18 13 28 38 38 28 32
split_gain=1121.02 504.369 383.176 236.02 200.55 70.5562 70.316 66.6047 50.034 48.1177 62.1175 50.8074 45.0528 43.3262
threshold=1.0000000180025095e-35 1.0000000180025095e-35 2.517500000000001 1.0000000180025095e-35 0.06950000000000002 0.59850000000000014 1.0000000180025095e-35 1.0000000180025095e-35 1.0000000180025095e-35 0.65625000000000011 0.77575000000000005 0.39792500000000003 0.46875000000000006 0.37850000000000006
decision_type=2 2 2 2 2 2 2 2 2 2 2 2 2 2
left_child=1 2 3 4 13 8 12 -4 -6 11 -11 -8 -5 -1
right_child=-2 -3 7 6 5 -7 9 -9 -10 10 -12 -13 -14 -15
leaf_value=-0.014545624886304141 0.12649094589982579 0.10039482780465356 0.094679304031725892 0.031906883184785531 0.022099424070446624 0.093014671482329961 0.087709721581279668 -0.0043270524814760939 0.061427372348913226 0.011741858481043015 0.10194780313281866 0.037351386356877889 0.1062593151671377 0.019339778605506282
leaf_weight=216.43750198185444 510.26967319846153 339.53675231337547 225.61866922676563 17.386888727545738 178.12103565037251 36.488798126578331 69.388835944235325 11.329879544675348 73.252810120582581 78.126467421650887 13.559133559465407 63.521827712655067 68.61566424369812 82.62414962053299
leaf_count=1609 856 906 682 86 1053 134 253 79 318 406 41 313 218 526
internal_value=0.0754071 0.0576492 0.0447787 0.0327674 0.0177934 0.0415652 0.0609152 0.0899469 0.033758 0.0487469 0.0260382 0.0641007 0.0917672 -0.00515058
internal_weight=1984.28 1474.01 1134.47 897.523 586.924 287.863 310.599 236.949 251.374 224.596 91.6856 132.911 86.0026 299.062
internal_count=7480 6624 5718 4957 3640 1505 1317 761 1371 1013 447 566 304 2135
is_linear=0
shrinkage=0.04


Tree=5
num_leaves=15
num_cat=0
split_feature=11 2 36 18 12 19 1 12 31 5 18 38 28 31
split_gain=791.665 417.959 213.433 181.641 177.928 213.932 97.8026 62.4923 62.7763 64.9651 61.1488 52.8548 47.7356 54.1135
threshold=1.0000000180025095e-35 0.072000000000000008 0.70833333333333348 1.0000000180025095e-35 1.0000000180025095e-35 1.0000000180025095e-35 1.3405000000000002 1.0000000180025095e-35 0.20750000000000002 0.62500000000000011 1.0000000180025095e-35 0.44345000000000007 0.46875000000000006 0.093500000000000014
decision_type=2 2 2 2 2 2 2 2 2 2 2 2 2 2
left_child=1 4 7 -4 5 6 -1 8 12 -10 -8 -7 -3 -14
right_child=-2 2 3 -5 -6 11 10 -9 9 -11 -12 -13 13 -15
leaf_value=-0.014151412773770373 0.11207331455662591 -0.0057532278292562865 0.10035798015831604 0.0083398395652693434 0.076995064156205786 0.08011975471699552 0.052302399157261689 0.085168466024068828 0.079172217909669315 0.0047673624542348674 -0.030801735498383196 0.014234431980373542 0.076711530074728515 0.035260919183066119
leaf_weight=236.08296652883291 537.69205543398857 33.82947800308466 387.16654416918755 37.861330471932888 90.468459025025368 80.625930592417717 68.430659621953964 93.41411480307579 143.78755179792643 21.726044625043869 17.084222339093685 26.238362982869148 64.278999306261539 243.4900042489171
leaf_count=1760 872 208 982 221 262 292 334 242 496 110 135 138 265 1184
internal_value=0.0702691 0.0556525 0.0704498 0.0921999 0.0263295 0.0154772 -0.000870106 0.0549283 0.0492012 0.0694928 0.0355357 0.0642249 0.0391952 0.0441385
internal_weight=2082.18 1544.48 1025.55 425.028 518.931 428.462 321.598 600.526 507.112 165.514 85.5149 106.864 341.598 307.769
internal_count=7501 6629 3708 1203 2921 2659 2229 2505 2263 606 469 430 1657 1449
is_linear=0
shrinkage=0.04


end of trees

feature_importances:
Column_2=9
Column_18=7
Column_1=6
Column_12=6
Column_11=5
Column_13=5
Column_5=4
Column_36=4
Column_38=4
Column_15=3
Column_19=3
Column_28=3
Column_30=3
Column_31=3
Column_32=3
Column_3=2
Column_8=2
Column_33=2
Column_6=1
Column_14=1
Column_16=1
Column_20=1
Column_22=1
Column_23=1
Column_34=1
Column_35=1
Column_37=1
Column_40=1

parameters:
[boosting: gbdt]
[objective: binary]
[metric: binary_logloss]
[tree_learner: serial]
[device_type: cpu]
[data_sample_strategy: bagging]
[data: ]
[valid: ]
[num_iterations: 400]
[learning_rate: 0.04]
[num_leaves: 15]
[num_threads: 0]
[seed: 0]
[deterministic: 0]
[force_col_wise: 0]
[force_row_wise: 0]
[histogram_pool_size: -1]
[max_depth: -1]
[min_data_in_leaf: 25]
[min_sum_hessian_in_leaf: 0.001]
[bagging_fraction: 0.85]
[pos_bagging_fraction: 1]
[neg_bagging_fraction: 1]
[bagging_freq: 1]
[bagging_seed: 3]
[bagging_by_query: 0]
[feature_fraction: 0.85]
[feature_fraction_bynode: 1]
[feature_fraction_seed: 2]
[extra_trees: 0]
[extra_seed: 6]
[early_stopping_round: 0]
[early_stopping_min_delta: 0]
[first_metric_only: 0]
[max_delta_step: 0]
[lambda_l1: 0]
[lambda_l2: 1]
[linear_lambda: 0]
[min_gain_to_split: 0]
[drop_rate: 0.1]
[max_drop: 50]
[skip_drop: 0.5]
[xgboost_dart_mode: 0]
[uniform_drop: 0]
[drop_seed: 4]
[top_rate: 0.2]
[other_rate: 0.1]
[min_data_per_group: 100]
[max_cat_threshold: 32]
[cat_l2: 10]
[cat_smooth: 10]
[max_cat_to_onehot: 4]
[top_k: 20]
[monotone_constraints: ]
[monotone_constraints_method: basic]
[monotone_penalty: 0]
[feature_contri: ]
[forcedsplits_filename: ]
[refit_decay_rate: 0.9]
[cegb_tradeoff: 1]
[cegb_penalty_split: 0]
[cegb_penalty_feature_lazy: ]
[cegb_penalty_feature_coupled: ]
[path_smooth: 0]
[interaction_constraints: ]
[verbosity: -1]
[saved_feature_importance_type: 0]
[use_quantized_grad: 0]
[num_grad_quant_bins: 4]
[quant_train_renew_leaf: 0]
[stochastic_rounding: 1]
[linear_tree: 0]
[max_bin: 255]
[max_bin_by_feature: ]
[min_data_in_bin: 3]
[bin_construct_sample_cnt: 200000]
[data_random_seed: 1]
[is_enable_sparse: 1]
[enable_bundle: 1]
[use_missing: 1]
[zero_as_missing: 0]
[feature_pre_filter: 1]
[pre_partition: 0]
[two_round: 0]
[header: 0]
[label_column: ]
[weight_column: ]
[group_column: ]
[ignore_column: ]
[categorical_feature: ]
[forcedbins_filename: ]
[precise_float_parser: 0]
[parser_config_file: ]
[objective_seed: 5]
[num_class: 1]
[is_unbalance: 0]
[scale_pos_weight: 6]
[sigmoid: 1]
[boost_from_average: 1]
[reg_sqrt: 0]
[alpha: 0.9]
[fair_c: 1]
[poisson_max_delta_step: 0.7]
[tweedie_variance_power: 1.5]
[lambdarank_truncation_level: 30]
[lambdarank_norm: 1]
[label_gain: ]
[lambdarank_position_bias_regularization: 0]
[eval_at: ]
[multi_error_top_k: 1]
[auc_mu_weights: ]
[num_machines: 1]
[local_listen_port: 12400]
[time_out: 120]
[machine_list_filename: ]
[machines: ]
[gpu_platform_id: -1]
[gpu_device_id: -1]
[gpu_device_id_list: ]
[gpu_use_dp: 0]
[num_gpu: 1]

end of parameters

pandas_categorical:null
