tree
version=v4
num_class=1
num_tree_per_iteration=1
label_index=0
max_feature_idx=44
objective=binary sigmoid:1
feature_names=Column_0 Column_1 Column_2 Column_3 Column_4 Column_5 Column_6 Column_7 Column_8 Column_9 Column_10 Column_11 Column_12 Column_13 Column_14 Column_15 Column_16 Column_17 Column_18 Column_19 Column_20 Column_21 Column_22 Column_23 Column_24 Column_25 Column_26 Column_27 Column_28 Column_29 Column_30 Column_31 Column_32 Column_33 Column_34 Column_35 Column_36 Column_37 Column_38 Column_39 Column_40 Column_41 Column_42 Column_43 Column_44
feature_infos=none [-7.4000000000000004:4.4329999999999998] [0:0.94099999999999995] [0:1] [0:1] [0:1] [0:1] [0:1] [0:1] [0:1] [0:1] [0:1] [0:1] [0:1] [0:1] [0.25:1] [0:1] [0:1] [0:1] [-0.3666666666666667:1] [0:1] none [-1.05:1.1499999999999999] [-1:0.66666666666666663] [-0.90000000000000002:0.66666666666666663] [0:1] [0:1] [0:1] [0.0625:1] [0.45000000000000001:1] [0:1] [0.010999999999999999:1] [0.010999999999999999:1] [0.048000000000000001:1] [0.014:1] [0.028000000000000001:1] [0:1] [0:1] [0:1] [0:1] [0:1] [0:1] [0:1] [0:1] [0:1]
tree_sizes=1700 1719 1723 1732 1723

Tree=0
num_leaves=15
num_cat=0
split_feature=11 12 1 8 2 36 13 13 34 2 30 4 19 23
split_gain=2754.48 1382.44 746.569 500.757 337.147 137.047 136.384 72.1256 73.7456 71.9272 65.4708 63.0868 62.6356 52.5107
threshold=1.0000000180025095e-35 1.0000000180025095e-35 2.5805000000000002 1.0000000180025095e-35 0.086500000000000007 0.45000000000000007 1.0000000180025095e-35 1.0000000180025095e-35 0.25150000000000006 0.32150000000000006 0.23904761904761906 0.63450000000000017 1.0000000180025095e-35 -0.34999999999999992
decision_type=2 2 2 2 2 2 2 2 2 2 2 2 2 2
left_child=1 2 3 4 7 9 11 -1 -9 -6 -4 -5 -10 -3
right_child=-2 13 10 6 5 -7 -8 8 12 -11 -12 -13 -14 -15
leaf_value=-1.8090527579507449 -1.5802689444539328 -1.7510548437722357 -1.7558647292946987 -1.7153268331760547 -1.7996023091553752 -1.7144267634511752 -1.6469470281376211 -1.6804332911985977 -1.8122159871423367 -1.6859630544161661 -1.6406383632942367 -1.8225744581573391 -1.6832027815040309 -1.6270511695542653
leaf_weight=275.09878907352686 305.07205376029015 6.6742096766829482 9.5865920856595022 124.9897446334362 60.674633637070656 145.25507215410471 55.699313141405582 13.348419293761252 31.18676171451807 9.4652427732944471 113.34021450579166 9.1011950597166997 6.4315111115574828 227.52987369149923
leaf_count=2027 789 40 59 675 435 782 219 60 232 43 434 70 28 810
internal_value=-1.68637 -1.71629 -1.74004 -1.7555 -1.7752 -1.73649 -1.69975 -1.8009 -1.75768 -1.78282 -1.64916 -1.72269 -1.78759 -1.63034
internal_weight=1393.45 1088.38 854.177 731.251 541.46 215.395 189.79 326.065 50.9667 70.1399 122.927 134.091 37.6183 234.204
internal_count=6703 5914 5064 4571 3607 1260 964 2347 320 478 493 745 260 850
is_linear=0
shrinkage=1


Tree=1
num_leaves=15
num_cat=0
split_feature=2 18 37 20 9 1 30 2 2 15 30 37 30 2
split_gain=1366.48 387.126 355.157 265.787 244.06 238.903 131.098 108.37 106.382 77.8234 72.8273 71.5659 68.339 76.102
threshold=0.15050000000000002 1.0000000180025095e-35 0.91666666666666685 1.0000000180025095e-35 1.0000000180025095e-35 1.0615000000000003 0.64852941176470602 0.085500000000000007 0.030500000000000003 0.62500000000000011 0.69782608695652182 0.91666666666666685 0.45227272727272733 0.051500000000000011
decision_type=2 2 2 2 2 2 2 2 2 2 2 2 2 2
left_child=1 2 3 5 6 12 9 -3 -4 -2 -9 -6 -1 -14
right_child=4 7 8 -5 11 -7 -8 10 -10 -11 -12 -13 13 -15
leaf_value=-0.01301157945382306 0.11388840487383965 -0.016861415103375008 0.062157738377826205 0.10659397925466016 0.056506144973561157 0.082397168612943938 0.1783712786870634 0.023589862643403049 0.13515726350663765 0.15814078146931743 0.13986929165602785 0.12619295832360805 0.0050747030981058549 0.073523880523908416
leaf_weight=85.838988721370697 136.01679153740406 89.263696804642677 41.140094414353371 152.04736752808094 54.916305989027023 138.12276923656464 282.36894859373569 26.812720313668251 197.58153595030308 156.53511343896389 12.084313273429869 44.826588913798332 59.931062921881676 45.105307817459106
leaf_count=639 556 678 226 669 300 686 713 169 727 471 44 168 415 235
internal_value=0.105523 0.071584 0.0829747 0.0629534 0.14801 0.0425228 0.158116 0.00746526 0.122889 0.138024 0.0623152 0.0887666 0.0133896 0.0348847
internal_weight=1522.59 847.928 719.767 481.045 674.664 328.998 574.921 128.161 238.722 292.552 38.897 99.7429 190.875 105.036
internal_count=6696 4488 3597 2644 2208 1975 1740 891 953 1027 213 468 1289 650
is_linear=0
shrinkage=0.04


Tree=2
num_leaves=15
num_cat=0
split_feature=11 12 1 8 2 36 32 19 36 4 2 25 34 34
split_gain=1605.99 686.565 490.791 245.102 182.325 115.96 84.9571 55.8164 62.5929 63.479 49.9818 48.5288 58.6018 63.2078
threshold=1.0000000180025095e-35 1.0000000180025095e-35 2.519000000000001 1.0000000180025095e-35 0.072000000000000008 0.45000000000000007 0.54550000000000021 1.0000000180025095e-35 1.0000000180025095e-35 0.29250000000000004 0.32150000000000006 0.29000000000000009 0.37250000000000005 0.56150000000000022
decision_type=2 2 2 2 2 2 2 2 2 2 2 2 2 2
left_child=1 2 3 4 7 -6 -4 -1 -9 -10 11 -7 -13 -14
right_child=-2 -3 6 -5 5 10 -8 8 9 -11 -12 12 13 -15
leaf_value=-0.0040637526610232694 0.16051296311657193 0.12340129104204504 0.091609351295723118 0.073996256883139017 0.010088264202628964 0.040763141609947331 0.15490766741625472 -0.0416059771223449 0.13656372044371698 -0.010458247330246327 0.13039464357160888 0.12856313382245932 0.011615868444413117 0.12709578707143465
leaf_weight=264.46046886593103 387.6912827193737 268.14513570070267 110.67206740379333 213.32615701854229 91.775216162204742 105.30221932381392 54.584895074367523 7.3078697770833996 13.596695497632028 6.7310282588005057 16.733046740293503 27.82757356762886 24.027715355157852 10.240869872272013
leaf_count=1915 794 842 442 959 594 583 132 56 47 45 53 97 146 34
internal_value=0.0896819 0.0669622 0.050861 0.0375219 0.0237171 0.0469725 0.113323 0.00166534 0.0547175 0.0896732 0.0652026 0.0579504 0.0859886 0.0487512
internal_weight=1602.42 1214.73 946.586 781.329 568.003 275.907 165.257 292.096 27.6356 20.3277 184.131 167.398 62.0962 34.2686
internal_count=6739 5945 5103 4529 3570 1507 574 2063 148 92 913 860 277 180
is_linear=0
shrinkage=0.04


Tree=3
num_leaves=15
num_cat=0
split_feature=11 12 2 19 3 36 26 31 33 17 3 36 36 2
split_gain=1054.28 616.002 324.982 204.618 144.561 95.9022 70.7338 68.4004 66.8353 66.6289 79.227 63.9227 56.1598 96.3598
threshold=1.0000000180025095e-35 1.0000000180025095e-35 0.13950000000000001 1.0000000180025095e-35 0.21500000000000005 0.18333333333333332 0.12500000000000003 0.21950000000000003 0.31100000000000005 1.0000000180025095e-35 0.26750000000000002 0.45000000000000007 0.63333333333333341 0.085500000000000007
decision_type=2 2 2 2 2 2 2 2 2 2 2 2 2 2
left_child=1 2 3 4 -1 6 -4 8 -7 10 -6 -11 13 -5
right_child=-2 -3 5 12 9 7 -8 -9 -10 11 -12 -13 -14 -15
leaf_value=0.0026502601400984378 0.13879669478467535 0.1158879109631064 -0.00061712306867957843 0.075243608119621469 0.059274496878778601 -0.0029084738730621442 0.07212956058530616 0.11716253595824327 0.083156280061993437 0.010123912449259698 -0.024648689831328389 0.091078548166544204 0.10757304898914376 -0.011598826664366853
leaf_weight=299.48672652989626 422.41983400285244 301.5896050632 35.387035861611366 86.70769239962101 37.611964516341686 15.850470721721647 52.984430938959122 108.65827728807926 153.63161450624466 20.50622446835041 32.915944263339043 68.124630473554134 48.369848325848579 26.338803753256798
leaf_count=2066 798 838 220 380 198 95 225 319 598 126 240 277 164 163
internal_value=0.0839693 0.0658963 0.0505123 0.0327758 0.0190638 0.080348 0.0433183 0.0919158 0.0751374 0.0497395 0.0203099 0.0726703 0.0713796 0.0550858
internal_weight=1710.58 1288.16 986.574 620.062 458.645 366.512 88.3715 278.14 169.482 159.159 70.5279 88.6309 161.416 113.046
internal_count=6707 5909 5071 3614 2907 1457 445 1012 693 841 438 403 707 543
is_linear=0
shrinkage=0.04


Tree=4
num_leaves=15
num_cat=0
split_feature=11 12 1 8 2 2 35 19 30 6 1 31 31 35
split_gain=999.394 474.612 350.222 190.91 147.254 69.8106 65.6011 65.2803 46.5582 44.6637 42.999 41.4 39.1492 35.5899
threshold=1.0000000180025095e-35 1.0000000180025095e-35 2.5805000000000002 1.0000000180025095e-35 0.06950000000000002 0.32150000000000006 0.61150000000000004 1.0000000180025095e-35 0.27922077922077926 0.54166666666666685 0.78249999999999964 0.30350000000000005 0.26550000000000007 0.38550000000000006
decision_type=2 2 2 2 2 2 2 2 2 2 2 2 2 2
left_child=1 2 3 4 7 11 9 10 13 -5 -1 -6 -10 -4
right_child=-2 -3 8 6 5 -7 -8 -9 12 -11 -12 -13 -14 -15
leaf_value=-0.017185698294710301 0.12676452194347657 0.10121087468518683 0.088779988572047816 0.091972535235054803 0.031413901716238653 0.098898674987312876 0.0047835229547671118 0.0553351753782233 0.088030595281156129 0.053744733678439655 0.015660758346168514 0.10611978450164226 0.13427263657156396 -0.021037785258904682
leaf_weight=163.57624690234661 461.56141594052315 314.13295082747936 8.0354771465063113 97.706952512264252 258.43808092921972 29.977934315800667 26.287587672472 31.777408987283707 105.18802146613598 110.84071423113346 103.15407274663448 11.678611673414705 49.627662569284439 9.2515965998172742
leaf_count=1243 778 835 27 340 1401 94 137 149 343 468 682 38 90 56
internal_value=0.0761172 0.0583206 0.0448343 0.0340293 0.0219739 0.0417114 0.0645353 0.00205844 0.0966605 0.0720083 -0.00447176 0.0350233 0.103621 0.0320718
internal_weight=1781.23 1319.67 1005.54 833.438 598.602 300.095 234.835 298.508 172.103 208.548 266.73 270.117 154.816 17.2871
internal_count=6681 5903 5068 4552 3607 1533 945 2074 516 808 1925 1439 433 83
is_linear=0
shrinkage=0.04


end of trees

feature_importances:
Column_2=12
Column_36=6
Column_1=5
Column_30=5
Column_11=4
Column_12=4
Column_19=4
Column_8=3
Column_31=3
Column_34=3
Column_3=2
Column_4=2
Column_13=2
Column_35=2
Column_37=2
Column_6=1
Column_9=1
Column_15=1
Column_17=1
Column_18=1
Column_20=1
Column_23=1
Column_25=1
Column_26=1
Column_32=1
Column_33=1

parameters:
[boosting: gbdt]
[objective: binary]
[metric: binary_logloss]
[tree_learner: serial]
[device_type: cpu]
[data_sample_strategy: bagging]
[data: ]
[valid: ]
[num_iterations: 400]
[learning_rate: 0.04]
[num_leaves: 15]
[num_threads: 0]
[seed: 0]
[deterministic: 0]
[force_col_wise: 0]
[force_row_wise: 0]
[histogram_pool_size: -1]
[max_depth: -1]
[min_data_in_leaf: 25]
[min_sum_hessian_in_leaf: 0.001]
[bagging_fraction: 0.85]
[pos_bagging_fraction: 1]
[neg_bagging_fraction: 1]
[bagging_freq: 1]
[bagging_seed: 3]
[bagging_by_query: 0]
[feature_fraction: 0.85]
[feature_fraction_bynode: 1]
[feature_fraction_seed: 2]
[extra_trees: 0]
[extra_seed: 6]
[early_stopping_round: 0]
[early_stopping_min_delta: 0]
[first_metric_only: 0]
[max_delta_step: 0]
[lambda_l1: 0]
[lambda_l2: 1]
[linear_lambda: 0]
[min_gain_to_split: 0]
[drop_rate: 0.1]
[max_drop: 50]
[skip_drop: 0.5]
[xgboost_dart_mode: 0]
[uniform_drop: 0]
[drop_seed: 4]
[top_rate: 0.2]
[other_rate: 0.1]
[min_data_per_group: 100]
[max_cat_threshold: 32]
[cat_l2: 10]
[cat_smooth: 10]
[max_cat_to_onehot: 4]
[top_k: 20]
[monotone_constraints: ]
[monotone_constraints_method: basic]
[monotone_penalty: 0]
[feature_contri: ]
[forcedsplits_filename: ]
[refit_decay_rate: 0.9]
[cegb_tradeoff: 1]
[cegb_penalty_split: 0]
[cegb_penalty_feature_lazy: ]
[cegb_penalty_feature_coupled: ]
[path_smooth: 0]
[interaction_constraints: ]
[verbosity: -1]
[saved_feature_importance_type: 0]
[use_quantized_grad: 0]
[num_grad_quant_bins: 4]
[quant_train_renew_leaf: 0]
[stochastic_rounding: 1]
[linear_tree: 0]
[max_bin: 255]
[max_bin_by_feature: ]
[min_data_in_bin: 3]
[bin_construct_sample_cnt: 200000]
[data_random_seed: 1]
[is_enable_sparse: 1]
[enable_bundle: 1]
[use_missing: 1]
[zero_as_missing: 0]
[feature_pre_filter: 1]
[pre_partition: 0]
[two_round: 0]
[header: 0]
[label_column: ]
[weight_column: ]
[group_column: ]
[ignore_column: ]
[categorical_feature: ]
[forcedbins_filename: ]
[precise_float_parser: 0]
[parser_config_file: ]
[objective_seed: 5]
[num_class: 1]
[is_unbalance: 0]
[scale_pos_weight: 6]
[sigmoid: 1]
[boost_from_average: 1]
[reg_sqrt: 0]
[alpha: 0.9]
[fair_c: 1]
[poisson_max_delta_step: 0.7]
[tweedie_variance_power: 1.5]
[lambdarank_truncation_level: 30]
[lambdarank_norm: 1]
[label_gain: ]
[lambdarank_position_bias_regularization: 0]
[eval_at: ]
[multi_error_top_k: 1]
[auc_mu_weights: ]
[num_machines: 1]
[local_listen_port: 12400]
[time_out: 120]
[machine_list_filename: ]
[machines: ]
[gpu_platform_id: -1]
[gpu_device_id: -1]
[gpu_device_id_list: ]
[gpu_use_dp: 0]
[num_gpu: 1]

end of parameters

pandas_categorical:null
