tree
version=v4
num_class=1
num_tree_per_iteration=1
label_index=0
max_feature_idx=44
objective=binary sigmoid:1
feature_names=Column_0 Column_1 Column_2 Column_3 Column_4 Column_5 Column_6 Column_7 Column_8 Column_9 Column_10 Column_11 Column_12 Column_13 Column_14 Column_15 Column_16 Column_17 Column_18 Column_19 Column_20 Column_21 Column_22 Column_23 Column_24 Column_25 Column_26 Column_27 Column_28 Column_29 Column_30 Column_31 Column_32 Column_33 Column_34 Column_35 Column_36 Column_37 Column_38 Column_39 Column_40 Column_41 Column_42 Column_43 Column_44
feature_infos=none [-7.4000000000000004:4.4329999999999998] [0:0.94099999999999995] [0:1] [0:1] [0:1] [0:1] [0:1] [0:1] [0:1] [0:1] [0:1] [0:1] [0:1] [0:1] [0.25:1] [0:1] [0:1] [0:1] [-0.3666666666666667:1] [0:1] none [-1.05:1.1499999999999999] [-1:0.66666666666666663] [-0.90000000000000002:0.66666666666666663] [0:1] [0:1] [0:1] [0.0625:1] [0.45000000000000001:1] [0:1] [0.010999999999999999:1] [0.010999999999999999:1] [0.048000000000000001:1] [0.014:1] [0.028000000000000001:1] [0:1] [0:1] [0:1] [0:1] [0:1] [0:1] [0:1] [0:1] [0:1]
tree_sizes=1689 1717 1726 1739 1729 1742 1730

Tree=0
num_leaves=15
num_cat=0
split_feature=11 12 1 8 2 36 36 2 30 34 2 30 1 23
split_gain=2546.68 1283.42 740.254 474.587 338.811 119.839 71.8043 66.4156 54.9362 51.2196 57.7346 54.4224 51.2573 49.3291
threshold=1.0000000180025095e-35 1.0000000180025095e-35 2.6165000000000003 1.0000000180025095e-35 0.06950000000000002 0.45000000000000007 0.91666666666666685 0.32150000000000006 0.23904761904761906 0.38750000000000007 0.18800000000000003 0.32071428571428579 0.7360000000000001 -0.34999999999999992
decision_type=2 2 2 2 2 2 2 2 2 2 2 2 2 2
left_child=1 2 3 4 -1 7 -5 -6 -4 11 12 -7 -11 -3
right_child=-2 13 8 6 5 9 -8 -9 -10 10 -12 -13 -14 -15
leaf_value=-1.8074847458307246 -1.582465824225292 -1.7507988165951749 -1.751429847232594 -1.7135036643096593 -1.7950494323903801 -1.7709325507357356 -1.6439067538964383 -1.6872479827828664 -1.6405193908831912 -1.8244051112415527 -1.7005113782404222 -1.6810948278650122 -1.7445045440669669 -1.6284909513684958
leaf_weight=267.2971323505044 285.4806147441268 6.546052247285842 8.9705160409212095 151.40776429325342 75.158377408981323 14.304336369037626 30.305797636508942 9.4554088413715345 109.10087148845196 17.819808803498745 30.911913476884365 59.520586408674717 41.700777277350426 213.59526188671589
leaf_count=1955 745 39 54 809 530 93 115 43 415 137 155 276 249 762
internal_value=-1.68812 -1.71742 -1.74069 -1.75651 -1.77619 -1.7427 -1.70107 -1.78176 -1.64842 -1.72285 -1.74426 -1.6978 -1.76834 -1.63186
internal_weight=1321.58 1036.09 815.953 697.882 516.168 248.871 181.714 84.6138 118.071 164.257 90.4325 73.8249 59.5206 220.141
internal_count=6377 5632 4831 4362 3438 1483 924 573 469 910 541 369 386 801
is_linear=0
shrinkage=1


Tree=1
num_leaves=15
num_cat=0
split_feature=2 20 17 9 37 2 14 2 18 30 37 15 3 4
split_gain=1271.44 359.506 428.044 236.014 204.87 159.765 137.926 118.822 103.877 103.383 86.2866 77.3468 68.6868 59.7194
threshold=0.12950000000000003 1.0000000180025095e-35 1.0000000180025095e-35 1.0000000180025095e-35 0.63333333333333341 0.027500000000000004 1.0000000180025095e-35 0.06950000000000002 1.0000000180025095e-35 0.64852941176470602 0.91666666666666685 0.62500000000000011 0.44050000000000006 0.52200000000000013
decision_type=2 2 2 2 2 2 2 2 2 2 2 2 2 2
left_child=1 2 7 6 11 -6 9 -1 10 -2 -5 13 -10 -4
right_child=3 -3 4 8 5 -7 -8 -9 12 -11 -12 -13 -14 -15
leaf_value=-0.0082501937150426721 0.14098977227212847 0.11595993799726119 0.0014214995852923926 0.077043839611013062 0.034410621714201631 0.13617456997758867 0.083417321632215671 0.050936259780150595 -0.030453078698596685 0.17814626969024994 0.1525558165378422 0.07799376265999855 0.11273606604069743 0.10025688385091228
leaf_weight=162.7125831246376 287.93635740876198 181.4348608776927 59.560682788491249 63.032211616635323 31.992040619254112 120.74276241660118 45.280767694115639 80.267392545938492 16.238027065992359 263.5359156280756 43.567938268184662 66.36842892318964 6.8003857880830756 10.710775107145308
leaf_count=1203 992 759 416 316 198 443 224 464 122 665 136 332 28 48
internal_value=0.105457 0.0673932 0.0506545 0.142716 0.0834371 0.115221 0.153448 0.0114304 0.0925211 0.159036 0.109037 0.04733 0.0147445 0.0176813
internal_weight=1440.18 713.79 532.355 726.392 289.375 152.735 596.753 242.98 129.639 551.472 106.6 136.64 23.0384 70.2715
internal_count=6346 3863 3104 2483 1437 641 1881 1667 602 1657 452 796 150 464
is_linear=0
shrinkage=0.04


Tree=2
num_leaves=15
num_cat=0
split_feature=11 12 1 8 2 2 36 32 25 28 19 4 3 2
split_gain=1466.22 639.409 498.37 258.578 187.044 94.3415 76.7012 75.0584 56.6781 55.0662 53.7714 48.2965 44.4075 41.5375
threshold=1.0000000180025095e-35 1.0000000180025095e-35 2.5015000000000005 1.0000000180025095e-35 0.088500000000000009 0.46350000000000008 0.45000000000000007 0.54550000000000021 0.29000000000000009 0.53125000000000011 1.0000000180025095e-35 0.36150000000000004 0.47400000000000003 0.31650000000000006
decision_type=2 2 2 2 2 2 2 2 2 2 2 2 2 2
left_child=1 2 3 4 10 6 -6 11 9 -8 -1 -4 -11 -5
right_child=-2 -3 7 13 5 -7 8 -9 -10 12 -12 -13 -14 -15
leaf_value=-0.0031505473538183662 0.15942197887095541 0.12364424357882227 0.13473045601652162 0.0810425694959689 0.009207733975390103 0.16249620050114125 -0.029127220246087812 0.15304353544747271 0.093256980120745597 0.064770473171661097 0.051584441059798508 0.075348026804069587 -0.041353895238221243 0.016682980445159794
leaf_weight=280.68490494787693 365.6072560697794 252.47199872136116 33.377849861979485 185.01241151988506 67.684553548693657 10.600789844989775 14.571186348795889 53.895704992115498 53.741818770766258 63.410771556198597 30.979569017887115 82.693687796592712 6.317292943596839 18.207906901836395
leaf_count=2018 757 792 108 808 436 23 104 131 231 318 169 358 46 103
internal_value=0.0896696 0.0674452 0.051581 0.0371421 0.0223076 0.0507915 0.0442773 0.113117 0.0612828 0.0400446 0.00243771 0.0934292 0.054707 0.0753861
internal_weight=1519.26 1153.65 901.178 731.211 527.991 216.326 205.726 169.967 138.041 84.2993 311.664 116.072 69.7281 203.22
internal_count=6402 5645 4853 4256 3345 1158 1135 597 699 468 2187 466 364 911
is_linear=0
shrinkage=0.04


Tree=3
num_leaves=15
num_cat=0
split_feature=11 12 9 36 2 13 34 36 17 13 22 31 22 6
split_gain=945.956 546.164 323.823 207.923 125.867 124.885 112.289 56.1975 56.9645 65.2 54.2303 52.7638 51.2719 50.4463
threshold=1.0000000180025095e-35 1.0000000180025095e-35 1.0000000180025095e-35 0.63333333333333341 0.06950000000000002 1.0000000180025095e-35 0.26150000000000007 0.45000000000000007 1.0000000180025095e-35 1.0000000180025095e-35 1.0000000180025095e-35 0.11850000000000001 1.0000000180025095e-35 0.12500000000000003
decision_type=2 2 2 2 2 2 2 2 2 2 2 2 2 2
left_child=1 2 3 5 10 6 -1 -6 9 -9 -4 -12 -5 -8
right_child=-2 -3 4 12 7 -7 13 8 -10 -11 11 -13 -14 -15
leaf_value=-0.021061787689242783 0.13821880421317176 0.1155500445541201 0.035603453676795196 0.11320734490753838 0.013674340930756002 0.1074936498561484 0.075114840893671084 -0.0019948827200710955 0.08331201882627072 0.085027029460397627 0.015641573657159749 -0.031179202065065203 0.040225906634737185 0.038139863041858728
leaf_weight=37.4876689016819 393.31734117865562 283.35059009492397 60.402203723788261 170.49622082710266 54.594679728150368 57.688589289784431 98.270413346588612 36.633055970072746 81.23462338745594 21.034954532980919 72.773590691387653 79.723996251821518 18.504473268985748 157.58329723775387
leaf_count=272 748 788 367 535 340 204 426 232 336 94 492 630 96 817
internal_value=0.0842278 0.0668618 0.0521784 0.0724585 0.025118 0.0539814 0.0431282 0.0483803 0.061826 0.0306554 0.00384832 -0.00887945 0.106311 0.0525787
internal_weight=1623.1 1229.78 946.428 540.031 406.397 351.03 293.341 193.497 138.903 57.668 212.9 152.498 189.001 255.854
internal_count=6377 5629 4841 2350 2491 1719 1515 1002 662 326 1489 1122 631 1243
is_linear=0
shrinkage=0.04


Tree=4
num_leaves=15
num_cat=0
split_feature=11 12 1 19 2 35 35 30 15 31 31 31 7 7
split_gain=938.089 432.579 329.034 189.596 158.145 80.3864 70.8907 53.3443 48.0532 53.5245 76.5513 45.6628 44.2665 42.2755
threshold=1.0000000180025095e-35 1.0000000180025095e-35 2.5015000000000005 1.0000000180025095e-35 0.06950000000000002 0.59600000000000009 0.57650000000000012 0.23904761904761906 0.62500000000000011 0.090500000000000011 0.18450000000000003 0.26550000000000007 0.37500000000000006 0.95833333333333337
decision_type=2 2 2 2 2 2 2 2 2 2 2 2 2 2
left_child=1 2 3 4 12 -6 8 -4 -5 -10 -11 -9 -1 -8
right_child=-2 -3 7 6 5 -7 13 11 9 10 -12 -13 -14 -15
leaf_value=-0.0061490252311047766 0.12652770238071467 0.10069712650515811 0.016545969983354666 0.082148737001076819 0.032830413777307436 0.10084880274380216 -0.025972340234728379 0.083877869909461236 -0.044276895301891273 0.078784333534490145 -0.028744831878293194 0.13135275777531547 0.08107097768237391 0.055331678773040675
leaf_weight=248.46571326255798 435.4716225117445 294.64463575184345 14.323214337229727 154.54141391813755 218.1581953689456 31.332105524837971 21.592929363250732 126.46962429583073 9.3941830545663816 46.178994044661522 13.090333640575407 50.459353029727936 8.6724164485931379 17.765448585152626
leaf_count=1809 738 785 74 589 1163 110 131 432 63 175 81 96 39 74
internal_value=0.0759581 0.0583255 0.0452355 0.0334808 0.0191201 0.041741 0.061013 0.0920913 0.0697097 0.0409356 0.0549524 0.0980796 -0.00290472 0.0111881
internal_weight=1690.56 1255.09 960.444 769.192 506.628 249.49 262.563 191.252 223.205 68.6635 59.2693 176.929 257.138 39.3584
internal_count=6359 5621 4836 4234 3121 1273 1113 602 908 319 256 528 1848 205
is_linear=0
shrinkage=0.04


Tree=5
num_leaves=15
num_cat=0
split_feature=11 2 36 12 19 18 1 36 38 18 37 12 1 4
split_gain=677.683 350.355 159.575 141.177 166.5 127.672 87.7072 70.6406 68.5964 60.8775 53.7109 49.5261 58.5734 42.7585
threshold=1.0000000180025095e-35 0.06950000000000002 0.45000000000000007 1.0000000180025095e-35 1.0000000180025095e-35 1.0000000180025095e-35 1.1979999999999997 0.70833333333333348 0.44345000000000007 1.0000000180025095e-35 0.91666666666666685 1.0000000180025095e-35 -0.32650000000000001 0.27600000000000008
decision_type=2 2 2 2 2 2 2 2 2 2 2 2 2 2
left_child=1 3 11 4 6 7 -1 10 -6 -8 -4 12 -3 -7
right_child=-2 2 5 -5 8 13 9 -9 -10 -11 -12 -13 -14 -15
leaf_value=-0.013598522661516094 0.11214124003342223 -0.01309453739022135 0.055801776510282515 0.076635580893112829 0.082840046266472067 0.097685021045963299 0.053748752654328796 0.09922833372650447 0.0029193489898665672 -0.030636239345275165 0.095549966686335974 0.084103630177816302 0.043968780105033495 0.0070027265484964721
leaf_weight=196.01151113212109 462.86534580588341 34.162471398711205 162.30920697748661 74.061040639877319 68.07513427734375 9.1453358680009824 62.994503334164619 324.79265910387039 22.972685471177101 16.687899127602577 87.721399396657944 38.012911796569824 169.20177990943193 47.276955179870129
leaf_count=1463 756 212 649 219 240 31 323 825 127 130 252 99 786 271
internal_value=0.0705192 0.055777 0.0704555 0.0266254 0.0163453 0.0810559 0.00079029 0.08669 0.0629257 0.0359153 0.0700722 0.0425133 0.0343657 0.0231464
internal_weight=1776.29 1313.43 872.623 440.803 366.742 631.246 275.694 574.823 91.0478 79.6824 250.031 241.377 203.364 56.4223
internal_count=6383 5627 3125 2502 2283 2028 1916 1726 367 453 901 1097 998 302
is_linear=0
shrinkage=0.04


Tree=6
num_leaves=15
num_cat=0
split_feature=11 12 2 8 36 25 1 18 15 13 26 3 3 1
split_gain=622.791 291.409 239.337 156.787 148.873 72.9123 64.8812 53.287 44.8889 41.8481 39.3034 80.8172 72.8935 56.5022
threshold=1.0000000180025095e-35 1.0000000180025095e-35 0.06950000000000002 1.0000000180025095e-35 0.45000000000000007 0.29000000000000009 2.8305000000000002 1.0000000180025095e-35 0.62500000000000011 1.0000000180025095e-35 0.075000000000000011 0.15850000000000003 0.32050000000000006 1.3705000000000001
decision_type=2 2 2 2 2 2 2 2 2 2 2 2 2 2
left_child=1 2 3 6 10 7 -1 8 -6 -9 13 -12 -13 -4
right_child=-2 -3 4 -5 5 -7 -8 9 -10 -11 11 12 -14 -15
leaf_value=-0.0026340167407324479 0.10367318461791017 0.083823365902546354 -0.020165758779659222 0.066799855273199357 0.041019590625671738 0.080952222277424629 0.083869436422178673 -0.02693403192899314 0.089796935929271127 0.055187078115484831 0.13027864757843485 -0.023513612045373757 0.052482462014392883 0.039503487257726871
leaf_weight=281.10690318048 495.9193799495697 331.10440887510777 51.832264490425587 72.876057296991348 86.126333206892014 274.16034114360809 13.590954154729841 23.773898221552372 48.701755613088608 15.583986997604368 13.914170026779173 28.412889361381531 64.957988426089287 47.962492093443871
leaf_count=1979 757 799 337 257 366 819 40 159 142 69 33 169 265 220
internal_value=0.0653219 0.0512103 0.0405831 0.0146933 0.0550581 0.0680094 0.00162551 0.0472921 0.05917 0.00614405 0.0268254 0.0435243 0.0293526 0.00861936
internal_weight=1850.02 1354.1 1023 367.574 655.426 448.346 294.698 174.186 134.828 39.3579 207.08 107.285 93.3709 99.7948
internal_count=6411 5654 4855 2276 2579 1555 2019 736 508 228 1024 467 434 557
is_linear=0
shrinkage=0.04


end of trees

feature_importances:
Column_2=13
Column_1=8
Column_36=8
Column_12=7
Column_11=6
Column_3=4
Column_18=4
Column_30=4
Column_31=4
Column_4=3
Column_8=3
Column_13=3
Column_15=3
Column_19=3
Column_37=3
Column_7=2
Column_9=2
Column_17=2
Column_22=2
Column_25=2
Column_34=2
Column_35=2
Column_6=1
Column_14=1
Column_20=1
Column_23=1
Column_26=1
Column_28=1
Column_32=1
Column_38=1

parameters:
[boosting: gbdt]
[objective: binary]
[metric: binary_logloss]
[tree_learner: serial]
[device_type: cpu]
[data_sample_strategy: bagging]
[data: ]
[valid: ]
[num_iterations: 400]
[learning_rate: 0.04]
[num_leaves: 15]
[num_threads: 0]
[seed: 0]
[deterministic: 0]
[force_col_wise: 0]
[force_row_wise: 0]
[histogram_pool_size: -1]
[max_depth: -1]
[min_data_in_leaf: 25]
[min_sum_hessian_in_leaf: 0.001]
[bagging_fraction: 0.85]
[pos_bagging_fraction: 1]
[neg_bagging_fraction: 1]
[bagging_freq: 1]
[bagging_seed: 3]
[bagging_by_query: 0]
[feature_fraction: 0.85]
[feature_fraction_bynode: 1]
[feature_fraction_seed: 2]
[extra_trees: 0]
[extra_seed: 6]
[early_stopping_round: 0]
[early_stopping_min_delta: 0]
[first_metric_only: 0]
[max_delta_step: 0]
[lambda_l1: 0]
[lambda_l2: 1]
[linear_lambda: 0]
[min_gain_to_split: 0]
[drop_rate: 0.1]
[max_drop: 50]
[skip_drop: 0.5]
[xgboost_dart_mode: 0]
[uniform_drop: 0]
[drop_seed: 4]
[top_rate: 0.2]
[other_rate: 0.1]
[min_data_per_group: 100]
[max_cat_threshold: 32]
[cat_l2: 10]
[cat_smooth: 10]
[max_cat_to_onehot: 4]
[top_k: 20]
[monotone_constraints: ]
[monotone_constraints_method: basic]
[monotone_penalty: 0]
[feature_contri: ]
[forcedsplits_filename: ]
[refit_decay_rate: 0.9]
[cegb_tradeoff: 1]
[cegb_penalty_split: 0]
[cegb_penalty_feature_lazy: ]
[cegb_penalty_feature_coupled: ]
[path_smooth: 0]
[interaction_constraints: ]
[verbosity: -1]
[saved_feature_importance_type: 0]
[use_quantized_grad: 0]
[num_grad_quant_bins: 4]
[quant_train_renew_leaf: 0]
[stochastic_rounding: 1]
[linear_tree: 0]
[max_bin: 255]
[max_bin_by_feature: ]
[min_data_in_bin: 3]
[bin_construct_sample_cnt: 200000]
[data_random_seed: 1]
[is_enable_sparse: 1]
[enable_bundle: 1]
[use_missing: 1]
[zero_as_missing: 0]
[feature_pre_filter: 1]
[pre_partition: 0]
[two_round: 0]
[header: 0]
[label_column: ]
[weight_column: ]
[group_column: ]
[ignore_column: ]
[categorical_feature: ]
[forcedbins_filename: ]
[precise_float_parser: 0]
[parser_config_file: ]
[objective_seed: 5]
[num_class: 1]
[is_unbalance: 0]
[scale_pos_weight: 6]
[sigmoid: 1]
[boost_from_average: 1]
[reg_sqrt: 0]
[alpha: 0.9]
[fair_c: 1]
[poisson_max_delta_step: 0.7]
[tweedie_variance_power: 1.5]
[lambdarank_truncation_level: 30]
[lambdarank_norm: 1]
[label_gain: ]
[lambdarank_position_bias_regularization: 0]
[eval_at: ]
[multi_error_top_k: 1]
[auc_mu_weights: ]
[num_machines: 1]
[local_listen_port: 12400]
[time_out: 120]
[machine_list_filename: ]
[machines: ]
[gpu_platform_id: -1]
[gpu_device_id: -1]
[gpu_use_dp: 0]
[num_gpu: 1]

end of parameters

pandas_categorical:null
