tree
version=v4
num_class=1
num_tree_per_iteration=1
label_index=0
max_feature_idx=44
objective=binary sigmoid:1
feature_names=Column_0 Column_1 Column_2 Column_3 Column_4 Column_5 Column_6 Column_7 Column_8 Column_9 Column_10 Column_11 Column_12 Column_13 Column_14 Column_15 Column_16 Column_17 Column_18 Column_19 Column_20 Column_21 Column_22 Column_23 Column_24 Column_25 Column_26 Column_27 Column_28 Column_29 Column_30 Column_31 Column_32 Column_33 Column_34 Column_35 Column_36 Column_37 Column_38 Column_39 Column_40 Column_41 Column_42 Column_43 Column_44
feature_infos=none [-7.4000000000000004:4.4329999999999998] [0:0.94099999999999995] [0:1] [0:1] [0:1] [0:1] [0:1] [0:1] [0:1] [0:1] [0:1] [0:1] [0:1] [0:1] [0.25:1] [0:1] [0:1] [0:1] [-0.3666666666666667:1] [0:1] none [-1.05:1.1000000000000001] [-0.83333333333333337:0.66666666666666663] [-0.56666666666666665:0.53333333333333333] [0:1] [0:1] [0:1] [0.10416666666666674:1] [0.45000000000000001:1] [0:1] [0.010999999999999999:1] [0.010999999999999999:1] [0.048000000000000001:1] [0.014:1] [0.028000000000000001:1] [0:1] [0:1] [0:1] [0:1] [0:1] [0:1] [0:1] [0:1] [0:1]
tree_sizes=1700 1712 1698 1728 1734 1731 1748 1734

Tree=0
num_leaves=15
num_cat=0
split_feature=11 2 12 12 1 8 1 36 9 30 18 4 38 38
split_gain=1895.14 1001.57 393.888 321.068 252.507 228.885 118.418 85.5067 103.472 63.9559 63.4183 66.8689 54.9743 50.2527
threshold=1.0000000180025095e-35 0.06950000000000002 1.0000000180025095e-35 1.0000000180025095e-35 2.5765000000000007 1.0000000180025095e-35 -2.0584999999999991 0.45000000000000007 1.0000000180025095e-35 0.19523809523809527 1.0000000180025095e-35 0.27600000000000008 0.42695000000000005 0.92475000000000007
decision_type=2 2 2 2 2 2 2 2 2 2 2 2 2 2
left_child=1 3 4 5 6 13 -3 8 -8 -6 -9 -12 -5 -1
right_child=-2 2 -4 12 9 -7 7 10 -10 -11 11 -13 -14 -15
leaf_value=-1.8206793064622053 -1.5927938458400082 -1.8425642054914035 -1.6318378948441372 -1.630537981148755 -1.8057673987693956 -1.7139917937215328 -1.728991579996346 -1.6947796696701467 -1.815303746554068 -1.6410431268385817 -1.6520584645494023 -1.7815468530489182 -1.7308334434542683 -1.7080644370057343
leaf_weight=209.10113344341516 221.13919838517904 13.723390430212019 132.65944258868694 18.899757258594036 4.0929410159587851 39.845984824001789 78.728924617171288 144.21598148345947 30.817438215017319 76.321312665939331 7.2228371649980536 32.382386319339275 21.307369507849216 5.5375084728002539
leaf_count=1557 592 109 462 62 29 206 434 693 226 279 25 214 117 26
internal_value=-1.6965 -1.72488 -1.69155 -1.78395 -1.71241 -1.80078 -1.72944 -1.72408 -1.75305 -1.6492 -1.70724 -1.75449 -1.68034 -1.81729
internal_weight=1036 814.856 520.165 294.692 387.505 254.485 307.091 293.368 109.546 80.4143 183.821 39.6052 40.2071 214.639
internal_count=5031 4439 2471 1968 2009 1789 1701 1592 660 308 932 239 179 1583
is_linear=0
shrinkage=1


Tree=1
num_leaves=15
num_cat=0
split_feature=2 20 2 9 17 37 18 14 9 18 33 34 37 1
split_gain=1146.58 353.864 326.703 148.695 124.352 114.932 92.4056 84.0362 81.4526 76.5566 73.4818 79.441 68.9907 61.7072
threshold=0.16050000000000003 1.0000000180025095e-35 0.059000000000000004 1.0000000180025095e-35 1.0000000180025095e-35 0.91666666666666685 1.0000000180025095e-35 1.0000000180025095e-35 1.0000000180025095e-35 1.0000000180025095e-35 0.34550000000000003 0.30450000000000005 0.45000000000000007 1.143
decision_type=2 2 2 2 2 2 2 2 2 2 2 2 2 2
left_child=1 2 4 7 -1 10 -7 -2 -6 12 13 -12 -5 -4
right_child=3 -3 5 9 8 6 -8 -9 -10 -11 11 -13 -14 -15
leaf_value=-0.010953726359890779 0.16546443556557641 0.11695448574444955 0.049914124993179827 0.040348314977744063 0.11611367729231944 0.14018964686315374 0.045433577786421778 0.089778339180098338 0.029864792723876859 0.0075863283973313612 0.1054150463133483 0.011785167857773921 0.14042744459958578 0.13837222284126191
leaf_weight=121.71716047823429 386.32594231516123 178.93382439017296 26.67801845818758 15.97044015675783 21.331543147563934 72.078356735408306 22.887904435396194 29.126162305474281 87.270214483141899 13.085069946944712 18.170838534832001 60.802851691842079 43.911263063549995 26.385914996266365
leaf_count=919 1111 752 153 93 91 251 137 140 566 90 80 396 151 96
internal_value=0.104889 0.0693275 0.0504782 0.150978 0.0167948 0.08443 0.118064 0.160387 0.0477106 0.0959668 0.0595337 0.034377 0.114837 0.0956455
internal_weight=1124.68 636.257 457.323 488.419 230.319 227.004 94.9663 415.452 108.602 72.9668 132.038 78.9737 59.8817 53.0639
internal_count=5026 3441 2689 1585 1576 1113 388 1251 657 334 725 476 244 249
is_linear=0
shrinkage=0.04


Tree=2
num_leaves=15
num_cat=0
split_feature=11 12 1 8 2 2 1 34 32 22 7 37 3 1
split_gain=1128 471.977 386.095 273.62 163.374 102.402 60.6947 58.8432 52.6919 44.6843 43.0852 39.3474 36.6989 36.2296
threshold=1.0000000180025095e-35 1.0000000180025095e-35 2.5015000000000005 1.0000000180025095e-35 0.088500000000000009 0.39600000000000007 -0.23350000000000007 0.31250000000000006 0.57650000000000012 0.27500000000000008 1.0000000180025095e-35 0.45000000000000007 0.51650000000000007 2.0425
decision_type=2 2 2 2 2 2 2 2 2 2 2 2 2 2
left_child=1 2 3 4 -1 6 7 -6 -4 11 -2 13 -8 -3
right_child=10 9 8 -5 5 -7 12 -9 -10 -11 -12 -13 -14 -15
leaf_value=0.0025754381050330645 0.12240100933093247 0.040025072199940281 0.099505134063555489 0.084353358376431958 0.07857620938827585 0.15576140193028551 0.060017448321030661 -0.036319754744325458 0.16126288135576605 0.079741068654914787 0.16793006751077841 0.14084813946172539 -0.040387441153878614 0.15116286037650428
leaf_weight=248.101302690804 55.26627679169178 15.777627527713777 85.329095296561718 164.14387595653534 8.8811258226633054 13.349570095539091 126.37270203977823 24.652647696435452 35.760350219905376 36.847086206078529 237.64035803079605 142.19913536310196 5.4387578070163718 6.4475227594375601
leaf_count=1760 167 78 334 710 41 34 649 181 79 159 452 394 40 14
internal_value=0.0915345 0.0694949 0.0540716 0.0406061 0.0236232 0.0526691 0.0434594 -0.00449637 0.118915 0.12352 0.159785 0.13279 0.0556017 0.0773866
internal_weight=1206.21 913.301 712.029 590.94 426.796 178.695 165.345 33.5338 121.089 201.271 292.907 164.424 131.811 22.2252
internal_count=5092 4473 3828 3415 2705 945 911 222 413 645 619 486 689 92
is_linear=0
shrinkage=0.04


Tree=3
num_leaves=15
num_cat=0
split_feature=11 12 2 19 2 7 36 22 22 3 3 34 31 28
split_gain=724.137 398.556 315.521 120.485 133.102 71.6874 64.0555 67.2029 59.7963 46.7009 58.5844 40.4003 58.2303 65.8441
threshold=1.0000000180025095e-35 1.0000000180025095e-35 0.13950000000000001 1.0000000180025095e-35 0.06950000000000002 0.37500000000000006 0.18333333333333332 0.075000000000000025 -0.074999999999999997 0.039000000000000007 0.19100000000000003 0.35050000000000003 0.24450000000000002 0.73958333333333348
decision_type=2 2 2 2 2 2 2 2 2 2 2 2 2 2
left_child=1 2 3 4 5 -1 7 -4 -6 -5 -11 -8 13 -13
right_child=-2 -3 6 9 8 -7 11 -9 -10 10 -12 12 -14 -15
leaf_value=-0.0056140166435514468 0.13723852256854252 0.1139370486468453 0.070388858552053832 -0.019373107710759629 -0.0067905698864068591 0.10569536840441293 0.12257020216895763 -0.027842307659981573 0.063004051289659996 0.10062705223122194 0.040066193626657157 0.032618416643549066 0.11636923490452782 0.10454862176835969
leaf_weight=199.08298004418612 306.4818125218153 217.57108215987682 53.699587062001228 8.9110009223222715 23.663629591464996 8.7067627385258657 70.434012480080128 13.4095416739583 109.49343132972717 58.935776963829994 48.254412218928337 52.685159586369991 52.797213658690453 33.725069887936115
leaf_count=1465 606 630 226 57 157 36 203 94 527 230 242 270 155 118
internal_value=0.0837729 0.0664231 0.0521993 0.0316765 0.0195842 -0.000466064 0.0858564 0.05064 0.0506425 0.0667166 0.0739864 0.0968357 0.0830336 0.061567
internal_weight=1257.85 951.37 733.799 457.048 340.947 207.79 276.751 67.1091 133.157 116.101 107.19 209.641 139.207 86.4102
internal_count=5016 4410 3780 2714 2185 1501 1066 320 684 529 472 746 543 388
is_linear=0
shrinkage=0.04


Tree=4
num_leaves=15
num_cat=0
split_feature=11 12 2 19 1 37 18 1 31 32 15 1 33 33
split_gain=717.41 345.919 219.506 179.52 106.898 62.13 76.5367 59.92 59.9258 59.7101 58.9023 53.9958 53.6906 41.199
threshold=1.0000000180025095e-35 1.0000000180025095e-35 0.06950000000000002 1.0000000180025095e-35 2.5015000000000005 0.91666666666666685 1.0000000180025095e-35 -2.0584999999999991 0.058500000000000003 0.37950000000000006 0.87500000000000011 1.6439999999999999 0.34900000000000003 0.27100000000000007
decision_type=2 2 2 2 2 2 2 2 2 2 2 2 2 2
left_child=1 2 3 5 7 -1 12 -4 -9 10 13 -11 -7 -10
right_child=-2 -3 4 -5 -6 6 -8 8 9 11 -12 -13 -14 -15
leaf_value=-0.017504957105828122 0.12547516865485203 0.10078462856875245 -0.028570404698219049 0.071686581295498861 0.093518761733331013 -0.0049664094373396105 -0.01640084212139576 -0.01905241815790755 0.0051948816165782365 0.052624466631023659 0.001952252148491416 -0.0018157826711499357 0.097670931178756998 0.095922794706057135
leaf_weight=140.75916455686092 334.73215460777283 226.88852651417255 14.456796199083326 69.041161403059959 120.77505972981453 11.578973382711409 32.465158209204674 17.071563467383385 8.8245498761534673 159.88544104248285 14.187214411795138 35.520559169352055 25.842786103487015 100.18053010851145
leaf_count=1074 589 621 108 290 363 83 251 111 51 726 83 201 123 358
internal_value=0.0749556 0.0575449 0.0443576 0.01621 0.0610058 -0.00222568 0.0283611 0.0495562 0.0529958 0.0569039 0.0787988 0.0427696 0.0666104 0.0886919
internal_weight=1312.21 977.477 750.589 279.687 470.902 210.646 69.8869 350.127 335.67 318.598 123.192 195.406 37.4218 109.005
internal_count=5032 4443 3822 1821 2001 1531 457 1638 1530 1419 492 927 206 409
is_linear=0
shrinkage=0.04


Tree=5
num_leaves=15
num_cat=0
split_feature=2 11 19 12 12 1 36 38 33 1 31 4 37 34
split_gain=515.919 232.071 169.965 125.494 106.304 77.5912 77.283 74.6625 74.4714 55.6808 55.0428 54.4468 53.2857 40.0778
threshold=0.06950000000000002 1.0000000180025095e-35 1.0000000180025095e-35 1.0000000180025095e-35 1.0000000180025095e-35 -2.0584999999999991 0.18333333333333332 0.44345000000000007 0.46550000000000008 0.62999999999999978 0.24450000000000002 0.58150000000000002 0.91666666666666685 0.35050000000000003
decision_type=2 2 2 2 2 2 2 2 2 2 2 2 2 2
left_child=2 4 3 8 5 -2 -7 -4 9 -1 13 -6 -11 -8
right_child=1 -3 7 -5 11 6 10 -9 -10 12 -12 -13 -14 -15
leaf_value=-0.032697476542023575 -0.028053589638294622 0.11370120285033776 0.091885346269761692 0.077172921350315116 0.11144546410358583 0.03734664999751712 0.083874042811265745 0.010585868583559628 0.04493709272391682 -0.01425422657092525 0.10312391866262771 0.063537753708941963 0.04793758038001926 0.052098814497193953
leaf_weight=88.591549426317215 14.225474186241625 324.6818134188652 80.024013578891754 40.694368988275528 138.3602115213871 124.05114395916462 113.6505461782217 23.626473873853683 48.69121465831995 51.747187204658985 84.66890574991703 59.271473616361618 36.974188044667244 164.46064104884863
leaf_count=711 109 525 244 136 288 590 376 121 277 383 217 178 201 705
internal_value=0.0709824 0.0856186 0.0304171 0.0134097 0.0724247 0.0623717 0.0650661 0.0736319 0.0016391 -0.0104361 0.0744159 0.0974697 0.0119093 0.0653378
internal_weight=1393.72 1023.37 370.349 266.699 698.688 501.057 486.831 103.65 226.004 177.313 362.78 197.632 88.7214 278.111
internal_count=5061 2988 2073 1708 2463 1997 1888 365 1572 1295 1298 466 584 1081
is_linear=0
shrinkage=0.04


Tree=6
num_leaves=15
num_cat=0
split_feature=11 2 8 12 36 18 25 7 38 13 33 12 13 8
split_gain=457.377 290.164 105.672 82.5943 80.563 84.2639 51.8276 47.3 50.9664 44.0148 42.0947 41.0627 36.5015 40.4139
threshold=1.0000000180025095e-35 0.063000000000000014 1.0000000180025095e-35 1.0000000180025095e-35 0.45000000000000007 1.0000000180025095e-35 0.41500000000000009 0.12500000000000003 0.92475000000000007 1.0000000180025095e-35 0.42650000000000005 1.0000000180025095e-35 1.0000000180025095e-35 1.0000000180025095e-35
decision_type=2 2 2 2 2 2 2 2 2 2 2 2 2 2
left_child=1 2 3 7 11 -6 9 8 10 -7 -1 12 13 -3
right_child=-2 4 -4 -5 5 6 -8 -9 -10 -11 -12 -13 -14 -15
leaf_value=-0.02520885107668408 0.10392935547165662 0.012879599153814352 0.065416925516596364 0.064944655697693476 0.080032828686695354 -0.036404357132497615 0.080121890947680741 0.044305112750988675 0.097883139965782143 0.052295733257821997 0.017293351804227374 0.08549138234943969 0.084111035944084339 0.053878569733006865
leaf_weight=125.3908956348896 383.54822100698948 92.338649697601795 65.206756979227066 34.572617828845978 481.79235330969095 21.946861274540424 17.845425024628639 30.653187669813633 5.9322859346866599 13.676643744111059 52.063879124820232 33.852278545498848 22.623855173587799 66.014003440737724
leaf_count=998 604 495 222 118 1393 143 64 161 25 61 347 78 77 253
internal_value=0.0664709 0.0528819 0.0204998 0.00850391 0.0663845 0.0747422 0.0264755 -0.000872232 -0.00862296 -0.00185236 -0.012712 0.0453108 0.0373664 0.0302021
internal_weight=1447.46 1063.91 313.82 248.613 750.09 535.261 53.4689 214.04 183.387 35.6235 177.455 214.829 180.977 158.353
internal_count=5039 4435 1871 1649 2564 1661 268 1531 1370 204 1345 903 825 748
is_linear=0
shrinkage=0.04


Tree=7
num_leaves=15
num_cat=0
split_feature=11 9 36 2 34 36 37 13 34 38 26 22 22 18
split_gain=376.536 215.693 172.931 112.332 60.1832 54.6285 47.1534 44.0892 43.4354 40.2427 57.389 38.857 36.0454 35.1265
threshold=1.0000000180025095e-35 1.0000000180025095e-35 0.29166666666666674 0.059000000000000004 0.27950000000000008 0.70833333333333348 0.45000000000000007 1.0000000180025095e-35 0.26350000000000007 0.43370000000000003 0.2416666666666667 0.57500000000000007 0.62500000000000011 1.0000000180025095e-35
decision_type=2 2 2 2 2 2 2 2 2 2 2 2 2 2
left_child=1 2 4 -3 -1 7 12 -4 -9 -6 -11 13 -5 -8
right_child=-2 3 5 6 9 -7 11 8 -10 10 -12 -13 -14 -15
leaf_value=-0.035106289609789905 0.094520048737332496 0.0021288246617851892 0.051403038673022872 0.002411723745591233 0.0529203556750064 0.088173238249177971 0.07318682303746693 0.17015684205875695 0.074500250573439647 -0.021508274444754859 0.064449779490200407 0.0076272891009312397 0.074057215712297897 0.029544051359729175
leaf_weight=20.988121815025806 399.78972297906876 174.64725599437952 196.67644113302231 59.176107347011566 86.834524922072887 251.14235637336969 115.78353909403086 9.000737361609934 54.588516212999821 34.750365555286407 18.071702763438225 24.793415136635303 12.889944158494471 42.134940229356289
leaf_count=151 613 1208 724 309 319 593 343 11 175 207 61 128 46 207
internal_value=0.061255 0.0491065 0.0632536 0.0268707 0.0268277 0.0746211 0.0437564 0.0612565 0.0904648 0.0363188 0.00855111 0.0545317 0.0160646 0.0618015
internal_weight=1501.27 1101.48 672.053 429.425 160.645 511.408 254.778 260.266 63.5893 139.657 52.8221 182.712 72.0661 157.918
internal_count=5095 4482 2241 2241 738 1503 1033 910 186 587 268 678 355 550
is_linear=0
shrinkage=0.04


end of trees

feature_importances:
Column_1=11
Column_2=11
Column_12=9
Column_11=7
Column_18=6
Column_34=6
Column_36=6
Column_37=6
Column_22=5
Column_33=5
Column_38=5
Column_8=4
Column_9=4
Column_3=3
Column_7=3
Column_13=3
Column_19=3
Column_31=3
Column_4=2
Column_32=2
Column_14=1
Column_15=1
Column_17=1
Column_20=1
Column_25=1
Column_26=1
Column_28=1
Column_30=1

parameters:
[boosting: gbdt]
[objective: binary]
[metric: binary_logloss]
[tree_learner: serial]
[device_type: cpu]
[data_sample_strategy: bagging]
[data: ]
[valid: ]
[num_iterations: 400]
[learning_rate: 0.04]
[num_leaves: 15]
[num_threads: 0]
[seed: 0]
[deterministic: 0]
[force_col_wise: 0]
[force_row_wise: 0]
[histogram_pool_size: -1]
[max_depth: -1]
[min_data_in_leaf: 25]
[min_sum_hessian_in_leaf: 0.001]
[bagging_fraction: 0.85]
[pos_bagging_fraction: 1]
[neg_bagging_fraction: 1]
[bagging_freq: 1]
[bagging_seed: 3]
[bagging_by_query: 0]
[feature_fraction: 0.85]
[feature_fraction_bynode: 1]
[feature_fraction_seed: 2]
[extra_trees: 0]
[extra_seed: 6]
[early_stopping_round: 0]
[early_stopping_min_delta: 0]
[first_metric_only: 0]
[max_delta_step: 0]
[lambda_l1: 0]
[lambda_l2: 1]
[linear_lambda: 0]
[min_gain_to_split: 0]
[drop_rate: 0.1]
[max_drop: 50]
[skip_drop: 0.5]
[xgboost_dart_mode: 0]
[uniform_drop: 0]
[drop_seed: 4]
[top_rate: 0.2]
[other_rate: 0.1]
[min_data_per_group: 100]
[max_cat_threshold: 32]
[cat_l2: 10]
[cat_smooth: 10]
[max_cat_to_onehot: 4]
[top_k: 20]
[monotone_constraints: ]
[monotone_constraints_method: basic]
[monotone_penalty: 0]
[feature_contri: ]
[forcedsplits_filename: ]
[refit_decay_rate: 0.9]
[cegb_tradeoff: 1]
[cegb_penalty_split: 0]
[cegb_penalty_feature_lazy: ]
[cegb_penalty_feature_coupled: ]
[path_smooth: 0]
[interaction_constraints: ]
[verbosity: -1]
[saved_feature_importance_type: 0]
[use_quantized_grad: 0]
[num_grad_quant_bins: 4]
[quant_train_renew_leaf: 0]
[stochastic_rounding: 1]
[linear_tree: 0]
[max_bin: 255]
[max_bin_by_feature: ]
[min_data_in_bin: 3]
[bin_construct_sample_cnt: 200000]
[data_random_seed: 1]
[is_enable_sparse: 1]
[enable_bundle: 1]
[use_missing: 1]
[zero_as_missing: 0]
[feature_pre_filter: 1]
[pre_partition: 0]
[two_round: 0]
[header: 0]
[label_column: ]
[weight_column: ]
[group_column: ]
[ignore_column: ]
[categorical_feature: ]
[forcedbins_filename: ]
[precise_float_parser: 0]
[parser_config_file: ]
[objective_seed: 5]
[num_class: 1]
[is_unbalance: 0]
[scale_pos_weight: 6]
[sigmoid: 1]
[boost_from_average: 1]
[reg_sqrt: 0]
[alpha: 0.9]
[fair_c: 1]
[poisson_max_delta_step: 0.7]
[tweedie_variance_power: 1.5]
[lambdarank_truncation_level: 30]
[lambdarank_norm: 1]
[label_gain: ]
[lambdarank_position_bias_regularization: 0]
[eval_at: ]
[multi_error_top_k: 1]
[auc_mu_weights: ]
[num_machines: 1]
[local_listen_port: 12400]
[time_out: 120]
[machine_list_filename: ]
[machines: ]
[gpu_platform_id: -1]
[gpu_device_id: -1]
[gpu_use_dp: 0]
[num_gpu: 1]

end of parameters

pandas_categorical:null
