tree
version=v4
num_class=1
num_tree_per_iteration=1
label_index=0
max_feature_idx=44
objective=binary sigmoid:1
feature_names=Column_0 Column_1 Column_2 Column_3 Column_4 Column_5 Column_6 Column_7 Column_8 Column_9 Column_10 Column_11 Column_12 Column_13 Column_14 Column_15 Column_16 Column_17 Column_18 Column_19 Column_20 Column_21 Column_22 Column_23 Column_24 Column_25 Column_26 Column_27 Column_28 Column_29 Column_30 Column_31 Column_32 Column_33 Column_34 Column_35 Column_36 Column_37 Column_38 Column_39 Column_40 Column_41 Column_42 Column_43 Column_44
feature_infos=none [-7.4000000000000004:4.6560000000000006] [0:0.94099999999999995] [0:1] [0:1] [0:1] [0:1] [0:1] [0:1] [0:1] [0:1] [0:1] [0:1] [0:1] [0:1] [0.25:1] [0:1] [0:1] [0:1] [-0.3666666666666667:1] [0:1] none [-1.05:1.1499999999999999] [-1:0.66666666666666663] [-0.90000000000000002:0.66666666666666663] [0:1] [0:1] [0:1] [0.0625:1] [0.45000000000000001:1] [0:1] [0.010999999999999999:1] [0.010999999999999999:1] [0.048000000000000001:1] [0.014:1] [0.028000000000000001:1] [0:1] [0:1] [0:1] [0:1] [0:1] [0:1] [0:1] [0:1] [0:1]
tree_sizes=1705 1709 1731 1737 1741 1753 1733

Tree=0
num_leaves=15
num_cat=0
split_feature=11 12 1 8 2 18 13 13 36 36 19 5 30 6
split_gain=3239.03 1592.06 923.52 586.877 404.009 163.445 156.184 141.983 115.273 67.6465 81.7631 61.5045 61.034 57.2482
threshold=1.0000000180025095e-35 1.0000000180025095e-35 2.5980000000000003 1.0000000180025095e-35 0.06950000000000002 1.0000000180025095e-35 1.0000000180025095e-35 1.0000000180025095e-35 0.45000000000000007 0.81666666666666676 1.0000000180025095e-35 1.0000000180025095e-35 0.35912698412698418 0.12500000000000003
decision_type=2 2 2 2 2 2 2 2 2 2 2 2 2 2
left_child=1 2 3 4 -1 8 9 13 11 -6 -11 -4 -10 -5
right_child=-2 -3 5 7 6 -7 -8 -9 12 10 -12 -13 -14 -15
leaf_value=-1.8131427802706892 -1.5836265843102231 -1.63381442754154 -1.6229313089538653 -1.6627689348280825 -1.7791725488999459 -1.8139392799406093 -1.702261859521264 -1.6559036038020789 -1.7124146192510905 -1.7518078141571993 -1.6168167898777339 -1.7410923082176852 -1.6306881171559813 -1.7376772756989827
leaf_weight=318.44246998429298 350.60105396807194 269.11653231084347 8.4627840518951398 19.101712509989738 168.04671002924442 11.485206775367258 83.539767764508724 65.163436986505985 21.036063075065613 40.863156899809837 8.2209902256727201 39.04970321804285 128.02983278781176 135.16274985671043
leaf_count=2349 905 976 25 78 1120 85 421 264 109 248 23 228 454 783
internal_value=-1.69156 -1.72047 -1.7429 -1.76172 -1.78173 -1.66762 -1.74856 -1.70565 -1.65909 -1.76678 -1.7258 -1.71663 -1.6415 -1.72752
internal_weight=1666.32 1315.72 1046.6 838.541 619.113 208.064 300.671 219.428 196.578 217.131 49.0841 47.5125 149.066 154.264
internal_count=8068 7163 6187 5286 4161 901 1812 1125 816 1391 271 253 563 861
is_linear=0
shrinkage=1


Tree=1
num_leaves=15
num_cat=0
split_feature=2 18 37 20 1 2 18 15 30 30 38 3 15 15
split_gain=1546.45 492.461 443.126 349.699 255.784 238.046 159.461 141.035 112.023 98.9259 131.019 88.6949 75.7546 73.1059
threshold=0.16050000000000003 1.0000000180025095e-35 0.91666666666666685 1.0000000180025095e-35 1.0845 0.39600000000000007 1.0000000180025095e-35 0.62500000000000011 0.63397129186602885 0.69782608695652182 0.70700000000000007 0.072000000000000008 0.62500000000000011 0.62500000000000011
decision_type=2 2 2 2 2 2 2 2 2 2 2 2 2 2
left_child=1 2 3 4 -1 6 7 8 -2 -3 -11 -4 -13 -6
right_child=5 9 11 -5 13 -7 -8 -9 -10 10 -12 12 -14 -15
leaf_value=0.013568138751274657 0.093504281553121682 -0.011748453651826415 0.046147361449426764 0.10831607481318992 0.056543745479716127 0.1841733776822897 0.038174780702040986 0.15788175594164014 0.1464778140592895 -0.01476960277031826 0.14670508656503509 0.10105323691820012 0.14817425393084141 0.11239448004963291
leaf_weight=222.07120554149151 159.3897255808115 117.15423734486103 22.695904202759266 187.35951769351959 96.703623346984386 211.1150211840868 27.727140225470066 294.47120113670826 119.17578051239252 15.488154448568823 15.353158809244631 98.00760867446661 167.12103880941868 65.358756512403488
leaf_count=1499 738 872 135 820 548 497 169 900 403 116 57 450 556 276
internal_value=0.105814 0.0725857 0.0841801 0.0636024 0.0415688 0.146901 0.133518 0.138057 0.11661 0.00515075 0.0676972 0.124677 0.131201 0.0796191
internal_weight=1819.19 1007.31 859.318 571.493 384.134 811.879 600.764 573.037 278.566 147.996 30.8413 287.825 265.129 162.062
internal_count=8036 5329 4284 3143 2323 2707 2210 2041 1141 1045 173 1141 1006 824
is_linear=0
shrinkage=0.04


Tree=2
num_leaves=15
num_cat=0
split_feature=11 12 1 13 19 2 18 36 1 6 16 5 32 36
split_gain=1871.24 787.905 635.29 355.474 213.088 152.562 121.625 90.4376 89.4894 89.435 81.6391 68.1347 58.3658 47.9376
threshold=1.0000000180025095e-35 1.0000000180025095e-35 2.519000000000001 1.0000000180025095e-35 1.0000000180025095e-35 0.20650000000000004 1.0000000180025095e-35 0.45000000000000007 0.97950000000000037 0.12500000000000003 1.0000000180025095e-35 0.20833333333333334 0.6755000000000001 0.91666666666666685
decision_type=2 2 2 2 2 2 2 2 2 2 2 2 2 2
left_child=1 2 3 4 5 12 7 -4 10 -6 -5 -10 -1 -11
right_child=-2 -3 6 8 9 -7 -8 -9 11 13 -12 -13 -14 -15
leaf_value=-0.0018844983414919414 0.16133039595259274 0.12555415759584701 0.067831463062090827 0.0078049404367152003 0.11063919273894206 0.078276829219354568 -0.010264316624258182 0.12511907198811695 0.13058664169164538 0.035834025614338426 0.08199913106424489 0.064656412798730425 0.10649560717230863 0.10676609466758336
leaf_weight=415.79632848501205 456.73158204555511 307.52580441534519 61.557073101401329 39.115317478775978 38.561814546585083 43.210071220993996 13.49016113579273 203.56735536456108 70.42335956543684 154.48407898843288 60.233964219689369 44.092270538210869 7.1048154160380355 16.356184840202332
leaf_count=2929 927 956 293 259 142 206 101 645 237 860 267 209 29 62
internal_value=0.0906191 0.0686367 0.053556 0.0369694 0.0226752 0.00757485 0.106181 0.112123 0.0818034 0.0560915 0.0531566 0.105981 0.000183239 0.0432068
internal_weight=1932.25 1475.52 1167.99 889.378 675.513 466.111 278.615 265.124 213.865 209.402 99.3493 114.516 422.901 170.84
internal_count=8122 7195 6239 5200 4228 3164 1039 938 972 1064 526 446 2958 922
is_linear=0
shrinkage=0.04


Tree=3
num_leaves=15
num_cat=0
split_feature=11 12 2 19 2 36 36 2 32 32 31 31 24 22
split_gain=1225.7 665.136 475.743 244.567 150.661 135.857 84.702 88.5692 73.127 72.7615 68.8086 60.3037 59.4025 54.8161
threshold=1.0000000180025095e-35 1.0000000180025095e-35 0.14000000000000004 1.0000000180025095e-35 0.06950000000000002 0.45000000000000007 0.63333333333333341 0.085500000000000007 0.70850000000000002 0.44050000000000006 0.27200000000000008 0.061500000000000006 0.15000000000000002 -0.074999999999999997
decision_type=2 2 2 2 2 2 2 2 2 2 2 2 2 2
left_child=1 2 3 4 9 8 7 -5 -4 12 11 -7 -1 -6
right_child=-2 -3 5 6 13 10 -8 -9 -10 -11 -12 -13 -14 -15
leaf_value=-0.011735237677873812 0.13898235022712366 0.11515856101255149 0.040399440544680844 0.070239863738956562 0.0022144720280242785 -0.040570563048966231 0.10827070467400703 -0.0052257978797590598 0.12037767128612002 0.037414899782860535 0.12623881199997564 0.087566889015822102 0.1128490077947748 0.055456512611173077
leaf_weight=260.23644156008959 482.54137563705444 342.18340608477592 140.09706529229879 94.53252224624157 38.694835662841797 5.4829153791069976 61.798284664750099 33.468537166714668 20.558129757642746 67.352507196366787 94.663001485168934 234.62154846638441 5.2757350876927367 155.09914777427912
leaf_count=1909 908 958 722 430 257 40 203 204 64 391 248 894 20 810
internal_value=0.0833034 0.0659367 0.051955 0.0310455 0.0169514 0.0820699 0.0698602 0.0506202 0.0513151 0.000598868 0.0966324 0.0844847 -0.0088456 0.0448916
internal_weight=2036.61 1554.06 1211.88 716.458 526.659 495.423 189.799 128.001 160.655 332.865 334.767 240.104 265.512 193.794
internal_count=8058 7150 6192 4224 3387 1968 837 634 786 2320 1182 934 1929 1067
is_linear=0
shrinkage=0.04


Tree=4
num_leaves=15
num_cat=0
split_feature=11 12 1 8 2 30 19 2 18 35 13 32 13 6
split_gain=1183.85 530.819 408.066 267.384 172.849 85.2208 67.0175 64.9759 60.1681 47.339 45.6068 43.1547 43.1469 65.1619
threshold=1.0000000180025095e-35 1.0000000180025095e-35 2.3775000000000004 1.0000000180025095e-35 0.06950000000000002 0.23904761904761906 1.0000000180025095e-35 0.32350000000000007 1.0000000180025095e-35 0.61150000000000004 1.0000000180025095e-35 0.54550000000000021 1.0000000180025095e-35 0.12500000000000003
decision_type=2 2 2 2 2 2 2 2 2 2 2 2 2 2
left_child=1 2 3 4 6 -4 -1 10 11 12 -6 -7 13 -5
right_child=-2 -3 5 9 7 8 -8 -9 -10 -11 -12 -13 -14 -15
leaf_value=-0.0092410864235097021 0.12717001096809871 0.10121741072080806 0.013719054104386326 0.11591988278306067 0.021741013105907571 0.079567769323526952 0.049508252857524249 0.090603643012972274 0.017507022640357042 0.021229387290247211 0.056998873029713182 0.11257661116738601 0.10224381103801897 0.04870997316048653
leaf_weight=288.06569667160511 533.75089617073536 356.62473055720329 26.500503912568092 28.242572426795959 202.87805373221636 173.4542785435915 33.811350241303444 33.574994161725044 18.278391167521477 33.449238270521164 83.077397644519806 119.71699108183384 60.681205794215202 130.07675959169865
leaf_count=2111 892 948 142 78 1184 623 166 116 118 162 365 308 178 624
internal_value=0.0756458 0.0582633 0.0457554 0.031538 0.0177607 0.0831557 -0.00293558 0.0385531 0.0890011 0.0663342 0.0321473 0.0933839 0.0730956 0.0613519
internal_weight=2122.18 1588.43 1231.81 893.857 641.407 337.95 321.877 319.53 311.45 252.45 285.955 293.171 219.001 158.319
internal_count=8015 7123 6175 4984 3942 1191 2277 1665 1049 1042 1549 931 880 702
is_linear=0
shrinkage=0.04


Tree=5
num_leaves=15
num_cat=0
split_feature=11 2 36 12 19 18 1 36 18 12 31 38 1 37
split_gain=846.022 453.276 218.493 172.511 203.421 172.457 112.365 88.5106 67.263 64.1394 63.2521 62.2265 50.2551 49.9412
threshold=1.0000000180025095e-35 0.072000000000000008 0.45000000000000007 1.0000000180025095e-35 1.0000000180025095e-35 1.0000000180025095e-35 1.3405000000000002 0.70833333333333348 1.0000000180025095e-35 1.0000000180025095e-35 0.37200000000000005 0.44345000000000007 -0.58649999999999936 0.91666666666666685
decision_type=2 2 2 2 2 2 2 2 2 2 2 2 2 2
left_child=1 3 9 4 6 7 -1 13 -8 10 12 -6 -3 -4
right_child=-2 2 5 -5 11 -7 8 -9 -10 -11 -12 -13 -14 -15
leaf_value=-0.014858874810940836 0.11256638502540645 -0.033501891650674319 0.05790443965542643 0.074963840770545645 0.078652640935131371 0.019426288244872664 0.054445074384922097 0.098750246632312869 -0.031148144586290505 0.086351569858753641 0.090299511259922999 0.0070536418095734632 0.033021957024714374 0.091502055221161907
leaf_weight=241.863838724792 567.73825512826443 18.941230714321136 205.65943800657988 92.024038732051849 83.421778663992882 67.141931049525738 71.799457870423794 429.24373336136341 17.700097918510437 44.248000964522362 28.316339418292046 25.496852099895477 227.96024891734123 117.11357176303864
leaf_count=1820 917 133 819 274 305 386 356 1089 143 112 87 139 1151 346
internal_value=0.0703788 0.0559858 0.0702264 0.0254502 0.0149549 0.081185 -0.000684747 0.0866658 0.0373604 0.0419612 0.0345376 0.0621086 0.027804 0.0703398
internal_weight=2238.67 1670.93 1138.62 532.306 440.282 819.159 331.363 752.017 89.4996 319.466 275.218 108.919 246.901 322.773
internal_count=8077 7160 4123 3037 2763 2640 2319 2254 499 1483 1371 444 1284 1165
is_linear=0
shrinkage=0.04


Tree=6
num_leaves=15
num_cat=0
split_feature=11 2 36 8 12 18 12 32 1 33 36 4 3 4
split_gain=752.913 389.776 205.841 157.17 165.917 127.966 85.0936 59.6908 59.0322 46.5014 39.6927 62.6246 38.5393 78.015
threshold=1.0000000180025095e-35 0.072000000000000008 0.45000000000000007 1.0000000180025095e-35 1.0000000180025095e-35 1.0000000180025095e-35 1.0000000180025095e-35 0.70850000000000002 2.8095000000000003 0.35150000000000003 0.81666666666666676 0.77950000000000019 0.25850000000000006 0.62250000000000016
decision_type=2 2 2 2 2 2 2 2 2 2 2 2 2 2
left_child=1 3 6 4 8 10 7 -3 -1 12 11 -4 -7 -14
right_child=-2 2 5 -5 -6 9 -8 -9 -10 -11 -12 -13 13 -15
leaf_value=-0.0019772873153607227 0.10399644624004628 0.022866980773873308 0.071646912695885259 0.06807369578452338 0.067478898565453277 0.10218413974399526 0.084599517216083914 0.088689403960429097 0.07247212081296095 -0.0057160588102977998 0.08813490054173119 -0.045661131264787047 -0.044203477341430444 0.13934841811545243
leaf_weight=340.70857674628496 608.41811946034431 252.86410900950432 350.19583728909492 102.06582863628864 73.182018876075745 15.264477238059046 51.41482138633728 23.367456138134003 16.935663223266602 39.610074654221535 435.82078410685062 6.7986593544483176 11.068523623049257 4.3559468537569037
leaf_count=2391 919 1307 1155 351 212 58 120 67 58 247 1070 38 79 9
internal_value=0.0657381 0.0521811 0.0649026 0.0236864 0.0130374 0.0751612 0.0377321 0.028735 0.00174039 0.0230398 0.079748 0.0692916 0.059164 0.0129607
internal_weight=2332.07 1723.65 1190.76 532.892 430.826 863.114 327.646 276.232 357.644 70.299 792.815 356.994 30.6889 15.4245
internal_count=8081 7162 4150 3012 2661 2656 1494 1374 2449 393 2263 1193 146 88
is_linear=0
shrinkage=0.04


end of trees

feature_importances:
Column_2=11
Column_36=10
Column_1=8
Column_12=8
Column_18=8
Column_11=6
Column_13=5
Column_19=5
Column_32=5
Column_30=4
Column_6=3
Column_8=3
Column_15=3
Column_31=3
Column_3=2
Column_4=2
Column_5=2
Column_37=2
Column_38=2
Column_16=1
Column_20=1
Column_22=1
Column_24=1
Column_33=1
Column_35=1

parameters:
[boosting: gbdt]
[objective: binary]
[metric: binary_logloss]
[tree_learner: serial]
[device_type: cpu]
[data_sample_strategy: bagging]
[data: ]
[valid: ]
[num_iterations: 400]
[learning_rate: 0.04]
[num_leaves: 15]
[num_threads: 0]
[seed: 0]
[deterministic: 0]
[force_col_wise: 0]
[force_row_wise: 0]
[histogram_pool_size: -1]
[max_depth: -1]
[min_data_in_leaf: 25]
[min_sum_hessian_in_leaf: 0.001]
[bagging_fraction: 0.85]
[pos_bagging_fraction: 1]
[neg_bagging_fraction: 1]
[bagging_freq: 1]
[bagging_seed: 3]
[bagging_by_query: 0]
[feature_fraction: 0.85]
[feature_fraction_bynode: 1]
[feature_fraction_seed: 2]
[extra_trees: 0]
[extra_seed: 6]
[early_stopping_round: 0]
[early_stopping_min_delta: 0]
[first_metric_only: 0]
[max_delta_step: 0]
[lambda_l1: 0]
[lambda_l2: 1]
[linear_lambda: 0]
[min_gain_to_split: 0]
[drop_rate: 0.1]
[max_drop: 50]
[skip_drop: 0.5]
[xgboost_dart_mode: 0]
[uniform_drop: 0]
[drop_seed: 4]
[top_rate: 0.2]
[other_rate: 0.1]
[min_data_per_group: 100]
[max_cat_threshold: 32]
[cat_l2: 10]
[cat_smooth: 10]
[max_cat_to_onehot: 4]
[top_k: 20]
[monotone_constraints: ]
[monotone_constraints_method: basic]
[monotone_penalty: 0]
[feature_contri: ]
[forcedsplits_filename: ]
[refit_decay_rate: 0.9]
[cegb_tradeoff: 1]
[cegb_penalty_split: 0]
[cegb_penalty_feature_lazy: ]
[cegb_penalty_feature_coupled: ]
[path_smooth: 0]
[interaction_constraints: ]
[verbosity: -1]
[saved_feature_importance_type: 0]
[use_quantized_grad: 0]
[num_grad_quant_bins: 4]
[quant_train_renew_leaf: 0]
[stochastic_rounding: 1]
[linear_tree: 0]
[max_bin: 255]
[max_bin_by_feature: ]
[min_data_in_bin: 3]
[bin_construct_sample_cnt: 200000]
[data_random_seed: 1]
[is_enable_sparse: 1]
[enable_bundle: 1]
[use_missing: 1]
[zero_as_missing: 0]
[feature_pre_filter: 1]
[pre_partition: 0]
[two_round: 0]
[header: 0]
[label_column: ]
[weight_column: ]
[group_column: ]
[ignore_column: ]
[categorical_feature: ]
[forcedbins_filename: ]
[precise_float_parser: 0]
[parser_config_file: ]
[objective_seed: 5]
[num_class: 1]
[is_unbalance: 0]
[scale_pos_weight: 6]
[sigmoid: 1]
[boost_from_average: 1]
[reg_sqrt: 0]
[alpha: 0.9]
[fair_c: 1]
[poisson_max_delta_step: 0.7]
[tweedie_variance_power: 1.5]
[lambdarank_truncation_level: 30]
[lambdarank_norm: 1]
[label_gain: ]
[lambdarank_position_bias_regularization: 0]
[eval_at: ]
[multi_error_top_k: 1]
[auc_mu_weights: ]
[num_machines: 1]
[local_listen_port: 12400]
[time_out: 120]
[machine_list_filename: ]
[machines: ]
[gpu_platform_id: -1]
[gpu_device_id: -1]
[gpu_device_id_list: ]
[gpu_use_dp: 0]
[num_gpu: 1]

end of parameters

pandas_categorical:null
