tree
version=v4
num_class=1
num_tree_per_iteration=1
label_index=0
max_feature_idx=44
objective=binary sigmoid:1
feature_names=Column_0 Column_1 Column_2 Column_3 Column_4 Column_5 Column_6 Column_7 Column_8 Column_9 Column_10 Column_11 Column_12 Column_13 Column_14 Column_15 Column_16 Column_17 Column_18 Column_19 Column_20 Column_21 Column_22 Column_23 Column_24 Column_25 Column_26 Column_27 Column_28 Column_29 Column_30 Column_31 Column_32 Column_33 Column_34 Column_35 Column_36 Column_37 Column_38 Column_39 Column_40 Column_41 Column_42 Column_43 Column_44
feature_infos=none [-7.4000000000000004:4.4329999999999998] [0:0.94099999999999995] [0:1] [0:1] [0:1] [0:1] [0:1] [0:1] [0:1] [0:1] [0:1] [0:1] [0:1] [0:1] [0.25:1] [0:1] [0:1] [0:1] [-0.3666666666666667:1] [0:1] none [-1.05:1.1499999999999999] [-0.83333333333333337:0.66666666666666663] [-0.56666666666666665:0.53333333333333333] [0:1] [0:1] [0:1] [0.0625:1] [0.45000000000000001:1] [0:1] [0.010999999999999999:1] [0.010999999999999999:1] [0.048000000000000001:1] [0.014:1] [0.028000000000000001:1] [0:1] [0:1] [0:1] [0:1] [0:1] [0:1] [0:1] [0:1] [0:1]
tree_sizes=1694 1715 1725 1736 1730 1741 1736

Tree=0
num_leaves=15
num_cat=0
split_feature=11 12 2 8 1 36 26 37 38 18 1 4 2 1
split_gain=2074.12 1127.84 763.021 272.612 258.863 102.107 130.061 76.617 70.1531 62.2208 77.5133 60.1514 56.8167 51.3634
threshold=1.0000000180025095e-35 1.0000000180025095e-35 0.06950000000000002 1.0000000180025095e-35 2.5820000000000003 0.45000000000000007 0.075000000000000011 0.45000000000000007 0.43055000000000004 1.0000000180025095e-35 -2.0449999999999995 0.27600000000000008 0.16900000000000001 0.68099999999999961
decision_type=2 2 2 2 2 2 2 2 2 2 2 2 2 2
left_child=1 2 3 13 5 6 8 -3 12 10 -7 -11 -4 -1
right_child=-2 7 4 -5 -6 9 -8 -9 -10 11 -12 -13 -14 -15
leaf_value=-1.8322874674468397 -1.5915354545787657 -1.7047509993110821 -1.8143105547333029 -1.7068667282758216 -1.6491270852236493 -1.8102908919997125 -1.7187894703212379 -1.6269963943028807 -1.8334449307405365 -1.663886246159739 -1.6939977612146624 -1.7824552614288347 -1.690259648566891 -1.7952194964170394
leaf_weight=125.69574165344238 244.87750053405762 28.830405235290527 10.736008644104006 43.426551818847656 82.631077766418457 9.7709741592407209 64.295422554016113 165.62404346466064 38.118862152099609 7.8409051895141593 159.1100606918335 34.017465591430664 12.062931060791014 112.30588817596436
leaf_count=972 660 144 79 220 320 71 343 568 296 30 769 227 55 781
internal_value=-1.69455 -1.72297 -1.74681 -1.79783 -1.71263 -1.72869 -1.75802 -1.63791 -1.80028 -1.7116 -1.70067 -1.75729 -1.74629 -1.8148
internal_weight=1139.34 894.466 700.012 281.428 418.584 335.953 125.213 194.454 60.9178 210.739 168.881 41.8584 22.7989 238.002
internal_count=5535 4875 4163 1973 2190 1870 773 712 430 1097 840 257 134 1753
is_linear=0
shrinkage=1


Tree=1
num_leaves=15
num_cat=0
split_feature=2 20 17 9 37 2 2 14 1 18 38 32 30 37
split_gain=1162.63 367.976 415.719 172.91 167.827 147.148 140.377 106.271 67.9011 65.1155 64.7726 64.131 61.7274 60.9833
threshold=0.16050000000000003 1.0000000180025095e-35 1.0000000180025095e-35 1.0000000180025095e-35 0.63333333333333341 0.06950000000000002 0.035500000000000011 1.0000000180025095e-35 2.3775000000000004 1.0000000180025095e-35 0.60300000000000009 0.51950000000000018 0.65192307692307705 0.45000000000000007
decision_type=2 2 2 2 2 2 2 2 2 2 2 2 2 2
left_child=1 2 5 7 8 -1 10 12 -4 13 -6 -12 -2 -5
right_child=3 -3 4 9 6 -7 -8 -9 -10 -11 11 -13 -14 -15
leaf_value=-0.01087749132467369 0.14814444766646892 0.11869288978116974 0.039067090150371284 0.0446240087534703 0.10386479291015151 0.053763783745714874 0.13643054903992108 0.085613475881788845 0.11009653092334126 0.017080132612303154 -0.044047373222330925 0.12859787430137753 0.18274373592556564 0.13454361708091434
leaf_weight=141.573920160532 211.21226441115141 197.26812078803778 108.16493738442659 17.781297653913498 13.611399739980696 92.303904548287392 116.65506180375814 31.874227941036224 26.716303780674934 14.7411937341094 15.367769062519075 3.3627953231334677 208.36157304793596 47.985701151192188
leaf_count=1067 694 820 654 101 61 532 426 156 112 98 123 11 510 170
internal_value=0.105718 0.0722381 0.0543438 0.1505 0.0867938 0.0147546 0.116065 0.160266 0.0538428 0.0944405 0.0407204 -0.00810474 0.16572 0.111265
internal_weight=1246.98 715.024 517.756 531.956 283.878 233.878 148.997 451.448 134.881 80.5082 32.342 18.7306 419.574 65.767
internal_count=5535 3806 2986 1729 1387 1599 621 1360 766 369 195 134 1204 271
is_linear=0
shrinkage=0.04


Tree=2
num_leaves=15
num_cat=0
split_feature=11 12 2 19 1 3 1 36 1 1 34 34 9 2
split_gain=1235.96 594.543 392.854 194.45 184.45 120.849 85.6229 68.5451 51.0228 44.0956 41.6631 45.5194 41.4468 40.0809
threshold=1.0000000180025095e-35 1.0000000180025095e-35 0.10100000000000002 1.0000000180025095e-35 2.8305000000000002 0.21500000000000005 -1.9064999999999999 0.45000000000000007 2.4930000000000003 -0.48549999999999965 0.35050000000000003 0.46250000000000008 1.0000000180025095e-35 0.061000000000000006
decision_type=2 2 2 2 2 2 2 2 2 2 2 2 2 2
left_child=1 2 3 5 6 -1 -4 9 13 -8 -9 -12 -2 -7
right_child=12 -3 4 -5 -6 8 7 10 -10 -11 11 -13 -14 -15
leaf_value=-0.0076045901180675926 0.16518376065092472 0.1252825975478197 -0.043189499489732996 0.074162438561657898 0.14109125115641502 -0.0049735958485386143 -0.042121186866743592 0.11357593219358574 0.10281384352495217 0.052416771751414182 0.0377009188400763 0.089316559902015272 0.11721499007166702 0.057760852377597274
leaf_weight=220.86930742114782 271.9526049643755 223.98407123982906 10.240401566028593 91.781325370073318 66.207002207636833 28.861742474138737 7.8152956292033187 61.598378226161003 19.987874254584312 102.36850177496672 44.343788310885429 81.36101920902729 45.49948163330555 35.989196665585041
leaf_count=1614 530 703 78 431 180 210 59 227 78 533 239 342 144 196
internal_value=0.0900271 0.0679895 0.0512137 0.0234373 0.0805985 0.00801618 0.0671688 0.0710996 0.0482981 0.0453927 0.0859007 0.0715498 0.158698 0.0301895
internal_weight=1312.86 995.408 771.424 397.489 373.934 305.708 307.727 297.487 84.8388 110.184 187.303 125.705 317.452 64.8509
internal_count=5564 4890 4187 2529 1658 2098 1478 1400 484 592 808 581 674 406
is_linear=0
shrinkage=0.04


Tree=3
num_leaves=15
num_cat=0
split_feature=11 12 2 19 13 36 22 7 22 34 31 31 30 25
split_gain=775.489 487.067 321.451 233.031 109.459 103.639 86.5646 67.9945 53.0439 48.5156 48.4477 47.4946 45.9429 45.195
threshold=1.0000000180025095e-35 1.0000000180025095e-35 0.06950000000000002 1.0000000180025095e-35 1.0000000180025095e-35 0.70833333333333348 0.075000000000000025 0.37500000000000006 -1.0000000180025095e-35 0.38950000000000007 0.18250000000000002 0.17150000000000001 0.85357142857142865 0.41500000000000009
decision_type=2 2 2 2 2 2 2 2 2 2 2 2 2 2
left_child=1 2 3 7 5 12 8 -1 10 -8 -7 -5 -4 -6
right_child=-2 -3 4 11 13 6 9 -9 -10 -11 -12 -13 -14 -15
leaf_value=-0.006203793568393289 0.13615246978128615 0.11537287851372656 0.050961705084050055 0.086426042026803207 0.069605588493809947 -0.0191252398732213 0.06960475666346802 0.099815584216599723 0.12849473455528543 -0.043508091328004816 0.10941674945652097 -0.039875636777206326 -0.0073275155779969339 0.12147989572667882
leaf_weight=219.78701033443213 337.67419783771038 247.48912854492664 238.35397282242775 72.287596717476845 48.270497553050518 8.8527146279811877 13.638049319386484 9.1228321641683561 65.179564699530602 9.4814332872629148 8.4100005626678449 4.5342168658971778 23.527957759797573 80.934701263904572
leaf_count=1622 671 697 1168 296 222 57 60 42 165 68 27 31 145 251
internal_value=0.0834277 0.0663562 0.0511125 0.018759 0.0709513 0.0595095 0.0929766 -0.00156279 0.111992 0.0233359 0.0460598 0.0785548 0.0457169 0.102783
internal_weight=1387.54 1049.87 802.381 305.732 496.649 367.444 105.562 228.91 82.4423 23.1195 17.2627 76.8218 261.882 129.205
internal_count=5522 4851 4154 1991 2163 1690 377 1664 249 128 84 327 1313 473
is_linear=0
shrinkage=0.04


Tree=4
num_leaves=15
num_cat=0
split_feature=11 12 1 19 25 2 2 38 1 33 1 30 5 13
split_gain=808.814 394.206 234.172 128.693 103.715 80.1585 56.0602 61.0413 48.0166 44.0531 43.3328 42.9236 37.6347 43.4602
threshold=1.0000000180025095e-35 1.0000000180025095e-35 0.93750000000000011 1.0000000180025095e-35 0.29000000000000009 0.39600000000000007 0.046000000000000006 0.81725000000000014 3.4990000000000006 0.62300000000000011 2.4930000000000003 0.30217391304347835 1.0000000180025095e-35 1.0000000180025095e-35
decision_type=2 2 2 2 2 2 2 2 2 2 2 2 2 2
left_child=1 2 3 5 6 11 7 -4 12 10 -8 -1 13 -6
right_child=-2 -3 4 -5 8 -7 9 -9 -10 -11 -12 -13 -14 -15
leaf_value=-0.022543205104380161 0.12630508844958929 0.10127269471796131 -0.024487766843621524 0.056243025371494698 0.075419685441541637 0.14456676895102796 0.04035634170761334 0.093057915139521857 0.14162250470132265 -0.04295753374451531 0.087953191031621553 0.012839679113938829 0.065932424928309474 0.1565110935950855
leaf_weight=79.441131621599197 378.73337168991566 259.0821320861578 33.391843892633915 113.23974281549454 34.010406225919724 5.4358140975236884 91.531006284058094 7.8972003757953635 19.151359662413597 6.6911144256591788 48.011203669011593 171.49718290567398 192.60320275276899 17.827382251620293
leaf_count=596 659 696 255 497 134 10 477 37 31 44 160 1125 783 31
internal_value=0.0760269 0.0582917 0.044617 0.0209301 0.0639353 0.00517462 0.0408455 -0.000336365 0.0801451 0.0523965 0.0572419 0.00159328 0.0747711 0.105742
internal_weight=1458.54 1079.81 820.729 369.614 451.115 256.374 187.522 41.289 263.592 146.233 139.542 250.938 244.441 51.8378
internal_count=5535 4876 4180 2228 1952 1731 973 292 979 681 637 1721 948 165
is_linear=0
shrinkage=0.04


Tree=5
num_leaves=15
num_cat=0
split_feature=11 2 19 12 12 31 38 6 4 32 1 36 18 25
split_gain=573.371 357.764 146.72 156.439 116.863 112.461 65.5273 63.7175 62.8281 48.3751 40.2354 39.1377 48.78 54.4071
threshold=1.0000000180025095e-35 0.06950000000000002 1.0000000180025095e-35 1.0000000180025095e-35 1.0000000180025095e-35 0.24550000000000002 0.44345000000000007 0.37500000000000006 0.57900000000000007 0.44350000000000006 -2.0449999999999995 0.18333333333333332 1.0000000180025095e-35 0.41500000000000009
decision_type=2 2 2 2 2 2 2 2 2 2 2 2 2 2
left_child=1 2 3 9 5 10 -4 -7 -6 -1 -3 -12 -13 -14
right_child=-2 4 6 -5 8 7 -8 -9 -10 -11 11 12 13 -15
leaf_value=-0.013315097455887479 0.11169898677985807 -0.0067729475612756272 0.085418543614480882 0.073126066557710451 0.11190598146807494 0.11309184342156041 0.0091177765921590798 0.045411726212100441 0.063083310060383826 0.034216768468920987 0.032271484945617691 0.069040578169591374 -0.005107629471122299 0.079548326560781341
leaf_weight=187.80351351201534 406.82385882735252 17.731236152350903 71.932696148753166 49.400607645511627 148.25409808754921 89.863001793622971 24.256500124931335 32.06720381975174 65.75139881670475 40.867741040885448 100.10755581408739 248.64964400976896 33.32553792744875 18.014201417565346
leaf_count=1421 684 116 242 153 310 222 124 131 199 250 509 917 203 69
internal_value=0.0709822 0.0562117 0.0241547 0.00933179 0.0720756 0.0619255 0.0664692 0.0958064 0.0972688 -0.00470829 0.0518332 0.0544409 0.0617071 0.025549
internal_weight=1534.85 1128.02 374.261 278.072 753.764 539.758 96.1892 121.93 214.005 228.671 417.828 400.097 299.989 51.3397
internal_count=5550 4866 2190 1824 2676 2167 366 353 509 1671 1814 1698 1189 272
is_linear=0
shrinkage=0.04


Tree=6
num_leaves=15
num_cat=0
split_feature=11 12 2 8 13 1 35 27 33 23 35 26 22 38
split_gain=527.274 275.513 225.915 156 114.513 122.84 40.5363 46.7327 39.5175 57.5074 37.7304 34.9169 36.438 34.8963
threshold=1.0000000180025095e-35 1.0000000180025095e-35 0.06950000000000002 1.0000000180025095e-35 1.0000000180025095e-35 2.7875000000000005 0.35750000000000004 1.0000000180025095e-35 0.47700000000000004 -0.28333333333333327 0.39550000000000007 0.19166666666666668 0.67500000000000016 0.25100000000000006
decision_type=2 2 2 2 2 2 2 2 2 2 2 2 2 2
left_child=1 2 3 8 5 6 7 -4 -1 -10 -8 12 -11 -7
right_child=-2 -3 4 -5 -6 13 10 -9 9 11 -12 -13 -14 -15
leaf_value=-0.0085917503826247847 0.10354039836221525 0.085160560326237769 -0.015864374956984176 0.069273735514711166 0.084671331652154194 0.014230833052455203 -0.027316290578505119 0.058717231661536438 0.12654909428038991 -0.026663364138679948 0.026602795281806882 0.10902652325229802 0.083808668837862046 0.092620960556153847
leaf_weight=206.96124362200499 430.8501455783844 293.49022014439106 14.909690029919146 61.456599436700344 155.01006162166595 10.633917137980459 22.891229212284088 107.87469251453876 7.5553632676601401 24.620665721595291 165.99539808183908 3.8860410749912253 4.8767380416393271 83.21942825615406
leaf_count=1509 674 706 90 217 487 45 140 450 29 183 794 13 25 191
internal_value=0.0657356 0.0516579 0.0402698 0.0127744 0.0553946 0.0440229 0.0317597 0.0496058 -0.00145432 0.0339726 0.0199589 0.00994945 -0.00625009 0.0839827
internal_weight=1594.23 1163.38 869.891 309.357 560.534 405.524 311.671 122.784 247.9 40.9388 188.887 33.3834 29.4974 93.8533
internal_count=5553 4879 4173 1976 2197 1710 1474 540 1759 250 934 221 208 236
is_linear=0
shrinkage=0.04


end of trees

feature_importances:
Column_1=13
Column_2=12
Column_12=7
Column_11=6
Column_38=5
Column_19=4
Column_36=4
Column_13=3
Column_18=3
Column_22=3
Column_25=3
Column_30=3
Column_31=3
Column_34=3
Column_37=3
Column_4=2
Column_8=2
Column_9=2
Column_26=2
Column_32=2
Column_33=2
Column_35=2
Column_3=1
Column_5=1
Column_6=1
Column_7=1
Column_14=1
Column_17=1
Column_20=1
Column_23=1
Column_27=1

parameters:
[boosting: gbdt]
[objective: binary]
[metric: binary_logloss]
[tree_learner: serial]
[device_type: cpu]
[data_sample_strategy: bagging]
[data: ]
[valid: ]
[num_iterations: 400]
[learning_rate: 0.04]
[num_leaves: 15]
[num_threads: 0]
[seed: 0]
[deterministic: 0]
[force_col_wise: 0]
[force_row_wise: 0]
[histogram_pool_size: -1]
[max_depth: -1]
[min_data_in_leaf: 25]
[min_sum_hessian_in_leaf: 0.001]
[bagging_fraction: 0.85]
[pos_bagging_fraction: 1]
[neg_bagging_fraction: 1]
[bagging_freq: 1]
[bagging_seed: 3]
[bagging_by_query: 0]
[feature_fraction: 0.85]
[feature_fraction_bynode: 1]
[feature_fraction_seed: 2]
[extra_trees: 0]
[extra_seed: 6]
[early_stopping_round: 0]
[early_stopping_min_delta: 0]
[first_metric_only: 0]
[max_delta_step: 0]
[lambda_l1: 0]
[lambda_l2: 1]
[linear_lambda: 0]
[min_gain_to_split: 0]
[drop_rate: 0.1]
[max_drop: 50]
[skip_drop: 0.5]
[xgboost_dart_mode: 0]
[uniform_drop: 0]
[drop_seed: 4]
[top_rate: 0.2]
[other_rate: 0.1]
[min_data_per_group: 100]
[max_cat_threshold: 32]
[cat_l2: 10]
[cat_smooth: 10]
[max_cat_to_onehot: 4]
[top_k: 20]
[monotone_constraints: ]
[monotone_constraints_method: basic]
[monotone_penalty: 0]
[feature_contri: ]
[forcedsplits_filename: ]
[refit_decay_rate: 0.9]
[cegb_tradeoff: 1]
[cegb_penalty_split: 0]
[cegb_penalty_feature_lazy: ]
[cegb_penalty_feature_coupled: ]
[path_smooth: 0]
[interaction_constraints: ]
[verbosity: -1]
[saved_feature_importance_type: 0]
[use_quantized_grad: 0]
[num_grad_quant_bins: 4]
[quant_train_renew_leaf: 0]
[stochastic_rounding: 1]
[linear_tree: 0]
[max_bin: 255]
[max_bin_by_feature: ]
[min_data_in_bin: 3]
[bin_construct_sample_cnt: 200000]
[data_random_seed: 1]
[is_enable_sparse: 1]
[enable_bundle: 1]
[use_missing: 1]
[zero_as_missing: 0]
[feature_pre_filter: 1]
[pre_partition: 0]
[two_round: 0]
[header: 0]
[label_column: ]
[weight_column: ]
[group_column: ]
[ignore_column: ]
[categorical_feature: ]
[forcedbins_filename: ]
[precise_float_parser: 0]
[parser_config_file: ]
[objective_seed: 5]
[num_class: 1]
[is_unbalance: 0]
[scale_pos_weight: 6]
[sigmoid: 1]
[boost_from_average: 1]
[reg_sqrt: 0]
[alpha: 0.9]
[fair_c: 1]
[poisson_max_delta_step: 0.7]
[tweedie_variance_power: 1.5]
[lambdarank_truncation_level: 30]
[lambdarank_norm: 1]
[label_gain: ]
[lambdarank_position_bias_regularization: 0]
[eval_at: ]
[multi_error_top_k: 1]
[auc_mu_weights: ]
[num_machines: 1]
[local_listen_port: 12400]
[time_out: 120]
[machine_list_filename: ]
[machines: ]
[gpu_platform_id: -1]
[gpu_device_id: -1]
[gpu_use_dp: 0]
[num_gpu: 1]

end of parameters

pandas_categorical:null
