tree
version=v4
num_class=1
num_tree_per_iteration=1
label_index=0
max_feature_idx=44
objective=binary sigmoid:1
feature_names=Column_0 Column_1 Column_2 Column_3 Column_4 Column_5 Column_6 Column_7 Column_8 Column_9 Column_10 Column_11 Column_12 Column_13 Column_14 Column_15 Column_16 Column_17 Column_18 Column_19 Column_20 Column_21 Column_22 Column_23 Column_24 Column_25 Column_26 Column_27 Column_28 Column_29 Column_30 Column_31 Column_32 Column_33 Column_34 Column_35 Column_36 Column_37 Column_38 Column_39 Column_40 Column_41 Column_42 Column_43 Column_44
feature_infos=none [-7.4000000000000004:4.4329999999999998] [0:0.94099999999999995] [0:1] [0:1] [0:1] [0:1] [0:1] [0:1] [0:1] [0:1] [0:1] [0:1] [0:1] [0:1] [0.25:1] [0:1] [0:1] [0:1] [-0.3666666666666667:1] [0:1] none [-1.05:1.1000000000000001] [-0.83333333333333337:0.66666666666666663] [-0.56666666666666665:0.5] [0:1] [0:1] [0:1] [0.10416666666666674:1] [0.45000000000000001:1] [0:1] [0.010999999999999999:1] [0.010999999999999999:1] [0.048000000000000001:1] [0.014:1] [0.028000000000000001:1] [0:1] [0:1] [0.15050000000000002:0.84949999999999992] [0:1] [0:1] [0:1] [0:1] [0:1] [0:1]
tree_sizes=1702 1721 1717 1725 1726 1742 1744

Tree=0
num_leaves=15
num_cat=0
split_feature=11 2 12 12 8 1 1 36 26 28 9 38 2 18
split_gain=1831.01 1008.62 413.92 346.625 260.512 218.483 116.711 82.1336 95.9329 77.4784 58.3876 54.3499 50.313 49.13
threshold=1.0000000180025095e-35 0.06950000000000002 1.0000000180025095e-35 1.0000000180025095e-35 1.0000000180025095e-35 2.5820000000000003 -2.0934999999999993 0.45000000000000007 0.075000000000000011 0.48958333333333337 1.0000000180025095e-35 0.44345000000000007 0.10750000000000003 1.0000000180025095e-35
decision_type=2 2 2 2 2 2 2 2 2 2 2 2 2 2
left_child=1 3 5 4 -1 6 -3 8 -8 -10 -2 -5 -7 -9
right_child=10 2 -4 11 -6 12 7 13 9 -11 -12 -13 -14 -15
leaf_value=-1.8233754977842318 -1.5841068221629624 -1.8435425981060629 -1.6304500950326937 -1.6321614781023179 -1.7115950383272265 -1.7343775329005608 -1.7970746962974122 -1.6964642711470959 -1.8562238405645106 -1.7049178342425793 -1.6559710935196701 -1.7329507580169785 -1.6350993492735697 -1.7510460592599071
leaf_weight=204.331208974123 180.51862546801567 13.469744205474852 129.04496011137962 19.964085161685944 38.845780164003372 12.387354046106337 46.783307999372482 137.34328466653824 5.5322163701057425 52.315524369478226 31.629845768213272 19.603288441896439 58.088271886110306 37.883655577898026
leaf_count=1529 446 107 443 66 198 68 324 662 46 260 123 108 203 225
internal_value=-1.69799 -1.72669 -1.69218 -1.78705 -1.80516 -1.71453 -1.73027 -1.72474 -1.75384 -1.71981 -1.59402 -1.6788 -1.65115 -1.70782
internal_weight=987.741 775.593 492.848 282.744 243.177 363.803 293.328 279.858 104.631 57.8477 212.148 39.5674 70.4756 175.227
internal_count=4808 4239 2338 1901 1727 1895 1624 1517 630 306 569 174 271 887
is_linear=0
shrinkage=1


Tree=1
num_leaves=15
num_cat=0
split_feature=2 20 2 37 17 9 17 14 9 18 37 30 33 2
split_gain=1092.96 361.682 365.47 144.17 128.265 125.33 117.018 81.0186 75.0849 70.6077 66.1472 65.3425 61.0364 60.0217
threshold=0.16050000000000003 1.0000000180025095e-35 0.059000000000000004 0.63333333333333341 1.0000000180025095e-35 1.0000000180025095e-35 1.0000000180025095e-35 1.0000000180025095e-35 1.0000000180025095e-35 1.0000000180025095e-35 0.45000000000000007 0.65833333333333344 0.38800000000000007 0.085500000000000007
decision_type=2 2 2 2 2 2 2 2 2 2 2 2 2 2
left_child=1 2 4 -4 -1 7 13 11 -6 10 -7 -2 -10 -5
right_child=5 -3 3 6 8 9 -8 -9 12 -11 -12 -13 -14 -15
leaf_value=-0.015292655390211764 0.1461333449053428 0.11860626832257086 0.05205370853591379 -0.041170034346003706 0.11309011130819581 0.043066160009361518 0.14643329401708613 0.088985447167072559 -0.003671334149354305 0.011142606154182378 0.14281674231421637 0.18400502576674624 0.064627525701927271 0.082274804698568058
leaf_weight=115.8168239146471 182.43092937767506 172.79800432175398 103.46290728449821 7.310891166329383 20.25033338367939 15.461771823465822 75.966979995369911 27.540832042694092 44.710365042090416 12.184331521391867 43.374211259186268 183.38804276287556 38.203600972890854 29.037962809205055
leaf_count=888 603 720 589 59 87 89 262 133 325 81 150 439 220 147
internal_value=0.105225 0.069728 0.0500734 0.086897 0.0135583 0.151417 0.118251 0.160446 0.0457836 0.0998778 0.117761 0.165569 0.0281933 0.0570087
internal_weight=1071.94 607.558 434.76 215.779 218.981 464.38 112.316 393.36 103.164 71.0203 58.836 365.819 82.914 36.3489
internal_count=4792 3297 2577 1057 1520 1495 468 1175 632 320 239 1042 545 206
is_linear=0
shrinkage=0.04


Tree=2
num_leaves=15
num_cat=0
split_feature=11 12 2 1 8 1 3 37 9 4 1 36 5 34
split_gain=1122.34 502.877 360.231 169.412 144.986 83.3106 54.6369 53.9133 52.5253 48.6476 45.7229 45.6195 40.4299 47.9514
threshold=1.0000000180025095e-35 1.0000000180025095e-35 0.11450000000000002 2.8175000000000003 1.0000000180025095e-35 2.4955000000000003 0.20900000000000005 0.45000000000000007 1.0000000180025095e-35 0.44250000000000006 1.4750000000000003 0.45000000000000007 1.0000000180025095e-35 0.31250000000000006
decision_type=2 2 2 2 2 2 2 2 2 2 2 2 2 2
left_child=1 2 4 8 5 -1 -7 9 12 -3 11 -10 -4 -14
right_child=-2 7 3 -5 -6 6 -8 -9 10 -11 -12 -13 13 -15
leaf_value=0.0059856615062634441 0.15960604282537541 0.11611078259067295 0.11521084875489634 0.14432551561164739 0.077774459553048597 -0.013678871277093045 0.1092742885689186 0.13304181937231302 -0.0014147410568125147 0.0083047602546180762 -0.018129319720509698 0.07876450419311247 0.13822038769253944 0.05848998978523972
leaf_weight=277.137784473598 280.4862941801548 13.889600127935411 41.84239337593317 58.842716529965401 66.143816195428371 7.601892031729224 20.713869787752628 165.54713079333305 15.776175528764723 12.472743675112723 16.847209572792053 39.187966778874397 13.426780134439467 111.88765393942595
leaf_count=1933 592 48 148 153 300 55 84 492 108 70 115 182 41 542
internal_value=0.0901774 0.0674092 0.0509089 0.0836238 0.0245359 0.0127913 0.0769246 0.124403 0.0681377 0.0672724 0.038704 0.0561369 0.0804771 0.0680593
internal_weight=1141.8 861.318 669.408 297.811 371.597 305.454 28.3158 191.909 238.968 26.3623 71.8114 54.9641 167.157 125.314
internal_count=4863 4271 3661 1289 2372 2072 139 610 1136 118 405 290 731 583
is_linear=0
shrinkage=0.04


Tree=3
num_leaves=15
num_cat=0
split_feature=11 12 2 19 36 7 2 31 25 6 22 33 3 33
split_gain=667.274 417.299 295.22 225.305 98.0564 76.2489 75.1906 51.5637 48.8035 65.3899 58.6149 58.443 65.6738 46.8064
threshold=1.0000000180025095e-35 1.0000000180025095e-35 0.06950000000000002 1.0000000180025095e-35 0.29166666666666674 0.37500000000000006 0.16900000000000001 0.17150000000000001 0.41500000000000009 0.54166666666666685 -0.074999999999999997 0.36750000000000005 0.16350000000000003 0.42650000000000005
decision_type=2 2 2 2 2 2 2 2 2 2 2 2 2 2
left_child=1 2 3 5 -4 13 8 -5 10 -10 -6 -12 -13 -1
right_child=-2 -3 4 7 6 -7 -8 -9 9 -11 11 12 -14 -15
leaf_value=-0.020153908902109358 0.13673249702456985 0.11586223675599337 0.039393798880077276 0.091099141508371936 -0.029046148548558498 0.10796092354680469 0.10380998853186926 -0.039971428130714054 0.10603947018342801 0.017876075859529852 0.093181623227917482 0.11126517313273412 -0.011762614899929245 0.023363196688665877
leaf_weight=137.30240461975336 294.4749660640955 216.4204718619585 109.10899074375629 63.045155793428421 14.64687344431877 8.565979987382887 157.57302829623222 4.6416684389114371 61.377551972866058 17.749336682260036 34.938565015792847 8.3179957270622236 26.621896833181381 54.44407132267952
leaf_count=1066 583 613 579 260 107 35 527 32 223 96 140 28 169 362
internal_value=0.0843613 0.0673712 0.0521992 0.019144 0.0726929 -0.00228119 0.083846 0.0816598 0.0641099 0.086733 0.0421652 0.0572907 0.019807 -0.00774065
internal_weight=1209.23 914.754 698.334 267.999 430.334 200.312 321.225 67.6868 163.652 79.1269 84.5253 69.8785 34.9399 191.746
internal_count=4820 4237 3624 1755 1869 1463 1290 292 763 319 444 337 197 1428
is_linear=0
shrinkage=0.04


Tree=4
num_leaves=15
num_cat=0
split_feature=11 12 2 19 1 1 7 31 32 15 33 38 2 33
split_gain=700.956 345.463 239.964 173.688 109.268 59.2447 50.1436 41.79 40.4058 56.9169 53.166 49.1946 44.2283 35.4707
threshold=1.0000000180025095e-35 1.0000000180025095e-35 0.06950000000000002 1.0000000180025095e-35 2.5820000000000003 -2.0934999999999993 0.37500000000000006 0.058500000000000003 0.37950000000000006 0.87500000000000011 0.35850000000000004 0.43370000000000003 0.39600000000000007 0.42650000000000005
decision_type=2 2 2 2 2 2 2 2 2 2 2 2 2 2
left_child=1 2 3 6 5 -4 13 -7 9 12 11 -10 -9 -1
right_child=-2 -3 4 -5 -6 7 -8 8 10 -11 -12 -13 -14 -15
leaf_value=-0.019753683569398873 0.12619224619576552 0.10146548800044418 -0.027804289379537113 0.069985158961478999 0.099683571275436589 -0.0057277316057614061 0.086566377069439038 0.076449395306844678 0.099866291098894527 0.00146682511830708 0.027122701263424927 0.038347662170749815 0.16375102971839919 0.01801824236767649
leaf_weight=135.86533585935831 329.3078695833683 224.18368858098984 13.869711592793463 65.98522961139679 98.181760616600513 17.058120205998421 8.2473618835210782 96.928627736866474 42.781646408140659 14.335237972438334 106.75231389701366 43.48575983196497 10.454429872334002 55.18467690050602
leaf_count=1070 573 604 104 278 279 106 33 396 147 84 545 211 15 366
internal_value=0.0760381 0.0582257 0.0444322 0.0142602 0.0623931 0.0515443 -0.00444706 0.0549348 0.0582303 0.076474 0.046391 0.0696507 0.0863812 -0.00880628
internal_weight=1262.62 933.314 709.13 265.283 443.848 345.666 199.297 331.796 314.738 121.718 193.02 86.2674 107.383 191.05
internal_count=4811 4238 3634 1747 1887 1608 1469 1504 1398 495 903 358 411 1436
is_linear=0
shrinkage=0.04


Tree=5
num_leaves=15
num_cat=0
split_feature=2 11 19 12 12 31 38 33 1 37 18 36 31 1
split_gain=504.879 200.857 179.822 132.07 102.368 81.3709 79.4797 68.4738 64.859 59.2335 100.825 50.5562 48.8819 52.9334
threshold=0.06950000000000002 1.0000000180025095e-35 1.0000000180025095e-35 1.0000000180025095e-35 1.0000000180025095e-35 0.24450000000000002 0.44345000000000007 0.46550000000000008 -2.0934999999999993 0.91666666666666685 1.0000000180025095e-35 0.45000000000000007 0.37400000000000005 1.9755000000000005
decision_type=2 2 2 2 2 2 2 2 2 2 2 2 2 2
left_child=2 4 3 7 5 8 -4 9 -2 -1 -11 12 13 -7
right_child=1 -3 6 -5 -6 11 -8 -9 -10 10 -12 -13 -14 -15
leaf_value=-0.029130293198870533 -0.028217264731128646 0.11291553955032665 0.094039822214329119 0.077736408004022692 0.098205612290730396 -0.04528640518492321 0.010217970919182107 0.041468710952995334 0.057104264497069977 0.063780522606837808 -0.044211540771367012 0.11285021755252782 0.10802124080552186 0.080146400711481616
leaf_weight=111.35904820263386 14.296799935400484 308.93795736134052 78.769870594143867 40.432213515043259 191.80703973770142 11.352812722325327 23.751694440841675 47.781254813075066 345.11599572747946 33.735383756458759 22.089519791305065 72.357386097311974 12.983412489295004 8.5592235177755338
leaf_count=890 109 503 234 131 446 75 121 264 1440 173 190 173 37 27
internal_value=0.0711152 0.0861541 0.0304239 0.0123451 0.0734075 0.0629823 0.0749067 -0.000257164 0.0536415 -0.0123581 0.0210228 0.094074 0.0506625 0.00988535
internal_weight=1323.33 965.411 357.919 255.397 656.473 464.666 102.522 214.965 359.413 167.184 55.8249 105.253 32.8954 19.912
internal_count=4813 2810 2003 1648 2307 1861 355 1517 1549 1253 363 312 139 102
is_linear=0
shrinkage=0.04


Tree=6
num_leaves=15
num_cat=0
split_feature=11 2 8 12 36 18 7 25 13 12 8 4 32 32
split_gain=462.254 277.006 117.981 88.4414 66.9702 68.7084 54.2397 50.3988 42.9487 42.6683 54.0746 57.1439 46.9852 48.8766
threshold=1.0000000180025095e-35 0.063000000000000014 1.0000000180025095e-35 1.0000000180025095e-35 0.45000000000000007 1.0000000180025095e-35 0.12500000000000003 0.41500000000000009 1.0000000180025095e-35 1.0000000180025095e-35 1.0000000180025095e-35 0.56550000000000011 0.6795000000000001 0.47450000000000003
decision_type=2 2 2 2 2 2 2 2 2 2 2 2 2 2
left_child=1 2 3 6 9 -6 -1 8 -7 10 12 -12 13 -3
right_child=-2 4 -4 -5 5 7 -8 -9 -10 -11 11 -13 -14 -15
leaf_value=-0.011841629935432148 0.10439133650138317 0.027288457344744967 0.067885182083518944 0.065357201885954175 0.078640641412314291 -0.035559765532735411 0.045390602787044661 0.082232144171758281 0.053504742026357091 0.086842942704594667 0.078909995762402332 -0.012509534828069562 0.11154810081986596 -0.037877854002194511
leaf_weight=173.36027377098799 373.38045591115952 62.605420842766762 63.796723783016205 34.364870131015778 455.6414632499218 20.543428294360638 30.245965592563152 17.543851688504219 13.489097490906714 33.507939860224724 60.518557921051979 13.001186609268187 6.7260574996471396 24.952644348144531
leaf_count=1326 583 327 212 114 1329 134 156 61 59 76 202 70 17 164
internal_value=0.0663554 0.052209 0.0200274 0.006967 0.0658678 0.0736783 -0.00315942 0.0291777 0.000261362 0.0459219 0.0372845 0.0627925 0.016944 0.00849909
internal_weight=1383.68 1010.3 301.768 237.971 708.53 507.218 203.606 51.5764 34.0325 201.312 167.804 73.5197 94.2841 87.5581
internal_count=4830 4247 1808 1596 2439 1583 1482 254 193 856 780 272 508 491
is_linear=0
shrinkage=0.04


end of trees

feature_importances:
Column_2=12
Column_1=9
Column_12=9
Column_11=6
Column_33=6
Column_36=5
Column_8=4
Column_9=4
Column_18=4
Column_31=4
Column_37=4
Column_7=3
Column_19=3
Column_32=3
Column_38=3
Column_3=2
Column_4=2
Column_17=2
Column_25=2
Column_5=1
Column_6=1
Column_13=1
Column_14=1
Column_15=1
Column_20=1
Column_22=1
Column_26=1
Column_28=1
Column_30=1
Column_34=1

parameters:
[boosting: gbdt]
[objective: binary]
[metric: binary_logloss]
[tree_learner: serial]
[device_type: cpu]
[data_sample_strategy: bagging]
[data: ]
[valid: ]
[num_iterations: 400]
[learning_rate: 0.04]
[num_leaves: 15]
[num_threads: 0]
[seed: 0]
[deterministic: 0]
[force_col_wise: 0]
[force_row_wise: 0]
[histogram_pool_size: -1]
[max_depth: -1]
[min_data_in_leaf: 25]
[min_sum_hessian_in_leaf: 0.001]
[bagging_fraction: 0.85]
[pos_bagging_fraction: 1]
[neg_bagging_fraction: 1]
[bagging_freq: 1]
[bagging_seed: 3]
[bagging_by_query: 0]
[feature_fraction: 0.85]
[feature_fraction_bynode: 1]
[feature_fraction_seed: 2]
[extra_trees: 0]
[extra_seed: 6]
[early_stopping_round: 0]
[early_stopping_min_delta: 0]
[first_metric_only: 0]
[max_delta_step: 0]
[lambda_l1: 0]
[lambda_l2: 1]
[linear_lambda: 0]
[min_gain_to_split: 0]
[drop_rate: 0.1]
[max_drop: 50]
[skip_drop: 0.5]
[xgboost_dart_mode: 0]
[uniform_drop: 0]
[drop_seed: 4]
[top_rate: 0.2]
[other_rate: 0.1]
[min_data_per_group: 100]
[max_cat_threshold: 32]
[cat_l2: 10]
[cat_smooth: 10]
[max_cat_to_onehot: 4]
[top_k: 20]
[monotone_constraints: ]
[monotone_constraints_method: basic]
[monotone_penalty: 0]
[feature_contri: ]
[forcedsplits_filename: ]
[refit_decay_rate: 0.9]
[cegb_tradeoff: 1]
[cegb_penalty_split: 0]
[cegb_penalty_feature_lazy: ]
[cegb_penalty_feature_coupled: ]
[path_smooth: 0]
[interaction_constraints: ]
[verbosity: -1]
[saved_feature_importance_type: 0]
[use_quantized_grad: 0]
[num_grad_quant_bins: 4]
[quant_train_renew_leaf: 0]
[stochastic_rounding: 1]
[linear_tree: 0]
[max_bin: 255]
[max_bin_by_feature: ]
[min_data_in_bin: 3]
[bin_construct_sample_cnt: 200000]
[data_random_seed: 1]
[is_enable_sparse: 1]
[enable_bundle: 1]
[use_missing: 1]
[zero_as_missing: 0]
[feature_pre_filter: 1]
[pre_partition: 0]
[two_round: 0]
[header: 0]
[label_column: ]
[weight_column: ]
[group_column: ]
[ignore_column: ]
[categorical_feature: ]
[forcedbins_filename: ]
[precise_float_parser: 0]
[parser_config_file: ]
[objective_seed: 5]
[num_class: 1]
[is_unbalance: 0]
[scale_pos_weight: 6]
[sigmoid: 1]
[boost_from_average: 1]
[reg_sqrt: 0]
[alpha: 0.9]
[fair_c: 1]
[poisson_max_delta_step: 0.7]
[tweedie_variance_power: 1.5]
[lambdarank_truncation_level: 30]
[lambdarank_norm: 1]
[label_gain: ]
[lambdarank_position_bias_regularization: 0]
[eval_at: ]
[multi_error_top_k: 1]
[auc_mu_weights: ]
[num_machines: 1]
[local_listen_port: 12400]
[time_out: 120]
[machine_list_filename: ]
[machines: ]
[gpu_platform_id: -1]
[gpu_device_id: -1]
[gpu_use_dp: 0]
[num_gpu: 1]

end of parameters

pandas_categorical:null
