tree
version=v4
num_class=1
num_tree_per_iteration=1
label_index=0
max_feature_idx=44
objective=binary sigmoid:1
feature_names=Column_0 Column_1 Column_2 Column_3 Column_4 Column_5 Column_6 Column_7 Column_8 Column_9 Column_10 Column_11 Column_12 Column_13 Column_14 Column_15 Column_16 Column_17 Column_18 Column_19 Column_20 Column_21 Column_22 Column_23 Column_24 Column_25 Column_26 Column_27 Column_28 Column_29 Column_30 Column_31 Column_32 Column_33 Column_34 Column_35 Column_36 Column_37 Column_38 Column_39 Column_40 Column_41 Column_42 Column_43 Column_44
feature_infos=none [-7.4000000000000004:4.4329999999999998] [0:0.94099999999999995] [0:1] [0:1] [0:1] [0:1] [0:1] [0:1] [0:1] [0:1] [0:1] [0:1] [0:1] [0:1] [0.25:1] [0:1] [0:1] [0:1] [-0.3666666666666667:1] [0:1] none [-1.05:1.1499999999999999] [-0.83333333333333337:0.66666666666666663] [-0.56666666666666665:0.53333333333333333] [0:1] [0:1] [0:1] [0.10416666666666674:1] [0.45000000000000001:1] [0:1] [0.010999999999999999:1] [0.010999999999999999:1] [0.048000000000000001:1] [0.014:1] [0.028000000000000001:1] [0:1] [0:1] [0:1] [0:1] [0:1] [0:1] [0:1] [0:1] [0:1]
tree_sizes=1682 1722 1723 1727 1733 1728 1734

Tree=0
num_leaves=15
num_cat=0
split_feature=11 12 2 8 1 36 26 37 18 1 4 38 30 3
split_gain=2035.69 1053.06 784.147 260.17 250.722 109.438 136.277 66.4867 63.1235 72.7314 61.2744 59.8561 49.696 49.4176
threshold=1.0000000180025095e-35 1.0000000180025095e-35 0.06950000000000002 1.0000000180025095e-35 2.5805000000000002 0.45000000000000007 0.075000000000000011 0.45000000000000007 1.0000000180025095e-35 -2.073 0.27600000000000008 0.43055000000000004 0.23904761904761906 0.15850000000000003
decision_type=2 2 2 2 2 2 2 2 2 2 2 2 2 2
left_child=1 2 3 -1 5 6 11 -3 9 -7 -10 -4 -6 -8
right_child=-2 7 4 -5 12 8 13 -9 10 -11 -12 -13 -14 -15
leaf_value=-1.8165870526327175 -1.5920779747361407 -1.7037461242645926 -1.7518122728896792 -1.7099015253096213 -1.7766517415484013 -1.8089662283437147 -1.6247502647705068 -1.6297454718391058 -1.6620592463713233 -1.6932446016584717 -1.7826005288258644 -1.8339423636816385 -1.6418660719385909 -1.7344874197815887
leaf_weight=231.31992178410292 238.19081388413906 28.447890534996986 21.57700165361166 42.430751964449883 5.3038439750671378 9.2817269340157491 7.3530564978718749 159.59748828411102 7.7146822065114966 157.42773328721523 33.631192453205585 37.367991492152214 77.267363987863064 56.654697135090828
leaf_count=1709 641 141 129 217 34 67 21 554 29 756 224 290 286 320
internal_value=-1.69562 -1.72402 -1.74714 -1.79973 -1.71244 -1.72847 -1.75912 -1.6403 -1.71071 -1.69962 -1.75706 -1.80335 -1.64998 -1.71917
internal_weight=1113.57 875.375 687.33 273.751 413.579 331.008 122.953 188.045 208.055 166.709 41.3459 58.945 82.5712 64.0078
internal_count=5418 4777 4082 1926 2156 1836 760 695 1076 823 253 419 320 341
is_linear=0
shrinkage=1


Tree=1
num_leaves=15
num_cat=0
split_feature=2 8 3 18 37 2 17 20 31 32 1 38 22 37
split_gain=1141.57 401.469 345.233 147.455 173.057 152.971 98.2798 117.985 78.2801 89.3173 77.6515 75.4133 67.2347 63.7871
threshold=0.06950000000000002 1.0000000180025095e-35 0.51900000000000013 1.0000000180025095e-35 0.91666666666666685 0.13950000000000001 1.0000000180025095e-35 1.0000000180025095e-35 0.24550000000000002 0.39900000000000008 2.3650000000000002 0.73375000000000012 -0.57499999999999984 0.91666666666666685
decision_type=2 2 2 2 2 2 2 2 2 2 2 2 2 2
left_child=1 6 3 4 5 -2 7 -1 9 -7 11 13 -3 -8
right_child=2 12 -4 -5 -6 8 10 -9 -10 -11 -12 -13 -14 -15
leaf_value=-0.012186647656674749 0.069591511172491835 0.15359507265439248 0.17548759629328523 0.055165942509990393 0.14869569003958355 0.1370561739500317 0.021873912595213259 0.079487701129113408 0.16301019758230709 0.072527959998022709 0.12730866397694757 -0.043860628470071827 0.064138645929661647 0.088131493980642267
leaf_weight=133.07231813669205 136.90943342447281 51.756763055920601 211.94153633713722 60.582019343972206 238.74807148426771 77.252862803637981 55.533776395022869 25.98462725430727 64.178523644804955 69.411819502711296 17.158964954316616 15.046994566917418 20.940413549542427 40.15907845646143
leaf_count=1007 713 171 552 353 786 279 366 141 194 351 70 122 109 200
internal_value=0.105735 0.0457322 0.130775 0.115881 0.122048 0.10338 0.0242504 0.00319295 0.124888 0.107215 0.0502098 0.0372311 0.129047 0.0503039
internal_weight=1218.68 359.653 859.024 647.083 586.501 347.753 286.956 159.057 210.843 146.665 127.899 110.74 72.6972 95.6929
internal_count=5414 2186 3228 2676 2323 1537 1906 1148 824 630 758 688 280 566
is_linear=0
shrinkage=0.04


Tree=2
num_leaves=15
num_cat=0
split_feature=11 12 2 19 1 3 1 36 1 9 3 1 38 34
split_gain=1207.83 557.651 393.119 191.249 181.677 113.016 80.6351 68.8258 56.0174 53.118 47.1812 44.0094 40.6596 39.7776
threshold=1.0000000180025095e-35 1.0000000180025095e-35 0.10100000000000002 1.0000000180025095e-35 2.8275000000000001 0.21500000000000005 -1.9374999999999998 0.45000000000000007 2.4930000000000003 1.0000000180025095e-35 0.065000000000000016 -0.48549999999999965 0.57177500000000003 0.36050000000000004
decision_type=2 2 2 2 2 2 2 2 2 2 2 2 2 2
left_child=1 2 3 5 6 -1 -4 11 -7 -2 -3 -8 -13 -9
right_child=9 10 4 -5 -6 8 7 13 -10 -11 -12 12 -14 -15
leaf_value=-0.0074911751819183052 0.16567158018610958 0.00094117464291282793 -0.042926106167747669 0.074285490103743551 0.1411207263333227 0.027980873640607494 -0.042104710897565407 0.11209176116333135 0.10440351414467154 0.1122159114380373 0.12734499411100592 0.069367999751671183 0.013839983183261649 0.071448769193578579
leaf_weight=214.21213731914759 268.00463050603867 4.8471882641315451 9.5877573266625387 89.752844028174877 66.203952938318253 63.547698862850666 7.8136140629649153 65.17979471385479 19.78500047326088 43.942147225141525 211.8434511423111 68.941762655973434 31.056505471467972 121.74578747153282
leaf_count=1568 521 29 73 425 181 399 59 243 78 142 658 328 194 559
internal_value=0.0900741 0.0680229 0.0517212 0.0234499 0.0811293 0.0079182 0.0676591 0.0713894 0.0471481 0.158524 0.124535 0.045255 0.0524304 0.0861418
internal_weight=1286.46 974.517 757.827 387.298 370.529 297.545 304.325 294.737 83.3327 311.947 216.691 107.812 99.9983 186.926
internal_count=5457 4794 4107 2470 1637 2045 1456 1383 477 663 687 581 522 802
is_linear=0
shrinkage=0.04


Tree=3
num_leaves=15
num_cat=0
split_feature=11 12 9 2 36 13 34 33 33 36 6 4 2 10
split_gain=755.226 456.486 321.622 150.387 143.107 131.616 115.719 54.5257 51.4455 43.5088 41.1209 55.4958 40 39.5281
threshold=1.0000000180025095e-35 1.0000000180025095e-35 1.0000000180025095e-35 0.06950000000000002 0.70833333333333348 1.0000000180025095e-35 0.26150000000000007 0.53000000000000014 0.34350000000000008 0.45000000000000007 0.12500000000000003 0.63450000000000017 0.10600000000000001 1.0000000180025095e-35
decision_type=2 2 2 2 2 2 2 2 2 2 2 2 2 2
left_child=1 2 4 -4 5 6 -1 9 12 -5 -8 13 -6 -12
right_child=-2 -3 3 7 8 -7 10 -9 -10 -11 11 -13 -14 -15
leaf_value=-0.023521327420874018 0.13635355491075885 0.11501548136462995 -0.0035652282721897765 0.022320758376473543 -0.040233851058109497 0.10995468815978328 0.078394804814670635 -0.01851820786108543 0.1246381711729099 0.069889927291573492 0.064906660411429493 -0.044425815548076723 0.086962115912547142 0.016922663885786501
leaf_weight=31.572469711303711 329.65118609368801 239.37313584983349 172.96773685514927 44.168236203491688 5.4459347054362288 68.908025458455086 91.916528731584549 16.710115887224674 95.834088183939457 110.77633848786354 90.274453535676003 9.9487851038575155 9.9693800806999189 40.561467006802559
leaf_count=235 655 681 1271 262 41 244 391 108 279 488 402 67 38 246
internal_value=0.0836699 0.0666667 0.0518722 0.0227764 0.074332 0.060883 0.0477215 0.0491864 0.113709 0.05656 0.0574469 0.0433139 0.0423127 0.050272
internal_weight=1358.08 1028.43 789.054 344.622 444.431 333.182 264.274 171.655 111.249 154.945 232.701 140.785 15.4153 130.836
internal_count=5408 4753 4072 2129 1943 1585 1341 858 358 750 1106 715 79 648
is_linear=0
shrinkage=0.04


Tree=4
num_leaves=15
num_cat=0
split_feature=11 12 1 19 18 2 1 25 32 37 5 33 1 30
split_gain=782.252 382.389 237.322 133.14 101.548 80.223 76.4348 48.8286 64.0712 51.6699 47.7799 47.3642 46.4022 42.211
threshold=1.0000000180025095e-35 1.0000000180025095e-35 0.93750000000000011 1.0000000180025095e-35 1.0000000180025095e-35 0.15650000000000003 2.5225000000000004 0.29000000000000009 0.60350000000000004 0.63333333333333341 1.0000000180025095e-35 0.34350000000000008 1.2015000000000002 0.73746867167919816
decision_type=2 2 2 2 2 2 2 2 2 2 2 2 2 2
left_child=1 2 3 5 6 -1 7 9 10 11 -9 -4 -12 -6
right_child=-2 -3 4 -5 13 -7 -8 8 -10 -11 12 -13 -14 -15
leaf_value=-0.0046538061250843048 0.12622961442532932 0.10144719862424012 0.057289910948345693 0.057169810779529817 -0.0069777337764013658 0.060203617359336124 0.097718920758308722 0.12445748875002335 0.0021707698449277232 0.072218522276098804 0.099800458464169919 -0.01528760374535329 0.046419620559785754 0.067631288490893907
leaf_weight=215.30432979017496 369.49503353238106 252.54360397160053 22.160834468901157 110.08240319043398 41.525883845984936 34.53214867413044 125.57594892382622 32.447263859212399 18.554098688066006 37.216797165572643 44.409889258444309 37.175427332520485 69.747002698481083 16.050298362970352
leaf_count=1523 643 680 107 488 279 148 376 95 101 170 153 248 321 79
internal_value=0.0761451 0.0585397 0.044966 0.0207334 0.0644809 0.004515 0.0718367 0.0590931 0.0723478 0.035911 0.0811545 0.0123188 0.0678724 0.0146203
internal_weight=1426.82 1057.33 804.782 359.919 444.863 249.836 387.287 261.711 165.158 96.5531 146.604 59.3363 114.157 57.5762
internal_count=5411 4768 4088 2159 1929 1671 1571 1195 670 525 569 355 474 358
is_linear=0
shrinkage=0.04


Tree=5
num_leaves=15
num_cat=0
split_feature=11 2 19 12 12 31 38 4 1 32 6 38 33 2
split_gain=561.961 353.723 140.329 150.013 107.985 97.8855 72.134 60.6423 55.3617 52.4989 49.6167 40.3749 39.1038 42.4394
threshold=1.0000000180025095e-35 0.06950000000000002 1.0000000180025095e-35 1.0000000180025095e-35 1.0000000180025095e-35 0.24550000000000002 0.44345000000000007 0.57900000000000007 -2.073 0.44350000000000006 0.37500000000000006 0.92475000000000007 0.46550000000000008 0.039000000000000007
decision_type=2 2 2 2 2 2 2 2 2 2 2 2 2 2
left_child=1 2 3 9 5 8 -4 -6 -3 11 -7 12 -1 -14
right_child=-2 4 6 -5 7 10 -8 -9 -10 -11 -12 -13 13 -15
leaf_value=-0.025404524187995017 0.11183081177937924 -0.01780570044098085 0.085902450750478393 0.072778015878987495 0.11129350219459229 0.10961511408133118 0.0036138250880237638 0.062608151603820592 0.055860331720592057 0.036385041324253471 0.048537694450315104 0.093465095837188414 0.055673666142373686 -0.04249537139111819
leaf_weight=148.28732219338417 397.84943090379238 16.580433711409569 69.939899101853371 47.718149468302727 144.42589744925499 88.707235887646675 22.553556457161903 63.880310565233231 396.97889507561922 39.791372060775757 31.107012346386909 4.4737384766340247 20.510634064674381 9.6067308783531171
leaf_count=1159 668 112 238 152 304 218 123 192 1672 242 128 22 120 77
internal_value=0.0710619 0.0562896 0.0238394 0.00919597 0.072113 0.0623344 0.0660905 0.0967338 0.0528711 -0.00469413 0.0942908 -0.0137816 -0.0169769 0.0240007
internal_weight=1502.41 1104.56 362.881 270.388 741.68 533.374 92.4935 208.306 413.559 222.67 119.814 182.878 178.405 30.1174
internal_count=5427 4759 2133 1772 2626 2130 361 496 1784 1620 346 1378 1356 197
is_linear=0
shrinkage=0.04


Tree=6
num_leaves=15
num_cat=0
split_feature=11 2 8 12 36 18 4 12 32 4 8 33 22 36
split_gain=512.726 278.236 159.428 113.304 109.284 73.9942 50.1257 49.9627 46.7678 46.4894 38.4135 37.5446 35.2445 34.9344
threshold=1.0000000180025095e-35 0.06950000000000002 1.0000000180025095e-35 1.0000000180025095e-35 0.45000000000000007 1.0000000180025095e-35 0.27600000000000008 1.0000000180025095e-35 0.71150000000000013 0.56550000000000011 1.0000000180025095e-35 0.45350000000000007 -0.12499999999999999 0.70833333333333348
decision_type=2 2 2 2 2 2 2 2 2 2 2 2 2 2
left_child=1 2 3 -1 7 13 -7 8 9 10 12 -5 -3 -6
right_child=-2 4 -4 11 5 6 -8 -9 -10 -11 -12 -13 -14 -15
leaf_value=-0.0019275329462012966 0.10375423116067502 -0.032362398750844082 0.073288754283330704 0.080970781696075134 0.066929346429238853 0.10597819452122632 0.010543687514062023 0.082806813420903999 0.1017400861743049 -0.021784661886891352 0.06024807842073801 -0.016441646803634542 0.03067713830446759 0.089299717031687958
leaf_weight=240.23776707053185 421.22717942297459 16.950444392859936 78.422044917941093 39.04860632121563 218.42103432118893 10.086485654115675 44.180922538042068 38.02111154794693 13.496447250247 26.374674141407013 57.927428521215916 7.1588408052921286 68.606123216450214 286.17202894389629
leaf_count=1715 656 115 257 109 741 28 242 89 37 153 218 35 342 711
internal_value=0.0660154 0.0520547 0.0231351 0.00919698 0.0655317 0.0749854 0.0298784 0.0414361 0.0324547 0.0263862 0.0353303 0.0658502 0.0179582 0.0797679
internal_weight=1566.33 1145.1 364.867 286.445 780.237 558.86 54.2674 221.376 183.355 169.859 143.484 46.2074 85.5566 504.593
internal_count=5448 4792 2116 1859 2676 1722 270 954 865 828 675 144 457 1452
is_linear=0
shrinkage=0.04


end of trees

feature_importances:
Column_1=11
Column_2=10
Column_12=8
Column_11=6
Column_36=6
Column_4=5
Column_33=5
Column_38=5
Column_3=4
Column_8=4
Column_18=4
Column_32=4
Column_37=4
Column_19=3
Column_6=2
Column_9=2
Column_22=2
Column_30=2
Column_31=2
Column_34=2
Column_5=1
Column_10=1
Column_13=1
Column_17=1
Column_20=1
Column_25=1
Column_26=1

parameters:
[boosting: gbdt]
[objective: binary]
[metric: binary_logloss]
[tree_learner: serial]
[device_type: cpu]
[data_sample_strategy: bagging]
[data: ]
[valid: ]
[num_iterations: 400]
[learning_rate: 0.04]
[num_leaves: 15]
[num_threads: 0]
[seed: 0]
[deterministic: 0]
[force_col_wise: 0]
[force_row_wise: 0]
[histogram_pool_size: -1]
[max_depth: -1]
[min_data_in_leaf: 25]
[min_sum_hessian_in_leaf: 0.001]
[bagging_fraction: 0.85]
[pos_bagging_fraction: 1]
[neg_bagging_fraction: 1]
[bagging_freq: 1]
[bagging_seed: 3]
[bagging_by_query: 0]
[feature_fraction: 0.85]
[feature_fraction_bynode: 1]
[feature_fraction_seed: 2]
[extra_trees: 0]
[extra_seed: 6]
[early_stopping_round: 0]
[early_stopping_min_delta: 0]
[first_metric_only: 0]
[max_delta_step: 0]
[lambda_l1: 0]
[lambda_l2: 1]
[linear_lambda: 0]
[min_gain_to_split: 0]
[drop_rate: 0.1]
[max_drop: 50]
[skip_drop: 0.5]
[xgboost_dart_mode: 0]
[uniform_drop: 0]
[drop_seed: 4]
[top_rate: 0.2]
[other_rate: 0.1]
[min_data_per_group: 100]
[max_cat_threshold: 32]
[cat_l2: 10]
[cat_smooth: 10]
[max_cat_to_onehot: 4]
[top_k: 20]
[monotone_constraints: ]
[monotone_constraints_method: basic]
[monotone_penalty: 0]
[feature_contri: ]
[forcedsplits_filename: ]
[refit_decay_rate: 0.9]
[cegb_tradeoff: 1]
[cegb_penalty_split: 0]
[cegb_penalty_feature_lazy: ]
[cegb_penalty_feature_coupled: ]
[path_smooth: 0]
[interaction_constraints: ]
[verbosity: -1]
[saved_feature_importance_type: 0]
[use_quantized_grad: 0]
[num_grad_quant_bins: 4]
[quant_train_renew_leaf: 0]
[stochastic_rounding: 1]
[linear_tree: 0]
[max_bin: 255]
[max_bin_by_feature: ]
[min_data_in_bin: 3]
[bin_construct_sample_cnt: 200000]
[data_random_seed: 1]
[is_enable_sparse: 1]
[enable_bundle: 1]
[use_missing: 1]
[zero_as_missing: 0]
[feature_pre_filter: 1]
[pre_partition: 0]
[two_round: 0]
[header: 0]
[label_column: ]
[weight_column: ]
[group_column: ]
[ignore_column: ]
[categorical_feature: ]
[forcedbins_filename: ]
[precise_float_parser: 0]
[parser_config_file: ]
[objective_seed: 5]
[num_class: 1]
[is_unbalance: 0]
[scale_pos_weight: 6]
[sigmoid: 1]
[boost_from_average: 1]
[reg_sqrt: 0]
[alpha: 0.9]
[fair_c: 1]
[poisson_max_delta_step: 0.7]
[tweedie_variance_power: 1.5]
[lambdarank_truncation_level: 30]
[lambdarank_norm: 1]
[label_gain: ]
[lambdarank_position_bias_regularization: 0]
[eval_at: ]
[multi_error_top_k: 1]
[auc_mu_weights: ]
[num_machines: 1]
[local_listen_port: 12400]
[time_out: 120]
[machine_list_filename: ]
[machines: ]
[gpu_platform_id: -1]
[gpu_device_id: -1]
[gpu_use_dp: 0]
[num_gpu: 1]

end of parameters

pandas_categorical:null
