tree
version=v4
num_class=1
num_tree_per_iteration=1
label_index=0
max_feature_idx=44
objective=binary sigmoid:1
feature_names=Column_0 Column_1 Column_2 Column_3 Column_4 Column_5 Column_6 Column_7 Column_8 Column_9 Column_10 Column_11 Column_12 Column_13 Column_14 Column_15 Column_16 Column_17 Column_18 Column_19 Column_20 Column_21 Column_22 Column_23 Column_24 Column_25 Column_26 Column_27 Column_28 Column_29 Column_30 Column_31 Column_32 Column_33 Column_34 Column_35 Column_36 Column_37 Column_38 Column_39 Column_40 Column_41 Column_42 Column_43 Column_44
feature_infos=none [-7.4000000000000004:4.6560000000000006] [0:0.94099999999999995] [0:1] [0:1] [0:1] [0:1] [0:1] [0:1] [0:1] [0:1] [0:1] [0:1] [0:1] [0:1] [0.25:1] [0:1] [0:1] [0:1] [-0.3666666666666667:1] [0:1] none [-1.05:1.1499999999999999] [-1:0.66666666666666663] [-0.90000000000000002:0.66666666666666663] [0:1] [0:1] [0:1] [0.0625:1] [0.45000000000000001:1] [0:1] [0.010999999999999999:1] [0.010999999999999999:1] [0.048000000000000001:1] [0.014:1] [0.028000000000000001:1] [0:1] [0:1] [0:1] [0:1] [0:1] [0:1] [0:1] [0:1] [0:1]
tree_sizes=1705 1733 1730 1743 1743 1749 1743

Tree=0
num_leaves=15
num_cat=0
split_feature=11 12 1 8 2 18 13 13 36 36 19 34 23 34
split_gain=3427.34 1610.42 940.729 600.837 375.178 164.673 148.47 133.248 112.991 67.5877 83.1181 58.048 57.8408 64.4293
threshold=1.0000000180025095e-35 1.0000000180025095e-35 2.5820000000000003 1.0000000180025095e-35 0.06950000000000002 1.0000000180025095e-35 1.0000000180025095e-35 1.0000000180025095e-35 0.45000000000000007 0.81666666666666676 1.0000000180025095e-35 0.36450000000000005 0.10000000000000002 0.31250000000000006
decision_type=2 2 2 2 2 2 2 2 2 2 2 2 2 2
left_child=1 2 3 4 -1 8 9 -5 -4 -6 11 -11 13 -8
right_child=-2 -3 5 7 6 -7 12 -9 -10 10 -12 -13 -14 -15
leaf_value=-1.8111285546138445 -1.5822638388751074 -1.6345156034855199 -1.7153466319965223 -1.7265392452928714 -1.7792142123875114 -1.8137687847401198 -1.6503372930464273 -1.6579094005129824 -1.6419296551878833 -1.6996839333117892 -1.6163164705984712 -1.7947571845592634 -1.6264028974374025 -1.7433254955802751
leaf_weight=329.82684921473265 364.53911478817463 276.12567716091871 48.984186418354511 155.66085869818926 172.59366213530302 11.611066192388533 15.60237070173025 67.247427016496658 152.03240286558867 17.779445506632328 8.2245055586099607 23.464029684662819 12.820552736520765 55.031616546213627
leaf_count=2422 934 1008 260 867 1152 86 59 276 577 87 23 164 41 325
internal_value=-1.69097 -1.72053 -1.74285 -1.76162 -1.78153 -1.66769 -1.74967 -1.70525 -1.65927 -1.76709 -1.7262 -1.75216 -1.70436 -1.72086
internal_weight=1711.54 1347 1070.88 858.251 635.343 212.628 305.516 222.908 201.017 222.062 49.468 41.2435 83.4545 70.634
internal_count=8281 7347 6339 5416 4273 923 1851 1143 837 1426 274 251 425 384
is_linear=0
shrinkage=1


Tree=1
num_leaves=15
num_cat=0
split_feature=2 18 15 20 2 1 18 37 37 30 32 37 30 38
split_gain=1556.75 524.473 450.363 317.826 260.101 187.287 159.176 156.113 125.578 124.967 117.673 102.185 99.0261 135.368
threshold=0.16050000000000003 1.0000000180025095e-35 0.62500000000000011 1.0000000180025095e-35 0.41150000000000003 1.1015000000000004 1.0000000180025095e-35 0.63333333333333341 0.77500000000000013 0.23904761904761906 0.28650000000000003 0.91666666666666685 0.69782608695652182 0.70700000000000007
decision_type=2 2 2 2 2 2 2 2 2 2 2 2 2 2
left_child=1 2 3 5 6 11 8 9 -2 -4 -11 -1 -3 -14
right_child=4 12 7 -5 -6 -7 -8 -9 -10 10 -12 -13 13 -15
leaf_value=-0.00076117386979746319 0.12045294482544958 -0.012685132390914483 0.0032326332846951693 0.10476975049147211 0.18704739929914724 0.073515733410345063 0.040944504403886299 0.1411375180967786 0.15879588283904789 -0.0015238720173708796 0.11343662648379627 0.071140996461949324 -0.015686904479556282 0.14725090460854343
leaf_weight=167.03221237659454 336.35084709525108 120.41972227394581 23.78592624515295 164.99875707924366 197.26849450916052 134.61680339276791 29.583893597126007 205.18800532817841 267.60288928449154 15.824911519885061 139.45940915495157 38.004574328660965 15.975895091891291 15.309429220855234
leaf_count=1196 1338 899 162 741 449 709 181 717 812 109 582 207 120 57
internal_value=0.105381 0.0726681 0.0843873 0.0593462 0.146219 0.0370373 0.133231 0.117035 0.137677 0.0887861 0.101786 0.0128468 0.00389675 0.0661378
internal_weight=1871.42 1040.62 888.911 504.652 830.806 339.654 633.538 384.258 603.954 179.07 155.284 205.037 151.705 31.2853
internal_count=8279 5499 4423 2853 2780 2112 2331 1570 2150 853 691 1403 1076 177
is_linear=0
shrinkage=0.04


Tree=2
num_leaves=15
num_cat=0
split_feature=11 12 1 13 19 2 18 6 36 1 16 5 32 30
split_gain=1976.68 789.565 635.697 359.955 213.768 142.987 121.427 96.791 95.0329 86.6654 67.6156 62.4972 56.4321 51.6128
threshold=1.0000000180025095e-35 1.0000000180025095e-35 2.519000000000001 1.0000000180025095e-35 1.0000000180025095e-35 0.20650000000000004 1.0000000180025095e-35 0.12500000000000003 0.45000000000000007 0.97950000000000037 1.0000000180025095e-35 0.20833333333333334 0.6755000000000001 0.23904761904761906
decision_type=2 2 2 2 2 2 2 2 2 2 2 2 2 2
left_child=1 2 3 4 5 12 8 -6 -4 10 -5 -11 -1 -10
right_child=-2 -3 6 9 7 -7 -8 -9 13 11 -12 -13 -14 -15
leaf_value=-0.00064926247451109367 0.16206802574887394 0.12477243262056892 0.066904699009818658 0.015017097583660525 0.11379985383688246 0.076236988784178158 -0.010256317394098003 0.043368095719221615 0.036392406008048564 0.12942111437172499 0.08074986771620711 0.065893142732651011 0.10560446224599343 0.13007718590935605
leaf_weight=430.56542856246233 474.41211993992329 314.4635793119669 62.031598120927811 42.165587574243546 37.864205121994019 43.955769002437592 13.487119331955908 175.64697910100222 10.870782665908335 70.893975779414177 62.664900854229927 43.632611304521561 7.1487266421318045 193.87378704547882
leaf_count=3022 955 984 294 272 144 213 101 939 55 241 278 208 29 593
internal_value=0.090889 0.0684226 0.0534998 0.0372742 0.0231136 0.00830306 0.106125 0.0563308 0.112025 0.0818432 0.0547021 0.105998 0.00132283 0.125304
internal_weight=1983.68 1509.27 1194.8 914.538 695.181 481.67 280.263 213.511 266.776 219.357 104.83 114.527 437.714 204.745
internal_count=8328 7373 6389 5346 4347 3264 1043 1083 942 999 550 449 3051 648
is_linear=0
shrinkage=0.04


Tree=3
num_leaves=15
num_cat=0
split_feature=11 12 2 19 36 3 32 32 36 2 31 31 40 28
split_gain=1339.06 661.939 474.998 255.951 154.063 147.187 83.5009 74.799 71.4256 83.5486 68.9126 65.0806 64.9985 53.4624
threshold=1.0000000180025095e-35 1.0000000180025095e-35 0.13650000000000004 1.0000000180025095e-35 0.45000000000000007 0.22750000000000001 0.38550000000000006 0.70850000000000002 0.63333333333333341 0.085500000000000007 0.27200000000000008 0.061500000000000006 1.0000000180025095e-35 0.40625000000000006
decision_type=2 2 2 2 2 2 2 2 2 2 2 2 2 2
left_child=1 2 3 5 7 12 -7 -4 9 13 11 -6 -1 -5
right_child=-2 -3 4 8 10 6 -8 -9 -10 -11 -12 -13 -14 -15
leaf_value=-0.0066037104535286578 0.13982628299478628 0.11353062381482915 0.037784326542090504 0.0010223875331492342 -0.040870612218044763 0.0081003986143346925 0.068400733597761068 0.11791354743823124 0.10546997938484655 -0.00043724818578836543 0.12612122108942458 0.087579501204831905 0.033401757302789652 0.084228488600086762
leaf_weight=292.14687126129866 503.01010793447495 348.54731678962708 144.29735527187586 14.582249149680136 5.9319841787219039 56.266605868935585 106.52234610915184 20.864280104637146 61.439723148941994 35.066874533891678 93.383365646004677 243.40949247032404 82.492341324687004 80.818840846419334
leaf_count=2099 937 988 747 88 44 374 511 65 210 211 246 930 480 342
internal_value=0.0829755 0.0648655 0.0510751 0.0303266 0.0807523 0.0161051 0.0477351 0.0485555 0.0698632 0.0524207 0.0960818 0.0843725 0.00227062 0.0716528
internal_weight=2088.78 1585.77 1237.22 729.336 507.886 537.428 162.789 165.162 191.908 130.468 342.725 249.341 374.639 95.4011
internal_count=8272 7335 6347 4315 2032 3464 885 812 851 641 1220 974 2579 430
is_linear=0
shrinkage=0.04


Tree=4
num_leaves=15
num_cat=0
split_feature=11 12 1 8 2 30 13 19 2 18 35 13 33 31
split_gain=1270.6 536.656 416.877 265.425 189.419 74.0292 71.6586 62.3815 62.1785 54.5717 52.116 49.8319 80.3255 57.3146
threshold=1.0000000180025095e-35 1.0000000180025095e-35 2.5820000000000003 1.0000000180025095e-35 0.06950000000000002 0.60232558139534886 1.0000000180025095e-35 1.0000000180025095e-35 0.32350000000000007 1.0000000180025095e-35 0.61150000000000004 1.0000000180025095e-35 0.35600000000000004 0.14350000000000002
decision_type=2 2 2 2 2 2 2 2 2 2 2 2 2 2
left_child=1 2 3 4 7 9 8 -1 -6 -4 11 12 -5 -14
right_child=-2 -3 5 10 6 -7 -8 -9 -10 -11 -12 -13 13 -15
leaf_value=-0.0071445530647315757 0.12761122721274387 0.10035721309011539 0.075265326785558501 0.088083928482854859 0.021534670973276132 0.11212617356445198 0.067920685218371135 0.049181304001429248 0.091597341907440982 -0.020194080584416328 0.019089661120190872 0.10144638083827877 0.058543693823559957 -0.0071780687181903615
leaf_weight=314.4993714466691 557.623236104846 363.49931390583515 161.79249128699303 83.389476150274277 220.97186805307865 117.1780242100358 103.89709296822548 33.945554256439209 21.497386664152145 9.7822667285799962 34.472195506095886 68.886242717504501 53.091509610414505 34.620784759521484
leaf_count=2270 923 977 571 318 1302 306 433 168 77 74 167 202 239 202
internal_value=0.0755425 0.0575691 0.0451358 0.0325077 0.0193013 0.0872666 0.0402039 -0.00153224 0.0280971 0.0697373 0.065749 0.0723442 0.0601062 0.0328143
internal_weight=2179.15 1621.52 1258.02 969.271 694.811 288.753 346.366 348.445 242.469 171.575 274.46 239.988 171.102 87.7123
internal_count=8229 7306 6329 5378 4250 951 1812 2438 1379 645 1128 961 759 441
is_linear=0
shrinkage=0.04


Tree=5
num_leaves=15
num_cat=0
split_feature=11 2 36 19 12 18 1 36 18 35 33 38 32 12
split_gain=894.098 478.608 233.105 177.903 209.14 160.862 116.04 88.6296 68.6445 64.0535 55.5727 50.1182 48.3189 49.8877
threshold=1.0000000180025095e-35 0.072000000000000008 0.45000000000000007 1.0000000180025095e-35 1.0000000180025095e-35 1.0000000180025095e-35 1.3339999999999999 0.70833333333333348 1.0000000180025095e-35 0.35050000000000003 0.35150000000000003 0.44345000000000007 0.72300000000000009 1.0000000180025095e-35
decision_type=2 2 2 2 2 2 2 2 2 2 2 2 2 2
left_child=1 3 9 4 6 7 -1 -4 -8 -3 -7 -5 13 -11
right_child=-2 2 5 11 -6 10 8 -9 -10 12 -12 -13 -14 -15
leaf_value=-0.015229330241196081 0.11278202942046678 0.0078149421343138119 0.070619747003015071 0.079815783131343396 0.072267534737434289 0.061959906474160227 0.053707198691101923 0.098775068940864644 -0.031667447342038149 0.035920640172328197 -0.0099627924077077493 0.022053097620031565 0.098207064312462206 0.090294464420587278
leaf_weight=252.11949943006039 589.79087492823601 71.957642622292042 331.97427047789097 97.301782444119453 74.691965788602829 29.9486428424716 74.607680462300777 432.6336175352335 18.10777435451746 191.57156453281641 38.136499710381031 33.081652849912643 29.837645038962364 31.282613888382912
leaf_count=1893 945 412 1199 345 225 145 367 1109 143 944 249 162 80 77
internal_value=0.0703226 0.055597 0.0701911 0.0248107 0.0120582 0.0814142 -0.00115448 0.0866589 0.0368731 0.0412433 0.0221128 0.0654393 0.0506942 0.0439225
internal_weight=2297.04 1707.25 1157.34 549.91 419.527 832.693 344.835 764.608 92.7155 324.649 68.0851 130.383 252.692 222.854
internal_count=8295 7350 4215 3135 2628 2702 2403 2308 510 1513 394 507 1101 1021
is_linear=0
shrinkage=0.04


Tree=6
num_leaves=15
num_cat=0
split_feature=11 2 36 8 12 18 12 1 32 36 4 33 1 33
split_gain=808.195 380.432 229.81 171.874 167.825 123.909 87.6107 59.5935 59.5396 44.4856 61.5197 43.5874 42.5579 36.6472
threshold=1.0000000180025095e-35 0.072000000000000008 0.45000000000000007 1.0000000180025095e-35 1.0000000180025095e-35 1.0000000180025095e-35 1.0000000180025095e-35 2.5515000000000003 0.70850000000000002 0.81666666666666676 0.77950000000000019 0.32050000000000006 -0.57149999999999956 0.48050000000000004
decision_type=2 2 2 2 2 2 2 2 2 2 2 2 2 2
left_child=1 3 6 4 7 9 8 -1 12 10 -4 -7 -3 -6
right_child=-2 2 5 -5 13 11 -8 -9 -10 -11 -12 -13 -14 -15
leaf_value=-0.0028528695247024625 0.10417378366682767 -0.034402608022761044 0.070613274410830512 0.069758551952080833 0.077629881332891656 0.068784070728209717 0.082610725848620087 0.056199021542626008 0.085551069228701065 0.087999789899527378 -0.045622060192511651 0.0017305983521910665 0.025287081677981431 -0.004255230412094144
leaf_weight=342.40989135205746 634.45377410948277 19.937299452722073 357.16769637167454 104.65315245091915 65.555841907858849 21.908091753721237 52.208547562360764 28.709965460002422 23.880749493837357 441.65470016002655 6.7961270958185187 48.201931476593018 234.71229335665703 9.9515881389379484
leaf_count=2414 951 138 1187 357 175 97 125 113 68 1096 38 301 1192 44
internal_value=0.065474 0.0514541 0.0640303 0.0238652 0.0129797 0.0747667 0.0354627 0.00185415 0.0263612 0.0792063 0.0683238 0.0233562 0.0204975 0.0669232
internal_weight=2392.2 1757.75 1206.47 551.28 446.627 875.729 330.739 371.12 278.53 805.619 363.964 70.11 254.65 75.5074
internal_count=8296 7345 4242 3103 2746 2719 1523 2527 1398 2321 1225 398 1330 219
is_linear=0
shrinkage=0.04


end of trees

feature_importances:
Column_2=10
Column_36=9
Column_1=8
Column_12=8
Column_18=8
Column_11=6
Column_32=6
Column_13=5
Column_19=5
Column_30=4
Column_33=4
Column_8=3
Column_31=3
Column_37=3
Column_34=2
Column_35=2
Column_38=2
Column_3=1
Column_4=1
Column_5=1
Column_6=1
Column_15=1
Column_16=1
Column_20=1
Column_23=1
Column_28=1
Column_40=1

parameters:
[boosting: gbdt]
[objective: binary]
[metric: binary_logloss]
[tree_learner: serial]
[device_type: cpu]
[data_sample_strategy: bagging]
[data: ]
[valid: ]
[num_iterations: 400]
[learning_rate: 0.04]
[num_leaves: 15]
[num_threads: 0]
[seed: 0]
[deterministic: 0]
[force_col_wise: 0]
[force_row_wise: 0]
[histogram_pool_size: -1]
[max_depth: -1]
[min_data_in_leaf: 25]
[min_sum_hessian_in_leaf: 0.001]
[bagging_fraction: 0.85]
[pos_bagging_fraction: 1]
[neg_bagging_fraction: 1]
[bagging_freq: 1]
[bagging_seed: 3]
[bagging_by_query: 0]
[feature_fraction: 0.85]
[feature_fraction_bynode: 1]
[feature_fraction_seed: 2]
[extra_trees: 0]
[extra_seed: 6]
[early_stopping_round: 0]
[early_stopping_min_delta: 0]
[first_metric_only: 0]
[max_delta_step: 0]
[lambda_l1: 0]
[lambda_l2: 1]
[linear_lambda: 0]
[min_gain_to_split: 0]
[drop_rate: 0.1]
[max_drop: 50]
[skip_drop: 0.5]
[xgboost_dart_mode: 0]
[uniform_drop: 0]
[drop_seed: 4]
[top_rate: 0.2]
[other_rate: 0.1]
[min_data_per_group: 100]
[max_cat_threshold: 32]
[cat_l2: 10]
[cat_smooth: 10]
[max_cat_to_onehot: 4]
[top_k: 20]
[monotone_constraints: ]
[monotone_constraints_method: basic]
[monotone_penalty: 0]
[feature_contri: ]
[forcedsplits_filename: ]
[refit_decay_rate: 0.9]
[cegb_tradeoff: 1]
[cegb_penalty_split: 0]
[cegb_penalty_feature_lazy: ]
[cegb_penalty_feature_coupled: ]
[path_smooth: 0]
[interaction_constraints: ]
[verbosity: -1]
[saved_feature_importance_type: 0]
[use_quantized_grad: 0]
[num_grad_quant_bins: 4]
[quant_train_renew_leaf: 0]
[stochastic_rounding: 1]
[linear_tree: 0]
[max_bin: 255]
[max_bin_by_feature: ]
[min_data_in_bin: 3]
[bin_construct_sample_cnt: 200000]
[data_random_seed: 1]
[is_enable_sparse: 1]
[enable_bundle: 1]
[use_missing: 1]
[zero_as_missing: 0]
[feature_pre_filter: 1]
[pre_partition: 0]
[two_round: 0]
[header: 0]
[label_column: ]
[weight_column: ]
[group_column: ]
[ignore_column: ]
[categorical_feature: ]
[forcedbins_filename: ]
[precise_float_parser: 0]
[parser_config_file: ]
[objective_seed: 5]
[num_class: 1]
[is_unbalance: 0]
[scale_pos_weight: 6]
[sigmoid: 1]
[boost_from_average: 1]
[reg_sqrt: 0]
[alpha: 0.9]
[fair_c: 1]
[poisson_max_delta_step: 0.7]
[tweedie_variance_power: 1.5]
[lambdarank_truncation_level: 30]
[lambdarank_norm: 1]
[label_gain: ]
[lambdarank_position_bias_regularization: 0]
[eval_at: ]
[multi_error_top_k: 1]
[auc_mu_weights: ]
[num_machines: 1]
[local_listen_port: 12400]
[time_out: 120]
[machine_list_filename: ]
[machines: ]
[gpu_platform_id: -1]
[gpu_device_id: -1]
[gpu_device_id_list: ]
[gpu_use_dp: 0]
[num_gpu: 1]

end of parameters

pandas_categorical:null
