tree
version=v4
num_class=1
num_tree_per_iteration=1
label_index=0
max_feature_idx=44
objective=binary sigmoid:1
feature_names=Column_0 Column_1 Column_2 Column_3 Column_4 Column_5 Column_6 Column_7 Column_8 Column_9 Column_10 Column_11 Column_12 Column_13 Column_14 Column_15 Column_16 Column_17 Column_18 Column_19 Column_20 Column_21 Column_22 Column_23 Column_24 Column_25 Column_26 Column_27 Column_28 Column_29 Column_30 Column_31 Column_32 Column_33 Column_34 Column_35 Column_36 Column_37 Column_38 Column_39 Column_40 Column_41 Column_42 Column_43 Column_44
feature_infos=none [-7.4000000000000004:4.1569999999999991] [0:0.94099999999999995] [0:0.95299999999999996] [0:1] [0:1] [0:1] [0:1] [0:1] [0:1] [0:1] [0:1] [0:1] [0:1] [0:1] [0.25:1] [0:1] [0:1] [0:1] [-0.3666666666666667:1] [0:1] none [-1.05:1.1000000000000001] [-0.83333333333333337:0.53333333333333333] none [0:1] [0:1] [0:1] [0.10416666666666674:1] [0.45000000000000001:1] [0:1] [0.010999999999999999:1] [0.010999999999999999:1] [0.048000000000000001:1] [0.014:1] [0.028000000000000001:1] [0:1] [0:1] [0.15050000000000002:0.84949999999999992] [0:1] [0:1] [0:1] [0:1] [0:1] [0:1]
tree_sizes=1700 1720 1722 1731

Tree=0
num_leaves=15
num_cat=0
split_feature=11 12 2 19 1 9 31 4 31 13 3 9 5 30
split_gain=1644.97 1044.46 509.157 147.22 122.033 68.479 66.4428 50.7068 49.7216 49.3567 48.6982 43.8256 42.0311 45.1571
threshold=1.0000000180025095e-35 1.0000000180025095e-35 0.072000000000000008 1.0000000180025095e-35 -0.26499999999999985 1.0000000180025095e-35 0.23650000000000002 0.18850000000000003 0.042500000000000003 1.0000000180025095e-35 0.19250000000000003 1.0000000180025095e-35 0.12500000000000003 0.58712121212121227
decision_type=2 2 2 2 2 2 2 2 2 2 2 2 2 2
left_child=1 2 3 6 -4 9 -1 -5 -3 -6 -9 -2 13 -7
right_child=11 8 4 7 5 12 -8 10 -10 -11 -12 -13 -14 -15
leaf_value=-1.8346816686731486 -1.5849165295414762 -1.8478422898862279 -1.7830257574423516 -1.8209330721782573 -1.7128421035706565 -1.8323433334466226 -1.6994002180090546 -1.6864486316781355 -1.6370755738236618 -1.6529764263470919 -1.7960804543225983 -1.6555227863729249 -1.7191773757642268 -1.7342301964656492
leaf_weight=153.76384288817644 149.44261310249567 1.5604449287056912 48.733895719051361 10.68304608017206 79.222589448094368 14.644175514578821 5.0414375215768805 20.645886987447742 138.63953218609095 38.651021063327789 9.9628407433629018 27.727906413376331 43.45238995552063 13.923970252275465
leaf_count=1181 365 13 321 79 405 112 22 92 490 147 68 106 227 76
internal_value=-1.70141 -1.73431 -1.76492 -1.81206 -1.72559 -1.71111 -1.82966 -1.74573 -1.63961 -1.69198 -1.72026 -1.59498 -1.74375 -1.78326
internal_weight=756.096 578.925 438.725 200.097 238.628 189.894 158.805 41.2918 140.2 117.874 30.6087 177.171 72.0205 28.5681
internal_count=3704 3233 2730 1442 1288 967 1203 239 503 552 160 471 415 188
is_linear=0
shrinkage=1


Tree=1
num_leaves=15
num_cat=0
split_feature=11 2 8 37 2 18 1 33 36 19 31 4 5 38
split_gain=1033.69 548.977 241.06 112.221 130.274 72.8929 58.2822 59.1904 50.6986 50.0453 51.3223 48.3953 44.9291 43.7395
threshold=1.0000000180025095e-35 0.063000000000000014 1.0000000180025095e-35 0.91666666666666685 0.14450000000000002 1.0000000180025095e-35 1.2015000000000002 0.45100000000000007 0.70833333333333348 1.0000000180025095e-35 0.20550000000000002 0.33850000000000002 1.0000000180025095e-35 0.46355000000000007
decision_type=2 2 2 2 2 2 2 2 2 2 2 2 2 2
left_child=1 2 9 4 6 -5 -3 -8 -6 10 -1 -9 -4 -11
right_child=-2 3 12 5 8 -7 7 11 -10 13 -12 -13 -14 -15
leaf_value=-0.00045065822415561632 0.18400816746298421 0.028060871150719046 0.031923535987046267 0.14619456201450326 0.093560410771168764 0.065042082562314127 0.1216563512549088 0.099194003769504061 0.1481126416337353 0.11111338035785191 0.1008489610461453 -0.041915513340665428 0.13820497174407426 -0.010605420824747946
leaf_weight=161.42547671496868 205.99540846049786 57.14390940964222 8.7169273942708951 139.28404769301414 76.031243830919266 22.963230639696121 29.113474071025848 5.8752567321062079 53.21992701292038 12.939333721995355 7.4191320091485968 8.055356487631796 32.907255291938782 6.8992633372545233
leaf_count=1185 470 360 54 488 361 125 119 25 180 55 32 63 125 50
internal_value=0.106429 0.0804822 0.0312886 0.109254 0.0904153 0.135178 0.0553177 0.0900443 0.116987 0.0118141 0.00456807 0.0202553 0.117219 0.0703057
internal_weight=827.989 621.994 230.307 391.686 229.439 162.247 100.188 43.0441 129.251 188.683 168.845 13.9306 41.6242 19.8386
internal_count=3692 3222 1501 1721 1108 613 567 207 541 1322 1217 88 179 105
is_linear=0
shrinkage=0.04


Tree=2
num_leaves=15
num_cat=0
split_feature=11 12 3 1 19 1 8 4 33 4 28 33 4 33
split_gain=848.131 554.357 295.547 122.687 118.6 62.7871 60.3189 50.0417 49.7837 43.894 43.2373 45.1668 41.0454 40.8855
threshold=1.0000000180025095e-35 1.0000000180025095e-35 0.21500000000000005 -0.26499999999999985 1.0000000180025095e-35 2.521500000000001 1.0000000180025095e-35 0.18850000000000003 0.45650000000000007 0.46800000000000003 0.57291666666666685 0.53700000000000014 0.71700000000000019 0.62750000000000006
decision_type=2 2 2 2 2 2 2 2 2 2 2 2 2 2
left_child=1 2 4 9 8 6 -5 -6 -1 -4 11 -10 -2 -8
right_child=12 -3 3 5 7 -7 13 -9 10 -11 -12 -13 -14 -15
leaf_value=-0.015148367028356599 0.13744855436737374 0.13082925951368279 0.040790308493796744 0.057045004770194828 -0.0071343240838320013 0.13864106842467847 0.11749833855450124 0.084321158869904891 0.099905446553055083 -0.043901261614925469 -0.024747751144513847 -0.013843332185723643 0.17637118831105575 0.025162942137047992
leaf_weight=137.66308944672346 132.64894226193428 161.04397241771221 26.811023585498333 107.16350163519382 12.201827079057692 32.687803909182549 61.552512273192406 41.058430947363377 17.294088333845142 14.152381151914595 11.918592251837252 7.7210313454270354 105.30893039703369 9.4655603319406492
leaf_count=1042 326 497 158 563 86 106 220 180 83 112 90 58 164 52
internal_value=0.0909203 0.0667911 0.0450645 0.0748442 0.011968 0.0871002 0.0769239 0.0636235 -0.004062 0.0111814 0.0365702 0.0656138 0.15534 0.105712
internal_weight=878.692 640.734 479.69 251.833 227.857 210.869 178.182 53.2603 174.597 40.9634 36.9337 25.0151 237.958 71.0181
internal_count=3737 3247 2750 1211 1539 941 835 266 1273 270 231 141 490 272
is_linear=0
shrinkage=0.04


Tree=3
num_leaves=15
num_cat=0
split_feature=2 11 8 37 18 36 37 31 33 33 36 3 31 15
split_gain=569.769 214.168 177.188 90.394 115.62 74.3243 93.8434 79.0281 57.3334 55.8011 54.4933 55.2692 51.5155 41.73
threshold=0.081500000000000017 1.0000000180025095e-35 1.0000000180025095e-35 0.63333333333333341 1.0000000180025095e-35 0.29166666666666674 0.91666666666666685 0.17250000000000001 0.46550000000000008 0.56100000000000017 1.0000000180025095e-35 0.078000000000000014 0.13850000000000004 0.87500000000000011
decision_type=2 2 2 2 2 2 2 2 2 2 2 2 2 2
left_child=2 5 3 8 10 6 12 -7 -1 -10 13 -12 -2 -5
right_child=1 -3 -4 4 -6 7 -8 -9 9 -11 11 -13 -14 -15
leaf_value=-0.011830116755277762 0.050879299807958009 0.13765487970196844 0.096764191908817382 -0.042436088164956767 -0.014619230462916064 0.077011264608334851 0.097342303361872398 0.11857929900180186 0.082048606611421687 -0.041298144106856165 -0.011211439902452006 0.10709755903845418 -0.034360600403320701 0.095089273148745046
leaf_weight=109.47223426401615 23.768873319029808 217.59092131257057 65.131895080208778 9.3328064084053022 30.467504553496838 169.07007666677237 38.590515047311783 144.97629964351654 21.550198219716552 7.234192579984664 6.9467059299349776 53.309532724320889 19.996694147586823 4.3649728521704665
leaf_count=799 123 400 237 75 232 706 132 433 102 58 49 204 139 17
internal_value=0.0832585 0.105513 0.0386691 0.022744 0.0506439 0.0875678 0.0526968 0.0965162 0.00145958 0.0507029 0.0773673 0.0934978 0.0120352 0.00487608
internal_weight=921.803 613.993 307.81 242.678 104.422 396.402 82.3561 314.046 138.257 28.7844 73.954 60.2562 43.7656 13.6978
internal_count=3706 1933 1773 1536 577 1533 394 1139 959 160 345 253 262 92
is_linear=0
shrinkage=0.04


end of trees

feature_importances:
Column_33=6
Column_4=5
Column_31=5
Column_1=4
Column_2=4
Column_11=4
Column_3=3
Column_8=3
Column_19=3
Column_36=3
Column_37=3
Column_5=2
Column_9=2
Column_12=2
Column_18=2
Column_13=1
Column_15=1
Column_28=1
Column_30=1
Column_38=1

parameters:
[boosting: gbdt]
[objective: binary]
[metric: binary_logloss]
[tree_learner: serial]
[device_type: cpu]
[data_sample_strategy: bagging]
[data: ]
[valid: ]
[num_iterations: 400]
[learning_rate: 0.04]
[num_leaves: 15]
[num_threads: 0]
[seed: 0]
[deterministic: 0]
[force_col_wise: 0]
[force_row_wise: 0]
[histogram_pool_size: -1]
[max_depth: -1]
[min_data_in_leaf: 25]
[min_sum_hessian_in_leaf: 0.001]
[bagging_fraction: 0.85]
[pos_bagging_fraction: 1]
[neg_bagging_fraction: 1]
[bagging_freq: 1]
[bagging_seed: 3]
[bagging_by_query: 0]
[feature_fraction: 0.85]
[feature_fraction_bynode: 1]
[feature_fraction_seed: 2]
[extra_trees: 0]
[extra_seed: 6]
[early_stopping_round: 0]
[early_stopping_min_delta: 0]
[first_metric_only: 0]
[max_delta_step: 0]
[lambda_l1: 0]
[lambda_l2: 1]
[linear_lambda: 0]
[min_gain_to_split: 0]
[drop_rate: 0.1]
[max_drop: 50]
[skip_drop: 0.5]
[xgboost_dart_mode: 0]
[uniform_drop: 0]
[drop_seed: 4]
[top_rate: 0.2]
[other_rate: 0.1]
[min_data_per_group: 100]
[max_cat_threshold: 32]
[cat_l2: 10]
[cat_smooth: 10]
[max_cat_to_onehot: 4]
[top_k: 20]
[monotone_constraints: ]
[monotone_constraints_method: basic]
[monotone_penalty: 0]
[feature_contri: ]
[forcedsplits_filename: ]
[refit_decay_rate: 0.9]
[cegb_tradeoff: 1]
[cegb_penalty_split: 0]
[cegb_penalty_feature_lazy: ]
[cegb_penalty_feature_coupled: ]
[path_smooth: 0]
[interaction_constraints: ]
[verbosity: -1]
[saved_feature_importance_type: 0]
[use_quantized_grad: 0]
[num_grad_quant_bins: 4]
[quant_train_renew_leaf: 0]
[stochastic_rounding: 1]
[linear_tree: 0]
[max_bin: 255]
[max_bin_by_feature: ]
[min_data_in_bin: 3]
[bin_construct_sample_cnt: 200000]
[data_random_seed: 1]
[is_enable_sparse: 1]
[enable_bundle: 1]
[use_missing: 1]
[zero_as_missing: 0]
[feature_pre_filter: 1]
[pre_partition: 0]
[two_round: 0]
[header: 0]
[label_column: ]
[weight_column: ]
[group_column: ]
[ignore_column: ]
[categorical_feature: ]
[forcedbins_filename: ]
[precise_float_parser: 0]
[parser_config_file: ]
[objective_seed: 5]
[num_class: 1]
[is_unbalance: 0]
[scale_pos_weight: 6]
[sigmoid: 1]
[boost_from_average: 1]
[reg_sqrt: 0]
[alpha: 0.9]
[fair_c: 1]
[poisson_max_delta_step: 0.7]
[tweedie_variance_power: 1.5]
[lambdarank_truncation_level: 30]
[lambdarank_norm: 1]
[label_gain: ]
[lambdarank_position_bias_regularization: 0]
[eval_at: ]
[multi_error_top_k: 1]
[auc_mu_weights: ]
[num_machines: 1]
[local_listen_port: 12400]
[time_out: 120]
[machine_list_filename: ]
[machines: ]
[gpu_platform_id: -1]
[gpu_device_id: -1]
[gpu_use_dp: 0]
[num_gpu: 1]

end of parameters

pandas_categorical:null
