tree
version=v4
num_class=1
num_tree_per_iteration=1
label_index=0
max_feature_idx=44
objective=binary sigmoid:1
feature_names=Column_0 Column_1 Column_2 Column_3 Column_4 Column_5 Column_6 Column_7 Column_8 Column_9 Column_10 Column_11 Column_12 Column_13 Column_14 Column_15 Column_16 Column_17 Column_18 Column_19 Column_20 Column_21 Column_22 Column_23 Column_24 Column_25 Column_26 Column_27 Column_28 Column_29 Column_30 Column_31 Column_32 Column_33 Column_34 Column_35 Column_36 Column_37 Column_38 Column_39 Column_40 Column_41 Column_42 Column_43 Column_44
feature_infos=none [-7.4000000000000004:4.4329999999999998] [0:0.94099999999999995] [0:1] [0:1] [0:1] [0:1] [0:1] [0:1] [0:1] [0:1] [0:1] [0:1] [0:1] [0:1] [0.25:1] [0:1] [0:1] [0:1] [-0.3666666666666667:1] [0:1] none [-1.05:1.1499999999999999] [-0.83333333333333337:0.66666666666666663] [-0.73333333333333339:0.53333333333333333] [0:1] [0:1] [0:1] [0.0625:1] [0.45000000000000001:1] [0:1] [0.010999999999999999:1] [0.010999999999999999:1] [0.048000000000000001:1] [0.014:1] [0.028000000000000001:1] [0:1] [0:1] [0:1] [0:1] [0:1] [0:1] [0:1] [0:1] [0:1]
tree_sizes=1683 1721 1722 1739 1721 1740 1733

Tree=0
num_leaves=15
num_cat=0
split_feature=11 12 2 8 1 36 26 38 1 18 30 37 4 2
split_gain=2142.92 1148 737.29 260.64 258.672 108.216 131.461 70.3839 66.3775 64.8857 63.6744 62.4235 59.0676 58.3904
threshold=1.0000000180025095e-35 1.0000000180025095e-35 0.06950000000000002 1.0000000180025095e-35 2.5795000000000008 0.45000000000000007 0.075000000000000011 0.43055000000000004 3.0100000000000007 1.0000000180025095e-35 0.19523809523809527 0.45000000000000007 0.27600000000000008 0.16900000000000001
decision_type=2 2 2 2 2 2 2 2 2 2 2 2 2 2
left_child=1 2 3 8 5 6 7 13 -1 -7 -6 -3 -11 -4
right_child=-2 11 4 -5 10 9 -8 -9 -10 12 -12 -13 -14 -15
leaf_value=-1.8151069759940552 -1.5901663442654148 -1.697001450839063 -1.8143439266557757 -1.7068893009697788 -1.8034373246989741 -1.700308166362809 -1.71926714060968 -1.8331841507019526 -1.6741403865365885 -1.6657293530911792 -1.6421301159362161 -1.6269874045170969 -1.7823917235477642 -1.6894643785866807
leaf_weight=239.12172739207745 250.70964859426022 30.539018735289574 10.984390303492548 43.696145445108414 4.2247654944658271 172.49113757908344 64.940680354833603 39.109257876873016 4.4661805778741828 7.9667004942893973 80.270542785525322 167.30070993304253 34.401661798357964 12.070758372545241
leaf_count=1766 672 148 81 222 30 859 348 304 17 31 300 576 230 55
internal_value=-1.6936 -1.72226 -1.74606 -1.79568 -1.71275 -1.72868 -1.75862 -1.80055 -1.81197 -1.7113 -1.65 -1.63716 -1.75759 -1.7466
internal_weight=1162.29 911.584 713.744 287.284 426.46 341.965 127.105 62.1644 243.588 214.859 84.4953 197.84 42.3684 23.0551
internal_count=5639 4967 4243 2005 2238 1908 788 440 1783 1120 330 724 261 136
is_linear=0
shrinkage=1


Tree=1
num_leaves=15
num_cat=0
split_feature=2 20 2 9 14 1 18 18 37 37 37 30 3 7
split_gain=1185.27 360.333 282.533 214.173 122.123 100.491 89.4493 89.3998 86.2387 83.7011 79.0026 77.1351 72.639 66.6954
threshold=0.12950000000000003 1.0000000180025095e-35 0.06950000000000002 1.0000000180025095e-35 1.0000000180025095e-35 0.63200000000000012 1.0000000180025095e-35 1.0000000180025095e-35 0.45000000000000007 0.91666666666666685 0.45000000000000007 0.67333333333333345 0.44050000000000006 0.12500000000000003
decision_type=2 2 2 2 2 2 2 2 2 2 2 2 2 2
left_child=1 2 5 4 11 -1 8 10 -5 -4 -7 -2 -8 -6
right_child=3 -3 9 6 13 7 12 -9 -10 -11 -12 -13 -14 -15
leaf_value=-0.0027416284667241757 0.1455844399011465 0.11722067348321699 0.062913748119420923 0.044696154933065363 0.15281420136717189 0.014112946314636426 -0.029195719061081673 -0.011536564176878917 0.13274993696904391 0.11918327736774656 0.083700684533730724 0.1814245543668235 0.12242694881280435 0.043415612142312592
leaf_weight=131.14186951518059 286.06840156018734 162.60931538045406 106.1698867380619 25.605024963617325 13.637398287653921 39.193671450018883 15.274837017059328 34.591534778475761 69.765848457813263 75.582356855273247 80.048097923398018 193.85619190335274 6.3646196126937857 25.990113466978073
leaf_count=952 962 683 575 147 46 268 118 261 253 304 405 478 26 150
internal_value=0.10513 0.0660382 0.0479936 0.143614 0.154745 0.0230025 0.093295 0.0448252 0.109818 0.0868378 0.0611354 0.160408 0.0188376 0.0838987
internal_weight=1265.9 629.337 466.727 636.562 519.552 284.975 117.01 153.833 95.3709 181.752 119.242 479.925 21.6395 39.6275
internal_count=5628 3448 2765 2180 1636 1886 544 934 400 879 673 1440 144 196
is_linear=0
shrinkage=0.04


Tree=2
num_leaves=15
num_cat=0
split_feature=11 12 2 19 1 3 1 36 1 9 34 3 38 4
split_gain=1253.1 614.139 376.501 211.556 179.344 111.654 70.6061 73.47 53.8167 45.4577 45.4482 76.2562 45.2854 45.0318
threshold=1.0000000180025095e-35 1.0000000180025095e-35 0.10100000000000002 1.0000000180025095e-35 2.8255000000000008 0.21500000000000005 -1.9304999999999997 0.45000000000000007 2.5015000000000005 1.0000000180025095e-35 0.36050000000000004 0.28250000000000003 0.43055000000000004 0.61150000000000004
decision_type=2 2 2 2 2 2 2 2 2 2 2 2 2 2
left_child=1 2 3 5 6 -1 -4 12 -7 10 -9 -12 -8 -11
right_child=-2 -3 4 -5 -6 8 7 9 -10 13 11 -13 -14 -15
leaf_value=-0.0063674343443521231 0.15860698970143461 0.12597504048960548 -0.026042732217530399 0.076729975532701458 0.13917763080129172 0.028686901944437848 0.067706026070758499 0.13291367748479099 0.10299770511841444 0.067996825080125667 -0.021799968615951289 0.094734928540482169 0.016440332657990542 -0.040945895358850105
leaf_weight=225.87638165056705 323.36005462706089 227.23041814565659 12.134476795792578 93.721245065331459 66.89147213101387 66.125252649188042 59.501460522413254 45.591514855623245 19.98528429120779 61.587751850485802 9.9434861987829191 68.101292014122009 52.182021751999855 6.0644919723272315
leaf_count=1640 687 711 83 435 185 414 280 143 80 303 66 272 320 45
internal_value=0.0900861 0.0681206 0.0512927 0.0243673 0.079751 0.00844263 0.0667354 0.0705247 0.046918 0.0856364 0.100295 0.0797996 0.0441116 0.0577768
internal_weight=1338.3 1014.94 787.706 405.708 381.998 311.987 315.106 302.972 86.1105 191.289 123.636 78.0448 111.683 67.6522
internal_count=5664 4977 4266 2569 1697 2134 1512 1429 494 829 481 338 600 348
is_linear=0
shrinkage=0.04


Tree=3
num_leaves=15
num_cat=0
split_feature=11 12 2 19 2 22 34 7 36 22 2 24 32 3
split_gain=813.321 482.972 311.006 177.52 147.626 70.2525 64.8603 61.8611 60.612 55.6138 53.2156 46.4416 45.5724 45.8732
threshold=1.0000000180025095e-35 1.0000000180025095e-35 0.16900000000000001 1.0000000180025095e-35 0.06950000000000002 -1.0000000180025095e-35 0.5525000000000001 0.37500000000000006 0.18333333333333332 1.0000000180025095e-35 0.11600000000000001 0.15000000000000002 0.45750000000000007 0.24500000000000002
decision_type=2 2 2 2 2 2 2 2 2 2 2 2 2 2
left_child=1 2 3 4 7 -6 -5 11 -4 -7 -11 12 -1 -14
right_child=-2 -3 8 6 5 9 -8 -9 -10 10 -12 -13 13 -15
leaf_value=-0.013646212010176538 0.13677643229438885 0.11481595736109863 0.051964616214386514 0.078794617136999409 0.002874412433713809 0.10078826167920157 -0.01209801381611123 0.096572099251720944 0.10183882465634052 0.067909871411333186 0.0095947107581468034 0.12439722680726086 -0.0013895614803454228 0.091494121870402678
leaf_weight=189.77418726682663 346.76745676994324 249.80147033929825 54.397340409457684 148.08708021044731 42.438640184700489 40.893110498785973 13.447799786925314 9.3473448604345304 177.17827318608761 63.705050602555275 41.451437175273895 3.4616080522537223 21.198437228798866 13.177687242627142
leaf_count=1433 683 707 262 617 264 138 82 43 606 313 249 11 152 62
internal_value=0.0835553 0.0661691 0.0512014 0.0356105 0.0219626 0.0482806 0.0711999 0.000913015 0.0903971 0.0613654 0.0452297 -0.00342066 -0.00593833 0.0357961
internal_weight=1415.13 1068.36 818.558 586.982 425.448 188.488 161.535 236.959 231.576 146.05 105.156 227.612 224.15 34.3761
internal_count=5622 4939 4232 3364 2665 964 699 1701 868 700 562 1658 1647 214
is_linear=0
shrinkage=0.04


Tree=4
num_leaves=15
num_cat=0
split_feature=11 12 1 19 25 2 1 37 33 38 32 1 33 22
split_gain=821.57 415.501 247.254 144.024 101.998 84.0352 55.2641 43.34 56.8047 46.769 44.8803 42.891 37.7574 36.0075
threshold=1.0000000180025095e-35 1.0000000180025095e-35 0.95550000000000013 1.0000000180025095e-35 0.29000000000000009 0.15650000000000003 2.5670000000000006 0.63333333333333341 0.33800000000000008 0.43055000000000004 0.40750000000000003 3.5050000000000008 0.54000000000000015 0.62500000000000011
decision_type=2 2 2 2 2 2 2 2 2 2 2 2 2 2
left_child=1 2 3 5 6 -1 7 8 9 -4 13 -6 -8 -9
right_child=-2 -3 4 -5 11 -7 12 10 -10 -11 -12 -13 -14 -15
leaf_value=-0.0049643751545475016 0.12606283672280152 0.10183863415710523 0.11136116988799417 0.056971553976911206 0.075344336405621617 0.059220546411359411 0.089811650196928883 -0.01177938871277058 -0.01809431053205662 0.0083767429549238617 0.082096624387417369 0.14052721288740633 -0.01166994281702167 0.10837448034598003
leaf_weight=228.67394697666168 385.95676593482494 264.40373063087463 11.324257746338846 119.10920993983746 247.1800879240036 37.049190998077393 43.95060820877552 20.452790677547458 49.195840463042259 16.922791317105293 34.375525429844856 18.016458675265312 6.4997249841690055 3.9148038178682318
leaf_count=1627 672 707 40 514 958 159 146 140 338 105 152 29 35 14
internal_value=0.0758619 0.0581666 0.0442602 0.0206201 0.0643048 0.00417326 0.0412928 0.0276885 0.00783142 0.0520592 0.0532973 0.0802839 0.0767647 0.0110353
internal_weight=1487.03 1101.07 836.665 384.832 451.833 265.723 186.636 136.186 77.4429 28.247 58.7431 265.197 50.4503 24.3676
internal_count=5636 4964 4257 2300 1957 1786 970 789 483 145 306 987 181 154
is_linear=0
shrinkage=0.04


Tree=5
num_leaves=15
num_cat=0
split_feature=11 2 12 19 12 31 6 38 4 1 38 33 33 33
split_gain=576.474 357.179 128.6 174.355 114.627 110.746 62.2046 54.8027 49.7802 49.2504 41.9377 48.9613 41.9354 41.7352
threshold=1.0000000180025095e-35 0.06950000000000002 1.0000000180025095e-35 1.0000000180025095e-35 1.0000000180025095e-35 0.24550000000000002 0.37500000000000006 0.44345000000000007 0.57900000000000007 -2.0504999999999995 0.92475000000000007 0.47700000000000004 0.48200000000000004 0.51950000000000018
decision_type=2 2 2 2 2 2 2 2 2 2 2 2 2 2
left_child=1 2 3 10 5 9 -7 -5 -6 -3 11 -1 -4 -13
right_child=-2 4 12 7 8 6 -8 -9 -10 -11 -12 13 -14 -15
leaf_value=-0.015003683106683761 0.11162397204892342 -0.010086865987346171 0.086047733998201412 0.082725632148685196 0.11019303251877005 0.11224467782941297 0.045558718050911357 0.0074958445274828436 0.067090117571632607 0.055130531768179281 0.090757065047656682 0.074126764356145236 -0.015366259891964374 -0.0083074984087764224
leaf_weight=189.87910439819098 411.31902365386486 19.111494615674019 58.650460585951805 60.92749959230423 148.30137234926224 91.834959372878075 32.125048577785492 20.946394622325897 69.510447457432747 406.5368909239769 6.2932318747043601 19.203969299793243 7.0139824151992789 18.778734497725964
leaf_count=1432 690 121 167 215 313 230 135 111 204 1718 29 103 35 134
internal_value=0.0709797 0.0563468 0.0246372 0.0139384 0.0720657 0.0621026 0.0954655 0.0638017 0.096807 0.0521855 -0.00369388 -0.00668765 0.0751471 0.0342035
internal_weight=1560.43 1149.11 381.693 316.029 767.42 549.608 123.96 81.8739 217.812 425.648 234.155 227.862 65.6644 37.9827
internal_count=5637 4947 2226 2024 2721 2204 365 326 517 1839 1698 1669 202 237
is_linear=0
shrinkage=0.04


Tree=6
num_leaves=15
num_cat=0
split_feature=11 12 2 8 13 1 38 35 27 1 36 18 30 35
split_gain=529.083 273.723 225.279 157.43 137.026 124.218 40.9349 39.7789 45.0403 39.2529 37.6062 53.8431 46.3006 42.1562
threshold=1.0000000180025095e-35 1.0000000180025095e-35 0.06950000000000002 1.0000000180025095e-35 1.0000000180025095e-35 2.7840000000000003 0.54027500000000017 0.55100000000000016 0.36666666666666675 3.0100000000000007 0.63333333333333341 1.0000000180025095e-35 0.82575757575757591 0.28150000000000003
decision_type=2 2 2 2 2 2 2 2 2 2 2 2 2 2
left_child=1 2 3 9 5 10 7 8 -7 -1 13 -12 -13 -4
right_child=-2 -3 4 -5 -6 6 -8 -9 -10 -11 11 12 -14 -15
leaf_value=-0.0033866872017276951 0.10327499010432174 0.084746806802187186 0.061774789888194771 0.069218443068185392 0.087752562066462744 0.062638304253088528 0.10398024245102866 0.095511423904767925 -0.047523308273778292 0.091956122374820273 0.068521036759028181 -0.045304419148846017 0.091156746810015024 0.0151164938439339
leaf_weight=248.17360097914934 436.07583886384964 299.58144143223763 36.102948486804962 63.506716549396515 153.73205100744963 11.949462100863459 58.885252848267555 15.42817737162113 10.01025480031967 6.1061085760593405 71.83832685649395 13.519940197467806 4.4861685931682578 195.77857337892056
leaf_count=1776 683 723 151 225 492 36 122 31 56 18 253 93 15 992
internal_value=0.0655826 0.0516846 0.0404669 0.0134091 0.0554568 0.043398 0.0831046 0.0483738 0.0125389 -0.000745938 0.0312955 0.0532035 -0.00829818 0.0226151
internal_weight=1625.17 1189.1 889.518 317.786 571.731 417.999 96.2731 37.3879 21.9597 254.28 321.726 89.8444 18.0061 231.882
internal_count=5666 4983 4260 2019 2241 1749 245 123 92 1794 1504 361 108 1143
is_linear=0
shrinkage=0.04


end of trees

feature_importances:
Column_1=12
Column_2=11
Column_12=7
Column_11=6
Column_38=6
Column_33=5
Column_37=5
Column_3=4
Column_18=4
Column_19=4
Column_36=4
Column_4=3
Column_22=3
Column_30=3
Column_7=2
Column_8=2
Column_9=2
Column_32=2
Column_34=2
Column_35=2
Column_6=1
Column_13=1
Column_14=1
Column_20=1
Column_24=1
Column_25=1
Column_26=1
Column_27=1
Column_31=1

parameters:
[boosting: gbdt]
[objective: binary]
[metric: binary_logloss]
[tree_learner: serial]
[device_type: cpu]
[data_sample_strategy: bagging]
[data: ]
[valid: ]
[num_iterations: 400]
[learning_rate: 0.04]
[num_leaves: 15]
[num_threads: 0]
[seed: 0]
[deterministic: 0]
[force_col_wise: 0]
[force_row_wise: 0]
[histogram_pool_size: -1]
[max_depth: -1]
[min_data_in_leaf: 25]
[min_sum_hessian_in_leaf: 0.001]
[bagging_fraction: 0.85]
[pos_bagging_fraction: 1]
[neg_bagging_fraction: 1]
[bagging_freq: 1]
[bagging_seed: 3]
[bagging_by_query: 0]
[feature_fraction: 0.85]
[feature_fraction_bynode: 1]
[feature_fraction_seed: 2]
[extra_trees: 0]
[extra_seed: 6]
[early_stopping_round: 0]
[early_stopping_min_delta: 0]
[first_metric_only: 0]
[max_delta_step: 0]
[lambda_l1: 0]
[lambda_l2: 1]
[linear_lambda: 0]
[min_gain_to_split: 0]
[drop_rate: 0.1]
[max_drop: 50]
[skip_drop: 0.5]
[xgboost_dart_mode: 0]
[uniform_drop: 0]
[drop_seed: 4]
[top_rate: 0.2]
[other_rate: 0.1]
[min_data_per_group: 100]
[max_cat_threshold: 32]
[cat_l2: 10]
[cat_smooth: 10]
[max_cat_to_onehot: 4]
[top_k: 20]
[monotone_constraints: ]
[monotone_constraints_method: basic]
[monotone_penalty: 0]
[feature_contri: ]
[forcedsplits_filename: ]
[refit_decay_rate: 0.9]
[cegb_tradeoff: 1]
[cegb_penalty_split: 0]
[cegb_penalty_feature_lazy: ]
[cegb_penalty_feature_coupled: ]
[path_smooth: 0]
[interaction_constraints: ]
[verbosity: -1]
[saved_feature_importance_type: 0]
[use_quantized_grad: 0]
[num_grad_quant_bins: 4]
[quant_train_renew_leaf: 0]
[stochastic_rounding: 1]
[linear_tree: 0]
[max_bin: 255]
[max_bin_by_feature: ]
[min_data_in_bin: 3]
[bin_construct_sample_cnt: 200000]
[data_random_seed: 1]
[is_enable_sparse: 1]
[enable_bundle: 1]
[use_missing: 1]
[zero_as_missing: 0]
[feature_pre_filter: 1]
[pre_partition: 0]
[two_round: 0]
[header: 0]
[label_column: ]
[weight_column: ]
[group_column: ]
[ignore_column: ]
[categorical_feature: ]
[forcedbins_filename: ]
[precise_float_parser: 0]
[parser_config_file: ]
[objective_seed: 5]
[num_class: 1]
[is_unbalance: 0]
[scale_pos_weight: 6]
[sigmoid: 1]
[boost_from_average: 1]
[reg_sqrt: 0]
[alpha: 0.9]
[fair_c: 1]
[poisson_max_delta_step: 0.7]
[tweedie_variance_power: 1.5]
[lambdarank_truncation_level: 30]
[lambdarank_norm: 1]
[label_gain: ]
[lambdarank_position_bias_regularization: 0]
[eval_at: ]
[multi_error_top_k: 1]
[auc_mu_weights: ]
[num_machines: 1]
[local_listen_port: 12400]
[time_out: 120]
[machine_list_filename: ]
[machines: ]
[gpu_platform_id: -1]
[gpu_device_id: -1]
[gpu_use_dp: 0]
[num_gpu: 1]

end of parameters

pandas_categorical:null
