tree
version=v4
num_class=1
num_tree_per_iteration=1
label_index=0
max_feature_idx=44
objective=binary sigmoid:1
feature_names=Column_0 Column_1 Column_2 Column_3 Column_4 Column_5 Column_6 Column_7 Column_8 Column_9 Column_10 Column_11 Column_12 Column_13 Column_14 Column_15 Column_16 Column_17 Column_18 Column_19 Column_20 Column_21 Column_22 Column_23 Column_24 Column_25 Column_26 Column_27 Column_28 Column_29 Column_30 Column_31 Column_32 Column_33 Column_34 Column_35 Column_36 Column_37 Column_38 Column_39 Column_40 Column_41 Column_42 Column_43 Column_44
feature_infos=none [-7.4000000000000004:4.6560000000000006] [0:0.94099999999999995] [0:1] [0:1] [0:1] [0:1] [0:1] [0:1] [0:1] [0:1] [0:1] [0:1] [0:1] [0:1] [0.25:1] [0:1] [0:1] [0:1] [-0.3666666666666667:1] [0:1] none [-1.05:1.1499999999999999] [-1:0.66666666666666663] [-0.90000000000000002:0.66666666666666663] [0:1] [0:1] [0:1] [0.0625:1] [0.45000000000000001:1] [0:1] [0.010999999999999999:1] [0.010999999999999999:1] [0.048000000000000001:1] [0.014:1] [0.028000000000000001:1] [0:1] [0:1] [0:1] [0:1] [0:1] [0:1] [0:1] [0:1] [0:1]
tree_sizes=1705 1721 1726 1737 1743 1754 1745

Tree=0
num_leaves=15
num_cat=0
split_feature=11 12 1 8 2 18 13 13 36 36 34 18 5 3
split_gain=3121.87 1488.62 874.24 609.256 370.006 159.356 133.125 130.152 115.629 81.6628 82.6685 70.5624 67.523 60.5214
threshold=1.0000000180025095e-35 1.0000000180025095e-35 2.5840000000000001 1.0000000180025095e-35 0.06950000000000002 1.0000000180025095e-35 1.0000000180025095e-35 1.0000000180025095e-35 0.45000000000000007 0.81666666666666676 0.38950000000000007 1.0000000180025095e-35 1.0000000180025095e-35 0.44700000000000006
decision_type=2 2 2 2 2 2 2 2 2 2 2 2 2 2
left_child=1 2 3 4 -1 8 -5 9 12 13 11 -11 -4 -6
right_child=-2 -3 5 6 7 -7 -8 -9 -10 10 -12 -13 -14 -15
leaf_value=-1.8154166834015133 -1.5859821929503308 -1.6373804395206355 -1.6224453005625632 -1.7274580217618658 -1.7938636366126657 -1.8164295687742342 -1.6564776424219723 -1.7087749986725733 -1.64455619006934 -1.631494874300643 -1.7789109196585797 -1.7890289090105131 -1.7467900861118999 -1.7239981229792642
leaf_weight=307.74232509732246 335.72986701130867 256.83395144343376 8.3238810002803785 150.67430970072746 135.83608704805374 11.339779913425444 62.006881654262543 79.137187480926514 144.64251187443733 17.130305826663974 23.524011522531509 6.5143416523933402 37.87969034910202 22.438287913799286
leaf_count=2271 868 939 24 834 941 84 249 406 549 57 155 44 224 121
internal_value=-1.6943 -1.72322 -1.74526 -1.76405 -1.785 -1.67106 -1.70613 -1.75221 -1.66245 -1.76936 -1.72361 -1.67218 -1.72084 -1.78347
internal_weight=1599.75 1264.02 1007.19 805.004 592.323 202.186 212.681 284.58 190.846 205.443 47.1687 23.6446 46.2036 158.274
internal_count=7766 6898 5959 5078 3995 881 1083 1724 797 1318 256 101 248 1062
is_linear=0
shrinkage=1


Tree=1
num_leaves=15
num_cat=0
split_feature=2 18 37 20 2 15 18 15 30 1 2 30 3 15
split_gain=1441.55 491.793 386.403 356.114 256.784 236.903 140.366 120.159 130.699 104.587 100.094 98.9135 96.0548 85.1599
threshold=0.16050000000000003 1.0000000180025095e-35 0.91666666666666685 1.0000000180025095e-35 0.41150000000000003 0.62500000000000011 1.0000000180025095e-35 0.62500000000000011 0.66071428571428581 1.1015000000000004 0.085500000000000007 0.69782608695652182 0.072000000000000008 0.87500000000000011
decision_type=2 2 2 2 2 2 2 2 2 2 2 2 2 2
left_child=1 2 3 5 6 9 7 8 -2 -1 -3 -12 -4 -7
right_child=4 10 12 -5 -6 13 -8 -9 -10 -11 11 -13 -14 -15
leaf_value=-0.00015867763717464985 0.092441131686399752 -0.017454527000084895 0.040287103754428698 0.11122869818639472 0.18874951534305229 0.107042162079348 0.04438781461624821 0.15597389576528517 0.15021743970236112 0.053420787741853618 0.01383488494933207 0.14135362998510054 0.13060837268755607 0.031324699425326459
leaf_weight=154.63807220757008 157.16888308525085 99.522668167948723 21.539495438337326 182.43005253374577 181.67050579190254 92.493405863642693 28.408370956778526 290.18405408412218 114.48566088080406 92.551847569644451 31.428268857300282 13.266567699611185 253.91735111922026 33.290229216217995
leaf_count=1109 730 762 131 792 409 400 170 900 379 529 213 50 970 208
internal_value=0.105573 0.0731197 0.084942 0.0655234 0.14642 0.0429303 0.133095 0.137493 0.117252 0.0200367 0.00489402 0.0539508 0.123717 0.0874077
internal_weight=1747 975.078 830.86 555.404 771.917 372.974 590.247 561.839 271.655 247.19 144.218 44.6948 275.457 125.784
internal_count=7752 5164 4139 3038 2588 2246 2179 2009 1109 1638 1025 263 1101 608
is_linear=0
shrinkage=0.04


Tree=2
num_leaves=15
num_cat=0
split_feature=11 12 1 8 13 2 18 36 1 5 13 6 5 16
split_gain=1792.03 750.698 610.851 320.975 215.559 134.481 116.866 92.8968 69.6734 74.3036 64.6031 71.1465 65.9314 60.0361
threshold=1.0000000180025095e-35 1.0000000180025095e-35 2.519000000000001 1.0000000180025095e-35 1.0000000180025095e-35 0.23600000000000002 1.0000000180025095e-35 0.45000000000000007 1.1134999999999999 0.37500000000000006 1.0000000180025095e-35 0.12500000000000003 0.12500000000000003 1.0000000180025095e-35
decision_type=2 2 2 2 2 2 2 2 2 2 2 2 2 2
left_child=1 2 3 4 5 -1 7 -4 13 -10 11 -5 -13 -6
right_child=-2 -3 6 10 8 -7 -8 -9 9 -11 -12 12 -14 -15
leaf_value=0.0032210354055571327 0.16140593985829443 0.12547909326422102 0.066467681955811569 0.12599216960541743 0.0083265372084141108 0.085056214634162047 -0.0092622765804177918 0.12607781682240135 0.12185759940586452 0.010260260626862076 0.11063043668470179 0.016931572738578201 0.072368642602463659 0.078245685217016595
leaf_weight=444.90232667326927 438.40264765918255 295.30675114691257 58.131858497858047 24.116162061691284 43.022220559418201 33.638456389307976 13.08134228736162 194.26830509305 45.947657592594624 12.22686570137739 65.601994514465332 55.232521921396255 93.098880305886269 35.588949620723724
leaf_count=3080 892 921 280 85 283 149 97 616 171 75 229 325 435 170
internal_value=0.0907896 0.0687994 0.0537409 0.037177 0.021853 0.00913892 0.106645 0.112665 0.0659439 0.0989723 0.0765304 0.0629951 0.0519778 0.0405657
internal_weight=1852.57 1414.16 1118.86 853.376 615.326 478.541 265.482 252.4 136.786 58.1745 238.05 172.448 148.331 78.6112
internal_count=7808 6916 5995 5002 3928 3229 993 896 699 246 1074 845 760 453
is_linear=0
shrinkage=0.04


Tree=3
num_leaves=15
num_cat=0
split_feature=11 12 9 36 2 2 15 36 2 23 19 32 3 31
split_gain=1175.93 619.317 438.587 247.112 177.335 86.1456 73.8526 71.2853 64.7917 63.5442 61.3224 57.0348 56.9714 56.9603
threshold=1.0000000180025095e-35 1.0000000180025095e-35 1.0000000180025095e-35 0.70833333333333348 0.06950000000000002 0.14000000000000004 0.37500000000000006 0.45000000000000007 0.091500000000000012 -1.0000000180025095e-35 1.0000000180025095e-35 0.33150000000000007 0.22000000000000003 0.12050000000000001
decision_type=2 2 2 2 2 2 2 2 2 2 2 2 2 2
left_child=1 2 3 5 -4 6 -1 13 -8 -10 12 -9 -5 -6
right_child=-2 -3 4 10 7 -7 8 11 9 -11 -12 -13 -14 -15
leaf_value=0.0066246055114915162 0.13920510096244779 0.11486855287199629 -0.00035759680454876318 0.004230889537684945 0.046836252169021896 0.07473382523402719 0.069275599243928551 0.007756622884384245 0.092127910688989248 -0.013454407622051159 0.12767261381354164 0.072669045144337849 0.097160973559241665 -0.024676015132992571
leaf_weight=71.305203258991241 465.6618824005127 328.28986349701881 247.34668677300215 13.798049025237558 37.7448520809412 249.76006443798542 130.19319140911102 25.952876351773739 11.268730133771895 34.795889861881733 130.52782480418682 138.14165641367435 45.247945465147495 32.130220018327236
leaf_count=479 878 924 1739 89 216 1040 613 168 42 221 349 624 161 221
internal_value=0.0837018 0.0663496 0.0526283 0.0731287 0.0232808 0.0581077 0.0411009 0.0481658 0.0549322 0.0137828 0.112023 0.0625118 0.0758769 0.014069
internal_weight=1962.16 1496.5 1168.21 686.897 481.316 497.323 247.563 233.97 176.258 46.0646 189.574 164.095 59.046 69.8751
internal_count=7764 6886 5962 2994 2968 2395 1355 1229 876 263 599 792 250 437
is_linear=0
shrinkage=0.04


Tree=4
num_leaves=15
num_cat=0
split_feature=11 12 1 8 2 18 19 30 2 13 32 7 31 7
split_gain=1141.57 499.597 401.284 233.433 167.08 93.9345 74.0999 65.7079 63.9916 60.07 48.8023 46.7842 44.6207 43.3751
threshold=1.0000000180025095e-35 1.0000000180025095e-35 2.519000000000001 1.0000000180025095e-35 0.06950000000000002 1.0000000180025095e-35 1.0000000180025095e-35 0.23904761904761906 0.32350000000000007 1.0000000180025095e-35 0.37850000000000006 0.20833333333333334 0.097500000000000017 0.62500000000000011
decision_type=2 2 2 2 2 2 2 2 2 2 2 2 2 2
left_child=1 2 3 4 6 7 10 -4 9 11 -1 12 -6 -5
right_child=-2 -3 5 13 8 -7 -8 -9 -10 -11 -12 -13 -14 -15
leaf_value=-0.017012586761886325 0.12729241847265133 0.10116044309280754 0.020859511094596841 0.080058250873149689 -0.01068653365780357 -0.012482582781298626 0.056596379124586538 0.097194567231449744 0.092416104844931721 0.062318933309762195 0.019692147269722904 -0.019776679040012221 0.041086527762236681 0.04623293556270152
leaf_weight=210.66995757073164 517.47243683040142 341.1082439571619 20.059435427188873 140.20829610526562 32.864063866436481 14.298415027558802 31.626160264015198 259.37174700200558 33.106679424643517 83.465740099549294 78.880529388785362 34.891372285783291 131.85304348170757 117.13807040452957
leaf_count=1586 866 911 97 531 223 104 161 788 111 362 515 236 728 516
internal_value=0.0759508 0.0585092 0.0461925 0.0328098 0.0197712 0.0867067 -0.000563392 0.0918087 0.0403637 0.033972 -0.00697997 0.0218673 0.0307547 0.0649003
internal_weight=2047.01 1529.54 1188.43 894.704 637.358 293.73 321.177 279.431 316.181 283.074 289.55 199.608 164.717 257.346
internal_count=7735 6869 5958 4969 3922 989 2262 885 1660 1549 2101 1187 951 1047
is_linear=0
shrinkage=0.04


Tree=5
num_leaves=15
num_cat=0
split_feature=11 2 36 19 12 18 1 36 32 18 12 1 37 33
split_gain=805.628 409.139 216.546 179.634 223.01 160.386 101.017 82.1589 65.3983 61.7136 56.2956 66.0639 54.1058 48.9662
threshold=1.0000000180025095e-35 0.072000000000000008 0.45000000000000007 1.0000000180025095e-35 1.0000000180025095e-35 1.0000000180025095e-35 1.3405000000000002 0.70833333333333348 0.72300000000000009 1.0000000180025095e-35 1.0000000180025095e-35 -0.57349999999999979 0.91666666666666685 0.35150000000000003
decision_type=2 2 2 2 2 2 2 2 2 2 2 2 2 2
left_child=1 3 8 4 6 7 -1 12 10 -8 11 -3 -4 -7
right_child=-2 2 5 -5 -6 13 9 -9 -10 -11 -12 -13 -14 -15
leaf_value=-0.014280427968013092 0.11258940472025498 -0.045330040527026043 0.057103596507564386 0.068338801144816316 0.076451136173727896 0.059636263804142178 0.053180187426947606 0.09854619677455434 0.098340672405115001 -0.030546810808333241 0.083428029331751863 0.033881349019888519 0.092963848062683457 -0.0092336906901933514
leaf_weight=237.05187417566776 540.47701132297516 17.348986603319645 194.0811148583889 125.26777657866478 72.280123814940453 28.339923888444901 68.047178529202938 410.74868290126324 28.259704187512398 16.989291049540043 32.914388939738274 225.04156551510096 111.02737140655518 37.278571896255016
leaf_count=1770 875 127 787 488 213 136 343 1043 79 137 86 1116 328 240
internal_value=0.0703488 0.0560604 0.0700347 0.0268024 0.0134692 0.081187 -0.000857525 0.0866708 0.0411527 0.0362919 0.0349478 0.0280489 0.070414 0.0209592
internal_weight=2145.15 1604.68 1085.04 519.636 394.368 781.476 322.088 715.857 303.565 85.0365 275.305 242.391 305.108 65.6185
internal_count=7768 6893 3942 2951 2463 2534 2250 2158 1408 480 1329 1243 1115 376
is_linear=0
shrinkage=0.04


Tree=6
num_leaves=15
num_cat=0
split_feature=11 2 36 8 12 18 12 32 1 22 33 36 4 5
split_gain=720.158 350.429 219.555 167.189 158.333 110.768 78.6761 77.241 59.6727 41.3591 39.8362 37.8519 46.5597 36.5597
threshold=1.0000000180025095e-35 0.072000000000000008 0.45000000000000007 1.0000000180025095e-35 1.0000000180025095e-35 1.0000000180025095e-35 1.0000000180025095e-35 0.72300000000000009 2.6870000000000003 -0.57499999999999984 0.35150000000000003 0.81666666666666676 0.76750000000000007 0.20833333333333334
decision_type=2 2 2 2 2 2 2 2 2 2 2 2 2 2
left_child=1 3 6 4 8 11 7 13 -1 -5 -7 12 -4 -3
right_child=-2 2 5 9 -6 10 -8 -9 -10 -11 -12 -13 -14 -15
leaf_value=-0.0015233327986331777 0.1040208833439078 0.03462603917553303 0.071913341622222446 0.09049918206032978 0.067838255376313869 0.058994523017232202 0.082699931970817389 0.09811115566099271 0.068772622213271545 0.036424285371981606 -0.0022029906009497675 0.088440156711150741 -0.021239959844625678 0.0035687298985177069
leaf_weight=327.11430533975363 587.4381767809391 137.06300640851259 330.42592556774616 63.731310501694679 70.949207723140717 30.594912864267826 48.649565905332565 21.827286824584007 19.531759887933731 37.984902784228325 36.739925183355808 417.97663153707981 8.3998862206935865 108.60301022231579
leaf_count=2298 888 679 1103 186 204 138 116 58 70 156 233 1022 42 593
internal_value=0.0659546 0.0524259 0.0648279 0.0251219 0.0138394 0.0757079 0.036316 0.0276034 0.00262392 0.0708567 0.0260597 0.0800851 0.0695483 0.0209665
internal_weight=2247.03 1659.59 1140.28 519.311 417.595 824.137 316.143 267.493 346.646 101.716 67.3348 756.802 338.826 245.666
internal_count=7786 6898 3984 2914 2572 2538 1446 1330 2368 342 371 2167 1145 1272
is_linear=0
shrinkage=0.04


end of trees

feature_importances:
Column_2=12
Column_18=9
Column_36=9
Column_1=8
Column_12=8
Column_11=6
Column_13=5
Column_5=4
Column_8=4
Column_15=4
Column_32=4
Column_3=3
Column_19=3
Column_30=3
Column_7=2
Column_31=2
Column_33=2
Column_37=2
Column_4=1
Column_6=1
Column_9=1
Column_16=1
Column_20=1
Column_22=1
Column_23=1
Column_34=1

parameters:
[boosting: gbdt]
[objective: binary]
[metric: binary_logloss]
[tree_learner: serial]
[device_type: cpu]
[data_sample_strategy: bagging]
[data: ]
[valid: ]
[num_iterations: 400]
[learning_rate: 0.04]
[num_leaves: 15]
[num_threads: 0]
[seed: 0]
[deterministic: 0]
[force_col_wise: 0]
[force_row_wise: 0]
[histogram_pool_size: -1]
[max_depth: -1]
[min_data_in_leaf: 25]
[min_sum_hessian_in_leaf: 0.001]
[bagging_fraction: 0.85]
[pos_bagging_fraction: 1]
[neg_bagging_fraction: 1]
[bagging_freq: 1]
[bagging_seed: 3]
[bagging_by_query: 0]
[feature_fraction: 0.85]
[feature_fraction_bynode: 1]
[feature_fraction_seed: 2]
[extra_trees: 0]
[extra_seed: 6]
[early_stopping_round: 0]
[early_stopping_min_delta: 0]
[first_metric_only: 0]
[max_delta_step: 0]
[lambda_l1: 0]
[lambda_l2: 1]
[linear_lambda: 0]
[min_gain_to_split: 0]
[drop_rate: 0.1]
[max_drop: 50]
[skip_drop: 0.5]
[xgboost_dart_mode: 0]
[uniform_drop: 0]
[drop_seed: 4]
[top_rate: 0.2]
[other_rate: 0.1]
[min_data_per_group: 100]
[max_cat_threshold: 32]
[cat_l2: 10]
[cat_smooth: 10]
[max_cat_to_onehot: 4]
[top_k: 20]
[monotone_constraints: ]
[monotone_constraints_method: basic]
[monotone_penalty: 0]
[feature_contri: ]
[forcedsplits_filename: ]
[refit_decay_rate: 0.9]
[cegb_tradeoff: 1]
[cegb_penalty_split: 0]
[cegb_penalty_feature_lazy: ]
[cegb_penalty_feature_coupled: ]
[path_smooth: 0]
[interaction_constraints: ]
[verbosity: -1]
[saved_feature_importance_type: 0]
[use_quantized_grad: 0]
[num_grad_quant_bins: 4]
[quant_train_renew_leaf: 0]
[stochastic_rounding: 1]
[linear_tree: 0]
[max_bin: 255]
[max_bin_by_feature: ]
[min_data_in_bin: 3]
[bin_construct_sample_cnt: 200000]
[data_random_seed: 1]
[is_enable_sparse: 1]
[enable_bundle: 1]
[use_missing: 1]
[zero_as_missing: 0]
[feature_pre_filter: 1]
[pre_partition: 0]
[two_round: 0]
[header: 0]
[label_column: ]
[weight_column: ]
[group_column: ]
[ignore_column: ]
[categorical_feature: ]
[forcedbins_filename: ]
[precise_float_parser: 0]
[parser_config_file: ]
[objective_seed: 5]
[num_class: 1]
[is_unbalance: 0]
[scale_pos_weight: 6]
[sigmoid: 1]
[boost_from_average: 1]
[reg_sqrt: 0]
[alpha: 0.9]
[fair_c: 1]
[poisson_max_delta_step: 0.7]
[tweedie_variance_power: 1.5]
[lambdarank_truncation_level: 30]
[lambdarank_norm: 1]
[label_gain: ]
[lambdarank_position_bias_regularization: 0]
[eval_at: ]
[multi_error_top_k: 1]
[auc_mu_weights: ]
[num_machines: 1]
[local_listen_port: 12400]
[time_out: 120]
[machine_list_filename: ]
[machines: ]
[gpu_platform_id: -1]
[gpu_device_id: -1]
[gpu_device_id_list: ]
[gpu_use_dp: 0]
[num_gpu: 1]

end of parameters

pandas_categorical:null
