tree
version=v4
num_class=1
num_tree_per_iteration=1
label_index=0
max_feature_idx=44
objective=binary sigmoid:1
feature_names=Column_0 Column_1 Column_2 Column_3 Column_4 Column_5 Column_6 Column_7 Column_8 Column_9 Column_10 Column_11 Column_12 Column_13 Column_14 Column_15 Column_16 Column_17 Column_18 Column_19 Column_20 Column_21 Column_22 Column_23 Column_24 Column_25 Column_26 Column_27 Column_28 Column_29 Column_30 Column_31 Column_32 Column_33 Column_34 Column_35 Column_36 Column_37 Column_38 Column_39 Column_40 Column_41 Column_42 Column_43 Column_44
feature_infos=none [-7.4000000000000004:4.4329999999999998] [0:0.94099999999999995] [0:1] [0:1] [0:1] [0:1] [0:1] [0:1] [0:1] [0:1] [0:1] [0:1] [0:1] [0:1] [0.25:1] [0:1] [0:1] [0:1] [-0.3666666666666667:1] [0:1] none [-1.05:1.1499999999999999] [-0.83333333333333337:0.66666666666666663] [-0.73333333333333339:0.53333333333333333] [0:1] [0:1] [0:1] [0.0625:1] [0.45000000000000001:1] [0:1] [0.010999999999999999:1] [0.010999999999999999:1] [0.048000000000000001:1] [0.014:1] [0.028000000000000001:1] [0:1] [0:1] [0:1] [0:1] [0:1] [0:1] [0:1] [0:1] [0:1]
tree_sizes=1687 1726 1722 1727 1728 1738 1746

Tree=0
num_leaves=15
num_cat=0
split_feature=11 12 2 1 8 36 26 1 38 18 37 4 1 2
split_gain=2219.04 1183.8 713.635 291.23 276.146 114.336 126.074 89.9807 72.0936 65.2532 60.6887 60.3199 58.7604 58.3199
threshold=1.0000000180025095e-35 1.0000000180025095e-35 0.06950000000000002 2.5805000000000002 1.0000000180025095e-35 0.45000000000000007 0.075000000000000011 3.0235000000000003 0.43055000000000004 1.0000000180025095e-35 0.45000000000000007 0.27600000000000008 -2.0819999999999994 0.16900000000000001
decision_type=2 2 2 2 2 2 2 2 2 2 2 2 2 2
left_child=1 2 4 5 7 6 8 -1 13 12 -3 -11 -7 -4
right_child=-2 10 3 -5 -6 9 -8 -9 -10 11 -12 -13 -14 -15
leaf_value=-1.811815217265534 -1.5881314354881442 -1.6932121237587738 -1.8123661599864316 -1.6479233293507214 -1.7026437889050814 -1.7917171458300465 -1.7214475985719608 -1.6589720678273117 -1.8318447582121882 -1.6639438189030715 -1.625132025050595 -1.7814836325939187 -1.693925288527919 -1.6876569541602748
leaf_weight=248.5406928062439 259.66216349601746 31.672014355659485 11.000585138797762 91.389476537704468 46.178280472755432 10.879699587821959 68.78387850522995 5.3189642429351798 40.254888474941254 7.9784463644027701 172.62456679344177 34.935924232006073 164.8878915309906 12.088555097579954
leaf_count=1826 693 152 81 356 232 75 374 19 313 31 593 234 804 55
internal_value=-1.69159 -1.72018 -1.74381 -1.71155 -1.79151 -1.72854 -1.75854 -1.80803 -1.79957 -1.71073 -1.63507 -1.75681 -1.69984 -1.74472
internal_weight=1206.2 946.534 742.237 442.199 300.038 350.81 132.128 253.86 63.344 218.682 204.297 42.9144 175.768 23.0891
internal_count=5838 5145 4400 2323 2077 1967 823 1845 449 1144 745 265 879 136
is_linear=0
shrinkage=1


Tree=1
num_leaves=15
num_cat=0
split_feature=2 20 17 9 37 2 14 2 17 4 15 7 38 30
split_gain=1196.14 361.177 363.453 247.318 174.307 153.63 139.035 133.326 107.838 76.0673 75.0536 74.3162 72.4319 68.7414
threshold=0.12950000000000003 1.0000000180025095e-35 1.0000000180025095e-35 1.0000000180025095e-35 0.63333333333333341 0.035500000000000011 1.0000000180025095e-35 0.06950000000000002 1.0000000180025095e-35 0.87050000000000016 0.62500000000000011 0.12500000000000003 0.72625000000000017 0.64852941176470602
decision_type=2 2 2 2 2 2 2 2 2 2 2 2 2 2
left_child=1 2 7 6 -4 -6 9 -1 -5 13 -10 -8 -13 -2
right_child=3 -3 4 8 5 -7 11 -9 10 -11 -12 12 -14 -15
leaf_value=-0.0098580451549298009 0.13779576795531567 0.11721614356236409 0.046264873139333036 0.029102610478082384 0.037153427127825593 0.13686332380227975 0.15427652193502961 0.05520901955636566 0.064607974689760567 0.20691501983819496 0.14430650374359183 6.2837670704861585e-05 0.14354018578318414 0.17268709993292342
leaf_weight=150.49824158847332 237.34286513924599 168.42600849270821 122.84871564805508 34.314214207231998 33.752175450325012 102.05845798552036 13.529958307743071 74.569028973579407 33.7012839615345 59.423015810549259 51.723262012004852 20.283194534480575 6.7929836437106124 202.72115284949541
leaf_count=1124 840 705 722 217 206 371 45 428 176 105 170 136 22 546
internal_value=0.105431 0.0668512 0.0491092 0.143402 0.0813602 0.112536 0.155032 0.0118488 0.0900956 0.160893 0.113976 0.0807952 0.0398895 0.154224
internal_weight=1311.98 652.153 483.727 659.832 258.659 135.811 540.093 225.067 119.739 499.487 85.4245 40.6061 27.0762 440.064
internal_count=5813 3556 2851 2257 1299 577 1694 1552 563 1491 346 203 158 1386
is_linear=0
shrinkage=0.04


Tree=2
num_leaves=15
num_cat=0
split_feature=11 12 1 8 2 2 32 36 22 4 19 4 4 9
split_gain=1277.6 634.456 402.855 285.525 177.597 93.4421 72.0198 69.1709 50.7163 44.3617 43.6882 50.6682 55.9238 42.4356
threshold=1.0000000180025095e-35 1.0000000180025095e-35 2.5015000000000005 1.0000000180025095e-35 0.088500000000000009 0.39600000000000007 0.57650000000000012 0.45000000000000007 0.27500000000000008 0.63800000000000012 1.0000000180025095e-35 0.20700000000000005 0.29250000000000004 1.0000000180025095e-35
decision_type=2 2 2 2 2 2 2 2 2 2 2 2 2 2
left_child=1 2 3 4 10 7 -4 -6 -3 -5 -1 -12 -13 -2
right_child=13 8 6 9 5 -7 -8 -9 -10 -11 11 12 -14 -15
leaf_value=-0.0026848897434858039 0.16426834104983926 0.13522296180141996 0.093967659927820565 0.087150266580457547 0.0079885997594280281 0.14845102783144412 0.16155010246696871 0.059916979437243729 0.083940306867130304 0.019080807046424481 -0.041482820631812078 0.13696557242794638 0.012820444776016267 0.11785021278925646
leaf_weight=261.50063935667276 286.50165492296219 190.89106647670269 98.75396341085434 167.83662315458059 60.569096222519875 13.867713704705237 38.010498471558094 128.58205502480268 44.619394183158875 17.559810563921928 7.0772511661052731 10.970235824584963 11.71733735501766 49.607570648193359
leaf_count=1882 556 551 393 718 394 36 86 649 181 100 54 38 73 154
internal_value=0.0899446 0.068139 0.0513428 0.0386292 0.0226655 0.0512852 0.113787 0.0434182 0.125903 0.08084 0.00260961 0.0477001 0.076097 0.157787
internal_weight=1388.06 1051.96 816.445 679.681 494.284 203.019 136.764 189.151 235.51 185.396 291.265 29.7648 22.6876 336.109
internal_count=5865 5155 4423 3944 3126 1079 479 1043 732 818 2047 165 111 710
is_linear=0
shrinkage=0.04


Tree=3
num_leaves=15
num_cat=0
split_feature=11 12 9 36 2 13 34 6 32 32 4 31 36 22
split_gain=833.178 509.334 325.082 170.038 151.979 147.955 125.409 57.4573 48.2683 48.4504 47.6018 46.2297 44.8522 43.647
threshold=1.0000000180025095e-35 1.0000000180025095e-35 1.0000000180025095e-35 0.70833333333333348 0.06950000000000002 1.0000000180025095e-35 0.26150000000000007 0.12500000000000003 0.6625000000000002 0.5335000000000002 0.63450000000000017 0.10250000000000001 0.45000000000000007 1.0000000180025095e-35
decision_type=2 2 2 2 2 2 2 2 2 2 2 2 2 2
left_child=1 2 3 5 -4 6 -1 8 9 11 -9 -8 -6 -5
right_child=-2 -3 4 13 12 -7 7 10 -10 -11 -12 -13 -14 -15
leaf_value=-0.025416688512324717 0.13680434970895172 0.11555092946883946 -0.001556198455536194 0.12380618771710131 0.01764131547664697 0.1088539839188941 -0.014568224590290689 0.045315437598954456 0.1519544877630308 -0.019791295385559231 -0.043512319228742151 0.086763736182149637 0.062337693759845783 0.046115110829676516
leaf_weight=34.271101340651512 359.36808833479881 260.23707568645477 191.24417918175459 104.58928173035383 51.286457434296608 75.443773992359638 7.698603391647338 140.23153620958328 12.324153974652289 8.8330017402768117 9.5860542282462102 72.025267474353313 127.33074653148651 14.781829178333281
leaf_count=254 702 730 1374 304 319 265 53 702 23 54 69 294 599 76
internal_value=0.083872 0.0666254 0.0515218 0.0732215 0.0232515 0.0592213 0.0457466 0.0555372 0.0789085 0.0671597 0.039381 0.0769193 0.0496737 0.114649
internal_weight=1469.25 1109.88 849.646 479.785 369.861 360.413 284.97 250.699 100.881 88.5569 149.818 79.7239 178.617 119.371
internal_count=5818 5116 4386 2094 2292 1714 1449 1195 424 401 771 347 918 380
is_linear=0
shrinkage=0.04


Tree=4
num_leaves=15
num_cat=0
split_feature=11 12 1 19 1 7 2 5 31 30 30 26 1 1
split_gain=832.342 387.293 267.372 148.805 112.184 91.8763 73.0422 49.4179 44.7798 42.3831 41.9184 41.491 35.6686 60.9384
threshold=1.0000000180025095e-35 1.0000000180025095e-35 0.91450000000000042 1.0000000180025095e-35 2.5805000000000002 1.0000000180025095e-35 0.15650000000000003 1.0000000180025095e-35 0.18450000000000003 0.30217391304347835 0.19523809523809527 0.35833333333333334 0.8244999999999999 0.85649999999999993
decision_type=2 2 2 2 2 2 2 2 2 2 2 2 2 2
left_child=1 2 3 6 5 -4 9 -7 -5 -1 -6 -9 -11 -14
right_child=-2 -3 4 8 10 7 -8 11 -10 12 -12 -13 13 -15
leaf_value=-0.027936795595215426 0.12591744218003548 0.10047605557239693 0.031054187919532277 0.067749866416259658 0.0075493988575929625 0.11044030632405091 0.05682160379637325 0.066919778194020299 -0.0039406233055323796 0.0018553054803322855 0.10184759132864285 -0.0093294446561484733 0.12389014365494198 -0.039480662384974205
leaf_weight=77.194820806384087 399.51205126941204 271.4665060043335 163.90861429274082 102.00409770011902 8.1868771165609342 42.83426621556282 35.680902592837811 129.680918186903 15.999476313591002 142.05940326303244 128.35996311903 12.261491775512694 9.0898416638374311 5.1157952919602385
leaf_count=587 690 731 945 425 41 134 157 549 91 973 367 71 35 40
internal_value=0.0762267 0.0587763 0.0456999 0.0208306 0.0654583 0.0531438 0.00434496 0.072466 0.0580783 -0.00388347 0.0962898 0.0603139 0.00810094 0.0663291
internal_weight=1543.36 1143.84 872.376 387.144 485.232 348.685 269.141 184.777 118.004 233.46 136.547 141.942 156.265 14.2056
internal_count=5836 5146 4415 2308 2107 1699 1792 754 516 1635 408 620 1048 75
is_linear=0
shrinkage=0.04


Tree=5
num_leaves=15
num_cat=0
split_feature=11 2 19 12 12 31 38 1 36 4 19 37 18 35
split_gain=609.209 371.975 142.533 153.842 123.68 119.254 71.0017 70.128 56.4553 52.1219 46.5175 41.9921 43.0466 57.6333
threshold=1.0000000180025095e-35 0.06950000000000002 1.0000000180025095e-35 1.0000000180025095e-35 1.0000000180025095e-35 0.24550000000000002 0.44345000000000007 3.0235000000000003 0.63333333333333341 0.57900000000000007 1.0000000180025095e-35 0.81666666666666676 1.0000000180025095e-35 0.59850000000000014
decision_type=2 2 2 2 2 2 2 2 2 2 2 2 2 2
left_child=1 2 3 7 5 11 -4 -1 10 -6 -7 -3 -13 -14
right_child=-2 4 6 -5 9 8 -8 -9 -10 -11 -12 12 13 -15
leaf_value=-0.0066656780401949233 0.11179496136854512 0.041915137770148797 0.085597553788641659 0.072981159807767357 0.11064154862092471 0.10161551038596706 0.0074609273090264884 0.10319432900741467 0.12273449438196869 0.06761990859108323 0.033692843868568828 0.079101895344046658 0.0055543042567702322 0.13411568335993015
leaf_weight=239.26240576803684 430.89401663839817 277.65069005638361 73.564494222402573 51.432895109057426 153.78285349905491 32.524153679609299 25.065288096666336 8.671514227986334 63.873411238193512 73.148463398218155 33.979370549321175 125.56862833350897 31.026770271360874 5.8284458220005027
leaf_count=1733 716 1281 247 161 324 99 132 22 129 213 154 443 183 15
internal_value=0.0710118 0.0562297 0.024562 0.0107307 0.0719853 0.0618294 0.0660145 -0.0024242 0.0955064 0.0971316 0.0679243 0.0516584 0.0679552 0.0288913
internal_weight=1626.27 1195.38 397.997 299.367 797.383 570.451 98.6298 247.934 130.377 226.931 66.5035 440.075 162.424 36.8552
internal_count=5852 5136 2295 1916 2841 2304 379 1755 382 537 253 1922 641 198
is_linear=0
shrinkage=0.04


Tree=6
num_leaves=15
num_cat=0
split_feature=11 2 8 36 12 25 18 12 23 13 36 13 33 23
split_gain=548.989 286.474 170.334 121.997 95.2364 77.2704 74.21 59.5474 52.8877 49.9294 45.7915 71.3185 43.8109 50.3258
threshold=1.0000000180025095e-35 0.06950000000000002 1.0000000180025095e-35 0.29166666666666674 1.0000000180025095e-35 0.41500000000000009 1.0000000180025095e-35 1.0000000180025095e-35 -0.28333333333333327 1.0000000180025095e-35 0.70833333333333348 1.0000000180025095e-35 0.47700000000000004 -0.28333333333333327
decision_type=2 2 2 2 2 2 2 2 2 2 2 2 2 2
left_child=1 2 4 7 12 6 8 -3 -5 -8 11 -7 -1 -14
right_child=-2 3 -4 5 -6 10 9 -9 -10 -11 -12 -13 13 -15
leaf_value=-0.0067173583969701578 0.10337620896168094 0.024666150230609335 0.074128087760773495 -0.023981891444572478 0.06138573029227027 0.052350689480765315 -0.028561260274055533 0.084108104355402918 0.069120142152394981 0.061892808622114756 0.097932506517200563 0.10797834953933803 0.12265273052988838 0.015512351505788778
leaf_weight=220.62698164582253 452.03505985438824 148.36175592988729 83.559057518839836 9.7643187046051008 47.968128100037575 128.9028232768178 25.092029362916946 32.442111358046532 212.05869135260582 14.611342340707777 205.91008315980434 53.542623162269592 7.7379568740725508 37.611145667731762
leaf_count=1577 701 741 269 54 151 478 161 75 702 64 470 132 29 235
internal_value=0.0656835 0.0517379 0.023729 0.0650962 0.010122 0.0731971 0.0559544 0.0357359 0.0649327 0.00542974 0.0846351 0.0691755 0.00068147 0.0360457
internal_weight=1680.22 1228.19 397.503 830.686 313.944 649.882 261.526 180.804 221.823 39.7034 388.356 182.445 265.976 45.3491
internal_count=5839 5138 2261 2877 1992 2061 981 816 756 225 1080 610 1841 264
is_linear=0
shrinkage=0.04


end of trees

feature_importances:
Column_2=11
Column_1=9
Column_12=8
Column_4=7
Column_36=7
Column_11=6
Column_19=4
Column_8=3
Column_9=3
Column_13=3
Column_18=3
Column_30=3
Column_31=3
Column_32=3
Column_37=3
Column_38=3
Column_7=2
Column_17=2
Column_22=2
Column_23=2
Column_26=2
Column_5=1
Column_6=1
Column_14=1
Column_15=1
Column_20=1
Column_25=1
Column_33=1
Column_34=1
Column_35=1

parameters:
[boosting: gbdt]
[objective: binary]
[metric: binary_logloss]
[tree_learner: serial]
[device_type: cpu]
[data_sample_strategy: bagging]
[data: ]
[valid: ]
[num_iterations: 400]
[learning_rate: 0.04]
[num_leaves: 15]
[num_threads: 0]
[seed: 0]
[deterministic: 0]
[force_col_wise: 0]
[force_row_wise: 0]
[histogram_pool_size: -1]
[max_depth: -1]
[min_data_in_leaf: 25]
[min_sum_hessian_in_leaf: 0.001]
[bagging_fraction: 0.85]
[pos_bagging_fraction: 1]
[neg_bagging_fraction: 1]
[bagging_freq: 1]
[bagging_seed: 3]
[bagging_by_query: 0]
[feature_fraction: 0.85]
[feature_fraction_bynode: 1]
[feature_fraction_seed: 2]
[extra_trees: 0]
[extra_seed: 6]
[early_stopping_round: 0]
[early_stopping_min_delta: 0]
[first_metric_only: 0]
[max_delta_step: 0]
[lambda_l1: 0]
[lambda_l2: 1]
[linear_lambda: 0]
[min_gain_to_split: 0]
[drop_rate: 0.1]
[max_drop: 50]
[skip_drop: 0.5]
[xgboost_dart_mode: 0]
[uniform_drop: 0]
[drop_seed: 4]
[top_rate: 0.2]
[other_rate: 0.1]
[min_data_per_group: 100]
[max_cat_threshold: 32]
[cat_l2: 10]
[cat_smooth: 10]
[max_cat_to_onehot: 4]
[top_k: 20]
[monotone_constraints: ]
[monotone_constraints_method: basic]
[monotone_penalty: 0]
[feature_contri: ]
[forcedsplits_filename: ]
[refit_decay_rate: 0.9]
[cegb_tradeoff: 1]
[cegb_penalty_split: 0]
[cegb_penalty_feature_lazy: ]
[cegb_penalty_feature_coupled: ]
[path_smooth: 0]
[interaction_constraints: ]
[verbosity: -1]
[saved_feature_importance_type: 0]
[use_quantized_grad: 0]
[num_grad_quant_bins: 4]
[quant_train_renew_leaf: 0]
[stochastic_rounding: 1]
[linear_tree: 0]
[max_bin: 255]
[max_bin_by_feature: ]
[min_data_in_bin: 3]
[bin_construct_sample_cnt: 200000]
[data_random_seed: 1]
[is_enable_sparse: 1]
[enable_bundle: 1]
[use_missing: 1]
[zero_as_missing: 0]
[feature_pre_filter: 1]
[pre_partition: 0]
[two_round: 0]
[header: 0]
[label_column: ]
[weight_column: ]
[group_column: ]
[ignore_column: ]
[categorical_feature: ]
[forcedbins_filename: ]
[precise_float_parser: 0]
[parser_config_file: ]
[objective_seed: 5]
[num_class: 1]
[is_unbalance: 0]
[scale_pos_weight: 6]
[sigmoid: 1]
[boost_from_average: 1]
[reg_sqrt: 0]
[alpha: 0.9]
[fair_c: 1]
[poisson_max_delta_step: 0.7]
[tweedie_variance_power: 1.5]
[lambdarank_truncation_level: 30]
[lambdarank_norm: 1]
[label_gain: ]
[lambdarank_position_bias_regularization: 0]
[eval_at: ]
[multi_error_top_k: 1]
[auc_mu_weights: ]
[num_machines: 1]
[local_listen_port: 12400]
[time_out: 120]
[machine_list_filename: ]
[machines: ]
[gpu_platform_id: -1]
[gpu_device_id: -1]
[gpu_use_dp: 0]
[num_gpu: 1]

end of parameters

pandas_categorical:null
