tree
version=v4
num_class=1
num_tree_per_iteration=1
label_index=0
max_feature_idx=44
objective=binary sigmoid:1
feature_names=Column_0 Column_1 Column_2 Column_3 Column_4 Column_5 Column_6 Column_7 Column_8 Column_9 Column_10 Column_11 Column_12 Column_13 Column_14 Column_15 Column_16 Column_17 Column_18 Column_19 Column_20 Column_21 Column_22 Column_23 Column_24 Column_25 Column_26 Column_27 Column_28 Column_29 Column_30 Column_31 Column_32 Column_33 Column_34 Column_35 Column_36 Column_37 Column_38 Column_39 Column_40 Column_41 Column_42 Column_43 Column_44
feature_infos=none [-7.4000000000000004:4.6560000000000006] [0:0.94099999999999995] [0:1] [0:1] [0:1] [0:1] [0:1] [0:1] [0:1] [0:1] [0:1] [0:1] [0:1] [0:1] [0.25:1] [0:1] [0:1] [0:1] [-0.3666666666666667:1] [0:1] none [-1.05:1.1499999999999999] [-1:0.66666666666666663] [-0.90000000000000002:0.66666666666666663] [0:1] [0:1] [0:1] [0.0625:1] [0.45000000000000001:1] [0:1] [0.010999999999999999:1] [0.010999999999999999:1] [0.048000000000000001:1] [0.014:1] [0.028000000000000001:1] [0:1] [0:1] [0:1] [0:1] [0:1] [0:1] [0:1] [0:1] [0:1]
tree_sizes=1703 1721 1733 1736 1741 1748 1742

Tree=0
num_leaves=15
num_cat=0
split_feature=11 12 1 8 2 18 13 13 36 36 34 33 18 3
split_gain=3146.53 1498.32 887.298 610.243 369.051 158.07 133.114 130.19 126.039 81.9053 81.3962 70.0282 69.2774 61.1587
threshold=1.0000000180025095e-35 1.0000000180025095e-35 2.5805000000000002 1.0000000180025095e-35 0.06950000000000002 1.0000000180025095e-35 1.0000000180025095e-35 1.0000000180025095e-35 0.45000000000000007 0.81666666666666676 0.38950000000000007 0.58200000000000007 1.0000000180025095e-35 0.44700000000000006
decision_type=2 2 2 2 2 2 2 2 2 2 2 2 2 2
left_child=1 2 3 4 -1 8 -5 9 11 13 12 -4 -11 -6
right_child=-2 -3 5 6 7 -7 -8 -9 -10 10 -12 -13 -14 -15
leaf_value=-1.8149964399314518 -1.5854095524854954 -1.6368419265587326 -1.7007506738743547 -1.7271878968519339 -1.7935926037398264 -1.8158032106135704 -1.6563133056945649 -1.7086509000013241 -1.6442160950646534 -1.6324544421733524 -1.778302318492774 -1.827333500775929 -1.7884123749206116 -1.7234139620753328
leaf_weight=309.33422479778528 337.57620538026094 258.04001766443253 38.862902715802193 151.10669033229351 136.62362153828144 11.345071062445639 62.156505726277828 79.415496900677681 148.21007569134235 17.258990876376632 23.534987784922123 8.2070726901292783 6.5173812359571448 22.448757499456406
leaf_count=2283 872 943 192 837 947 84 250 408 563 58 155 63 44 121
internal_value=-1.69387 -1.72279 -1.74479 -1.76381 -1.7847 -1.67097 -1.7059 -1.75202 -1.66258 -1.76912 -1.72336 -1.72268 -1.67253 -1.7832
internal_weight=1610.64 1273.06 1015.02 808.397 595.133 206.625 213.263 285.799 195.28 206.384 47.3114 47.07 23.7764 159.072
internal_count=7820 6948 6005 5103 4016 902 1087 1733 818 1325 257 255 102 1068
is_linear=0
shrinkage=1


Tree=1
num_leaves=15
num_cat=0
split_feature=2 18 37 20 2 1 18 15 30 2 30 3 30 2
split_gain=1466.31 494.824 416.271 349.483 242.753 235.355 147.06 121.109 124.298 96.9451 101.393 95.9239 82.9164 78.716
threshold=0.16050000000000003 1.0000000180025095e-35 0.91666666666666685 1.0000000180025095e-35 0.41150000000000003 1.0854999999999999 1.0000000180025095e-35 0.62500000000000011 0.66071428571428581 0.085500000000000007 0.69782608695652182 0.072000000000000008 0.36602870813397131 0.051500000000000011
decision_type=2 2 2 2 2 2 2 2 2 2 2 2 2 2
left_child=1 2 3 5 6 12 7 8 -2 -3 -11 -4 -1 -14
right_child=4 9 11 -5 -6 -7 -8 -9 -10 10 -12 -13 13 -15
leaf_value=-0.018192226662378415 0.094258828927352822 -0.017396113792082082 0.040944878332032232 0.10995154518393944 0.18806693777883765 0.079497913565727343 0.043606337633341971 0.15694065231876675 0.14997928867786955 0.012674018379118713 0.14131066053502031 0.13152540849698269 0.0071430056404547604 0.067573195716796375
leaf_weight=76.497422575950623 160.22723844647408 99.311633236706257 21.375887334346771 182.39545135200024 181.1789089217782 156.5218447893858 28.661994412541389 292.31435038149357 118.26110066473484 32.059282645583153 13.269663266837595 257.9691813737154 79.917983055114746 60.032459124922752
leaf_count=581 739 760 130 797 410 795 172 899 391 218 50 980 555 320
internal_value=0.105803 0.0730832 0.084906 0.064669 0.146706 0.0422894 0.133913 0.138364 0.118373 0.00474055 0.0525686 0.124765 0.0151407 0.0333603
internal_weight=1759.99 979.351 834.71 555.365 780.644 372.97 599.465 570.803 278.488 144.641 45.3289 279.345 216.448 139.95
internal_count=7797 5186 4158 3048 2611 2251 2201 2029 1130 1028 268 1110 1456 875
is_linear=0
shrinkage=0.04


Tree=2
num_leaves=15
num_cat=0
split_feature=11 12 1 13 19 2 18 1 6 36 5 16 32 36
split_gain=1816.31 752.989 606.087 317.528 222.373 140.882 117.205 108.566 107.447 97.4962 79.1951 70.8417 56.9368 49.8494
threshold=1.0000000180025095e-35 1.0000000180025095e-35 2.519000000000001 1.0000000180025095e-35 1.0000000180025095e-35 0.20650000000000004 1.0000000180025095e-35 1.0085000000000004 0.12500000000000003 0.45000000000000007 0.37500000000000006 1.0000000180025095e-35 0.6755000000000001 0.91666666666666685
decision_type=2 2 2 2 2 2 2 2 2 2 2 2 2 2
left_child=1 2 3 4 5 12 9 11 -6 -4 -9 -5 -1 -10
right_child=-2 -3 6 7 8 -7 -8 10 13 -11 -12 -13 -14 -15
leaf_value=-0.0014189356590945609 0.16163547913040194 0.12569636571061973 0.064918577457135626 0.0074857693699004121 0.11970544898949276 0.077080057799822521 -0.0095966470197412102 0.12630192397894013 0.036631877023946886 0.12535950132187462 0.041301785367429601 0.077261209430823929 0.10528291096069879 0.10959090533882604
leaf_weight=401.09897141903639 442.48666441440582 294.96209895610809 58.916302755475044 39.368458300828934 36.496334850788116 41.686698660254478 13.207441799342631 84.570724301040173 152.87350492179394 199.18612897396088 23.663896061480045 56.814151704311371 7.1639669686555854 16.048656672239304
leaf_count=2830 900 921 284 262 134 198 98 294 841 632 123 258 29 60
internal_value=0.0908785 0.0688257 0.0538972 0.0373708 0.0237258 0.00793718 0.10594 0.0807887 0.0581032 0.111867 0.108266 0.0490724 0.000706083 0.0441676
internal_weight=1868.54 1426.06 1131.1 859.785 655.368 449.95 271.31 204.417 205.418 258.102 108.235 96.1826 408.263 168.922
internal_count=7864 6964 6043 5029 4092 3057 1014 937 1035 916 417 520 2859 901
is_linear=0
shrinkage=0.04


Tree=3
num_leaves=15
num_cat=0
split_feature=11 12 2 19 36 2 32 22 36 2 31 24 7 35
split_gain=1221.18 639.174 427.089 288.159 142.113 129.653 95.5146 83.5247 75.5925 100.288 67.601 62.5355 57.1599 50.0402
threshold=1.0000000180025095e-35 1.0000000180025095e-35 0.14000000000000004 1.0000000180025095e-35 0.45000000000000007 0.06950000000000002 0.70850000000000002 -0.074999999999999997 0.63333333333333341 0.085500000000000007 0.26950000000000007 1.0000000180025095e-35 0.37500000000000006 0.24050000000000002
decision_type=2 2 2 2 2 2 2 2 2 2 2 2 2 2
left_child=1 2 3 5 6 11 -4 -7 9 -5 -6 12 -1 -9
right_child=-2 -3 4 8 10 7 -8 13 -10 -11 -12 -13 -14 -15
leaf_value=-0.0050290276803824883 0.13986515586964093 0.11512453258570501 0.036089270607478893 0.077036996821065268 0.084224958048175799 -0.012887134367380031 0.12641720679683743 -0.041643830620433343 0.11132420837788322 -0.0041897687292615747 0.12652465468130569 0.11317463521424236 0.087740538327182663 0.060193597757955235
leaf_weight=303.95744653046131 471.58778844773769 330.7118284702301 133.07493836432695 93.19985643029213 231.5597914531827 35.092218674719334 21.171544246375561 7.465724639594554 60.604107096791267 32.65055724978447 90.441949598491192 6.7552583813667288 10.010821893811224 148.03244613111019
leaf_count=2178 883 931 697 411 900 242 62 58 195 198 237 26 47 743
internal_value=0.0837107 0.0660304 0.0521148 0.0321096 0.0812963 0.0165197 0.0492219 0.042555 0.0745456 0.0560967 0.0964608 0.000964041 -0.00180191 0.0550694
internal_weight=1976.32 1504.73 1174.02 697.768 476.248 511.314 154.246 190.59 186.455 125.85 322.002 320.724 313.968 155.498
internal_count=7808 6925 5994 4098 1896 3294 759 1043 804 609 1137 2251 2225 801
is_linear=0
shrinkage=0.04


Tree=4
num_leaves=15
num_cat=0
split_feature=11 12 1 8 2 30 18 13 19 2 32 35 13 6
split_gain=1154.81 496.634 380.874 262.436 137.077 95.4051 79.1206 65.7243 60.9172 55.3607 47.2531 45.0215 49.017 64.2832
threshold=1.0000000180025095e-35 1.0000000180025095e-35 2.519000000000001 1.0000000180025095e-35 0.06950000000000002 0.23904761904761906 1.0000000180025095e-35 1.0000000180025095e-35 1.0000000180025095e-35 0.32350000000000007 0.35050000000000003 0.61150000000000004 1.0000000180025095e-35 0.12500000000000003
decision_type=2 2 2 2 2 2 2 2 2 2 2 2 2 2
left_child=1 2 3 4 8 -4 -7 9 10 -6 -1 12 13 -5
right_child=-2 -3 5 11 7 6 -8 -9 -10 -11 -12 -13 -14 -15
leaf_value=-0.01653754152411082 0.12744502224521526 0.10086288962145805 0.0047805611950787145 0.11769917925032186 0.019228893904896089 0.096160760770438364 -0.0072329406876374914 0.065509908585489468 0.051412352184421438 0.087044400179519851 0.017636469145557637 0.022548182160511802 0.10443486466360261 0.049562370167454274
leaf_weight=192.0835779979825 518.3391235023737 341.79598973691463 21.981843180954456 26.580211043357849 203.33238468319178 264.45227938890457 12.253776565194128 95.54351595044136 33.124871373176575 20.440293371677399 96.441982246935368 32.825399518013 61.355966329574585 136.05423757433891
leaf_count=1462 865 916 118 78 1197 807 87 396 160 72 643 158 177 639
internal_value=0.0758241 0.0583583 0.0461419 0.0330597 0.0193152 0.0852223 0.0915725 0.0378373 0.000867331 0.0257831 -0.00509314 0.0671555 0.0735633 0.0613496
internal_weight=2056.61 1538.27 1196.47 897.782 640.967 298.688 276.706 319.316 321.65 223.773 288.526 256.816 223.99 162.634
internal_count=7775 6910 5994 4982 3930 1012 894 1665 2265 1269 2105 1052 894 717
is_linear=0
shrinkage=0.04


Tree=5
num_leaves=15
num_cat=0
split_feature=11 2 36 12 19 18 1 36 18 31 12 1 38 37
split_gain=778.625 419.108 219.345 174.782 206.017 165.403 99.9657 95.2209 64.3967 60.3524 59.2114 65.922 54.1775 51.8624
threshold=1.0000000180025095e-35 0.072000000000000008 0.45000000000000007 1.0000000180025095e-35 1.0000000180025095e-35 1.0000000180025095e-35 1.3405000000000002 0.81666666666666676 1.0000000180025095e-35 0.37200000000000005 1.0000000180025095e-35 -0.57349999999999979 0.44345000000000007 0.91666666666666685
decision_type=2 2 2 2 2 2 2 2 2 2 2 2 2 2
left_child=1 3 9 4 6 7 -1 13 -8 10 11 -3 -6 -4
right_child=-2 2 5 -5 12 -7 8 -9 -10 -11 -12 -13 -14 -15
leaf_value=-0.012984575640423221 0.11226896317356368 -0.04531363226349492 0.058450571597704205 0.077713867411335888 0.079687600506733888 0.020755488501571166 0.053874002144900242 0.10051640833459863 -0.030775776041219814 0.089465592768150318 0.085054398210422738 0.033866090613679019 0.013533695524048135 0.092426371841473259
leaf_weight=235.72434939444065 544.35471522808075 17.356011390686035 211.00998155027628 90.108663126826286 82.737432479858398 65.727249726653099 69.908878974616528 405.45409955084324 17.333223357796669 36.899478048086166 32.519085749983788 219.85364884138107 26.553106978535652 118.01058930158615
leaf_count=1774 884 127 828 265 299 373 350 1013 141 108 84 1107 140 345
internal_value=0.070845 0.0569439 0.0708786 0.027339 0.0166827 0.081917 0.000562283 0.0873546 0.0368976 0.041899 0.0350854 0.0279068 0.0638834 0.0708799
internal_weight=2173.55 1629.2 1106.83 522.366 432.257 800.202 322.966 734.475 87.2421 306.628 269.729 237.21 109.291 329.021
internal_count=7838 6954 3985 2969 2704 2559 2265 2186 491 1426 1318 1234 439 1173
is_linear=0
shrinkage=0.04


Tree=6
num_leaves=15
num_cat=0
split_feature=11 2 36 8 12 18 12 32 1 33 36 4 22 1
split_gain=730.637 351.723 205.2 161.94 163.13 115.088 74.859 65.9995 57.6484 46.5857 45.4991 47.4291 38.8849 37.8492
threshold=1.0000000180025095e-35 0.072000000000000008 0.45000000000000007 1.0000000180025095e-35 1.0000000180025095e-35 1.0000000180025095e-35 1.0000000180025095e-35 0.70850000000000002 2.8305000000000002 0.35150000000000003 0.81666666666666676 0.76750000000000007 -0.57499999999999984 -0.64350000000000007
decision_type=2 2 2 2 2 2 2 2 2 2 2 2 2 2
left_child=1 3 6 4 8 10 7 13 -1 -7 11 -4 -5 -3
right_child=-2 2 5 12 -6 9 -8 -9 -10 -11 -12 -13 -14 -15
leaf_value=-0.0012834140773726832 0.10415619006900081 -0.043915886072938351 0.070539177893225821 0.089655397714545781 0.068891691312735051 0.061321799331831718 0.082176282094922379 0.089284113283968861 0.072244558118022315 -0.0044791197301369459 0.088546077422728631 -0.02214699102714374 0.036851950604245946 0.025617504292375234
leaf_weight=330.39786759763956 589.91679239273071 12.352595716714857 337.63219436258078 62.376465514302254 70.426915198564529 30.018861517310143 48.841323226690292 24.939127847552299 16.988175086677074 38.402100510895252 421.05769929289818 8.6397526264190656 37.806070148944855 230.44210305809975
leaf_count=2322 890 94 1119 182 204 139 117 70 59 237 1028 43 156 1167
internal_value=0.0658841 0.0523131 0.0646173 0.0248693 0.0138366 0.075017 0.0370127 0.0284986 0.00250936 0.0248577 0.0794514 0.0681695 0.07029 0.0219143
internal_weight=2260.24 1670.32 1152.33 517.995 417.813 835.751 316.575 267.734 347.386 68.421 767.33 346.272 100.183 242.795
internal_count=7827 6937 4014 2923 2585 2566 1448 1331 2381 376 2190 1162 338 1261
is_linear=0
shrinkage=0.04


end of trees

feature_importances:
Column_2=13
Column_36=10
Column_1=9
Column_18=9
Column_12=8
Column_11=6
Column_13=5
Column_19=4
Column_30=4
Column_32=4
Column_8=3
Column_3=2
Column_6=2
Column_22=2
Column_31=2
Column_33=2
Column_35=2
Column_37=2
Column_4=1
Column_5=1
Column_7=1
Column_15=1
Column_16=1
Column_20=1
Column_24=1
Column_34=1
Column_38=1

parameters:
[boosting: gbdt]
[objective: binary]
[metric: binary_logloss]
[tree_learner: serial]
[device_type: cpu]
[data_sample_strategy: bagging]
[data: ]
[valid: ]
[num_iterations: 400]
[learning_rate: 0.04]
[num_leaves: 15]
[num_threads: 0]
[seed: 0]
[deterministic: 0]
[force_col_wise: 0]
[force_row_wise: 0]
[histogram_pool_size: -1]
[max_depth: -1]
[min_data_in_leaf: 25]
[min_sum_hessian_in_leaf: 0.001]
[bagging_fraction: 0.85]
[pos_bagging_fraction: 1]
[neg_bagging_fraction: 1]
[bagging_freq: 1]
[bagging_seed: 3]
[bagging_by_query: 0]
[feature_fraction: 0.85]
[feature_fraction_bynode: 1]
[feature_fraction_seed: 2]
[extra_trees: 0]
[extra_seed: 6]
[early_stopping_round: 0]
[early_stopping_min_delta: 0]
[first_metric_only: 0]
[max_delta_step: 0]
[lambda_l1: 0]
[lambda_l2: 1]
[linear_lambda: 0]
[min_gain_to_split: 0]
[drop_rate: 0.1]
[max_drop: 50]
[skip_drop: 0.5]
[xgboost_dart_mode: 0]
[uniform_drop: 0]
[drop_seed: 4]
[top_rate: 0.2]
[other_rate: 0.1]
[min_data_per_group: 100]
[max_cat_threshold: 32]
[cat_l2: 10]
[cat_smooth: 10]
[max_cat_to_onehot: 4]
[top_k: 20]
[monotone_constraints: ]
[monotone_constraints_method: basic]
[monotone_penalty: 0]
[feature_contri: ]
[forcedsplits_filename: ]
[refit_decay_rate: 0.9]
[cegb_tradeoff: 1]
[cegb_penalty_split: 0]
[cegb_penalty_feature_lazy: ]
[cegb_penalty_feature_coupled: ]
[path_smooth: 0]
[interaction_constraints: ]
[verbosity: -1]
[saved_feature_importance_type: 0]
[use_quantized_grad: 0]
[num_grad_quant_bins: 4]
[quant_train_renew_leaf: 0]
[stochastic_rounding: 1]
[linear_tree: 0]
[max_bin: 255]
[max_bin_by_feature: ]
[min_data_in_bin: 3]
[bin_construct_sample_cnt: 200000]
[data_random_seed: 1]
[is_enable_sparse: 1]
[enable_bundle: 1]
[use_missing: 1]
[zero_as_missing: 0]
[feature_pre_filter: 1]
[pre_partition: 0]
[two_round: 0]
[header: 0]
[label_column: ]
[weight_column: ]
[group_column: ]
[ignore_column: ]
[categorical_feature: ]
[forcedbins_filename: ]
[precise_float_parser: 0]
[parser_config_file: ]
[objective_seed: 5]
[num_class: 1]
[is_unbalance: 0]
[scale_pos_weight: 6]
[sigmoid: 1]
[boost_from_average: 1]
[reg_sqrt: 0]
[alpha: 0.9]
[fair_c: 1]
[poisson_max_delta_step: 0.7]
[tweedie_variance_power: 1.5]
[lambdarank_truncation_level: 30]
[lambdarank_norm: 1]
[label_gain: ]
[lambdarank_position_bias_regularization: 0]
[eval_at: ]
[multi_error_top_k: 1]
[auc_mu_weights: ]
[num_machines: 1]
[local_listen_port: 12400]
[time_out: 120]
[machine_list_filename: ]
[machines: ]
[gpu_platform_id: -1]
[gpu_device_id: -1]
[gpu_device_id_list: ]
[gpu_use_dp: 0]
[num_gpu: 1]

end of parameters

pandas_categorical:null
