tree
version=v4
num_class=1
num_tree_per_iteration=1
label_index=0
max_feature_idx=44
objective=binary sigmoid:1
feature_names=Column_0 Column_1 Column_2 Column_3 Column_4 Column_5 Column_6 Column_7 Column_8 Column_9 Column_10 Column_11 Column_12 Column_13 Column_14 Column_15 Column_16 Column_17 Column_18 Column_19 Column_20 Column_21 Column_22 Column_23 Column_24 Column_25 Column_26 Column_27 Column_28 Column_29 Column_30 Column_31 Column_32 Column_33 Column_34 Column_35 Column_36 Column_37 Column_38 Column_39 Column_40 Column_41 Column_42 Column_43 Column_44
feature_infos=none [-7.4000000000000004:4.4329999999999998] [0:0.94099999999999995] [0:1] [0:1] [0:1] [0:1] [0:1] [0:1] [0:1] [0:1] [0:1] [0:1] [0:1] [0:1] [0.25:1] [0:1] [0:1] [0:1] [-0.3666666666666667:1] [0:1] none [-1.05:1.1499999999999999] [-1:0.66666666666666663] [-0.90000000000000002:0.66666666666666663] [0:1] [0:1] [0:1] [0.0625:1] [0.45000000000000001:1] [0:1] [0.010999999999999999:1] [0.010999999999999999:1] [0.048000000000000001:1] [0.014:1] [0.028000000000000001:1] [0:1] [0:1] [0:1] [0:1] [0:1] [0:1] [0:1] [0:1] [0:1]
tree_sizes=1695 1724 1718 1746 1738 1740

Tree=0
num_leaves=15
num_cat=0
split_feature=11 12 1 8 2 13 13 38 4 4 27 30 36 34
split_gain=2556.69 1293.49 741.121 486.742 340.026 155.871 125.267 62.16 61.8137 55.4069 55.8443 54.9292 53.4919 58.2926
threshold=1.0000000180025095e-35 1.0000000180025095e-35 2.6165000000000003 1.0000000180025095e-35 0.06950000000000002 1.0000000180025095e-35 1.0000000180025095e-35 0.43055000000000004 0.63450000000000017 0.52200000000000013 0.58333333333333337 0.23904761904761906 0.45000000000000007 0.38750000000000007
decision_type=2 2 2 2 2 2 2 2 2 2 2 2 2 2
left_child=1 2 3 4 -1 7 8 -6 9 -5 -11 -4 -9 -14
right_child=-2 -3 11 6 5 -7 -8 12 -10 10 -12 -13 13 -15
leaf_value=-1.8075078334182573 -1.5822620647873644 -1.6315719977444343 -1.7512376300905304 -1.7304909169905156 -1.7191468406418295 -1.6932427298721568 -1.6486340273409903 -1.8059424249778 -1.823087179069917 -1.7608737681869377 -1.622590535449993 -1.6403449862173376 -1.7215206679329531 -1.7892721188585019
leaf_weight=268.67049103975296 286.37169766426086 221.14393723011017 8.9718484580516797 96.023026555776596 39.039664775133133 71.774787187576294 53.467366501688957 57.104603454470634 8.8506073504686338 7.395712926983836 16.973767071962357 109.11707440018654 39.767111957073212 41.706971436738968
leaf_count=1966 747 804 54 547 212 352 211 416 68 46 55 415 218 289
internal_value=-1.68797 -1.71727 -1.74059 -1.75636 -1.77626 -1.74273 -1.70038 -1.76324 -1.72283 -1.71538 -1.66114 -1.64824 -1.77619 -1.75558
internal_weight=1326.38 1040.01 818.863 700.774 518.064 249.393 182.71 177.618 129.243 120.393 24.3695 118.089 138.579 81.4741
internal_count=6400 5653 4849 4380 3453 1487 927 1135 716 648 101 469 923 507
is_linear=0
shrinkage=1


Tree=1
num_leaves=15
num_cat=0
split_feature=2 20 17 9 37 2 2 2 18 14 37 3 15 1
split_gain=1251.81 372.705 450.141 235.339 215.773 144.671 136.245 117.142 107.826 87.8075 82.2019 69.6026 63.6595 65.1587
threshold=0.12950000000000003 1.0000000180025095e-35 1.0000000180025095e-35 1.0000000180025095e-35 0.63333333333333341 0.027500000000000004 0.39600000000000007 0.06950000000000002 1.0000000180025095e-35 1.0000000180025095e-35 0.91666666666666685 0.44050000000000006 0.62500000000000011 2.455000000000001
decision_type=2 2 2 2 2 2 2 2 2 2 2 2 2 2
left_child=1 2 7 6 12 -6 9 -1 10 -2 -5 -10 13 -4
right_child=3 -3 4 8 5 -7 -8 -9 11 -11 -12 -13 -14 -15
leaf_value=-0.0085130280890550677 0.14685752293788795 0.11723747465932587 0.00038424959128321767 0.078608336997006187 0.040410302995744579 0.13695543709718389 0.18652690423675564 0.050011877898417066 -0.030740202552689611 0.08150736813339686 0.15218608591358154 0.11307314871463943 0.075513823198954569 0.09242731254445051
leaf_weight=163.86159007251263 398.7670441493392 182.95403904467821 55.925986498594284 64.12810555100441 32.475805819034576 121.52926984429359 157.80594642460346 80.985245369374752 16.523512274026874 40.43597637116909 43.65285962074995 6.7921520099043837 65.770915895700455 14.780497975647448
leaf_count=1213 1313 763 396 318 197 444 361 465 124 208 137 29 332 67
internal_value=0.105628 0.0680114 0.0510006 0.142593 0.0845895 0.116989 0.153355 0.0109693 0.0927924 0.14104 0.109533 0.0140817 0.0474445 0.0206456
internal_weight=1446.39 718.283 535.329 728.106 290.482 154.005 597.009 244.847 131.097 439.203 107.781 23.3157 136.477 70.7065
internal_count=6367 3877 3114 2490 1436 641 1882 1678 608 1521 455 153 795 463
is_linear=0
shrinkage=0.04


Tree=2
num_leaves=15
num_cat=0
split_feature=11 12 1 19 2 36 32 32 2 32 36 4 38 4
split_gain=1464.92 661.43 481.818 260.555 212.359 119.091 81.0066 75.7282 57.7005 67.9377 58.0281 49.2637 46.4569 46.2513
threshold=1.0000000180025095e-35 1.0000000180025095e-35 2.5015000000000005 1.0000000180025095e-35 0.10100000000000002 0.81666666666666676 0.54550000000000021 0.6775000000000001 0.25850000000000006 0.5355000000000002 0.45000000000000007 0.36150000000000004 0.39407500000000006 0.64100000000000013
decision_type=2 2 2 2 2 2 2 2 2 2 2 2 2 2
left_child=1 2 3 4 -1 13 11 8 10 -10 12 -4 -6 -5
right_child=-2 -3 6 5 7 -7 -8 -9 9 -11 -12 -13 -14 -15
leaf_value=0.0010273389775486757 0.15929326586456891 0.12457057196651777 0.13327935280830822 0.06477368422451861 0.0632654809563611 0.13239281868521685 0.15370309815215949 0.16050821459660003 0.1289959281810073 -0.011487976174395485 0.055527603194336132 0.073546344217283108 -0.024727125040752154 0.0041988117544486912
leaf_weight=315.81299749016762 369.24024052917957 255.28108771145344 33.646112382411957 180.16007740795612 12.382700711488722 41.757794812321663 53.728682056069374 9.5948740243911725 23.642222017049793 6.8939414322376242 90.086986348032951 81.957481116056442 32.965310528874397 22.856418877840042
leaf_count=2224 762 796 109 865 60 133 131 25 77 45 470 357 238 139
internal_value=0.0899452 0.0677675 0.0516334 0.0375419 0.0206726 0.0711848 0.112315 0.055805 0.048827 0.0979213 0.0371213 0.0919254 0.000146684 0.0580079
internal_weight=1530.01 1160.77 905.486 736.153 491.379 244.774 169.332 175.566 165.971 30.5362 135.435 115.604 45.348 203.016
internal_count=6431 5669 4873 4276 3139 1137 597 915 890 122 768 466 298 1004
is_linear=0
shrinkage=0.04


Tree=3
num_leaves=15
num_cat=0
split_feature=11 12 9 36 2 39 36 17 33 36 34 22 31 31
split_gain=958.635 563.673 319.708 211.93 131.263 117.224 60.6693 63.0731 64.4972 53.9414 69.874 53.0193 52.6189 48.2609
threshold=1.0000000180025095e-35 1.0000000180025095e-35 1.0000000180025095e-35 0.63333333333333341 0.06950000000000002 1.0000000180025095e-35 0.45000000000000007 1.0000000180025095e-35 0.34550000000000003 0.29166666666666674 0.32050000000000006 1.0000000180025095e-35 0.11850000000000001 0.24450000000000002
decision_type=2 2 2 2 2 2 2 2 2 2 2 2 2 2
left_child=1 2 3 5 11 9 -6 8 -8 10 -1 -4 -13 -5
right_child=-2 -3 4 13 6 -7 7 -9 -10 -11 -12 12 -14 -15
leaf_value=-0.023670668272034505 0.13799964085455815 0.11574206418515737 0.034422635220290619 0.091932576648539946 0.012700974225490226 -0.011032624429265709 0.074007033195519253 0.084855594700296355 -0.0092981297194872758 0.076936228354409247 0.054373560618459743 0.015129975161035297 -0.031395560864336196 0.13985212329855914
leaf_weight=21.029055453836918 396.28298595547676 284.46649427711964 61.226805746555328 137.26680675894022 55.351222865283489 40.196263782680035 26.96327605843544 82.069533824920654 31.339418508112431 165.60106835514307 120.6849919334054 73.367707408964634 80.710677146911621 52.315369471907616
leaf_count=148 754 789 370 518 341 285 127 336 204 705 576 496 636 115
internal_value=0.0838878 0.0663928 0.0514801 0.0717824 0.0248411 0.0529629 0.048461 0.0623722 0.0298264 0.061342 0.0427078 0.00324467 -0.00928673 0.10582
internal_weight=1628.87 1232.59 948.122 537.094 411.029 347.511 195.723 140.372 58.3027 307.315 141.714 215.305 154.078 189.582
internal_count=6400 5646 4857 2347 2510 1714 1008 667 331 1429 724 1502 1132 633
is_linear=0
shrinkage=0.04


Tree=4
num_leaves=15
num_cat=0
split_feature=11 12 1 19 2 35 35 7 5 30 31 7 32 30
split_gain=916.437 440.553 335.291 208.169 160.426 81.1375 73.8437 47.1418 46.7521 55.2768 45.3605 41.5821 40.764 37.2549
threshold=1.0000000180025095e-35 1.0000000180025095e-35 2.5735000000000006 1.0000000180025095e-35 0.06950000000000002 0.59600000000000009 0.57650000000000012 0.37500000000000006 1.0000000180025095e-35 0.82575757575757591 0.26550000000000007 0.95833333333333337 0.36050000000000004 0.32071428571428579
decision_type=2 2 2 2 2 2 2 2 2 2 2 2 2 2
left_child=1 2 3 4 7 13 8 12 -5 -10 -4 -8 -1 -6
right_child=-2 -3 10 6 5 -7 11 -9 9 -11 -12 -13 -14 -15
leaf_value=-0.016676232448884911 0.12591536522436458 0.10092986501202217 0.080788973154257912 0.099087382813895911 0.0014043985473372468 0.099073161052147862 -0.025751033056066974 0.085077260293529758 0.065950429168353988 -0.015059602329290067 0.12790695541265751 0.054989366512076067 0.017974601944261325 0.041065533869722504
leaf_weight=176.50629632174969 432.86298903822899 297.32821415364742 122.16233395040035 68.803705409169197 48.271060883998871 33.280313298106194 21.379716366529465 8.4111787229776365 147.22469519078732 14.457610487937925 51.413095906376839 17.82746022939682 77.339374616742134 176.51484110951424
leaf_count=1332 736 789 424 233 293 114 130 39 609 85 100 75 510 909
internal_value=0.0757127 0.0583925 0.045176 0.034035 0.0191894 0.0415152 0.0625002 -0.00285402 0.0711031 0.0586585 0.0953981 0.0114161 -0.00609003 0.0325925
internal_weight=1693.78 1260.92 963.592 790.016 520.323 258.066 269.693 262.257 230.486 161.682 173.575 39.2072 253.846 224.786
internal_count=6378 5642 4853 4329 3197 1316 1132 1881 927 694 524 205 1842 1202
is_linear=0
shrinkage=0.04


Tree=5
num_leaves=15
num_cat=0
split_feature=11 2 36 18 18 1 36 36 9 3 12 31 1 38
split_gain=655.013 337.966 167.076 146.354 130.286 93.4942 66.208 59.7807 67.6502 72.3349 50.4033 58.5446 61.6826 49.9801
threshold=1.0000000180025095e-35 0.06950000000000002 0.45000000000000007 1.0000000180025095e-35 1.0000000180025095e-35 -0.43299999999999977 0.70833333333333348 0.29166666666666674 1.0000000180025095e-35 0.072000000000000008 1.0000000180025095e-35 0.37400000000000005 -0.58000000000000029 0.61250000000000016
decision_type=2 2 2 2 2 2 2 2 2 2 2 2 2 2
left_child=1 3 10 5 6 -1 -4 13 -9 -10 11 12 -3 -7
right_child=-2 2 4 -5 -6 7 -8 8 9 -11 -12 -13 -14 -15
leaf_value=0.0019599759792857368 0.11151065059025168 -0.045353615262122497 0.070868877956786216 -0.021845558125431284 0.022923490534002961 0.040557420665593716 0.09911586363179288 0.086672397138761764 -0.032659571823071276 0.053751727013107729 0.083951784131552659 0.10431282452993398 0.034247289632211901 -0.027132545686536044
leaf_weight=87.095551624894142 461.69532327353954 16.257220610976219 250.38450548052788 78.259636580944061 56.596466064453125 56.015756167471409 326.58927927911282 90.514230608940125 17.957932114601135 90.513509899377823 38.021574795246124 16.39569616317749 171.95498622208834 24.331279300153255
leaf_count=577 759 117 901 605 303 288 828 308 131 434 98 47 841 172
internal_value=0.0704926 0.0560819 0.0704925 0.0275931 0.0813227 0.0381826 0.0870016 0.0494295 0.0611624 0.0392783 0.0419945 0.0338273 0.0271682 0.0199775
internal_weight=1782.58 1320.89 876.2 444.688 633.57 366.428 576.974 279.333 198.986 108.471 242.629 204.608 188.212 80.347
internal_count=6409 5650 3135 2515 2032 1910 1729 1333 873 565 1103 1005 958 460
is_linear=0
shrinkage=0.04


end of trees

feature_importances:
Column_2=10
Column_36=9
Column_1=6
Column_11=5
Column_12=5
Column_4=4
Column_31=4
Column_32=4
Column_9=3
Column_18=3
Column_30=3
Column_38=3
Column_3=2
Column_7=2
Column_13=2
Column_17=2
Column_19=2
Column_34=2
Column_35=2
Column_37=2
Column_5=1
Column_8=1
Column_14=1
Column_15=1
Column_20=1
Column_22=1
Column_27=1
Column_33=1
Column_39=1

parameters:
[boosting: gbdt]
[objective: binary]
[metric: binary_logloss]
[tree_learner: serial]
[device_type: cpu]
[data_sample_strategy: bagging]
[data: ]
[valid: ]
[num_iterations: 400]
[learning_rate: 0.04]
[num_leaves: 15]
[num_threads: 0]
[seed: 0]
[deterministic: 0]
[force_col_wise: 0]
[force_row_wise: 0]
[histogram_pool_size: -1]
[max_depth: -1]
[min_data_in_leaf: 25]
[min_sum_hessian_in_leaf: 0.001]
[bagging_fraction: 0.85]
[pos_bagging_fraction: 1]
[neg_bagging_fraction: 1]
[bagging_freq: 1]
[bagging_seed: 3]
[bagging_by_query: 0]
[feature_fraction: 0.85]
[feature_fraction_bynode: 1]
[feature_fraction_seed: 2]
[extra_trees: 0]
[extra_seed: 6]
[early_stopping_round: 0]
[early_stopping_min_delta: 0]
[first_metric_only: 0]
[max_delta_step: 0]
[lambda_l1: 0]
[lambda_l2: 1]
[linear_lambda: 0]
[min_gain_to_split: 0]
[drop_rate: 0.1]
[max_drop: 50]
[skip_drop: 0.5]
[xgboost_dart_mode: 0]
[uniform_drop: 0]
[drop_seed: 4]
[top_rate: 0.2]
[other_rate: 0.1]
[min_data_per_group: 100]
[max_cat_threshold: 32]
[cat_l2: 10]
[cat_smooth: 10]
[max_cat_to_onehot: 4]
[top_k: 20]
[monotone_constraints: ]
[monotone_constraints_method: basic]
[monotone_penalty: 0]
[feature_contri: ]
[forcedsplits_filename: ]
[refit_decay_rate: 0.9]
[cegb_tradeoff: 1]
[cegb_penalty_split: 0]
[cegb_penalty_feature_lazy: ]
[cegb_penalty_feature_coupled: ]
[path_smooth: 0]
[interaction_constraints: ]
[verbosity: -1]
[saved_feature_importance_type: 0]
[use_quantized_grad: 0]
[num_grad_quant_bins: 4]
[quant_train_renew_leaf: 0]
[stochastic_rounding: 1]
[linear_tree: 0]
[max_bin: 255]
[max_bin_by_feature: ]
[min_data_in_bin: 3]
[bin_construct_sample_cnt: 200000]
[data_random_seed: 1]
[is_enable_sparse: 1]
[enable_bundle: 1]
[use_missing: 1]
[zero_as_missing: 0]
[feature_pre_filter: 1]
[pre_partition: 0]
[two_round: 0]
[header: 0]
[label_column: ]
[weight_column: ]
[group_column: ]
[ignore_column: ]
[categorical_feature: ]
[forcedbins_filename: ]
[precise_float_parser: 0]
[parser_config_file: ]
[objective_seed: 5]
[num_class: 1]
[is_unbalance: 0]
[scale_pos_weight: 6]
[sigmoid: 1]
[boost_from_average: 1]
[reg_sqrt: 0]
[alpha: 0.9]
[fair_c: 1]
[poisson_max_delta_step: 0.7]
[tweedie_variance_power: 1.5]
[lambdarank_truncation_level: 30]
[lambdarank_norm: 1]
[label_gain: ]
[lambdarank_position_bias_regularization: 0]
[eval_at: ]
[multi_error_top_k: 1]
[auc_mu_weights: ]
[num_machines: 1]
[local_listen_port: 12400]
[time_out: 120]
[machine_list_filename: ]
[machines: ]
[gpu_platform_id: -1]
[gpu_device_id: -1]
[gpu_use_dp: 0]
[num_gpu: 1]

end of parameters

pandas_categorical:null
