tree
version=v4
num_class=1
num_tree_per_iteration=1
label_index=0
max_feature_idx=44
objective=binary sigmoid:1
feature_names=Column_0 Column_1 Column_2 Column_3 Column_4 Column_5 Column_6 Column_7 Column_8 Column_9 Column_10 Column_11 Column_12 Column_13 Column_14 Column_15 Column_16 Column_17 Column_18 Column_19 Column_20 Column_21 Column_22 Column_23 Column_24 Column_25 Column_26 Column_27 Column_28 Column_29 Column_30 Column_31 Column_32 Column_33 Column_34 Column_35 Column_36 Column_37 Column_38 Column_39 Column_40 Column_41 Column_42 Column_43 Column_44
feature_infos=none [-7.4000000000000004:3.8220000000000001] [0:0.94099999999999995] [0:0.95299999999999996] [0:1] [0:1] [0:1] [0:1] [0:1] [0:1] [0:1] [0:1] [0:1] [0:1] [0:1] [0.25:1] [0:1] [0:1] [0:1] [-0.3666666666666667:1] [0:1] none [-1.05:1.1000000000000001] [-0.83333333333333337:0.53333333333333333] none [0:1] [0:1] [0:1] [0.14583333333333337:1] [0.45000000000000001:1] [0:1] [0.010999999999999999:0.86799999999999999] [0.025000000000000001:0.97499999999999998] [0.048000000000000001:1] [0.014:1] [0.028000000000000001:1] [0:1] [0:1] [0.15050000000000002:0.84949999999999992] [0:1] [0:1] [0:1] [0:1] [0:1] [0:1]
tree_sizes=1691 1713 1718 1717 1706

Tree=0
num_leaves=15
num_cat=0
split_feature=11 12 2 1 19 31 4 3 13 4 4 32 4 35
split_gain=1572.94 1020.95 392.543 133.221 105.789 67.7561 58.2539 63.0464 52.2697 64.9684 71.6092 49.6262 48.0483 46.4633
threshold=1.0000000180025095e-35 1.0000000180025095e-35 0.081500000000000017 -0.26150000000000012 1.0000000180025095e-35 0.23650000000000002 0.20300000000000004 0.18850000000000003 1.0000000180025095e-35 0.56850000000000012 0.52200000000000013 0.57200000000000006 0.57900000000000007 0.30100000000000005
decision_type=2 2 2 2 2 2 2 2 2 2 2 2 2 2
left_child=1 2 4 13 5 -1 -6 -8 9 10 11 -5 -3 -4
right_child=-2 12 3 8 6 -7 7 -9 -10 -11 -12 -13 -14 -15
leaf_value=-1.8352802242926249 -1.5970478164113548 -1.6286865021360963 -1.7290868913484037 -1.7557993216777505 -1.841583049187584 -1.6957524422333379 -1.6886965638387081 -1.8168597285203587 -1.680261560462124 -1.7996082886576157 -1.6394862038531388 -1.6561867547315108 -1.6978517217029694 -1.8271819600081138
leaf_weight=147.13479587435722 160.30389884114265 97.810519307851791 9.5775294303894025 54.232760399580002 9.2183720767497999 4.7887647151947013 19.155058860778812 8.9789338409900648 47.408770680427551 20.232530921697617 14.845170617103575 9.3380911946296674 28.612869173288345 28.37343093752861
leaf_count=1124 424 322 50 323 72 20 85 65 206 139 49 33 134 212
internal_value=-1.7058 -1.74107 -1.77459 -1.73316 -1.81514 -1.83008 -1.75577 -1.72798 -1.71589 -1.73428 -1.71793 -1.73881 -1.64323 -1.80065
internal_weight=660.011 499.708 373.284 184.008 189.276 151.924 37.3524 28.134 146.057 98.6486 78.416 63.5709 126.423 37.951
internal_count=3258 2834 2378 1012 1366 1144 222 150 750 544 405 356 456 262
is_linear=0
shrinkage=1


Tree=1
num_leaves=15
num_cat=0
split_feature=11 2 8 37 36 2 18 37 5 1 18 3 9 34
split_gain=984.689 442.149 173.122 97.6784 99.6361 110.734 74.2124 91.2584 67.1149 55.5717 50.9193 44.9616 44.608 39.5409
threshold=1.0000000180025095e-35 0.06950000000000002 1.0000000180025095e-35 0.91666666666666685 0.77500000000000013 0.12950000000000003 1.0000000180025095e-35 0.63333333333333341 0.29166666666666669 1.2015000000000002 1.0000000180025095e-35 0.078000000000000014 1.0000000180025095e-35 0.30650000000000005
decision_type=2 2 2 2 2 2 2 2 2 2 2 2 2 2
left_child=1 2 6 4 5 9 7 -1 11 13 -5 -9 -2 -3
right_child=12 3 -4 10 -6 -7 -8 8 -10 -11 -12 -13 -14 -15
leaf_value=0.009279584626974988 0.19512392915176513 0.050815265338689422 0.11461204224217603 0.14709808498228072 0.13029007478796528 0.096914288907462648 -0.024416240632787942 0.011918748740550471 -0.018754564878784599 0.07860368293325648 0.06885065733663108 0.11918324772959114 0.13040920465954645 -0.0445987870908717
leaf_weight=85.720925152301788 163.98435173928738 9.3125246614217776 36.388933248817921 115.21858566254377 66.761093452572823 77.624386146664619 44.750414922833443 7.9796552360057822 9.2014622092246992 14.641851514577864 18.031845927238464 32.499831773340702 28.847802489995956 20.509309865534306
leaf_count=607 336 55 160 405 253 370 356 55 69 74 96 143 96 166
internal_value=0.108693 0.0806644 0.0362286 0.110333 0.090823 0.0683582 0.0198507 0.0345527 0.0771162 0.01747 0.137101 0.0988355 0.186165 -0.0141217
internal_weight=731.473 538.641 216.541 322.1 188.849 122.088 180.152 135.402 49.6809 44.4637 133.25 40.4795 192.832 29.8218
internal_count=3241 2809 1390 1419 918 665 1230 874 267 295 501 198 432 221
is_linear=0
shrinkage=0.04


Tree=2
num_leaves=15
num_cat=0
split_feature=11 12 8 1 4 1 4 36 3 22 31 38 31 1
split_gain=817.311 556.094 210.187 139.207 73.131 70.0143 39.6707 46.568 32.1294 30.5153 30.2565 34.8871 39.5469 32.2857
threshold=1.0000000180025095e-35 1.0000000180025095e-35 1.0000000180025095e-35 0.95349999999999979 0.26450000000000007 -0.30849999999999933 0.24600000000000002 0.45000000000000007 0.60550000000000004 0.27500000000000008 0.20750000000000002 0.24350000000000002 0.12150000000000001 1.2689999999999999
decision_type=2 2 2 2 2 2 2 2 2 2 2 2 2 2
left_child=1 2 3 -1 -5 -4 7 -7 -2 -3 11 -6 -13 -14
right_child=8 9 5 4 10 6 -8 -9 -10 -11 -12 12 13 -15
leaf_value=-9.9026073763188208e-05 0.13933736449784678 0.14195984576816253 -0.0052966485181256198 -0.018485444525273256 -0.017892314979907425 -0.041312304700268053 0.10808689118946088 0.10433780464464594 0.17728061917427565 0.090145730796155843 0.11038649198801999 0.084934699501048566 0.06960145057861665 -0.025089137027574236
leaf_weight=179.88085756450891 124.95398944616318 111.29954414069653 11.583315275609491 17.680495582520962 8.7091877162456495 6.6412070170044881 83.847382165491581 5.6210748702287674 89.040114402770996 30.476478353142738 22.010701298713684 48.298802427947521 9.6284710168838519 11.76090385019779
leaf_count=1283 301 316 80 135 61 50 328 21 137 119 82 232 46 83
internal_value=0.0896883 0.0635783 0.0395642 0.0221089 0.0556545 0.0872126 0.0983017 0.0282872 0.155876 0.131531 0.068763 0.0558338 0.0651704 0.0187409
internal_weight=761.433 547.438 405.662 297.969 118.089 107.693 96.1097 12.2623 213.994 141.776 100.408 78.3974 69.6882 21.3894
internal_count=3274 2836 2401 1922 639 479 399 71 438 435 504 422 361 129
is_linear=0
shrinkage=0.04


Tree=3
num_leaves=15
num_cat=0
split_feature=2 11 19 34 18 15 37 36 28 28 37 34 33 3
split_gain=535.722 193.132 128.08 70.4707 62.6947 116.112 49.8076 64.5689 49.6677 44.8504 39.892 39.5831 54.1 36.9762
threshold=0.081500000000000017 1.0000000180025095e-35 1.0000000180025095e-35 0.29150000000000004 1.0000000180025095e-35 0.62500000000000011 0.91666666666666685 0.63333333333333341 0.51041666666666685 0.73958333333333348 0.45000000000000007 0.35050000000000003 0.41300000000000003 0.081500000000000017
decision_type=2 2 2 2 2 2 2 2 2 2 2 2 2 2
left_child=2 6 4 -4 5 -1 7 8 -2 -9 -7 -10 -13 -5
right_child=1 -3 3 13 -6 10 -8 9 11 -11 -12 12 -14 -15
leaf_value=0.0043013514170505739 -0.025072795590331345 0.13835479338699089 -0.019030381343086818 0.024604204411165502 -0.01751048292107394 0.016650112613981777 0.10629535980407305 0.072602618624443505 0.10071508635353089 0.13184086573014273 0.093403704354175776 0.07049093394217551 -0.0064833820137060088 0.11347723965280776
leaf_weight=88.788850046694279 11.785350032150744 196.55048982799053 8.8822871521115285 9.553130701184271 50.45448399335146 14.668785773217676 139.58805869519711 56.52491383254528 26.759676426649094 37.67460298538208 46.613686807453632 37.829138927161694 23.169643312692642 49.518707685172558
leaf_count=614 84 358 60 54 396 92 458 229 110 101 184 176 146 166
internal_value=0.0833223 0.106628 0.0371 0.0841764 0.0208083 0.0337218 0.0875624 0.0735892 0.0502831 0.0974307 0.075594 0.0605713 0.0416202 0.0997535
internal_weight=798.362 529.882 268.48 67.9541 200.526 150.071 333.331 193.743 99.5438 94.1995 61.2825 87.7585 60.9988 59.0718
internal_count=3228 1662 1566 280 1286 890 1304 846 516 330 276 432 322 220
is_linear=0
shrinkage=0.04


Tree=4
num_leaves=15
num_cat=0
split_feature=11 12 1 3 18 30 4 1 25 28 1 1 2 31
split_gain=559.749 427.995 147.413 117.667 61.2064 43.0824 40.1944 45.5667 39.2128 37.7959 38.7374 38.0696 42.6848 33.8344
threshold=1.0000000180025095e-35 1.0000000180025095e-35 -0.26150000000000012 0.098000000000000018 1.0000000180025095e-35 0.65833333333333344 0.57350000000000023 1.365 0.71500000000000008 0.84375000000000011 -1.0000000180025095e-35 0.91550000000000031 0.17650000000000002 0.11450000000000002
decision_type=2 2 2 2 2 2 2 2 2 2 2 2 2 2
left_child=1 2 -1 8 9 -6 -3 -8 -4 10 -5 12 -12 -10
right_child=-2 6 3 4 5 -7 7 -9 13 -11 11 -13 -14 -15
leaf_value=-0.0044616081742292505 0.12660082204509265 0.12006754962908535 -0.031233852620965889 0.12027566928227534 -0.018171215125217816 0.06280429071674791 0.091176564752578959 -0.016508361798108346 -0.020214453365324216 -0.016419845040309855 0.005847919329530305 0.07379537060853858 0.10161998903175663 0.075343738373817429
leaf_weight=112.75281964242458 258.52672004699707 134.00175866484642 33.306697599589825 23.380144819617271 25.079692117869854 16.705264396965504 29.818936944007874 7.551073506474494 9.6430809944868106 7.8233821392059317 31.205679796636105 151.62404641509056 8.836422994732855 13.084010064601896
leaf_count=793 428 316 266 72 176 79 90 41 71 47 197 622 26 67
internal_value=0.0773744 0.0561584 0.034857 0.0486522 0.0597633 0.0149133 0.10952 0.0695543 -0.00395437 0.0680678 0.0712033 0.064624 0.0289438 0.0356554
internal_weight=863.34 604.813 433.441 320.688 264.655 41.785 171.372 37.37 56.0338 222.87 215.046 191.666 40.0421 22.7271
internal_count=3291 2863 2416 1623 1219 255 447 131 404 964 917 845 223 138
is_linear=0
shrinkage=0.04


end of trees

feature_importances:
Column_1=9
Column_4=7
Column_2=5
Column_3=5
Column_11=5
Column_18=4
Column_31=4
Column_37=4
Column_12=3
Column_28=3
Column_34=3
Column_36=3
Column_8=2
Column_19=2
Column_5=1
Column_9=1
Column_13=1
Column_15=1
Column_22=1
Column_25=1
Column_30=1
Column_32=1
Column_33=1
Column_35=1
Column_38=1

parameters:
[boosting: gbdt]
[objective: binary]
[metric: binary_logloss]
[tree_learner: serial]
[device_type: cpu]
[data_sample_strategy: bagging]
[data: ]
[valid: ]
[num_iterations: 400]
[learning_rate: 0.04]
[num_leaves: 15]
[num_threads: 0]
[seed: 0]
[deterministic: 0]
[force_col_wise: 0]
[force_row_wise: 0]
[histogram_pool_size: -1]
[max_depth: -1]
[min_data_in_leaf: 25]
[min_sum_hessian_in_leaf: 0.001]
[bagging_fraction: 0.85]
[pos_bagging_fraction: 1]
[neg_bagging_fraction: 1]
[bagging_freq: 1]
[bagging_seed: 3]
[bagging_by_query: 0]
[feature_fraction: 0.85]
[feature_fraction_bynode: 1]
[feature_fraction_seed: 2]
[extra_trees: 0]
[extra_seed: 6]
[early_stopping_round: 0]
[early_stopping_min_delta: 0]
[first_metric_only: 0]
[max_delta_step: 0]
[lambda_l1: 0]
[lambda_l2: 1]
[linear_lambda: 0]
[min_gain_to_split: 0]
[drop_rate: 0.1]
[max_drop: 50]
[skip_drop: 0.5]
[xgboost_dart_mode: 0]
[uniform_drop: 0]
[drop_seed: 4]
[top_rate: 0.2]
[other_rate: 0.1]
[min_data_per_group: 100]
[max_cat_threshold: 32]
[cat_l2: 10]
[cat_smooth: 10]
[max_cat_to_onehot: 4]
[top_k: 20]
[monotone_constraints: ]
[monotone_constraints_method: basic]
[monotone_penalty: 0]
[feature_contri: ]
[forcedsplits_filename: ]
[refit_decay_rate: 0.9]
[cegb_tradeoff: 1]
[cegb_penalty_split: 0]
[cegb_penalty_feature_lazy: ]
[cegb_penalty_feature_coupled: ]
[path_smooth: 0]
[interaction_constraints: ]
[verbosity: -1]
[saved_feature_importance_type: 0]
[use_quantized_grad: 0]
[num_grad_quant_bins: 4]
[quant_train_renew_leaf: 0]
[stochastic_rounding: 1]
[linear_tree: 0]
[max_bin: 255]
[max_bin_by_feature: ]
[min_data_in_bin: 3]
[bin_construct_sample_cnt: 200000]
[data_random_seed: 1]
[is_enable_sparse: 1]
[enable_bundle: 1]
[use_missing: 1]
[zero_as_missing: 0]
[feature_pre_filter: 1]
[pre_partition: 0]
[two_round: 0]
[header: 0]
[label_column: ]
[weight_column: ]
[group_column: ]
[ignore_column: ]
[categorical_feature: ]
[forcedbins_filename: ]
[precise_float_parser: 0]
[parser_config_file: ]
[objective_seed: 5]
[num_class: 1]
[is_unbalance: 0]
[scale_pos_weight: 6]
[sigmoid: 1]
[boost_from_average: 1]
[reg_sqrt: 0]
[alpha: 0.9]
[fair_c: 1]
[poisson_max_delta_step: 0.7]
[tweedie_variance_power: 1.5]
[lambdarank_truncation_level: 30]
[lambdarank_norm: 1]
[label_gain: ]
[lambdarank_position_bias_regularization: 0]
[eval_at: ]
[multi_error_top_k: 1]
[auc_mu_weights: ]
[num_machines: 1]
[local_listen_port: 12400]
[time_out: 120]
[machine_list_filename: ]
[machines: ]
[gpu_platform_id: -1]
[gpu_device_id: -1]
[gpu_use_dp: 0]
[num_gpu: 1]

end of parameters

pandas_categorical:null
