tree
version=v4
num_class=1
num_tree_per_iteration=1
label_index=0
max_feature_idx=44
objective=binary sigmoid:1
feature_names=Column_0 Column_1 Column_2 Column_3 Column_4 Column_5 Column_6 Column_7 Column_8 Column_9 Column_10 Column_11 Column_12 Column_13 Column_14 Column_15 Column_16 Column_17 Column_18 Column_19 Column_20 Column_21 Column_22 Column_23 Column_24 Column_25 Column_26 Column_27 Column_28 Column_29 Column_30 Column_31 Column_32 Column_33 Column_34 Column_35 Column_36 Column_37 Column_38 Column_39 Column_40 Column_41 Column_42 Column_43 Column_44
feature_infos=none [-3.0340000000000003:2.6180000000000008] [0:0.94099999999999995] [0:0.95299999999999996] [0:1] [0:1] [0:1] [0:1] [0:1] [0:1] [0:1] [0:1] [0:1] [0:1] [0:1] [0.25:1] [0:1] [0:1] [0:1] [-0.3666666666666667:1] [0:1] none [-1.05:1.1000000000000001] [-0.83333333333333337:0.53333333333333333] none [0:1] [0:1] [0:1] [0.14583333333333337:1] none [0:1] [0.010999999999999999:0.86799999999999999] [0.025000000000000001:0.97399999999999998] [0.062:1] [0.014:1] [0.028000000000000001:1] [0:1] [0:1] [0.15050000000000002:0.84949999999999992] [0:1] [0:1] [0:1] [0:1] [0:1] [0:1]
tree_sizes=1694 1711 1727 1729 1726 1726 1732 1735

Tree=0
num_leaves=15
num_cat=0
split_feature=11 12 2 19 1 4 31 13 4 4 3 37 34 34
split_gain=1479.27 964.293 329.601 105.342 102.584 83.7337 67.3175 60.2991 74.0129 88.5207 58.0556 56.8337 44.9247 37.0032
threshold=1.0000000180025095e-35 1.0000000180025095e-35 0.081500000000000017 1.0000000180025095e-35 -0.26150000000000012 0.20300000000000004 0.23650000000000002 1.0000000180025095e-35 0.56850000000000012 0.51500000000000012 0.18850000000000003 0.45000000000000007 0.29250000000000004 0.48950000000000005
decision_type=2 2 2 2 2 2 2 2 2 2 2 2 2 2
left_child=1 2 3 6 12 -5 -1 8 9 -6 -7 13 -4 -3
right_child=-2 11 4 5 7 10 -8 -9 -10 -11 -12 -13 -14 -15
leaf_value=-1.8409760391778784 -1.6025188802529577 -1.6933324765410467 -1.7184504350516492 -1.8706132227826877 -1.754507459682922 -1.6875626158671464 -1.7014687086323024 -1.6873410968461389 -1.8212918515779659 -1.6431048765392762 -1.8173993890990416 -1.6374562794339385 -1.8261777926871117 -1.8252775212135603
leaf_weight=137.39735189080238 148.36054041981697 12.393169641494753 6.9115753769874564 7.6265659332275382 54.696777552366257 18.351424276828769 4.766603708267211 45.044405043125153 17.398103535175323 14.657306402921675 7.9840612113475791 100.81366842985153 28.837952435016632 4.6474386155605307
leaf_count=1053 395 54 33 64 319 79 20 198 126 48 57 341 212 34
internal_value=-1.71209 -1.74773 -1.78186 -1.82018 -1.74187 -1.75797 -1.83544 -1.72564 -1.74692 -1.72865 -1.72504 -1.64944 -1.80289 -1.72708
internal_weight=609.887 461.526 343.672 176.126 167.546 33.9621 142.164 131.797 86.7522 69.3541 26.3355 117.854 35.7495 17.0406
internal_count=3033 2638 2209 1273 936 200 1073 691 493 367 136 429 245 88
is_linear=0
shrinkage=1


Tree=1
num_leaves=15
num_cat=0
split_feature=11 12 2 19 1 4 4 9 2 1 3 22 1 22
split_gain=957.413 653.992 277.794 126.454 82.8917 78.3183 66.2028 59.4888 57.3282 54.6453 47.1858 44.7421 43.372 40.5872
threshold=1.0000000180025095e-35 1.0000000180025095e-35 0.12250000000000001 1.0000000180025095e-35 0.99050000000000027 0.20300000000000004 0.57450000000000012 1.0000000180025095e-35 0.084000000000000019 1.2085000000000001 0.16350000000000003 -0.27499999999999997 -0.40649999999999969 0.52500000000000013
decision_type=2 2 2 2 2 2 2 2 2 2 2 2 2 2
left_child=1 2 3 4 -1 -5 13 -2 -9 -8 -7 -12 -4 -3
right_child=7 6 12 5 -6 10 9 8 -10 -11 11 -13 -14 -15
leaf_value=-0.0095462080517997854 0.19771926572722109 0.17942396444581488 0.02585228756446338 -0.040506094258750992 0.049194592349255731 0.14126848660897998 0.12993175387527514 -0.00023028271884067538 0.15028209597766026 0.0081855215026827507 0.084095125345194505 -0.039470032542746072 0.10552708027843034 0.08805901200406957
leaf_weight=123.90753409266472 153.48310172557831 93.25850298255682 12.890255734324453 7.0953282862901679 54.567301884293556 20.880007356405258 19.538851551711563 5.0230833292007473 19.813273131847382 8.4734100699424726 19.521126754581928 5.4226941838860538 117.21861150115728 11.729565300047396
leaf_count=945 310 245 86 61 337 74 70 31 57 54 102 44 540 52
internal_value=0.108428 0.0794954 0.0513399 0.0248564 0.00858737 0.0785485 0.15507 0.18777 0.121011 0.0946563 0.0974542 0.0567466 0.0978909 0.170144
internal_weight=672.823 494.503 361.503 231.394 178.475 52.9192 133 178.319 24.8364 28.0123 45.8238 24.9438 130.109 104.988
internal_count=3008 2610 2189 1563 1282 281 421 398 88 124 220 146 626 297
is_linear=0
shrinkage=0.04


Tree=2
num_leaves=15
num_cat=0
split_feature=11 12 3 1 19 4 26 33 8 35 37 9 33 33
split_gain=766.938 458.017 202.829 102.59 72.4238 69.7834 76.8072 43.4084 42.096 54.5108 39.706 39.1235 42.9112 38.4598
threshold=1.0000000180025095e-35 1.0000000180025095e-35 0.21550000000000002 -0.26150000000000012 1.0000000180025095e-35 0.20700000000000005 0.12500000000000003 0.45650000000000007 1.0000000180025095e-35 0.40750000000000003 0.45000000000000007 1.0000000180025095e-35 0.35850000000000004 0.51950000000000018
decision_type=2 2 2 2 2 2 2 2 2 2 2 2 2 2
left_child=1 2 4 -4 7 -6 -7 -1 9 -5 -3 -2 -13 -9
right_child=11 10 3 8 5 6 -8 13 -10 -11 -12 12 -14 -15
leaf_value=-0.013323393249516429 0.16375429744380932 0.063181761410754933 0.0051613059289056552 0.018694669878655888 -0.041155684114662916 0.12657887566458478 -0.0031509838230402605 0.078987474450833053 0.10971987659863112 0.085888503888562215 0.13501396059339546 0.13856840516034261 0.028000161307882885 -0.010215029940452248
leaf_weight=116.16981069743633 173.41425231099129 16.688220642507076 32.324909374117851 28.771104499697685 8.4113185405731183 21.246146038174629 10.798931285738943 16.533745251595978 61.737911775708199 62.273966550827026 117.90123270452023 17.165911838412288 9.0062920153141004 13.469011776149271
leaf_count=889 321 80 230 180 74 71 69 88 245 291 328 44 46 101
internal_value=0.0900302 0.0636375 0.040549 0.0701027 0.0110187 0.0576843 0.0840886 -0.00220119 0.0837197 0.0650884 0.126639 0.156334 0.102951 0.0399043
internal_weight=705.913 506.326 371.737 185.108 186.629 40.4564 32.0451 146.173 152.783 91.0451 134.589 199.586 26.1722 30.0028
internal_count=3057 2646 2238 946 1292 214 140 1078 716 471 408 411 90 189
is_linear=0
shrinkage=0.04


Tree=3
num_leaves=15
num_cat=0
split_feature=2 11 12 19 12 1 33 34 5 5 36 31 7 4
split_gain=532.279 191.944 146.007 145.295 108.263 73.6079 71.4106 56.5091 42.0839 32.1415 31.4083 40.7196 41.4585 32.2351
threshold=0.081500000000000017 1.0000000180025095e-35 1.0000000180025095e-35 1.0000000180025095e-35 1.0000000180025095e-35 -0.3034999999999996 0.46550000000000008 0.29150000000000004 0.29166666666666669 1.0000000180025095e-35 0.18333333333333332 0.14350000000000002 0.70833333333333337 0.46800000000000003
decision_type=2 2 2 2 2 2 2 2 2 2 2 2 2 2
left_child=2 4 3 6 5 -2 9 -5 -8 -1 11 13 -13 -7
right_child=1 -3 -4 7 -6 10 8 -9 -10 -11 -12 12 -14 -15
leaf_value=-0.039944973888923721 0.006491701950612108 0.13909286166106816 0.10414699601680942 -0.017023983246764764 0.11855524594897697 0.015063554516904498 0.077079993538040154 0.09510889840906947 -0.039477804942537456 0.0026686937339444011 0.087856289787591899 -0.044074537625378371 0.070659392052350001 0.12198578699745563
leaf_weight=43.42984577268362 26.893479779362679 190.74923780560493 39.74832658469677 8.2163504138588888 111.70717757940292 7.4053791537880924 24.514719091355804 44.393530011177063 5.4889909252524367 77.786952577531338 126.14246325939894 11.514512591063978 7.4368026703596106 11.951810628175734
leaf_count=362 187 345 116 56 302 45 129 175 45 563 522 84 30 38
internal_value=0.083542 0.107388 0.0349591 0.0210244 0.0870395 0.0681198 0.000959217 0.0776057 0.0551709 -0.0128009 0.078098 0.0445481 0.00223384 0.0838304
internal_weight=737.38 493.801 243.579 203.83 303.052 191.344 151.221 52.6099 30.0037 121.217 164.451 38.3085 18.9513 19.3572
internal_count=2999 1553 1446 1330 1208 906 1099 231 174 925 719 197 114 83
is_linear=0
shrinkage=0.04


Tree=4
num_leaves=15
num_cat=0
split_feature=11 12 4 8 30 2 35 1 28 32 35 1 4 1
split_gain=524.051 306.63 128.622 75.1287 80.4932 55.5644 46.1878 42.7747 43.8997 37.5179 36.7504 43.7009 35.6899 33.8715
threshold=1.0000000180025095e-35 1.0000000180025095e-35 0.42350000000000004 1.0000000180025095e-35 0.54858934169279006 0.086500000000000007 0.47450000000000003 -0.26150000000000012 0.84375000000000011 0.41450000000000004 0.48350000000000004 -0.26150000000000012 0.57450000000000012 1.3250000000000002
decision_type=2 2 2 2 2 2 2 2 2 2 2 2 2 2
left_child=1 2 3 4 -1 6 -6 -4 -9 -7 11 -5 -3 -14
right_child=-2 12 7 10 5 9 -8 8 -10 -11 -12 -13 13 -15
leaf_value=-0.012500267216890215 0.12661811842195866 0.11180314637856306 0.016931611759501253 -0.013949783920728018 -0.0082379531976733145 0.12197367857717227 0.095387035913032214 0.079820608953870928 -0.016221882031882948 -0.0012135643255728429 -0.039829445301343705 0.088875676369727083 0.082517447421682072 -0.014155808563223224
leaf_weight=126.11875079572201 237.18720465898514 127.12863251566887 26.038235016167164 7.6805245727300635 31.41583913564682 16.200197294354442 7.7663629427552214 120.42628689855337 7.7964464202523223 5.1117774695157996 4.6482678055763236 37.591601297259331 24.533669605851177 7.1604740619659415
leaf_count=935 398 298 173 56 234 55 38 484 47 31 33 141 75 41
internal_value=0.0769701 0.0553535 0.0361463 0.0174901 0.00570693 0.0432514 0.0141644 0.0644555 0.0739005 0.0936965 0.0605611 0.0715066 0.102092 0.0609117
internal_weight=786.804 549.617 390.794 236.533 186.613 60.4942 39.1822 154.261 128.223 21.312 49.9204 45.2721 158.823 31.6941
internal_count=3039 2641 2227 1523 1293 358 272 704 531 86 230 197 414 116
is_linear=0
shrinkage=0.04


Tree=5
num_leaves=15
num_cat=0
split_feature=3 12 11 11 1 3 32 22 3 37 34 36 32 31
split_gain=334.732 125.049 105.589 84.76 56.6659 53.4274 43.8761 37.7058 43.2954 36.5755 54.2288 39.1542 45.3205 36.112
threshold=0.24500000000000002 1.0000000180025095e-35 1.0000000180025095e-35 1.0000000180025095e-35 0.99050000000000027 0.098000000000000018 0.27850000000000008 -0.67499999999999993 0.16350000000000003 0.81666666666666676 0.67000000000000015 0.18333333333333332 0.51750000000000018 0.14200000000000002
decision_type=2 2 2 2 2 2 2 2 2 2 2 2 2 2
left_child=1 3 6 4 7 -6 -2 8 -1 10 11 13 -13 -8
right_child=2 -3 -4 -5 5 -7 9 -9 -10 -11 -12 12 -14 -15
leaf_value=0.076753564013045825 0.0041450640697825118 0.092275001193195441 0.11208858594059543 0.089905380320929068 -0.016097043634964382 0.066627498569901938 0.055864770374093695 -0.0055626254527058987 -0.040780752124348035 0.093669365204330945 -0.043282203920131546 0.057684473428613457 0.10892523526076595 -0.043024972901112089
leaf_weight=18.61606148630381 13.521682657301424 53.943871304392815 219.27359564602375 27.848171100020409 15.952751435339449 51.436260811984539 15.411589086055757 128.07560716569424 6.0240827128291121 136.8271320015192 6.574882246553897 77.200655840337276 47.43641322851181 8.3364554941654188
leaf_count=91 79 129 347 65 116 233 67 938 46 404 42 311 130 60
internal_value=0.0713253 0.0375888 0.0906322 0.0253685 0.0168335 0.0470954 0.0749066 0.00326028 0.0475487 0.0781604 0.0639535 0.068963 0.0778983 0.0208149
internal_weight=826.479 301.897 524.582 247.953 220.105 67.389 305.309 152.716 24.6401 291.787 154.96 148.385 124.637 23.748
internal_count=3058 1618 1440 1489 1424 349 1093 1075 137 1014 610 568 441 127
is_linear=0
shrinkage=0.04


Tree=6
num_leaves=15
num_cat=0
split_feature=2 11 9 31 31 23 33 30 34 7 22 22 5 1
split_gain=367.32 118.801 98.0599 47.9026 42.1767 41.3133 40.0508 39.2706 42.4947 39.3841 37.0842 35.6287 34.371 25.2562
threshold=0.081500000000000017 1.0000000180025095e-35 1.0000000180025095e-35 0.093500000000000014 0.053500000000000006 -0.38333333333333325 0.36550000000000005 0.42261904761904767 0.45400000000000007 0.20833333333333334 0.52500000000000013 -0.3249999999999999 1.0000000180025095e-35 -2.1074999999999995
decision_type=2 2 2 2 2 2 2 2 2 2 2 2 2 2
left_child=2 5 7 4 10 -2 -6 9 -9 -1 -4 -11 -12 -7
right_child=1 -3 3 -5 6 13 -8 8 -10 11 12 -13 -14 -15
leaf_value=-0.020187289868264183 -0.0061191622697117079 0.10681401869195888 -0.044746089738462662 -0.013569780447813902 -0.0012948287916528733 0.021986761503178593 0.094663932170199874 0.081581567133324331 -0.016721830063897283 0.091562115785547821 -0.037889995882365982 -0.014218226907777264 0.09215096249040157 0.074667150976769667
leaf_weight=18.495476834475994 10.935976669192312 240.12800228595734 14.801313906908037 85.194879144430161 10.159374639391901 16.285697817802429 20.910480663180351 68.188243731856346 7.4898031726479521 14.609101563692095 4.4340875148773176 7.2049385607242575 7.8581687584519386 334.47357464581728
leaf_count=139 58 338 115 612 66 83 75 242 42 49 38 46 31 1117
internal_value=0.067651 0.0847872 0.0277127 0.00549592 0.0331797 0.0699096 0.0642249 0.0548905 0.0717614 0.0222463 -0.00344049 0.0575322 0.0459208 0.0722907
internal_weight=861.169 601.823 259.346 143.358 58.1634 361.695 31.0699 115.988 75.678 40.3095 27.0936 21.814 12.2923 350.759
internal_count=3051 1596 1455 937 325 1258 141 518 284 234 184 95 69 1200
is_linear=0
shrinkage=0.04


Tree=7
num_leaves=15
num_cat=0
split_feature=2 11 8 12 18 37 30 23 22 36 32 31 31 31
split_gain=328.255 104.214 89.6015 89.0652 43.5428 70.3926 46.1327 31.9692 34.8879 27.5826 35.224 48.1386 47.8186 34.933
threshold=0.06950000000000002 1.0000000180025095e-35 1.0000000180025095e-35 1.0000000180025095e-35 1.0000000180025095e-35 0.63333333333333341 0.31009615384615391 -0.21666666666666662 -0.074999999999999997 0.45000000000000007 0.29450000000000004 0.13650000000000004 0.36650000000000005 0.20750000000000002
decision_type=2 2 2 2 2 2 2 2 2 2 2 2 2 2
left_child=2 3 4 9 5 7 -7 8 -1 10 -2 -12 -13 -11
right_child=1 -3 -4 -5 -6 6 -8 -9 -10 13 11 12 -14 -15
leaf_value=-0.039833454096670995 -0.043918462791808714 0.096662791121135586 0.068908786774366695 0.088293373898204935 -0.024598908518015255 -0.041619447706326973 0.065644492868759022 -0.01433846046012747 0.078041568698234282 0.04521159594045944 0.065086347065111766 -0.022016837749622264 0.095459103374900281 0.088241025705715473
leaf_weight=4.9714049696922329 8.6483007892966253 256.0627669095993 50.822304405272007 142.08970585465431 44.760305926203728 6.5939119160175315 53.035478137433529 72.199924647808075 12.627700328826903 109.90994770824909 43.109277583658695 27.112716168165207 5.9059461057186118 43.961534947156906
leaf_count=38 59 354 164 305 357 51 211 510 55 466 168 166 16 123
internal_value=0.061626 0.0767507 0.0221637 0.0631408 0.00963946 0.0199907 0.0532923 -0.00246598 0.0443927 0.0478591 0.0289994 0.037745 0.00118412 0.0579956
internal_weight=881.811 636.8 245.011 380.737 194.189 149.428 59.6294 89.799 17.5991 238.648 84.7762 76.1279 33.0187 153.871
internal_count=3043 1657 1386 1303 1222 865 262 603 93 998 409 350 182 589
is_linear=0
shrinkage=0.04


end of trees

feature_importances:
Column_1=11
Column_4=9
Column_11=9
Column_12=8
Column_31=8
Column_2=7
Column_3=6
Column_22=6
Column_33=5
Column_34=5
Column_19=4
Column_32=4
Column_37=4
Column_5=3
Column_8=3
Column_9=3
Column_30=3
Column_35=3
Column_36=3
Column_7=2
Column_23=2
Column_13=1
Column_18=1
Column_26=1
Column_28=1

parameters:
[boosting: gbdt]
[objective: binary]
[metric: binary_logloss]
[tree_learner: serial]
[device_type: cpu]
[data_sample_strategy: bagging]
[data: ]
[valid: ]
[num_iterations: 400]
[learning_rate: 0.04]
[num_leaves: 15]
[num_threads: 0]
[seed: 0]
[deterministic: 0]
[force_col_wise: 0]
[force_row_wise: 0]
[histogram_pool_size: -1]
[max_depth: -1]
[min_data_in_leaf: 25]
[min_sum_hessian_in_leaf: 0.001]
[bagging_fraction: 0.85]
[pos_bagging_fraction: 1]
[neg_bagging_fraction: 1]
[bagging_freq: 1]
[bagging_seed: 3]
[bagging_by_query: 0]
[feature_fraction: 0.85]
[feature_fraction_bynode: 1]
[feature_fraction_seed: 2]
[extra_trees: 0]
[extra_seed: 6]
[early_stopping_round: 0]
[early_stopping_min_delta: 0]
[first_metric_only: 0]
[max_delta_step: 0]
[lambda_l1: 0]
[lambda_l2: 1]
[linear_lambda: 0]
[min_gain_to_split: 0]
[drop_rate: 0.1]
[max_drop: 50]
[skip_drop: 0.5]
[xgboost_dart_mode: 0]
[uniform_drop: 0]
[drop_seed: 4]
[top_rate: 0.2]
[other_rate: 0.1]
[min_data_per_group: 100]
[max_cat_threshold: 32]
[cat_l2: 10]
[cat_smooth: 10]
[max_cat_to_onehot: 4]
[top_k: 20]
[monotone_constraints: ]
[monotone_constraints_method: basic]
[monotone_penalty: 0]
[feature_contri: ]
[forcedsplits_filename: ]
[refit_decay_rate: 0.9]
[cegb_tradeoff: 1]
[cegb_penalty_split: 0]
[cegb_penalty_feature_lazy: ]
[cegb_penalty_feature_coupled: ]
[path_smooth: 0]
[interaction_constraints: ]
[verbosity: -1]
[saved_feature_importance_type: 0]
[use_quantized_grad: 0]
[num_grad_quant_bins: 4]
[quant_train_renew_leaf: 0]
[stochastic_rounding: 1]
[linear_tree: 0]
[max_bin: 255]
[max_bin_by_feature: ]
[min_data_in_bin: 3]
[bin_construct_sample_cnt: 200000]
[data_random_seed: 1]
[is_enable_sparse: 1]
[enable_bundle: 1]
[use_missing: 1]
[zero_as_missing: 0]
[feature_pre_filter: 1]
[pre_partition: 0]
[two_round: 0]
[header: 0]
[label_column: ]
[weight_column: ]
[group_column: ]
[ignore_column: ]
[categorical_feature: ]
[forcedbins_filename: ]
[precise_float_parser: 0]
[parser_config_file: ]
[objective_seed: 5]
[num_class: 1]
[is_unbalance: 0]
[scale_pos_weight: 6]
[sigmoid: 1]
[boost_from_average: 1]
[reg_sqrt: 0]
[alpha: 0.9]
[fair_c: 1]
[poisson_max_delta_step: 0.7]
[tweedie_variance_power: 1.5]
[lambdarank_truncation_level: 30]
[lambdarank_norm: 1]
[label_gain: ]
[lambdarank_position_bias_regularization: 0]
[eval_at: ]
[multi_error_top_k: 1]
[auc_mu_weights: ]
[num_machines: 1]
[local_listen_port: 12400]
[time_out: 120]
[machine_list_filename: ]
[machines: ]
[gpu_platform_id: -1]
[gpu_device_id: -1]
[gpu_use_dp: 0]
[num_gpu: 1]

end of parameters

pandas_categorical:null
