tree
version=v4
num_class=1
num_tree_per_iteration=1
label_index=0
max_feature_idx=44
objective=binary sigmoid:1
feature_names=Column_0 Column_1 Column_2 Column_3 Column_4 Column_5 Column_6 Column_7 Column_8 Column_9 Column_10 Column_11 Column_12 Column_13 Column_14 Column_15 Column_16 Column_17 Column_18 Column_19 Column_20 Column_21 Column_22 Column_23 Column_24 Column_25 Column_26 Column_27 Column_28 Column_29 Column_30 Column_31 Column_32 Column_33 Column_34 Column_35 Column_36 Column_37 Column_38 Column_39 Column_40 Column_41 Column_42 Column_43 Column_44
feature_infos=none [-7.4000000000000004:4.6560000000000006] [0:1] [0:1] [0:1] [0:1] [0:1] [0:1] [0:1] [0:1] [0:1] [0:1] [0:1] [0:1] [0:1] [0.25:1] [0:1] [0:1] [0:1] [-0.3666666666666667:1] [0:1] none [-1.05:1.1499999999999999] [-1:0.66666666666666663] [-0.90000000000000002:0.66666666666666663] [0:1] [0:1] [0:1] [0.0625:1] [0.45000000000000001:1] [0:1] [0.010999999999999999:1] [0.010999999999999999:1] [0.048000000000000001:1] [0.014:1] [0.028000000000000001:1] [0:1] [0:1] [0:1] [0:1] [0:1] [0:1] [0:1] [0:1] [0:1]
tree_sizes=1709 1728 1728 1739 1742 1744 1746

Tree=0
num_leaves=15
num_cat=0
split_feature=11 12 1 19 2 36 18 13 36 13 8 3 38 37
split_gain=3565.56 1594.18 990.252 558.006 377.576 221.686 181.432 148.82 130.869 81.263 68.2205 63.4645 62.3931 64.1394
threshold=1.0000000180025095e-35 1.0000000180025095e-35 2.5865000000000005 1.0000000180025095e-35 0.086500000000000007 0.81666666666666676 1.0000000180025095e-35 1.0000000180025095e-35 0.45000000000000007 1.0000000180025095e-35 1.0000000180025095e-35 0.44700000000000006 0.44010000000000005 0.22500000000000001
decision_type=2 2 2 2 2 2 2 2 2 2 2 2 2 2
left_child=1 2 3 4 -1 9 8 11 -4 10 -5 12 -6 -14
right_child=-2 -3 6 5 7 -7 -8 -9 -10 -11 -12 -13 13 -15
leaf_value=-1.8056037586030893 -1.5813232367877208 -1.6348740181588699 -1.7160282521441454 -1.7865198379594118 -1.7329473346437825 -1.6390206760290766 -1.8142498403868736 -1.6932983762557303 -1.6385118284106932 -1.6870227726008566 -1.7293953583697075 -1.7066778688195361 -1.8375968766944577 -1.7698006430509254
leaf_weight=376.42853312194347 382.8456058204174 287.19474479556084 49.762664958834648 45.888199970126152 42.98235060274601 52.789590537548065 12.228781566023825 70.95114740729332 160.66923545300961 53.879284247756004 132.21613195538521 27.000180706381798 30.99572366476059 73.61484307050705
leaf_count=2729 982 1057 266 314 245 196 91 346 602 255 747 138 246 478
internal_value=-1.68954 -1.71892 -1.74043 -1.75909 -1.7804 -1.7128 -1.66499 -1.74192 -1.65632 -1.73024 -1.74391 -1.76221 -1.77298 -1.78998
internal_weight=1799.45 1416.6 1129.41 906.746 621.973 284.773 222.661 245.544 210.432 231.984 178.104 174.593 147.593 104.611
internal_count=8692 7710 6653 5694 4182 1512 959 1453 868 1316 1061 1107 969 724
is_linear=0
shrinkage=1


Tree=1
num_leaves=15
num_cat=0
split_feature=2 18 15 3 20 1 30 30 2 18 15 37 22 30
split_gain=1658.75 543.774 467.207 284.376 275.742 194.66 164.737 139.795 133.609 132.587 135.983 101.465 92.8491 87.588
threshold=0.16050000000000003 1.0000000180025095e-35 0.62500000000000011 0.50600000000000012 1.0000000180025095e-35 1.1015000000000004 0.48610038610038614 0.4393382352941177 0.030500000000000003 1.0000000180025095e-35 0.62500000000000011 0.91666666666666685 0.52500000000000013 0.69782608695652182
decision_type=2 2 2 2 2 2 2 2 2 2 2 2 2 2
left_child=1 2 4 9 5 11 -5 8 -4 10 -2 -1 -9 -3
right_child=3 13 7 6 -6 -7 -8 12 -10 -11 -12 -13 -14 -15
leaf_value=0.0014956499954754798 0.10925903838768571 -0.010715054809964002 -0.005912314642558739 0.10055874199192034 0.10114603810960728 0.075393201373290378 0.18518639663864536 0.14035090231811029 0.09994243688270521 0.039525508554061374 0.15281545313713418 0.071511829385214595 0.064525236045902878 0.061897498630189507
leaf_weight=174.13207945227623 239.68712448328733 127.10406126827002 23.55292820930481 46.261466354131699 168.97792181372643 140.39093410968781 311.06220611929893 251.97378985583782 97.053898543119431 27.258802078664303 254.09180417656898 39.906278103590012 31.583620272576809 32.543319597840309
leaf_count=1240 1024 943 168 197 763 736 728 881 440 164 805 217 166 187
internal_value=0.105739 0.0726007 0.0843251 0.146627 0.0591901 0.0389589 0.174541 0.116649 0.0793918 0.127187 0.131936 0.0148216 0.132162 0.00437981
internal_weight=1965.58 1087.22 927.571 878.361 523.407 354.429 357.324 404.164 120.607 521.038 493.779 214.038 283.557 159.647
internal_count=8659 5741 4611 2918 2956 2193 925 1655 608 1993 1829 1457 1047 1130
is_linear=0
shrinkage=0.04


Tree=2
num_leaves=15
num_cat=0
split_feature=11 12 1 13 19 6 18 2 36 1 16 5 1 16
split_gain=2080.62 795.662 676.759 388.897 226.452 130.496 127.177 124.4 97.4452 92.8683 70.2603 61.3131 60.0828 55.2322
threshold=1.0000000180025095e-35 1.0000000180025095e-35 2.5210000000000004 1.0000000180025095e-35 1.0000000180025095e-35 0.12500000000000003 1.0000000180025095e-35 0.21750000000000003 0.45000000000000007 0.97950000000000037 1.0000000180025095e-35 0.20833333333333334 1.6300000000000006 1.0000000180025095e-35
decision_type=2 2 2 2 2 2 2 2 2 2 2 2 2 2
left_child=1 2 3 4 7 -6 8 -1 -4 10 -5 -11 -13 -9
right_child=-2 -3 6 9 5 -7 -8 13 -10 11 -12 12 -14 -15
leaf_value=0.002235121861934467 0.16218112262541454 0.12396949149914439 0.067637268633778627 0.016398290828064318 0.11887871764628055 0.041280657571852696 -0.010965694857709839 0.032446803072700162 0.12581974333855292 0.13029111560739939 0.081466651304320445 0.095033720123306215 -0.0077091419361666651 0.12743991704119076
leaf_weight=463.78796643018723 496.74784980714321 325.66468201577663 63.721476763486862 44.987667009234428 42.40592722594738 185.11185309290886 13.766403526067732 23.507939092814922 215.0622401535511 73.280696250498295 66.012392997741699 34.541392110288143 12.05275611579418 17.047361433506012
leaf_count=3224 992 1026 302 288 154 995 103 132 672 253 291 142 76 57
internal_value=0.0908105 0.0682969 0.0537664 0.0375055 0.0231652 0.0562007 0.106968 0.00818061 0.11281 0.0826675 0.0554767 0.107178 0.0688531 0.0744829
internal_weight=2077.7 1580.95 1255.29 962.736 731.861 227.518 292.55 504.343 278.784 230.875 111 119.875 46.5941 40.5553
internal_count=8707 7715 6689 5612 4562 1149 1077 3413 974 1050 579 471 218 189
is_linear=0
shrinkage=0.04


Tree=3
num_leaves=15
num_cat=0
split_feature=11 12 2 19 36 2 17 22 32 31 31 15 36 2
split_gain=1380.86 667.405 505.329 211.249 162.567 150.738 95.7486 80.6497 75.9913 69.4618 71.0618 68.5213 66.5098 79.0748
threshold=1.0000000180025095e-35 1.0000000180025095e-35 0.13650000000000004 1.0000000180025095e-35 0.45000000000000007 0.06950000000000002 1.0000000180025095e-35 -0.074999999999999997 0.71300000000000008 0.27200000000000008 0.061500000000000006 0.62500000000000011 0.63333333333333341 0.085500000000000007
decision_type=2 2 2 2 2 2 2 2 2 2 2 2 2 2
left_child=1 2 3 5 8 6 -1 -7 -4 10 -6 -8 13 -5
right_child=-2 -3 4 12 9 7 11 -9 -10 -11 -12 -13 -14 -15
leaf_value=-0.015307064129536963 0.13925430929316385 0.11282202987309051 0.038354037319337585 0.067683454121195474 -0.04144305985713851 -0.0052144296846831839 0.0041483992787090052 0.057969230733493617 0.11908441666960208 0.12530993237362853 0.088121977170598789 0.057897971498394284 0.099622079026200724 -0.001509009821093673
leaf_weight=206.68717028200626 527.07556763291359 363.38416428864002 151.60521737486124 98.703216925263405 6.4059303030371657 40.075600802898407 93.421265989542007 162.78407160192728 20.7246363312006 100.64288738369942 258.13665182888508 63.104474015533924 63.7548967897892 35.898564636707306
leaf_count=1545 981 1039 782 453 47 275 629 846 65 265 980 332 215 217
internal_value=0.0828397 0.0649117 0.0514632 0.0305031 0.0811596 0.0179949 0.00253735 0.0455227 0.0486938 0.0963052 0.0848403 0.0260479 0.06593 0.0493546
internal_weight=2192.4 1665.33 1301.94 764.429 537.515 566.073 363.213 202.86 172.33 365.185 264.543 156.526 198.357 134.602
internal_count=8671 7690 6651 4512 2139 3627 2506 1121 847 1292 1027 961 885 670
is_linear=0
shrinkage=0.04


Tree=4
num_leaves=15
num_cat=0
split_feature=11 12 1 13 19 35 6 18 7 30 5 1 1 35
split_gain=1339 536.507 438.076 227.489 176.727 119.204 103.14 101.061 71.3426 62.4525 61.6283 55.2814 46.4123 45.4034
threshold=1.0000000180025095e-35 1.0000000180025095e-35 2.5210000000000004 1.0000000180025095e-35 1.0000000180025095e-35 0.5485000000000001 0.29166666666666669 1.0000000180025095e-35 1.0000000180025095e-35 0.23904761904761906 1.0000000180025095e-35 0.81250000000000011 0.91300000000000037 0.38550000000000006
decision_type=2 2 2 2 2 2 2 2 2 2 2 2 2 2
left_child=1 2 3 4 5 11 10 9 -5 13 -6 -1 -10 -4
right_child=-2 -3 7 8 6 -7 -8 -9 12 -11 -12 -13 -14 -15
leaf_value=-0.010456883144165008 0.12781323167354802 0.099959569798987333 0.083546123055608545 0.040093943574938201 0.12095704795330985 0.059141882635578541 0.030279420183045393 -0.013980573428126189 0.05691158630580076 0.096465673362016502 0.051874823569694792 0.017916065870316845 0.10449898031801383 -0.027232055010875392
leaf_weight=263.49302193522453 592.73109036684036 378.79949790239334 10.125572726130487 102.57090828567743 40.084287479519844 64.359194107353687 157.41047078371048 15.008398652076719 62.565303862094879 284.95578202605247 47.047779142856598 186.9543042331934 81.561548888683319 11.879044473171232
leaf_count=1906 974 1024 32 534 113 321 807 110 265 858 214 1167 242 71
internal_value=0.0760317 0.0579851 0.0459462 0.0328916 0.0219972 0.00866041 0.0499241 0.0865096 0.0662007 0.0914523 0.0846673 0.00133267 0.0843758 0.0251591
internal_weight=2299.55 1706.82 1328.02 1006.05 759.349 514.807 244.543 321.969 246.698 306.96 87.1321 450.447 144.127 22.0046
internal_count=8638 7664 6640 5569 4528 3394 1134 1071 1041 961 327 3073 507 103
is_linear=0
shrinkage=0.04


Tree=5
num_leaves=15
num_cat=0
split_feature=11 2 36 18 12 19 1 36 18 38 12 31 37 30
split_gain=934.412 468.589 245.835 190.729 186.722 173.69 122.411 97.6377 76.95 69.0911 67.8069 65.7128 54.4189 59.2653
threshold=1.0000000180025095e-35 0.072000000000000008 0.45000000000000007 1.0000000180025095e-35 1.0000000180025095e-35 1.0000000180025095e-35 1.3405000000000002 0.70833333333333348 1.0000000180025095e-35 0.44345000000000007 1.0000000180025095e-35 0.37200000000000005 0.91666666666666685 0.27429467084639503
decision_type=2 2 2 2 2 2 2 2 2 2 2 2 2 2
left_child=1 4 10 7 5 6 -1 12 -8 -7 11 -3 13 -4
right_child=-2 2 3 -5 -6 9 8 -9 -10 -11 -12 -13 -14 -15
leaf_value=-0.01147843232808057 0.11265753185133613 0.026559051561196163 0.0023839496619809694 0.018313927856873368 0.075279152155777865 0.075649147320214896 0.057798886661612654 0.098792430940273304 -0.031814227038211705 0.0028602642557884273 0.085033962791749101 0.08989755048735186 0.090930674903710845 0.06519120890056751
leaf_weight=271.92269367724657 618.76708576083183 260.67009004950523 27.624562717974186 71.998985432088375 101.20211541652679 87.40806046128273 78.44505088031292 459.42314177751541 18.312095612287521 27.415484249591827 46.48087152838707 28.461265213787556 127.85179589688778 188.24673306941986
leaf_count=1994 989 1369 150 421 300 327 376 1168 145 147 121 91 386 712
internal_value=0.0702666 0.0556029 0.0698002 0.0809743 0.0261354 0.015715 0.00228498 0.0865618 0.0406869 0.0584447 0.0405086 0.0330823 0.0699751 0.057202
internal_weight=2414.23 1795.46 1210.76 875.145 584.706 483.503 368.68 803.146 96.7571 114.824 335.612 289.131 343.723 215.871
internal_count=8696 7707 4418 2837 3289 2989 2515 2416 521 474 1581 1460 1248 862
is_linear=0
shrinkage=0.04


Tree=6
num_leaves=15
num_cat=0
split_feature=11 2 36 12 8 18 12 1 32 33 36 33 35 22
split_gain=838.712 407.307 238.703 177.174 179.908 141.59 89.4465 69.8681 65.0656 52.4509 49.5735 49.0969 50.8033 45.4806
threshold=1.0000000180025095e-35 0.072000000000000008 0.45000000000000007 1.0000000180025095e-35 1.0000000180025095e-35 1.0000000180025095e-35 1.0000000180025095e-35 2.5555000000000003 0.71300000000000008 0.35150000000000003 0.81666666666666676 0.51800000000000013 0.17650000000000002 -0.57499999999999984
decision_type=2 2 2 2 2 2 2 2 2 2 2 2 2 2
left_child=1 3 6 4 7 10 8 -1 -3 -7 -4 12 -5 -6
right_child=-2 2 5 11 13 9 -8 -9 -10 -11 -12 -13 -14 -15
leaf_value=-0.0025237061592309697 0.10417845712806628 0.02107251331730842 0.068475681938354183 -0.043021275450993227 0.088718820918942565 0.05887590543207763 0.082770213627337788 0.060221691442885333 0.089810290366465359 -0.0078257775095546839 0.088651532155014381 -0.020554880879893433 0.086668402325806276 0.028086344876823949
leaf_weight=365.25474511086941 665.59906592965126 266.38775280863047 379.59184117615223 4.5302608609199515 52.813387632369995 33.045984476804733 53.942591995000839 29.782561175525188 23.192943200469017 41.839057363569736 469.7505115121603 8.0755377262830716 88.706180706620216 33.332766510546207
leaf_count=2525 993 1393 1284 25 170 160 130 114 67 266 1148 39 219 154
internal_value=0.0656702 0.0517686 0.0644872 0.0240246 0.0138288 0.075077 0.0358609 0.0023469 0.0268679 0.0219969 0.0797256 0.0718413 0.0799773 0.0658496
internal_weight=2515.85 1850.25 1267.75 582.495 481.183 924.227 343.523 395.037 289.581 74.885 849.342 101.312 93.2364 86.1462
internal_count=8687 7694 4448 3246 2963 2858 1590 2639 1460 426 2432 283 244 324
is_linear=0
shrinkage=0.04


end of trees

feature_importances:
Column_1=10
Column_2=9
Column_36=9
Column_12=8
Column_18=8
Column_11=6
Column_19=5
Column_30=5
Column_13=4
Column_15=3
Column_22=3
Column_31=3
Column_35=3
Column_37=3
Column_3=2
Column_5=2
Column_6=2
Column_8=2
Column_16=2
Column_32=2
Column_33=2
Column_38=2
Column_7=1
Column_17=1
Column_20=1

parameters:
[boosting: gbdt]
[objective: binary]
[metric: binary_logloss]
[tree_learner: serial]
[device_type: cpu]
[data_sample_strategy: bagging]
[data: ]
[valid: ]
[num_iterations: 400]
[learning_rate: 0.04]
[num_leaves: 15]
[num_threads: 0]
[seed: 0]
[deterministic: 0]
[force_col_wise: 0]
[force_row_wise: 0]
[histogram_pool_size: -1]
[max_depth: -1]
[min_data_in_leaf: 25]
[min_sum_hessian_in_leaf: 0.001]
[bagging_fraction: 0.85]
[pos_bagging_fraction: 1]
[neg_bagging_fraction: 1]
[bagging_freq: 1]
[bagging_seed: 3]
[bagging_by_query: 0]
[feature_fraction: 0.85]
[feature_fraction_bynode: 1]
[feature_fraction_seed: 2]
[extra_trees: 0]
[extra_seed: 6]
[early_stopping_round: 0]
[early_stopping_min_delta: 0]
[first_metric_only: 0]
[max_delta_step: 0]
[lambda_l1: 0]
[lambda_l2: 1]
[linear_lambda: 0]
[min_gain_to_split: 0]
[drop_rate: 0.1]
[max_drop: 50]
[skip_drop: 0.5]
[xgboost_dart_mode: 0]
[uniform_drop: 0]
[drop_seed: 4]
[top_rate: 0.2]
[other_rate: 0.1]
[min_data_per_group: 100]
[max_cat_threshold: 32]
[cat_l2: 10]
[cat_smooth: 10]
[max_cat_to_onehot: 4]
[top_k: 20]
[monotone_constraints: ]
[monotone_constraints_method: basic]
[monotone_penalty: 0]
[feature_contri: ]
[forcedsplits_filename: ]
[refit_decay_rate: 0.9]
[cegb_tradeoff: 1]
[cegb_penalty_split: 0]
[cegb_penalty_feature_lazy: ]
[cegb_penalty_feature_coupled: ]
[path_smooth: 0]
[interaction_constraints: ]
[verbosity: -1]
[saved_feature_importance_type: 0]
[use_quantized_grad: 0]
[num_grad_quant_bins: 4]
[quant_train_renew_leaf: 0]
[stochastic_rounding: 1]
[linear_tree: 0]
[max_bin: 255]
[max_bin_by_feature: ]
[min_data_in_bin: 3]
[bin_construct_sample_cnt: 200000]
[data_random_seed: 1]
[is_enable_sparse: 1]
[enable_bundle: 1]
[use_missing: 1]
[zero_as_missing: 0]
[feature_pre_filter: 1]
[pre_partition: 0]
[two_round: 0]
[header: 0]
[label_column: ]
[weight_column: ]
[group_column: ]
[ignore_column: ]
[categorical_feature: ]
[forcedbins_filename: ]
[precise_float_parser: 0]
[parser_config_file: ]
[objective_seed: 5]
[num_class: 1]
[is_unbalance: 0]
[scale_pos_weight: 6]
[sigmoid: 1]
[boost_from_average: 1]
[reg_sqrt: 0]
[alpha: 0.9]
[fair_c: 1]
[poisson_max_delta_step: 0.7]
[tweedie_variance_power: 1.5]
[lambdarank_truncation_level: 30]
[lambdarank_norm: 1]
[label_gain: ]
[lambdarank_position_bias_regularization: 0]
[eval_at: ]
[multi_error_top_k: 1]
[auc_mu_weights: ]
[num_machines: 1]
[local_listen_port: 12400]
[time_out: 120]
[machine_list_filename: ]
[machines: ]
[gpu_platform_id: -1]
[gpu_device_id: -1]
[gpu_device_id_list: ]
[gpu_use_dp: 0]
[num_gpu: 1]

end of parameters

pandas_categorical:null
