tree
version=v4
num_class=1
num_tree_per_iteration=1
label_index=0
max_feature_idx=44
objective=binary sigmoid:1
feature_names=Column_0 Column_1 Column_2 Column_3 Column_4 Column_5 Column_6 Column_7 Column_8 Column_9 Column_10 Column_11 Column_12 Column_13 Column_14 Column_15 Column_16 Column_17 Column_18 Column_19 Column_20 Column_21 Column_22 Column_23 Column_24 Column_25 Column_26 Column_27 Column_28 Column_29 Column_30 Column_31 Column_32 Column_33 Column_34 Column_35 Column_36 Column_37 Column_38 Column_39 Column_40 Column_41 Column_42 Column_43 Column_44
feature_infos=none [-7.4000000000000004:4.4329999999999998] [0:0.94099999999999995] [0:1] [0:1] [0:1] [0:1] [0:1] [0:1] [0:1] [0:1] [0:1] [0:1] [0:1] [0:1] [0.25:1] [0:1] [0:1] [0:1] [-0.3666666666666667:1] [0:1] none [-1.05:1.1499999999999999] [-1:0.66666666666666663] [-0.90000000000000002:0.66666666666666663] [0:1] [0:1] [0:1] [0.0625:1] [0.45000000000000001:1] [0:1] [0.010999999999999999:1] [0.010999999999999999:1] [0.048000000000000001:1] [0.014:1] [0.028000000000000001:1] [0:1] [0:1] [0:1] [0:1] [0:1] [0:1] [0:1] [0:1] [0:1]
tree_sizes=1692 1720 1718 1741 1731 1738

Tree=0
num_leaves=15
num_cat=0
split_feature=11 12 1 8 2 36 36 2 30 34 2 30 1 23
split_gain=2506.69 1249.2 721.071 474.03 336.815 121.339 71.9241 66.1734 51.9636 51.3076 57.5567 55.6894 50.662 49.0291
threshold=1.0000000180025095e-35 1.0000000180025095e-35 2.6165000000000003 1.0000000180025095e-35 0.06950000000000002 0.45000000000000007 0.63333333333333341 0.32150000000000006 0.23904761904761906 0.38750000000000007 0.18800000000000003 0.32071428571428579 0.74050000000000027 -0.34999999999999992
decision_type=2 2 2 2 2 2 2 2 2 2 2 2 2 2
left_child=1 2 3 4 -1 7 -5 -6 -4 11 12 -7 -11 -3
right_child=-2 13 8 6 5 9 -8 -9 -10 10 -12 -13 -14 -15
leaf_value=-1.8074623952356001 -1.5829775146458638 -1.7512138935968846 -1.7506011149526937 -1.7167236775430157 -1.7952910896137373 -1.7713512690509283 -1.6564847771979281 -1.6876433587874033 -1.6414464888541831 -1.824474425103626 -1.7003279855817561 -1.6804480240489394 -1.7446065591072686 -1.6291867669656908
leaf_weight=264.54555008560419 281.99611584097147 6.5439577996730796 8.8464614674448949 135.12061079591513 74.891960754990578 14.299759566783903 45.686520956456661 9.4523836076259595 108.21767457574606 17.571738265454769 30.780838802456856 59.137989714741707 41.566250465810299 210.61849811673164
leaf_count=1933 737 39 53 730 528 93 187 43 413 135 154 273 248 753
internal_value=-1.68849 -1.71764 -1.74063 -1.75628 -1.77605 -1.74263 -1.70076 -1.78198 -1.64915 -1.72258 -1.74409 -1.69744 -1.76825 -1.63259
internal_weight=1309.28 1027.28 810.118 693.054 512.246 247.701 180.807 84.3443 117.064 163.357 89.9188 73.4377 59.138 217.162
internal_count=6319 5582 4790 4324 3407 1474 917 571 466 903 537 366 383 792
is_linear=0
shrinkage=1


Tree=1
num_leaves=15
num_cat=0
split_feature=2 20 17 9 37 2 30 2 18 14 37 3 34 15
split_gain=1243 358.444 430.452 233.41 230.65 146.498 136.809 117.413 105.961 86.1707 84.7597 68.9535 56.1066 55.5025
threshold=0.12950000000000003 1.0000000180025095e-35 1.0000000180025095e-35 1.0000000180025095e-35 0.63333333333333341 0.027500000000000004 0.64852941176470602 0.06950000000000002 1.0000000180025095e-35 1.0000000180025095e-35 0.91666666666666685 0.44050000000000006 0.56150000000000022 0.62500000000000011
decision_type=2 2 2 2 2 2 2 2 2 2 2 2 2 2
left_child=1 2 7 6 13 -6 9 -1 10 -2 12 -10 -5 -4
right_child=3 -3 4 8 5 -7 -8 -9 11 -11 -12 -13 -14 -15
leaf_value=-0.0079574060554762523 0.1402826886430116 0.11669827429188143 0.020691090348041698 0.056652388200428963 0.040826496628550542 0.13835995643431984 0.17423234558804779 0.050956330503604381 -0.030559902297082477 0.060899375570618058 0.15261393127519834 0.11275527953929404 0.15120086103331618 0.07243016455415506
leaf_weight=161.47809885442257 282.64928255975246 179.15472665429115 70.648410506546497 50.204628668725491 32.320625171065331 119.31010053306818 283.38245511800051 80.252358064055443 16.355573385953907 26.068419344723225 43.555755145847797 6.7995076999068251 12.535621844232081 63.497930318117142
leaf_count=1193 979 747 462 273 196 432 748 464 123 141 136 28 41 326
internal_value=0.105734 0.0678738 0.0511023 0.142667 0.0842485 0.117974 0.153411 0.0117308 0.092727 0.133798 0.109485 0.0144504 0.0776191 0.0455364
internal_weight=1428.21 706.662 527.508 721.551 285.777 151.631 592.1 241.73 129.451 308.718 106.296 23.1551 62.7403 134.146
internal_count=6289 3820 3073 2469 1416 628 1868 1657 601 1120 450 151 314 788
is_linear=0
shrinkage=0.04


Tree=2
num_leaves=15
num_cat=0
split_feature=11 12 1 19 2 36 32 32 2 5 3 34 36 38
split_gain=1459.05 643.08 488.276 245.852 199.016 105.354 76.3313 72.7353 60.3531 69.412 52.2811 61.6262 48.3654 49.2919
threshold=1.0000000180025095e-35 1.0000000180025095e-35 2.5015000000000005 1.0000000180025095e-35 0.10100000000000002 0.81666666666666676 0.54550000000000021 0.6775000000000001 0.25850000000000006 0.29166666666666669 0.35250000000000009 0.36450000000000005 0.45000000000000007 0.39407500000000006
decision_type=2 2 2 2 2 2 2 2 2 2 2 2 2 2
left_child=1 2 3 4 -1 -5 10 8 12 -10 -4 -12 13 -6
right_child=-2 -3 6 5 7 -7 -8 -9 9 -11 11 -13 -14 -15
leaf_value=0.0015054996516732447 0.15966110037341666 0.12388296227179607 0.10598545694918608 0.057420302450293351 0.067868068538515555 0.12776612344203161 0.15281333109088127 0.15649602904428711 0.12960238571415078 -0.011886456290861771 0.10203133565827444 -0.026283498626871894 0.052706846350926789 -0.024226869599936175
leaf_weight=312.60616412758827 360.63481430709362 250.74194158613682 91.064678408205509 199.63671471178532 11.894741050899027 41.468824833631516 53.963922612369061 9.7918679490685445 23.556028589606289 6.9617941305041304 10.462451413273813 11.869376033544539 87.855078816413879 32.347234435379505
leaf_count=2195 748 786 346 990 60 131 132 25 76 45 36 76 463 235
internal_value=0.0895568 0.0673413 0.0513529 0.0370588 0.0205744 0.0699972 0.112782 0.0549418 0.0479076 0.0979726 0.0925622 0.0356285 0.0356921 0.00148628
internal_weight=1504.86 1144.22 893.479 726.118 485.013 241.106 167.36 172.407 162.615 30.5178 113.397 22.3318 132.097 44.242
internal_count=6344 5596 4810 4220 3099 1121 590 904 879 121 458 112 758 295
is_linear=0
shrinkage=0.04


Tree=3
num_leaves=15
num_cat=0
split_feature=11 12 9 36 13 2 34 36 22 26 15 22 31 22
split_gain=955.394 538.014 326.333 198.094 131.107 129.114 107.741 57.1715 50.9429 48.5395 46.1947 45.2228 52.6799 43.6992
threshold=1.0000000180025095e-35 1.0000000180025095e-35 1.0000000180025095e-35 0.63333333333333341 1.0000000180025095e-35 0.06950000000000002 0.26150000000000007 0.45000000000000007 1.0000000180025095e-35 0.54166666666666685 0.87500000000000011 1.0000000180025095e-35 0.11850000000000001 -0.074999999999999997
decision_type=2 2 2 2 2 2 2 2 2 2 2 2 2 2
left_child=1 2 3 4 6 11 -1 -7 13 10 -8 -4 -13 -5
right_child=-2 -3 5 8 -6 7 9 -9 -10 -11 -12 12 -14 -15
leaf_value=-0.020491575682563292 0.13863758616959523 0.1154266508937257 0.032286882834032804 0.089442401248149436 0.10937838506587237 0.013475250420601026 0.052610279764807373 0.062003842439288352 0.039723391993608782 0.11734537498384202 -0.011056739264015757 0.016033666439868755 -0.030998205345528489 0.13306335151253415
leaf_weight=36.734605744481087 391.23983684182167 279.22499467432499 59.951202780008316 84.182494379580021 57.021703481674194 54.725587837398052 215.63260181993246 138.66146203130484 18.580327264964581 16.601211696863174 19.566681638360023 72.261497214436531 78.546420723199844 87.200508996844292
leaf_count=267 744 778 368 314 202 340 1059 660 95 51 122 485 617 220
internal_value=0.0842595 0.0667058 0.052121 0.072581 0.0542716 0.0248978 0.043041 0.048411 0.105429 0.052354 0.0472893 0.00319598 -0.00850513 0.11228
internal_weight=1610.13 1218.89 939.666 535.52 345.557 404.146 288.535 193.387 189.963 251.8 235.199 210.759 150.808 171.383
internal_count=6322 5578 4800 2330 1701 2470 1499 1000 629 1232 1181 1470 1102 534
is_linear=0
shrinkage=0.04


Tree=4
num_leaves=15
num_cat=0
split_feature=11 12 1 19 2 35 35 31 15 31 31 7 7 1
split_gain=918.908 413.364 331.614 182.602 157.263 72.6713 69.8703 55.2451 51.3473 50.8089 72.8369 42.9248 42.0407 41.3632
threshold=1.0000000180025095e-35 1.0000000180025095e-35 2.5015000000000005 1.0000000180025095e-35 0.059000000000000004 0.59600000000000009 0.57650000000000012 0.26550000000000007 0.62500000000000011 0.090500000000000011 0.18450000000000003 0.95833333333333337 1.0000000180025095e-35 0.65649999999999997
decision_type=2 2 2 2 2 2 2 2 2 2 2 2 2 2
left_child=1 2 3 4 13 -6 8 -4 -5 -10 -11 -8 -7 -1
right_child=-2 -3 7 6 5 12 11 -9 9 10 -12 -13 -14 -15
leaf_value=-0.018888488239276715 0.12654630064819281 0.10033425004291663 0.078641526034723838 0.082448939522815637 0.032880624796738624 0.043650818996623542 -0.02599875987053283 0.12906365951142981 -0.044148495474248615 0.077121536195112847 -0.028526360353193538 0.056164659315287802 0.13825849049456571 0.014329019464945865
leaf_weight=130.21780980378389 428.79612305760384 290.61768256127834 141.10855437070131 154.16717949509621 230.19837030768394 15.094884701073168 21.554854646325111 51.105277597904205 9.2106827646493894 44.935236588120461 12.936730548739432 17.595390766859055 17.135430306196213 109.52049634605646
leaf_count=989 729 777 506 585 1245 73 130 100 62 174 80 72 40 736
internal_value=0.0760577 0.0585867 0.0457879 0.0338708 0.0197092 0.0410429 0.0610008 0.0926462 0.0696856 0.0395732 0.0534216 0.0114073 0.0965965 -0.00371713
internal_weight=1674.19 1245.4 954.781 762.567 502.167 262.429 260.4 192.214 221.25 67.0826 57.872 39.1502 32.2303 239.738
internal_count=6298 5569 4792 4186 3083 1358 1103 606 901 316 254 202 113 1725
is_linear=0
shrinkage=0.04


Tree=5
num_leaves=15
num_cat=0
split_feature=11 2 36 18 19 12 1 37 38 2 6 25 31 33
split_gain=664.691 353.168 159.11 171.46 145.028 165.679 94.6161 79.1923 61.0863 59.267 40.7492 38.8415 38.0428 37.897
threshold=1.0000000180025095e-35 0.06950000000000002 0.70833333333333348 1.0000000180025095e-35 1.0000000180025095e-35 1.0000000180025095e-35 2.8305000000000002 0.91666666666666685 0.44345000000000007 0.13950000000000001 0.37500000000000006 0.63000000000000012 0.23550000000000001 0.28350000000000003
decision_type=2 2 2 2 2 2 2 2 2 2 2 2 2 2
left_child=1 4 7 11 5 6 12 9 -6 10 -3 -4 -1 -5
right_child=-2 2 3 13 8 -7 -8 -9 -10 -11 -12 -13 -14 -15
leaf_value=-0.0084530597792794385 0.11197553772844598 0.032141033989290198 0.079712352218114513 0.063715274622099097 0.084877226345262444 0.074754624266405612 0.097989636924253332 0.076343508443579788 0.01619351625668395 0.056860271296929284 -0.026620849066047333 0.11049185518435231 0.081144831594712502 -0.026124009460261912
leaf_weight=250.29698137938976 456.1982319355011 97.303049638867378 118.30880743265152 10.103456899523733 77.563633099198341 56.280637815594673 13.871385335922239 190.33928690105677 28.883772656321526 196.57792443037033 22.564572632312775 208.70708744227886 6.8225074112415305 22.240896135568619
leaf_count=1818 749 499 367 44 264 170 39 665 146 786 141 459 31 141
internal_value=0.0704316 0.0557765 0.0705254 0.090969 0.0262283 0.0129459 -0.000118499 0.0558782 0.0665645 0.0433668 0.0209506 0.0996333 -0.00577048 0.00300844
internal_weight=1756.06 1299.86 866.145 359.36 433.719 327.272 270.991 506.785 106.447 316.446 119.868 327.016 257.119 32.3444
internal_count=6319 5570 3102 1011 2468 2058 1888 2091 410 1426 640 826 1849 185
is_linear=0
shrinkage=0.04


end of trees

feature_importances:
Column_2=12
Column_36=7
Column_1=6
Column_11=5
Column_12=5
Column_31=5
Column_34=4
Column_15=3
Column_19=3
Column_22=3
Column_30=3
Column_37=3
Column_3=2
Column_7=2
Column_9=2
Column_18=2
Column_32=2
Column_35=2
Column_38=2
Column_5=1
Column_6=1
Column_8=1
Column_13=1
Column_14=1
Column_17=1
Column_20=1
Column_23=1
Column_25=1
Column_26=1
Column_33=1

parameters:
[boosting: gbdt]
[objective: binary]
[metric: binary_logloss]
[tree_learner: serial]
[device_type: cpu]
[data_sample_strategy: bagging]
[data: ]
[valid: ]
[num_iterations: 400]
[learning_rate: 0.04]
[num_leaves: 15]
[num_threads: 0]
[seed: 0]
[deterministic: 0]
[force_col_wise: 0]
[force_row_wise: 0]
[histogram_pool_size: -1]
[max_depth: -1]
[min_data_in_leaf: 25]
[min_sum_hessian_in_leaf: 0.001]
[bagging_fraction: 0.85]
[pos_bagging_fraction: 1]
[neg_bagging_fraction: 1]
[bagging_freq: 1]
[bagging_seed: 3]
[bagging_by_query: 0]
[feature_fraction: 0.85]
[feature_fraction_bynode: 1]
[feature_fraction_seed: 2]
[extra_trees: 0]
[extra_seed: 6]
[early_stopping_round: 0]
[early_stopping_min_delta: 0]
[first_metric_only: 0]
[max_delta_step: 0]
[lambda_l1: 0]
[lambda_l2: 1]
[linear_lambda: 0]
[min_gain_to_split: 0]
[drop_rate: 0.1]
[max_drop: 50]
[skip_drop: 0.5]
[xgboost_dart_mode: 0]
[uniform_drop: 0]
[drop_seed: 4]
[top_rate: 0.2]
[other_rate: 0.1]
[min_data_per_group: 100]
[max_cat_threshold: 32]
[cat_l2: 10]
[cat_smooth: 10]
[max_cat_to_onehot: 4]
[top_k: 20]
[monotone_constraints: ]
[monotone_constraints_method: basic]
[monotone_penalty: 0]
[feature_contri: ]
[forcedsplits_filename: ]
[refit_decay_rate: 0.9]
[cegb_tradeoff: 1]
[cegb_penalty_split: 0]
[cegb_penalty_feature_lazy: ]
[cegb_penalty_feature_coupled: ]
[path_smooth: 0]
[interaction_constraints: ]
[verbosity: -1]
[saved_feature_importance_type: 0]
[use_quantized_grad: 0]
[num_grad_quant_bins: 4]
[quant_train_renew_leaf: 0]
[stochastic_rounding: 1]
[linear_tree: 0]
[max_bin: 255]
[max_bin_by_feature: ]
[min_data_in_bin: 3]
[bin_construct_sample_cnt: 200000]
[data_random_seed: 1]
[is_enable_sparse: 1]
[enable_bundle: 1]
[use_missing: 1]
[zero_as_missing: 0]
[feature_pre_filter: 1]
[pre_partition: 0]
[two_round: 0]
[header: 0]
[label_column: ]
[weight_column: ]
[group_column: ]
[ignore_column: ]
[categorical_feature: ]
[forcedbins_filename: ]
[precise_float_parser: 0]
[parser_config_file: ]
[objective_seed: 5]
[num_class: 1]
[is_unbalance: 0]
[scale_pos_weight: 6]
[sigmoid: 1]
[boost_from_average: 1]
[reg_sqrt: 0]
[alpha: 0.9]
[fair_c: 1]
[poisson_max_delta_step: 0.7]
[tweedie_variance_power: 1.5]
[lambdarank_truncation_level: 30]
[lambdarank_norm: 1]
[label_gain: ]
[lambdarank_position_bias_regularization: 0]
[eval_at: ]
[multi_error_top_k: 1]
[auc_mu_weights: ]
[num_machines: 1]
[local_listen_port: 12400]
[time_out: 120]
[machine_list_filename: ]
[machines: ]
[gpu_platform_id: -1]
[gpu_device_id: -1]
[gpu_use_dp: 0]
[num_gpu: 1]

end of parameters

pandas_categorical:null
