tree
version=v4
num_class=1
num_tree_per_iteration=1
label_index=0
max_feature_idx=44
objective=binary sigmoid:1
feature_names=Column_0 Column_1 Column_2 Column_3 Column_4 Column_5 Column_6 Column_7 Column_8 Column_9 Column_10 Column_11 Column_12 Column_13 Column_14 Column_15 Column_16 Column_17 Column_18 Column_19 Column_20 Column_21 Column_22 Column_23 Column_24 Column_25 Column_26 Column_27 Column_28 Column_29 Column_30 Column_31 Column_32 Column_33 Column_34 Column_35 Column_36 Column_37 Column_38 Column_39 Column_40 Column_41 Column_42 Column_43 Column_44
feature_infos=none [-7.4000000000000004:4.4329999999999998] [0:0.94099999999999995] [0:1] [0:1] [0:1] [0:1] [0:1] [0:1] [0:1] [0:1] [0:1] [0:1] [0:1] [0:1] [0.25:1] [0:1] [0:1] [0:1] [-0.3666666666666667:1] [0:1] none [-1.05:1.1000000000000001] [-0.83333333333333337:0.59999999999999998] [-0.56666666666666665:0.5] [0:1] [0:1] [0:1] [0.10416666666666674:1] [0.45000000000000001:1] [0:1] [0.010999999999999999:1] [0.010999999999999999:1] [0.048000000000000001:1] [0.014:1] [0.028000000000000001:1] [0:1] [0:1] [0.15050000000000002:0.84949999999999992] [0:1] [0:1] [0:1] [0:1] [0:1] [0:1]
tree_sizes=1698 1705 1713 1736 1728 1734 1737

Tree=0
num_leaves=15
num_cat=0
split_feature=11 12 2 6 1 1 9 2 37 36 9 22 14 18
split_gain=1756.33 1035.86 730.146 238.5 203.81 115.864 86.5819 82.5167 78.9894 72.6016 64.6259 61.8781 81.6376 61.4973
threshold=1.0000000180025095e-35 1.0000000180025095e-35 0.06950000000000002 0.62500000000000011 2.8275000000000001 -2.0694999999999997 1.0000000180025095e-35 0.10750000000000003 0.45000000000000007 0.45000000000000007 1.0000000180025095e-35 -0.62499999999999989 1.0000000180025095e-35 1.0000000180025095e-35
decision_type=2 2 2 2 2 2 2 2 2 2 2 2 2 2
left_child=1 2 3 11 5 -4 -7 -6 -3 -8 -2 12 -1 -11
right_child=10 8 4 -5 7 6 9 -9 -10 13 -12 -13 -14 -15
leaf_value=-1.8182583924822007 -1.5850873346797145 -1.7151874452471834 -1.8449219824532939 -1.6979996395159871 -1.7745033903999623 -1.7073660131119528 -1.8085065043469353 -1.6238074756418364 -1.627781033835459 -1.7073107012948407 -1.6604396179906307 -1.83243841892981 -1.6819496025677141 -1.7847887928922386
leaf_weight=20.416828960180283 173.06265522539616 23.299205124378204 13.090790286660193 26.541878059506416 7.4461376667022696 172.58225660026073 29.424253538250923 44.917024821043015 139.67513321340084 47.919499233365059 30.865442052483559 175.94502572715282 9.7280186861753482 26.42177876830101
leaf_count=150 426 119 104 126 47 867 210 144 468 239 122 1345 41 175
internal_value=-1.6994 -1.72836 -1.75381 -1.80856 -1.71669 -1.7304 -1.7249 -1.64401 -1.63957 -1.75485 -1.59566 -1.82331 -1.77129 -1.73403
internal_weight=941.336 737.408 574.433 232.632 341.802 289.439 276.348 52.3632 162.974 103.766 203.928 206.09 30.1448 74.3413
internal_count=4583 4035 3448 1662 1786 1595 1491 191 587 624 548 1536 191 414
is_linear=0
shrinkage=1


Tree=1
num_leaves=15
num_cat=0
split_feature=2 8 2 9 37 18 37 33 14 18 37 30 1 38
split_gain=1084.23 411.972 290.303 116.571 85.8136 81.5179 101.662 69.8828 69.631 67.4425 65.1576 54.979 53.9518 51.015
threshold=0.06950000000000002 1.0000000180025095e-35 0.16050000000000003 1.0000000180025095e-35 0.91666666666666685 1.0000000180025095e-35 0.45000000000000007 0.43100000000000005 1.0000000180025095e-35 1.0000000180025095e-35 0.45000000000000007 0.65833333333333344 1.8915 0.46910000000000002
decision_type=2 2 2 2 2 2 2 2 2 2 2 2 2 2
left_child=1 5 4 8 7 6 12 -2 11 10 -5 -4 -1 -8
right_child=2 -3 3 9 -6 -7 13 -9 -10 -11 -12 -13 -14 -15
leaf_value=-0.019843646139014248 0.099646771812037155 0.13351719131384834 0.14810058698091552 0.044955874944310345 0.12649950450206957 -0.024197101847526908 0.089245557259788555 0.043592805792207756 0.093591790993233531 0.013410967623947652 0.14553896723838639 0.18453975937636588 0.062596604593064639 0.032406713881821043
leaf_weight=63.635524831712246 103.88871109485626 61.620374724268913 172.01383085548878 15.145360760390757 116.52088189125061 55.070673294365406 43.359494127333164 57.639817342162132 26.601756997406483 11.722088582813738 41.512272797524929 174.7172179967165 14.810614518821238 63.194272369146347
leaf_count=492 483 236 561 88 455 437 217 335 125 79 142 418 87 405
internal_value=0.105963 0.0421237 0.132626 0.15296 0.0998907 0.0182086 0.0308941 0.0800358 0.161978 0.1021 0.119898 0.16694 -0.00368695 0.0561506
internal_weight=1021.45 301.691 719.762 441.713 278.049 240.071 185 161.529 373.333 68.3797 56.6576 346.731 78.4461 106.554
internal_count=4560 1874 2686 1413 1273 1638 1201 818 1104 309 230 979 579 622
is_linear=0
shrinkage=0.04


Tree=2
num_leaves=15
num_cat=0
split_feature=11 12 2 19 1 3 34 1 2 1 37 32 30 9
split_gain=1026.15 550.092 400.936 171.95 146.312 93.5512 53.4387 61.3512 58.1253 81.4542 47.0404 43.8054 48.6969 41.9529
threshold=1.0000000180025095e-35 1.0000000180025095e-35 0.11450000000000002 1.0000000180025095e-35 2.8275000000000001 0.23150000000000004 0.34850000000000003 1.6479999999999999 0.36800000000000005 0.91649999999999998 0.63333333333333341 0.57650000000000012 0.56696428571428581 1.0000000180025095e-35
decision_type=2 2 2 2 2 2 2 2 2 2 2 2 2 2
left_child=1 2 3 5 6 -1 -4 8 9 -8 -5 12 -6 -2
right_child=13 -3 4 10 11 -7 7 -9 -10 -11 -12 -13 -14 -15
leaf_value=-0.0089603879339949146 0.16499633640768965 0.12762700969335014 0.11165433006079897 0.038253522904798824 0.023514992536996373 0.045482097611463719 0.02084854336103717 0.014686511462504737 0.14461020079052125 0.086449006912155429 0.098991511877373178 0.17758713948781121 0.13920157251614673 0.11093460734104861
leaf_weight=197.2477915585041 230.7234266102314 188.37402299046516 41.412318982183933 41.50088282674551 9.6252635419368762 66.776012063026428 48.52992495149374 37.96717593818903 15.410427220165728 83.226175919175148 43.415290579199791 29.907518610358238 15.829919770359991 35.458452641963959
leaf_count=1454 443 584 161 237 50 386 282 221 42 364 179 52 40 128
internal_value=0.0900698 0.067755 0.0497033 0.0209429 0.0851024 0.00492868 0.0702927 0.0604904 0.0721284 0.0626253 0.0700979 0.143382 0.0979999 0.158237
internal_weight=1085.4 819.223 630.849 348.94 281.909 264.024 226.546 185.134 147.167 131.756 84.9162 55.3627 25.4552 266.182
internal_count=4623 4052 3468 2256 1212 1840 1070 909 688 646 416 142 90 571
is_linear=0
shrinkage=0.04


Tree=3
num_leaves=15
num_cat=0
split_feature=9 36 2 11 11 12 36 34 33 33 31 22 35 2
split_gain=625.12 360.714 239.34 116.02 69.2437 85.607 68.6351 79.1971 65.7822 47.068 39.9834 37.4181 41.1834 44.9642
threshold=1.0000000180025095e-35 0.70833333333333348 0.06950000000000002 1.0000000180025095e-35 1.0000000180025095e-35 1.0000000180025095e-35 0.29166666666666674 0.31850000000000006 0.53000000000000014 0.42650000000000005 0.056500000000000009 -0.17499999999999996 0.38350000000000006 0.046000000000000006
decision_type=2 2 2 2 2 2 2 2 2 2 2 2 2 2
left_child=1 3 4 6 5 9 7 -1 10 -2 -4 -8 13 -13
right_child=2 -3 8 -5 -6 -7 11 -9 -10 -11 -12 12 -14 -15
leaf_value=-0.017958079746529673 -0.023034261223517136 0.13430430534526139 0.00097534455975632067 0.13047920212409739 0.097121442262750157 0.072952694135708693 0.067326858350355304 0.060809321269403541 0.0062291751156703422 0.026577441707832647 0.084062847315183306 -0.039506822168841021 0.12179526409828319 0.084620673206251745
leaf_weight=25.097512327134609 103.51134204864502 370.69337680190802 9.7864285930991155 58.696376800537109 12.484987705945967 22.987751215696335 115.17950578778982 100.21497741341591 21.795825071632862 42.32150861620903 181.82668469101191 5.4205826073884991 61.093080945312977 19.178505137562752
leaf_count=179 818 841 61 117 44 92 510 456 127 287 739 44 190 78
internal_value=0.0847389 0.106049 0.0437819 0.0785575 0.00989375 0.00290898 0.068844 0.0450166 0.0723918 -0.00855372 0.0798463 0.0834119 0.104006 0.0567935
internal_weight=1150.29 755.574 394.715 384.881 181.306 168.821 326.184 125.312 213.409 145.833 191.613 200.872 85.6922 24.5991
internal_count=4583 2415 2168 1574 1241 1197 1457 635 927 1105 800 822 312 122
is_linear=0
shrinkage=0.04


Tree=4
num_leaves=15
num_cat=0
split_feature=11 12 2 19 1 1 7 31 32 15 33 32 1 1
split_gain=672.528 415.162 235.221 158.738 90.7134 61.588 55.7783 45.3036 51.7518 48.9281 47.0448 51.5984 51.1547 44.5967
threshold=1.0000000180025095e-35 1.0000000180025095e-35 0.06950000000000002 1.0000000180025095e-35 2.521500000000001 -2.0694999999999997 0.37500000000000006 0.058500000000000003 0.37950000000000006 0.87500000000000011 0.25400000000000006 0.40750000000000003 1.4115000000000004 0.91649999999999998
decision_type=2 2 2 2 2 2 2 2 2 2 2 2 2 2
left_child=1 2 3 6 5 -4 -1 -7 9 -9 -10 -12 13 -13
right_child=-2 -3 4 -5 -6 7 -8 8 10 -11 11 12 -14 -15
leaf_value=-0.010955623930541548 0.12681161989882309 0.10629471136395083 -0.028996394461879686 0.067240611144267395 0.094856625161470559 -0.014122447709440763 0.091453649303514309 0.087206163636100287 0.10322298409030836 0.0051612011967635922 -0.044878738061291952 0.023485949729606253 0.0038557813394452644 0.076267530309627699
leaf_weight=182.5867772474885 307.00911591947079 215.92218784987926 14.355177395045756 61.401443302631378 96.547001704573631 14.485021218657492 7.9272208064794532 104.84763320535421 18.226675942540169 13.211787313222883 10.884773269295691 42.640172898769379 40.714761719107628 68.060136035084724
leaf_count=1388 545 568 101 266 290 93 31 390 61 74 73 218 226 259
internal_value=0.0757738 0.0580815 0.0425448 0.0118657 0.0607028 0.0503738 -0.00623913 0.0540939 0.0574393 0.0781451 0.0435423 0.0362489 0.0423372 0.0563291
internal_weight=1198.82 891.811 675.889 251.915 423.973 327.426 190.514 313.071 298.586 118.059 180.527 162.3 151.415 110.7
internal_count=4583 4038 3470 1685 1785 1495 1419 1394 1301 464 837 776 703 477
is_linear=0
shrinkage=0.04


Tree=5
num_leaves=15
num_cat=0
split_feature=2 11 19 12 12 31 11 38 1 4 1 33 36 34
split_gain=530.776 198.793 157.002 143.566 122.715 82.3867 67.9384 64.4742 62.665 54.8377 52.6473 52.0276 48.4044 43.7933
threshold=0.06950000000000002 1.0000000180025095e-35 1.0000000180025095e-35 1.0000000180025095e-35 1.0000000180025095e-35 0.24450000000000002 1.0000000180025095e-35 0.44345000000000007 -2.0694999999999997 0.58150000000000002 1.6345000000000001 0.42650000000000005 0.45000000000000007 0.35050000000000003
decision_type=2 2 2 2 2 2 2 2 2 2 2 2 2 2
left_child=2 4 3 6 5 8 11 -4 -2 -6 -11 -1 -7 -10
right_child=1 -3 7 -5 9 12 -8 -9 13 10 -12 -13 -14 -15
leaf_value=-0.024160045001367366 -0.028578068838504826 0.11354218351247371 0.089864150451322913 0.078804962623001809 0.11515232491642548 0.050613333707687939 0.070869991351489123 0.012269699658983781 0.075016168112102155 0.082127613832311375 -0.022597893910596415 0.021706388298586472 0.1117023922848015 0.044164321209858456
leaf_weight=130.49426174908876 14.192520543932913 295.15374945104122 70.899561360478401 39.96288426220417 131.08110831677914 32.845872327685356 17.048585578799248 22.95255172252655 120.1957745552063 43.824473157525063 8.8163890242576581 55.70767243206501 71.298618674278259 209.06709842383862
leaf_count=1043 102 487 218 123 267 136 53 118 438 113 44 370 169 928
internal_value=0.0706462 0.0862759 0.0275576 0.0104875 0.0733691 0.061801 -0.00326504 0.071217 0.0520675 0.101065 0.0644937 -0.0103951 0.0931003 0.0556197
internal_weight=1263.54 926.476 337.066 243.213 631.322 447.6 203.251 93.8521 343.455 183.722 52.6409 186.202 104.144 329.263
internal_count=4609 2684 1925 1589 2197 1773 1466 336 1468 424 157 1413 305 1366
is_linear=0
shrinkage=0.04


Tree=6
num_leaves=15
num_cat=0
split_feature=11 2 8 12 12 13 1 35 37 7 2 22 22 35
split_gain=447.278 288.415 135.034 113.106 77.795 99.5167 105.937 56.4129 68.4487 39.7608 37.2339 36.7419 34.9452 34.2022
threshold=1.0000000180025095e-35 0.06950000000000002 1.0000000180025095e-35 1.0000000180025095e-35 1.0000000180025095e-35 1.0000000180025095e-35 2.779500000000001 0.35550000000000004 0.22500000000000001 0.20833333333333334 0.10100000000000002 -0.62499999999999989 -0.77499999999999991 0.39550000000000007
decision_type=2 2 2 2 2 2 2 2 2 2 2 2 2 2
left_child=1 2 3 9 5 6 7 -3 -9 -1 -8 -10 -7 -13
right_child=-2 4 -4 -5 -6 12 10 8 11 -11 -12 13 -14 -15
leaf_value=-0.012785651711054778 0.10502165339425162 0.05635178286436944 0.070283504646915879 0.068267312347554357 0.08869551425860063 0.0069187609448355123 0.0061445884822673245 -0.029080460181082259 -0.029050202907757613 0.045588618010832749 0.095669199472017102 -0.025278926279378819 0.092889776350357181 0.047981542510161318
leaf_weight=178.59584263712168 349.89415903389454 105.49986509233713 64.599510848522186 37.350082337856293 189.6811787635088 8.2351572662591916 8.4389700889587385 36.379854127764702 12.952516570687292 19.851908311247826 71.668350502848625 10.756126180291174 123.01684939861298 97.201143637299538
leaf_count=1379 554 431 217 116 432 41 43 219 78 97 156 63 375 403
internal_value=0.0662788 0.0521258 0.019519 0.00537343 0.0668295 0.0579138 0.0463334 0.0338291 0.0184618 -0.00674683 0.0864302 0.0328877 0.0875888 0.0405174
internal_weight=1314.12 964.227 300.397 235.798 663.83 474.149 342.897 262.79 157.29 198.448 80.1073 120.91 131.252 107.957
internal_count=4604 4050 1809 1592 2241 1809 1393 1194 763 1476 199 544 416 466
is_linear=0
shrinkage=0.04


end of trees

feature_importances:
Column_1=13
Column_2=12
Column_11=8
Column_12=8
Column_37=6
Column_9=5
Column_33=5
Column_22=4
Column_36=4
Column_18=3
Column_19=3
Column_31=3
Column_32=3
Column_34=3
Column_35=3
Column_7=2
Column_8=2
Column_14=2
Column_30=2
Column_38=2
Column_3=1
Column_4=1
Column_6=1
Column_13=1
Column_15=1

parameters:
[boosting: gbdt]
[objective: binary]
[metric: binary_logloss]
[tree_learner: serial]
[device_type: cpu]
[data_sample_strategy: bagging]
[data: ]
[valid: ]
[num_iterations: 400]
[learning_rate: 0.04]
[num_leaves: 15]
[num_threads: 0]
[seed: 0]
[deterministic: 0]
[force_col_wise: 0]
[force_row_wise: 0]
[histogram_pool_size: -1]
[max_depth: -1]
[min_data_in_leaf: 25]
[min_sum_hessian_in_leaf: 0.001]
[bagging_fraction: 0.85]
[pos_bagging_fraction: 1]
[neg_bagging_fraction: 1]
[bagging_freq: 1]
[bagging_seed: 3]
[bagging_by_query: 0]
[feature_fraction: 0.85]
[feature_fraction_bynode: 1]
[feature_fraction_seed: 2]
[extra_trees: 0]
[extra_seed: 6]
[early_stopping_round: 0]
[early_stopping_min_delta: 0]
[first_metric_only: 0]
[max_delta_step: 0]
[lambda_l1: 0]
[lambda_l2: 1]
[linear_lambda: 0]
[min_gain_to_split: 0]
[drop_rate: 0.1]
[max_drop: 50]
[skip_drop: 0.5]
[xgboost_dart_mode: 0]
[uniform_drop: 0]
[drop_seed: 4]
[top_rate: 0.2]
[other_rate: 0.1]
[min_data_per_group: 100]
[max_cat_threshold: 32]
[cat_l2: 10]
[cat_smooth: 10]
[max_cat_to_onehot: 4]
[top_k: 20]
[monotone_constraints: ]
[monotone_constraints_method: basic]
[monotone_penalty: 0]
[feature_contri: ]
[forcedsplits_filename: ]
[refit_decay_rate: 0.9]
[cegb_tradeoff: 1]
[cegb_penalty_split: 0]
[cegb_penalty_feature_lazy: ]
[cegb_penalty_feature_coupled: ]
[path_smooth: 0]
[interaction_constraints: ]
[verbosity: -1]
[saved_feature_importance_type: 0]
[use_quantized_grad: 0]
[num_grad_quant_bins: 4]
[quant_train_renew_leaf: 0]
[stochastic_rounding: 1]
[linear_tree: 0]
[max_bin: 255]
[max_bin_by_feature: ]
[min_data_in_bin: 3]
[bin_construct_sample_cnt: 200000]
[data_random_seed: 1]
[is_enable_sparse: 1]
[enable_bundle: 1]
[use_missing: 1]
[zero_as_missing: 0]
[feature_pre_filter: 1]
[pre_partition: 0]
[two_round: 0]
[header: 0]
[label_column: ]
[weight_column: ]
[group_column: ]
[ignore_column: ]
[categorical_feature: ]
[forcedbins_filename: ]
[precise_float_parser: 0]
[parser_config_file: ]
[objective_seed: 5]
[num_class: 1]
[is_unbalance: 0]
[scale_pos_weight: 6]
[sigmoid: 1]
[boost_from_average: 1]
[reg_sqrt: 0]
[alpha: 0.9]
[fair_c: 1]
[poisson_max_delta_step: 0.7]
[tweedie_variance_power: 1.5]
[lambdarank_truncation_level: 30]
[lambdarank_norm: 1]
[label_gain: ]
[lambdarank_position_bias_regularization: 0]
[eval_at: ]
[multi_error_top_k: 1]
[auc_mu_weights: ]
[num_machines: 1]
[local_listen_port: 12400]
[time_out: 120]
[machine_list_filename: ]
[machines: ]
[gpu_platform_id: -1]
[gpu_device_id: -1]
[gpu_use_dp: 0]
[num_gpu: 1]

end of parameters

pandas_categorical:null
