tree
version=v4
num_class=1
num_tree_per_iteration=1
label_index=0
max_feature_idx=44
objective=binary sigmoid:1
feature_names=Column_0 Column_1 Column_2 Column_3 Column_4 Column_5 Column_6 Column_7 Column_8 Column_9 Column_10 Column_11 Column_12 Column_13 Column_14 Column_15 Column_16 Column_17 Column_18 Column_19 Column_20 Column_21 Column_22 Column_23 Column_24 Column_25 Column_26 Column_27 Column_28 Column_29 Column_30 Column_31 Column_32 Column_33 Column_34 Column_35 Column_36 Column_37 Column_38 Column_39 Column_40 Column_41 Column_42 Column_43 Column_44
feature_infos=none [-7.4000000000000004:4.4329999999999998] [0:0.94099999999999995] [0:1] [0:1] [0:1] [0:1] [0:1] [0:1] [0:1] [0:1] [0:1] [0:1] [0:1] [0:1] [0.25:1] [0:1] [0:1] [0:1] [-0.3666666666666667:1] [0:1] none [-1.05:1.1000000000000001] [-0.83333333333333337:0.66666666666666663] [-0.56666666666666665:0.53333333333333333] [0:1] [0:1] [0:1] [0.10416666666666674:1] [0.45000000000000001:1] [0:1] [0.010999999999999999:1] [0.010999999999999999:1] [0.048000000000000001:1] [0.014:1] [0.028000000000000001:1] [0:1] [0:1] [0:1] [0:1] [0:1] [0:1] [0:1] [0:1] [0:1]
tree_sizes=1702 1735 1706 1733 1735 1741 1739

Tree=0
num_leaves=15
num_cat=0
split_feature=11 2 12 12 1 8 1 36 9 18 4 38 37 30
split_gain=1939.99 1022.91 421.496 344.946 244.853 242.72 116.486 94.1143 109.569 68.2158 60.2647 56.6728 52.3486 49.7247
threshold=1.0000000180025095e-35 0.06950000000000002 1.0000000180025095e-35 1.0000000180025095e-35 2.5795000000000008 1.0000000180025095e-35 -2.0934999999999993 0.45000000000000007 1.0000000180025095e-35 1.0000000180025095e-35 0.27600000000000008 0.42695000000000005 0.63333333333333341 0.23904761904761906
decision_type=2 2 2 2 2 2 2 2 2 2 2 2 2 2
left_child=1 3 4 5 6 -1 -3 8 -8 12 -11 -5 -9 -6
right_child=-2 2 -4 11 13 -7 7 9 -10 10 -12 -13 -14 -15
leaf_value=-1.8167445736396604 -1.5926193579549626 -1.8414681454107307 -1.6303859188150245 -1.6289236280478121 -1.7775070591002207 -1.712100937367683 -1.7289171242601282 -1.7161583354429246 -1.816088964562439 -1.6600655701286522 -1.7809414811855944 -1.7278475126034896 -1.664616700527203 -1.6426257804256295
leaf_weight=222.01390965282917 228.03706957399845 13.612355872988699 137.56911498308182 19.876448288559914 5.3003863096237174 41.198456913232803 81.071817442774773 87.094983533024788 32.043244689702988 7.5891893655061713 32.525097846984863 22.767568334937096 62.761391595005989 77.21699021756649
leaf_count=1638 613 108 477 65 34 212 448 458 236 28 215 124 261 286
internal_value=-1.69598 -1.72419 -1.69096 -1.78271 -1.71224 -1.80004 -1.72873 -1.72359 -1.75341 -1.70625 -1.75487 -1.67854 -1.69372 -1.65074
internal_weight=1070.68 842.641 536.785 305.856 399.215 263.212 316.698 303.086 113.115 189.971 40.1143 42.644 149.856 82.5174
internal_count=5203 4590 2551 2039 2074 1850 1754 1646 684 962 243 189 719 320
is_linear=0
shrinkage=1


Tree=1
num_leaves=15
num_cat=0
split_feature=2 20 2 9 37 32 18 14 18 37 1 41 33 30
split_gain=1084.29 380.394 307.943 144.192 122.469 116.792 97.9536 87.9768 78.5454 71.4112 70.3727 62.9133 61.8388 61.5252
threshold=0.16050000000000003 1.0000000180025095e-35 0.051500000000000011 1.0000000180025095e-35 0.63333333333333341 0.40950000000000003 1.0000000180025095e-35 1.0000000180025095e-35 1.0000000180025095e-35 0.45000000000000007 -0.028999999999999911 1.0000000180025095e-35 0.43650000000000005 0.65833333333333344
decision_type=2 2 2 2 2 2 2 2 2 2 2 2 2 2
left_child=1 2 5 7 12 -1 -6 13 9 -5 -7 -3 -4 -2
right_child=3 11 4 8 6 10 -8 -9 -10 -11 -12 -13 -14 -15
leaf_value=0.00052093240257078085 0.14608953471893898 0.078915867940190079 0.072155260678748126 0.039575672057796878 0.12807969354803464 -0.041601069739225338 0.040486441997804407 0.087667145477772282 0.0070793568142722601 0.14049821039872257 0.081116849934808222 0.13412307329927856 0.010311089910044155 0.18154384827257639
leaf_weight=162.91967523097992 199.84098095446825 50.741254851222038 85.87941836565733 16.133069008588791 101.72251116484404 8.0297084897756559 26.990078702569008 29.600584164261818 13.216005153954027 45.167023845016956 53.719539128243923 138.0556993111968 37.370089709758759 196.90767452120781
leaf_count=1180 665 258 454 95 385 65 165 144 91 155 284 522 245 487
internal_value=0.105418 0.0717805 0.0525568 0.149876 0.0828359 0.0183828 0.110166 0.159009 0.0962057 0.114999 0.0647503 0.119779 0.0536376 0.164098
internal_weight=1166.29 665.428 476.631 500.865 251.962 224.669 128.713 426.349 74.5161 61.3001 61.7492 188.797 123.25 396.749
internal_count=5195 3558 2778 1637 1249 1529 550 1296 341 250 349 780 699 1152
is_linear=0
shrinkage=0.04


Tree=2
num_leaves=15
num_cat=0
split_feature=11 12 2 19 1 3 1 36 1 37 38 34 2 34
split_gain=1144.19 536.838 346.324 186.954 183.524 114.99 72.3827 68.1675 55.5936 52.0253 46.9814 45.542 43.7742 43.1686
threshold=1.0000000180025095e-35 1.0000000180025095e-35 0.10100000000000002 1.0000000180025095e-35 2.8375000000000008 0.21500000000000005 -1.9475 0.45000000000000007 2.5015000000000005 0.45000000000000007 0.43055000000000004 0.35050000000000003 0.13950000000000001 0.46250000000000008
decision_type=2 2 2 2 2 2 2 2 2 2 2 2 2 2
left_child=1 2 3 5 6 -1 -4 10 -7 -3 12 -9 -8 -13
right_child=-2 9 4 -5 -6 8 7 11 -10 -11 -12 13 -14 -15
leaf_value=-0.0058833655048821402 0.15904769700622423 0.072090603539561759 -0.04236410798768038 0.076415410642924911 0.14184037937194049 0.030583046186877298 -0.015636308658390021 0.11475952450072759 0.10777284225864631 0.13389770193487965 0.015326057638661019 0.036403806889210834 0.083884116673524953 0.08799451260458499
leaf_weight=205.62138667702675 298.53093193471432 29.24725316464901 8.7568159997463209 88.167015343904495 64.701758444309235 61.366367265582085 7.9685243666172019 59.674866624176502 19.355107896029949 179.24484525620937 49.284509129822254 42.199701555073261 46.677320808172226 76.866482876241207
leaf_count=1492 634 128 68 410 177 380 54 219 77 533 302 229 207 325
internal_value=0.0908858 0.0690724 0.0527887 0.0258294 0.0809876 0.0100418 0.0670385 0.070565 0.0501836 0.125613 0.0441226 0.0856091 0.0693517 0.0701651
internal_weight=1237.66 939.132 730.64 374.51 356.13 286.343 291.428 282.671 80.7215 208.492 103.93 178.741 54.6458 119.066
internal_count=5235 4601 3940 2359 1581 1949 1404 1336 457 661 563 773 261 554
is_linear=0
shrinkage=0.04


Tree=3
num_leaves=15
num_cat=0
split_feature=11 12 9 2 36 13 34 33 33 6 4 7 25 10
split_gain=711.962 409.956 332.505 155.446 135.74 122.076 99.2861 55.3179 52.0922 50.7958 47.1776 46.3973 44.1248 42.1006
threshold=1.0000000180025095e-35 1.0000000180025095e-35 1.0000000180025095e-35 0.06950000000000002 0.70833333333333348 1.0000000180025095e-35 0.26150000000000007 0.34350000000000008 0.53000000000000014 0.12500000000000003 0.63450000000000017 0.29166666666666669 0.70500000000000007 1.0000000180025095e-35
decision_type=2 2 2 2 2 2 2 2 2 2 2 2 2 2
left_child=1 2 4 -4 5 6 -1 -6 -5 11 12 13 -11 -8
right_child=-2 -3 3 8 7 -7 9 -9 -10 10 -12 -13 -14 -15
leaf_value=-0.016158573457063456 0.13689108031353653 0.11446786200562947 -0.00386768007757819 0.05842344774360745 0.041126830638446535 0.11088168915230007 0.1388723914357517 0.12569484063748657 -0.01685535154115346 -0.0078137127720812379 -0.043461721085816009 0.0088785868018541846 0.058967950664449605 0.072147303565550547
leaf_weight=31.419883705675602 313.38544310629368 229.97033061087132 168.27121417224407 145.68681848794222 15.604454100131987 66.944681584835052 23.528749406337738 96.570208936929703 15.911248676478861 18.242369435727596 8.6454900503158552 12.143793776631354 108.80271379649639 55.164772197604179
leaf_count=225 618 660 1225 713 79 232 62 275 105 121 60 63 506 252
internal_value=0.0843007 0.0676479 0.0534779 0.0230611 0.0763294 0.0628749 0.0500356 0.114398 0.0509533 0.0592476 0.0432018 0.082485 0.0493927 0.0935898
internal_weight=1310.29 996.907 766.936 329.869 437.067 324.892 257.948 112.175 161.598 226.528 135.691 90.8373 127.045 78.6935
internal_count=5196 4578 3918 2043 1875 1521 1289 354 818 1064 687 377 627 314
is_linear=0
shrinkage=0.04


Tree=4
num_leaves=15
num_cat=0
split_feature=11 12 1 8 2 32 30 33 18 2 31 37 30 19
split_gain=729.783 358.142 236.906 171.697 112.8 50.5844 49.0168 48.5738 44.7621 37.8642 47.1642 46.5229 37.6988 57.7554
threshold=1.0000000180025095e-35 1.0000000180025095e-35 2.5015000000000005 1.0000000180025095e-35 0.06950000000000002 0.65250000000000019 0.32071428571428579 0.42650000000000005 1.0000000180025095e-35 0.39600000000000007 0.30350000000000005 1.0000000180025095e-35 0.43095238095238103 1.0000000180025095e-35
decision_type=2 2 2 2 2 2 2 2 2 2 2 2 2 2
left_child=1 2 3 4 7 -5 -6 12 -4 10 11 -8 -1 -14
right_child=-2 -3 8 5 6 -7 9 -9 -10 -11 -12 -13 13 -15
leaf_value=-0.028576708743528689 0.1259354914474195 0.10119947054008453 0.099011665136039914 0.073271516577835996 0.0041606113540410073 -0.0210439138787465 0.0011308201917524493 0.031607328117348066 0.0052849470702154835 0.11680110918138389 0.12520592156838883 0.051073564932241931 -0.0041884460685890955 0.088237375119508243
leaf_weight=80.911391906440258 344.60948242247105 240.38885310292244 127.71106567978859 169.35914911329746 45.55706699937582 9.196195036172865 38.761808924376965 63.821730263531208 8.8281208649277669 12.232926115393637 10.290045231580732 129.37104243785143 73.531008794903755 11.667934313416479
leaf_count=629 602 652 382 656 270 55 233 408 52 31 28 620 536 48
internal_value=0.0756172 0.0585376 0.0452979 0.0350596 0.0221989 0.0683238 0.0415508 0.00222446 0.0930341 0.0504168 0.0452398 0.0396344 -0.0091864 0.00934601
internal_weight=1366.24 1021.63 781.239 644.7 466.145 178.555 236.213 229.932 136.539 190.656 178.423 168.133 166.11 85.1989
internal_count=5202 4600 3948 3514 2803 711 1182 1621 434 912 881 853 1213 584
is_linear=0
shrinkage=0.04


Tree=5
num_leaves=15
num_cat=0
split_feature=2 11 19 12 12 31 11 38 1 31 34 36 31 30
split_gain=520.283 230.798 183.008 127.494 106.993 86.6281 79.4064 74.9844 70.7603 53.632 48.5852 71.4244 51.9136 42.9537
threshold=0.06950000000000002 1.0000000180025095e-35 1.0000000180025095e-35 1.0000000180025095e-35 1.0000000180025095e-35 0.24550000000000002 1.0000000180025095e-35 0.44345000000000007 -2.0934999999999993 0.058500000000000003 0.35050000000000003 0.29166666666666674 0.11950000000000001 0.84807692307692317
decision_type=2 2 2 2 2 2 2 2 2 2 2 2 2 2
left_child=2 4 3 6 5 8 -1 -4 -2 -10 11 12 -11 -12
right_child=1 -3 7 -5 -6 -7 -8 -9 9 10 13 -13 -14 -15
leaf_value=-0.0056321546892416485 -0.0299479061675877 0.11278618422164295 0.091797748502998641 0.076111517954994976 0.096732360692978039 0.09263930550563762 0.071808894361805875 0.010765021950547007 -0.004670599991744768 0.076454328166398342 0.054594013235301338 0.093556888867803153 -0.030313652456174435 0.0016004300553250049
leaf_weight=216.04775795340538 15.317057125270365 327.89694760739803 85.01916192471981 42.90971215069294 201.81063523888588 114.61674685776234 22.477473348379135 23.565204560756683 21.72530098259449 12.777449496090414 195.16061210632324 107.5953451693058 14.625968798995016 28.030713051557541
leaf_count=1571 110 536 255 143 478 340 61 121 126 51 837 334 95 151
internal_value=0.0701051 0.0848819 0.0306028 0.0134738 0.0718847 0.0618794 0.00193485 0.0744706 0.0527477 0.0561516 0.0598434 0.0789677 0.0204083 0.0479753
internal_weight=1429.58 1039.56 390.019 281.435 711.66 509.849 238.525 108.584 395.232 379.915 358.19 134.999 27.4034 223.191
internal_count=5209 3058 2151 1775 2522 2044 1632 376 1704 1594 1468 480 146 988
is_linear=0
shrinkage=0.04


Tree=6
num_leaves=15
num_cat=0
split_feature=11 2 8 12 36 18 7 38 25 13 12 33 26 1
split_gain=466.833 257.415 133.88 94.612 81.2215 65.2642 49.3719 43.7057 42.9586 56.3492 40.8812 37.8274 35.3849 73.989
threshold=1.0000000180025095e-35 0.06950000000000002 1.0000000180025095e-35 1.0000000180025095e-35 0.45000000000000007 1.0000000180025095e-35 0.12500000000000003 0.92475000000000007 0.41500000000000009 1.0000000180025095e-35 1.0000000180025095e-35 0.32800000000000007 0.12500000000000003 1.4020000000000004
decision_type=2 2 2 2 2 2 2 2 2 2 2 2 2 2
left_child=1 2 3 6 10 -6 7 -1 9 -7 12 -11 13 -3
right_child=-2 4 -4 -5 5 8 -8 -9 -10 11 -12 -13 -14 -15
leaf_value=-0.009731727460029321 0.10357132711940739 -0.012043151736320673 0.070889176998804593 0.067277055093012392 0.07885207980073608 -0.035782327689005772 0.046246059079547937 0.089435267932355955 0.080153979869393641 0.11717400006005418 0.083587672783047018 -0.0092035778128304793 0.056029389820328589 0.056528537620490898
leaf_weight=194.93087673187256 393.36449380218983 52.706051036715508 75.951386839151382 39.852731481194496 485.90891952812672 21.079946011304855 32.529504135251045 6.3828157261013976 17.856242269277573 7.9430513530969602 36.062694668769836 6.340111255645752 82.876108050346375 46.706458657979965
leaf_count=1442 619 325 249 131 1404 138 169 31 65 22 84 39 325 190
internal_value=0.0661312 0.0527472 0.0242626 0.0111126 0.0658461 0.0742332 0.0012951 -0.00616104 0.0313849 0.00523239 0.0448937 0.064145 0.0368245 0.0204156
internal_weight=1500.49 1107.13 349.647 273.696 757.48 539.128 233.843 201.314 53.2194 35.3631 218.351 14.2832 182.289 99.4125
internal_count=5233 4614 2022 1773 2592 1668 1642 1473 264 199 924 61 840 515
is_linear=0
shrinkage=0.04


end of trees

feature_importances:
Column_2=10
Column_1=9
Column_12=9
Column_11=7
Column_18=5
Column_30=5
Column_33=5
Column_36=5
Column_37=5
Column_31=4
Column_34=4
Column_38=4
Column_8=3
Column_9=3
Column_19=3
Column_4=2
Column_7=2
Column_13=2
Column_25=2
Column_32=2
Column_3=1
Column_6=1
Column_10=1
Column_14=1
Column_20=1
Column_26=1
Column_41=1

parameters:
[boosting: gbdt]
[objective: binary]
[metric: binary_logloss]
[tree_learner: serial]
[device_type: cpu]
[data_sample_strategy: bagging]
[data: ]
[valid: ]
[num_iterations: 400]
[learning_rate: 0.04]
[num_leaves: 15]
[num_threads: 0]
[seed: 0]
[deterministic: 0]
[force_col_wise: 0]
[force_row_wise: 0]
[histogram_pool_size: -1]
[max_depth: -1]
[min_data_in_leaf: 25]
[min_sum_hessian_in_leaf: 0.001]
[bagging_fraction: 0.85]
[pos_bagging_fraction: 1]
[neg_bagging_fraction: 1]
[bagging_freq: 1]
[bagging_seed: 3]
[bagging_by_query: 0]
[feature_fraction: 0.85]
[feature_fraction_bynode: 1]
[feature_fraction_seed: 2]
[extra_trees: 0]
[extra_seed: 6]
[early_stopping_round: 0]
[early_stopping_min_delta: 0]
[first_metric_only: 0]
[max_delta_step: 0]
[lambda_l1: 0]
[lambda_l2: 1]
[linear_lambda: 0]
[min_gain_to_split: 0]
[drop_rate: 0.1]
[max_drop: 50]
[skip_drop: 0.5]
[xgboost_dart_mode: 0]
[uniform_drop: 0]
[drop_seed: 4]
[top_rate: 0.2]
[other_rate: 0.1]
[min_data_per_group: 100]
[max_cat_threshold: 32]
[cat_l2: 10]
[cat_smooth: 10]
[max_cat_to_onehot: 4]
[top_k: 20]
[monotone_constraints: ]
[monotone_constraints_method: basic]
[monotone_penalty: 0]
[feature_contri: ]
[forcedsplits_filename: ]
[refit_decay_rate: 0.9]
[cegb_tradeoff: 1]
[cegb_penalty_split: 0]
[cegb_penalty_feature_lazy: ]
[cegb_penalty_feature_coupled: ]
[path_smooth: 0]
[interaction_constraints: ]
[verbosity: -1]
[saved_feature_importance_type: 0]
[use_quantized_grad: 0]
[num_grad_quant_bins: 4]
[quant_train_renew_leaf: 0]
[stochastic_rounding: 1]
[linear_tree: 0]
[max_bin: 255]
[max_bin_by_feature: ]
[min_data_in_bin: 3]
[bin_construct_sample_cnt: 200000]
[data_random_seed: 1]
[is_enable_sparse: 1]
[enable_bundle: 1]
[use_missing: 1]
[zero_as_missing: 0]
[feature_pre_filter: 1]
[pre_partition: 0]
[two_round: 0]
[header: 0]
[label_column: ]
[weight_column: ]
[group_column: ]
[ignore_column: ]
[categorical_feature: ]
[forcedbins_filename: ]
[precise_float_parser: 0]
[parser_config_file: ]
[objective_seed: 5]
[num_class: 1]
[is_unbalance: 0]
[scale_pos_weight: 6]
[sigmoid: 1]
[boost_from_average: 1]
[reg_sqrt: 0]
[alpha: 0.9]
[fair_c: 1]
[poisson_max_delta_step: 0.7]
[tweedie_variance_power: 1.5]
[lambdarank_truncation_level: 30]
[lambdarank_norm: 1]
[label_gain: ]
[lambdarank_position_bias_regularization: 0]
[eval_at: ]
[multi_error_top_k: 1]
[auc_mu_weights: ]
[num_machines: 1]
[local_listen_port: 12400]
[time_out: 120]
[machine_list_filename: ]
[machines: ]
[gpu_platform_id: -1]
[gpu_device_id: -1]
[gpu_use_dp: 0]
[num_gpu: 1]

end of parameters

pandas_categorical:null
