tree
version=v4
num_class=1
num_tree_per_iteration=1
label_index=0
max_feature_idx=44
objective=binary sigmoid:1
feature_names=Column_0 Column_1 Column_2 Column_3 Column_4 Column_5 Column_6 Column_7 Column_8 Column_9 Column_10 Column_11 Column_12 Column_13 Column_14 Column_15 Column_16 Column_17 Column_18 Column_19 Column_20 Column_21 Column_22 Column_23 Column_24 Column_25 Column_26 Column_27 Column_28 Column_29 Column_30 Column_31 Column_32 Column_33 Column_34 Column_35 Column_36 Column_37 Column_38 Column_39 Column_40 Column_41 Column_42 Column_43 Column_44
feature_infos=none [-7.4000000000000004:4.1569999999999991] [0:0.94099999999999995] [0:1] [0:1] [0:1] [0:1] [0:1] [0:1] [0:1] [0:1] [0:1] [0:1] [0:1] [0:1] [0.25:1] [0:1] [0:1] [0:1] [-0.3666666666666667:1] [0:1] none [-1.05:1.1000000000000001] [-0.83333333333333337:0.53333333333333333] [-0.56666666666666665:0.5] [0:1] [0:1] [0:1] [0.10416666666666674:1] [0.45000000000000001:1] [0:1] [0.010999999999999999:1] [0.010999999999999999:1] [0.048000000000000001:1] [0.014:1] [0.028000000000000001:1] [0:1] [0:1] [0.15050000000000002:0.84949999999999992] [0:1] [0:1] [0:1] [0:1] [0:1] [0:1]
tree_sizes=1695 1715 1725

Tree=0
num_leaves=15
num_cat=0
split_feature=11 12 2 19 1 9 34 37 36 37 4 33 6 3
split_gain=1692.42 1046.07 548.896 146.506 123.974 97.3764 89.8093 68.9437 56.6774 73.2433 49.5564 48.4883 46.1445 43.7772
threshold=1.0000000180025095e-35 1.0000000180025095e-35 0.072000000000000008 1.0000000180025095e-35 -0.25949999999999984 1.0000000180025095e-35 0.31950000000000006 0.45000000000000007 0.18333333333333332 0.91666666666666685 0.44200000000000006 0.53000000000000014 0.45833333333333343 0.43700000000000006
decision_type=2 2 2 2 2 2 2 2 2 2 2 2 2 2
left_child=1 2 3 -1 -4 8 -5 10 9 -6 -3 -7 -10 -2
right_child=13 7 4 6 5 11 -8 -9 12 -11 -12 -13 -14 -15
leaf_value=-1.8337292624423822 -1.6317773906971267 -1.6659879761547693 -1.7864348706426285 -1.8646027953158233 -1.8084134828851965 -1.7408246017260309 -1.7217643101890399 -1.630572572109509 -1.6578511683454409 -1.684928442421888 -1.7937223597699055 -1.8398414559192073 -1.7222770690250533 -1.5783817617615192
leaf_weight=160.78243581950665 66.80312842130661 11.014135837554933 48.605859518051147 8.260601654648779 15.443733647465706 66.443970903754234 33.401563838124275 120.67661908268929 66.084814995527267 14.845139563083649 9.098633795976637 8.6197582781314832 33.521282702684402 112.05686131119728
leaf_count=1223 223 42 321 69 109 375 174 403 257 64 61 67 175 251
internal_value=-1.70485 -1.73746 -1.76711 -1.81631 -1.72802 -1.71441 -1.75039 -1.64248 -1.69325 -1.74541 -1.71964 -1.75226 -1.67831 -1.59715
internal_weight=775.659 596.799 456.009 202.445 253.565 204.959 41.6622 140.789 129.895 30.2889 20.1128 75.0637 99.6061 178.86
internal_count=3814 3340 2834 1466 1368 1047 243 506 605 173 103 442 432 474
is_linear=0
shrinkage=1


Tree=1
num_leaves=15
num_cat=0
split_feature=2 8 2 37 9 14 18 37 3 31 37 33 18 30
split_gain=1026.06 345.935 221.81 127.609 95.5021 68.5419 65.0893 81.9031 64.705 59.8575 68.9458 54.3611 53.0421 45.9752
threshold=0.06950000000000002 1.0000000180025095e-35 0.16300000000000003 0.91666666666666685 1.0000000180025095e-35 1.0000000180025095e-35 1.0000000180025095e-35 0.45000000000000007 0.32250000000000006 0.13550000000000004 0.45000000000000007 0.54900000000000015 1.0000000180025095e-35 0.73941798941798953
decision_type=2 2 2 2 2 2 2 2 2 2 2 2 2 2
left_child=1 6 3 8 5 -4 7 -1 -2 -6 -11 -10 -5 -14
right_child=2 -3 4 12 9 -7 -8 -9 11 10 -12 -13 13 -15
leaf_value=-0.0039995851057800288 0.05568042868452551 0.1298462658424123 0.16984893573381524 0.14953296704235761 0.046116755255241032 0.087525125420431962 -0.022439250281912328 0.054048896258562767 0.13741415531990336 0.030665456971556409 0.16061044253747253 -0.00098085834865231842 0.0041272228899296064 0.14280523091239988
leaf_weight=67.804170191287994 88.155883334577084 53.472973562777042 281.46002804487944 85.68683598190546 20.097197979688644 20.71191181987524 50.976415559649467 89.791556023061275 33.038026839494705 8.8571347743272764 31.513829484581947 5.2240058034658423 9.3162799552082998 5.563113421201705
leaf_count=503 498 213 780 286 117 99 403 529 124 54 97 36 64 18
internal_value=0.106125 0.0400646 0.135367 0.103419 0.155025 0.164513 0.0165369 0.0292063 0.0756208 0.105701 0.133532 0.118975 0.137274 0.0617042
internal_weight=851.669 262.045 589.624 226.984 362.64 302.172 208.572 157.596 126.418 60.4682 40.371 38.262 100.566 14.8794
internal_count=3821 1648 2173 1026 1147 879 1435 1032 658 268 151 160 368 82
is_linear=0
shrinkage=0.04


Tree=2
num_leaves=15
num_cat=0
split_feature=11 12 2 8 1 30 1 34 1 3 22 9 3 34
split_gain=960.411 507.891 359.626 121.048 83.4047 61.0216 50.4701 49.414 41.2269 47.3631 38.3801 36.9986 69.6273 42.3997
threshold=1.0000000180025095e-35 1.0000000180025095e-35 0.12950000000000003 1.0000000180025095e-35 2.8100000000000005 0.30217391304347835 2.4955000000000003 0.31950000000000006 -0.40850000000000003 0.20650000000000004 0.27500000000000008 1.0000000180025095e-35 0.24500000000000002 0.37400000000000005
decision_type=2 2 2 2 2 2 2 2 2 2 2 2 2 2
left_child=1 2 3 5 8 -1 11 -5 9 -4 -3 13 -13 -7
right_child=-2 10 4 7 -6 6 -8 -9 -10 -11 -12 12 -14 -15
leaf_value=-0.022541779512161596 0.16093609343684293 0.1390283488313227 0.091653235041080999 -0.016112462705518402 0.15307780207354452 0.066669167259929898 0.088310022023360482 0.088043052003439384 0.084785630162196382 -0.042846572717158325 0.085493620979189319 -0.016360917764039494 0.052695458284036663 -0.0075841892579957505
leaf_weight=70.500200934708118 236.52293185889721 128.27601258456707 6.2495027333497992 8.2104450613260251 28.984050020575523 35.338567204773426 15.26814393699169 48.718317754566669 145.56532380729914 8.9852408021688444 33.382112130522728 87.706897906959057 30.713854171335697 18.318374179303646
leaf_count=542 494 362 28 58 74 198 72 209 632 67 136 665 175 126
internal_value=0.0917758 0.0670179 0.0470825 0.0207421 0.0904328 0.00896632 0.0208799 0.0730026 0.0782647 0.0145741 0.128567 0.0144213 0.00184097 0.0416443
internal_weight=902.74 666.217 504.559 314.775 189.784 257.846 187.346 56.9288 160.8 15.2347 161.658 172.078 118.421 53.6569
internal_count=3838 3344 2846 2045 801 1778 1236 267 727 95 498 1164 840 324
is_linear=0
shrinkage=0.04


end of trees

feature_importances:
Column_37=5
Column_1=4
Column_2=4
Column_3=4
Column_9=3
Column_34=3
Column_8=2
Column_11=2
Column_12=2
Column_18=2
Column_30=2
Column_33=2
Column_4=1
Column_6=1
Column_14=1
Column_19=1
Column_22=1
Column_31=1
Column_36=1

parameters:
[boosting: gbdt]
[objective: binary]
[metric: binary_logloss]
[tree_learner: serial]
[device_type: cpu]
[data_sample_strategy: bagging]
[data: ]
[valid: ]
[num_iterations: 400]
[learning_rate: 0.04]
[num_leaves: 15]
[num_threads: 0]
[seed: 0]
[deterministic: 0]
[force_col_wise: 0]
[force_row_wise: 0]
[histogram_pool_size: -1]
[max_depth: -1]
[min_data_in_leaf: 25]
[min_sum_hessian_in_leaf: 0.001]
[bagging_fraction: 0.85]
[pos_bagging_fraction: 1]
[neg_bagging_fraction: 1]
[bagging_freq: 1]
[bagging_seed: 3]
[bagging_by_query: 0]
[feature_fraction: 0.85]
[feature_fraction_bynode: 1]
[feature_fraction_seed: 2]
[extra_trees: 0]
[extra_seed: 6]
[early_stopping_round: 0]
[early_stopping_min_delta: 0]
[first_metric_only: 0]
[max_delta_step: 0]
[lambda_l1: 0]
[lambda_l2: 1]
[linear_lambda: 0]
[min_gain_to_split: 0]
[drop_rate: 0.1]
[max_drop: 50]
[skip_drop: 0.5]
[xgboost_dart_mode: 0]
[uniform_drop: 0]
[drop_seed: 4]
[top_rate: 0.2]
[other_rate: 0.1]
[min_data_per_group: 100]
[max_cat_threshold: 32]
[cat_l2: 10]
[cat_smooth: 10]
[max_cat_to_onehot: 4]
[top_k: 20]
[monotone_constraints: ]
[monotone_constraints_method: basic]
[monotone_penalty: 0]
[feature_contri: ]
[forcedsplits_filename: ]
[refit_decay_rate: 0.9]
[cegb_tradeoff: 1]
[cegb_penalty_split: 0]
[cegb_penalty_feature_lazy: ]
[cegb_penalty_feature_coupled: ]
[path_smooth: 0]
[interaction_constraints: ]
[verbosity: -1]
[saved_feature_importance_type: 0]
[use_quantized_grad: 0]
[num_grad_quant_bins: 4]
[quant_train_renew_leaf: 0]
[stochastic_rounding: 1]
[linear_tree: 0]
[max_bin: 255]
[max_bin_by_feature: ]
[min_data_in_bin: 3]
[bin_construct_sample_cnt: 200000]
[data_random_seed: 1]
[is_enable_sparse: 1]
[enable_bundle: 1]
[use_missing: 1]
[zero_as_missing: 0]
[feature_pre_filter: 1]
[pre_partition: 0]
[two_round: 0]
[header: 0]
[label_column: ]
[weight_column: ]
[group_column: ]
[ignore_column: ]
[categorical_feature: ]
[forcedbins_filename: ]
[precise_float_parser: 0]
[parser_config_file: ]
[objective_seed: 5]
[num_class: 1]
[is_unbalance: 0]
[scale_pos_weight: 6]
[sigmoid: 1]
[boost_from_average: 1]
[reg_sqrt: 0]
[alpha: 0.9]
[fair_c: 1]
[poisson_max_delta_step: 0.7]
[tweedie_variance_power: 1.5]
[lambdarank_truncation_level: 30]
[lambdarank_norm: 1]
[label_gain: ]
[lambdarank_position_bias_regularization: 0]
[eval_at: ]
[multi_error_top_k: 1]
[auc_mu_weights: ]
[num_machines: 1]
[local_listen_port: 12400]
[time_out: 120]
[machine_list_filename: ]
[machines: ]
[gpu_platform_id: -1]
[gpu_device_id: -1]
[gpu_use_dp: 0]
[num_gpu: 1]

end of parameters

pandas_categorical:null
