tree
version=v4
num_class=1
num_tree_per_iteration=1
label_index=0
max_feature_idx=44
objective=binary sigmoid:1
feature_names=Column_0 Column_1 Column_2 Column_3 Column_4 Column_5 Column_6 Column_7 Column_8 Column_9 Column_10 Column_11 Column_12 Column_13 Column_14 Column_15 Column_16 Column_17 Column_18 Column_19 Column_20 Column_21 Column_22 Column_23 Column_24 Column_25 Column_26 Column_27 Column_28 Column_29 Column_30 Column_31 Column_32 Column_33 Column_34 Column_35 Column_36 Column_37 Column_38 Column_39 Column_40 Column_41 Column_42 Column_43 Column_44
feature_infos=none [-7.4000000000000004:4.4329999999999998] [0:0.94099999999999995] [0:1] [0:1] [0:1] [0:1] [0:1] [0:1] [0:1] [0:1] [0:1] [0:1] [0:1] [0:1] [0.25:1] [0:1] [0:1] [0:1] [-0.3666666666666667:1] [0:1] none [-1.05:1.1499999999999999] [-1:0.66666666666666663] [-0.73333333333333339:0.53333333333333333] [0:1] [0:1] [0:1] [0.0625:1] [0.45000000000000001:1] [0:1] [0.010999999999999999:1] [0.010999999999999999:1] [0.048000000000000001:1] [0.014:1] [0.028000000000000001:1] [0:1] [0:1] [0:1] [0:1] [0:1] [0:1] [0:1] [0:1] [0:1]
tree_sizes=1688 1720 1723 1733 1721 1736

Tree=0
num_leaves=15
num_cat=0
split_feature=11 12 2 1 8 36 26 1 38 18 4 2 1 37
split_gain=2267.8 1237.75 711.711 318.701 286.908 118.756 124.458 95.6253 72.912 66.8538 59.5558 59.0804 57.0603 50.7942
threshold=1.0000000180025095e-35 1.0000000180025095e-35 0.06950000000000002 2.5805000000000002 1.0000000180025095e-35 0.45000000000000007 0.075000000000000011 3.0355000000000008 0.43055000000000004 1.0000000180025095e-35 0.27600000000000008 0.16900000000000001 -2.0959999999999996 0.45000000000000007
decision_type=2 2 2 2 2 2 2 2 2 2 2 2 2 2
left_child=1 2 4 5 7 6 8 -1 11 12 -11 -4 -7 -3
right_child=-2 13 3 -5 -6 9 -8 -9 -10 10 -12 -13 -14 -15
leaf_value=-1.8108745763828635 -1.5873285078656698 -1.686506658695212 -1.8119587792723388 -1.6459708322507394 -1.7011321147931977 -1.7908842746751186 -1.7227295210785984 -1.6503612380776969 -1.8315485484946088 -1.6657345562314008 -1.7816516194333185 -1.6868848746019383 -1.6946003133144434 -1.6241928652480522
leaf_weight=253.53551371395588 265.99456963688135 33.385402411222458 11.128467202186586 94.35005097091198 47.537909813225269 10.886544048786162 69.915805995464325 5.0803873836994162 41.24790545552969 8.1044274494051916 35.441749013960361 12.096160307526587 169.46720536798239 176.72490385919809
leaf_count=1861 709 156 82 365 238 75 383 17 321 32 238 55 831 606
internal_value=-1.69066 -1.71923 -1.74318 -1.71137 -1.79037 -1.72899 -1.7593 -1.80712 -1.79968 -1.7111 -1.75735 -1.74447 -1.70028 -1.63347
internal_weight=1234.9 968.902 758.792 452.638 306.154 358.288 134.388 258.616 64.4725 223.9 43.5462 23.2246 180.354 210.11
internal_count=5969 5260 4498 2382 2116 2017 841 1878 458 1176 270 137 906 762
is_linear=0
shrinkage=1


Tree=1
num_leaves=15
num_cat=0
split_feature=2 20 17 9 37 2 14 2 17 2 37 34 7 38
split_gain=1225.27 370.681 342.023 221.591 206.426 152.764 143.66 113.519 99.2735 90.6096 70.0631 59.7954 58.8638 65.4496
threshold=0.12950000000000003 1.0000000180025095e-35 1.0000000180025095e-35 1.0000000180025095e-35 0.63333333333333341 0.027500000000000004 1.0000000180025095e-35 0.06950000000000002 1.0000000180025095e-35 0.40750000000000003 0.91666666666666685 0.49150000000000005 0.12500000000000003 0.72625000000000017
decision_type=2 2 2 2 2 2 2 2 2 2 2 2 2 2
left_child=1 2 7 6 -4 -6 9 -1 11 -2 -10 -5 -8 -14
right_child=3 -3 4 8 5 -7 12 -9 10 -11 -12 -13 13 -15
leaf_value=-0.0074830946687429924 0.1482858280735028 0.11673963705064942 0.041250570093035191 -0.010729011159951493 0.031594610461368883 0.13457105236742936 0.14414233439898264 0.05244869747100267 0.077869277009253154 0.1895219995919985 0.15266358277493175 0.092744711414504036 0.0079584759638594623 0.14362838566294589
leaf_weight=153.51254914700985 375.14477348327637 170.3645631596446 124.42423489689827 20.160796366631985 30.116644702851772 108.62332883477211 14.299810372292994 74.259185194969177 45.315441228449345 135.59507784247398 42.340126655995846 14.792486160993574 21.585820078849796 6.7895732447504988
leaf_count=1137 1237 713 743 145 188 400 51 431 221 300 131 72 141 22
internal_value=0.104858 0.0659899 0.0481772 0.142727 0.0791518 0.112604 0.153619 0.0122 0.092717 0.159582 0.115312 0.0344234 0.0802264 0.0442055
internal_weight=1337.32 661.301 490.936 676.024 263.164 138.74 553.415 227.772 122.609 510.74 87.6556 34.9533 42.6752 28.3754
internal_count=5932 3612 2899 2320 1331 588 1751 1568 569 1537 352 217 214 163
is_linear=0
shrinkage=0.04


Tree=2
num_leaves=15
num_cat=0
split_feature=11 12 1 8 2 2 32 1 34 2 30 19 4 4
split_gain=1310.05 709.196 412.013 279.363 188.464 91.7652 69.5701 65.5245 48.4388 47.0118 46.394 45.4014 49.9296 55.9116
threshold=1.0000000180025095e-35 1.0000000180025095e-35 2.5015000000000005 1.0000000180025095e-35 0.088500000000000009 0.39600000000000007 0.57650000000000012 0.95550000000000013 0.34450000000000003 0.37250000000000005 0.23904761904761906 1.0000000180025095e-35 0.20700000000000005 0.29250000000000004
decision_type=2 2 2 2 2 2 2 2 2 2 2 2 2 2
left_child=1 2 3 4 11 7 10 8 -6 -5 -4 -1 -13 -14
right_child=-2 -3 6 9 5 -7 -8 -9 -10 -11 -12 12 13 -15
leaf_value=-0.0033288412327081764 0.15822606686580323 0.12840742893974041 0.0055324051217340896 0.083656378612274637 0.060520421596869538 0.14798706148155874 0.15934045225575003 0.063945123470030313 -0.0045941389829018938 -0.015318393099631121 0.10225070501731354 -0.041390607382280113 0.13693628548049855 0.012813496676486263
leaf_weight=265.36424826830626 346.97499440610409 245.711769297719 8.8075091168284398 181.41053675115108 26.084876157343388 13.900432817637919 39.571654491126537 111.13157251477242 55.837182566523552 7.7190057933330527 91.672130212187767 6.9483233392238644 10.972048029303552 11.718679219484327
leaf_count=1912 732 751 52 789 136 36 91 559 366 49 348 53 38 73
internal_value=0.0906774 0.0687858 0.0510265 0.0382414 0.0225469 0.0517105 0.113397 0.0440514 0.0166189 0.0795576 0.093911 0.0019821 0.0480887 0.0760795
internal_weight=1423.82 1076.85 831.138 691.087 501.957 206.954 140.051 193.054 81.9221 189.13 100.48 295.003 29.6391 22.6907
internal_count=5985 5253 4502 4011 3173 1097 491 1061 502 838 400 2076 164 111
is_linear=0
shrinkage=0.04


Tree=3
num_leaves=15
num_cat=0
split_feature=11 12 9 36 2 13 34 6 4 33 36 32 31 10
split_gain=852.751 559.565 340.511 193.115 150.502 124.216 127.842 61.2275 49.5197 48.6356 48.5568 46.2972 43.3677 38.3118
threshold=1.0000000180025095e-35 1.0000000180025095e-35 1.0000000180025095e-35 0.70833333333333348 0.06950000000000002 1.0000000180025095e-35 0.26150000000000007 0.12500000000000003 0.63450000000000017 0.34350000000000008 0.45000000000000007 0.6625000000000002 0.10250000000000001 1.0000000180025095e-35
decision_type=2 2 2 2 2 2 2 2 2 2 2 2 2 2
left_child=1 2 3 5 -4 6 -1 11 13 -5 -6 12 -8 -9
right_child=-2 -3 4 9 10 -7 7 8 -10 -11 -12 -13 -14 -15
leaf_value=-0.025733064503389032 0.13669148048387306 0.11673537171492578 -0.0024098709745087243 0.048606935310852556 0.015482383308045237 0.10349512051869064 -0.017089418306828721 0.058568803806140414 -0.043926714668741068 0.12569335520329838 0.061327314374179806 0.15048229140270933 0.076372315912822786 0.013050331287586842
leaf_weight=34.79367969930172 367.26926638185978 269.8194075524807 194.94938328117132 16.852131478488445 52.888459712266922 75.003688991069794 8.4021890014410001 97.779202535748482 10.04937508702278 107.56899379193783 128.58320583403111 12.415447145700453 83.795719355344772 43.223706662654877
leaf_count=258 718 744 1404 86 323 274 58 441 71 309 613 23 357 266
internal_value=0.0837101 0.0664779 0.0507082 0.0726656 0.0220155 0.0577309 0.0455989 0.0553689 0.0386522 0.115723 0.0481242 0.0789119 0.067763 0.0448055
internal_weight=1503.39 1136.12 866.305 489.884 376.421 365.463 290.459 255.666 151.052 124.421 181.472 104.613 92.1979 141.003
internal_count=5945 5227 4483 2143 2340 1748 1474 1216 778 395 936 438 415 707
is_linear=0
shrinkage=0.04


Tree=4
num_leaves=15
num_cat=0
split_feature=11 12 1 19 2 31 2 35 7 15 31 35 31 1
split_gain=835.172 414.519 288.067 188.247 138.174 66.9313 70.43 55.2241 55.4888 48.9669 51.3247 53.9497 40.2434 39.2579
threshold=1.0000000180025095e-35 1.0000000180025095e-35 2.5015000000000005 1.0000000180025095e-35 0.059000000000000004 0.21450000000000002 0.31100000000000005 0.57000000000000006 0.95833333333333337 0.62500000000000011 0.08950000000000001 0.44350000000000006 0.26350000000000007 0.65800000000000003
decision_type=2 2 2 2 2 2 2 2 2 2 2 2 2 2
left_child=1 2 3 4 13 6 -6 9 -9 -5 -11 -12 -4 -1
right_child=-2 -3 12 7 5 -7 -8 8 -10 10 11 -13 -14 -15
leaf_value=-0.017676752694288901 0.125383105548353 0.1011261594799568 0.079577737667406251 0.083731444042402764 0.02356657403568525 0.083142701006333419 0.1140069230674588 -0.025282895667127835 0.068558134401510984 -0.043996807614683928 0.076662563516899346 -0.013364251210780798 0.12633421970506523 0.015461866657269499
leaf_weight=124.99324649572372 404.7948183119297 279.62663017213345 112.34430519491434 145.51919031143188 193.5932232812047 46.56073696911335 13.95498079061508 21.053763084113598 17.697145871818066 9.0008330941200239 43.153038501739502 13.683522418141363 46.488991320133209 103.77384363859892
leaf_count=953 704 742 402 554 1093 181 39 129 69 61 165 79 92 701
internal_value=0.0758648 0.0586613 0.0452482 0.0345774 0.0199184 0.0401601 0.030165 0.062687 0.0182199 0.0707155 0.0411244 0.0551321 0.0939677 -0.00264247
internal_weight=1576.24 1171.44 891.817 732.984 482.876 254.109 207.548 250.107 38.7509 211.357 65.8374 56.8366 158.833 228.767
internal_count=5964 5260 4518 4024 2967 1313 1132 1057 198 859 305 244 494 1654
is_linear=0
shrinkage=0.04


Tree=5
num_leaves=15
num_cat=0
split_feature=11 2 19 12 12 31 38 1 36 36 1 19 4 37
split_gain=596.907 347.439 151.31 176.287 138.353 97.7059 79.7821 71.8196 58.863 49.4146 44.8572 40.281 39.6361 38.2219
threshold=1.0000000180025095e-35 0.06950000000000002 1.0000000180025095e-35 1.0000000180025095e-35 1.0000000180025095e-35 0.24450000000000002 0.44345000000000007 3.0355000000000008 0.63333333333333341 0.29166666666666674 -0.25549999999999989 1.0000000180025095e-35 0.57900000000000007 0.81666666666666676
decision_type=2 2 2 2 2 2 2 2 2 2 2 2 2 2
left_child=1 2 3 7 5 9 -4 -1 11 10 -3 -7 -6 -11
right_child=-2 4 6 -5 12 8 -8 -9 -10 13 -12 -13 -14 -15
leaf_value=-0.0061751718595842824 0.11137212389371978 -0.018578377681944813 0.0892952234615461 0.076137813975851093 0.10980135573409505 0.094542126983029731 0.0069930520996872737 0.1059332719617796 0.11937768960023083 0.048298297951903005 0.041878943277951615 0.032255423732061451 0.072299021379310907 0.076784236152325977
leaf_weight=242.55014109611511 434.94359390437603 24.675315871834755 75.073601499199867 55.648479446768761 157.50953225791454 34.068205684423447 25.289875224232674 8.4999033063650113 63.647264808416367 202.82187960296869 86.590021044015884 34.559315599501133 76.12862066924572 129.96429607272148
leaf_count=1764 727 158 249 166 333 103 134 21 129 894 417 157 214 476
internal_value=0.0711425 0.0566855 0.0264478 0.0124001 0.0718307 0.0610942 0.0688301 -0.00197424 0.091389 0.0518848 0.0284253 0.0640897 0.0979418 0.0596197
internal_weight=1651.97 1217.03 407.062 306.699 809.964 576.326 100.363 251.05 132.275 444.052 111.265 68.6275 233.638 332.786
internal_count=5942 5215 2334 1951 2881 2334 383 1785 389 1945 575 260 547 1370
is_linear=0
shrinkage=0.04


end of trees

feature_importances:
Column_2=13
Column_1=9
Column_12=6
Column_4=5
Column_11=5
Column_31=5
Column_36=5
Column_19=4
Column_37=4
Column_34=3
Column_38=3
Column_7=2
Column_8=2
Column_9=2
Column_17=2
Column_32=2
Column_35=2
Column_6=1
Column_10=1
Column_13=1
Column_14=1
Column_15=1
Column_18=1
Column_20=1
Column_26=1
Column_30=1
Column_33=1

parameters:
[boosting: gbdt]
[objective: binary]
[metric: binary_logloss]
[tree_learner: serial]
[device_type: cpu]
[data_sample_strategy: bagging]
[data: ]
[valid: ]
[num_iterations: 400]
[learning_rate: 0.04]
[num_leaves: 15]
[num_threads: 0]
[seed: 0]
[deterministic: 0]
[force_col_wise: 0]
[force_row_wise: 0]
[histogram_pool_size: -1]
[max_depth: -1]
[min_data_in_leaf: 25]
[min_sum_hessian_in_leaf: 0.001]
[bagging_fraction: 0.85]
[pos_bagging_fraction: 1]
[neg_bagging_fraction: 1]
[bagging_freq: 1]
[bagging_seed: 3]
[bagging_by_query: 0]
[feature_fraction: 0.85]
[feature_fraction_bynode: 1]
[feature_fraction_seed: 2]
[extra_trees: 0]
[extra_seed: 6]
[early_stopping_round: 0]
[early_stopping_min_delta: 0]
[first_metric_only: 0]
[max_delta_step: 0]
[lambda_l1: 0]
[lambda_l2: 1]
[linear_lambda: 0]
[min_gain_to_split: 0]
[drop_rate: 0.1]
[max_drop: 50]
[skip_drop: 0.5]
[xgboost_dart_mode: 0]
[uniform_drop: 0]
[drop_seed: 4]
[top_rate: 0.2]
[other_rate: 0.1]
[min_data_per_group: 100]
[max_cat_threshold: 32]
[cat_l2: 10]
[cat_smooth: 10]
[max_cat_to_onehot: 4]
[top_k: 20]
[monotone_constraints: ]
[monotone_constraints_method: basic]
[monotone_penalty: 0]
[feature_contri: ]
[forcedsplits_filename: ]
[refit_decay_rate: 0.9]
[cegb_tradeoff: 1]
[cegb_penalty_split: 0]
[cegb_penalty_feature_lazy: ]
[cegb_penalty_feature_coupled: ]
[path_smooth: 0]
[interaction_constraints: ]
[verbosity: -1]
[saved_feature_importance_type: 0]
[use_quantized_grad: 0]
[num_grad_quant_bins: 4]
[quant_train_renew_leaf: 0]
[stochastic_rounding: 1]
[linear_tree: 0]
[max_bin: 255]
[max_bin_by_feature: ]
[min_data_in_bin: 3]
[bin_construct_sample_cnt: 200000]
[data_random_seed: 1]
[is_enable_sparse: 1]
[enable_bundle: 1]
[use_missing: 1]
[zero_as_missing: 0]
[feature_pre_filter: 1]
[pre_partition: 0]
[two_round: 0]
[header: 0]
[label_column: ]
[weight_column: ]
[group_column: ]
[ignore_column: ]
[categorical_feature: ]
[forcedbins_filename: ]
[precise_float_parser: 0]
[parser_config_file: ]
[objective_seed: 5]
[num_class: 1]
[is_unbalance: 0]
[scale_pos_weight: 6]
[sigmoid: 1]
[boost_from_average: 1]
[reg_sqrt: 0]
[alpha: 0.9]
[fair_c: 1]
[poisson_max_delta_step: 0.7]
[tweedie_variance_power: 1.5]
[lambdarank_truncation_level: 30]
[lambdarank_norm: 1]
[label_gain: ]
[lambdarank_position_bias_regularization: 0]
[eval_at: ]
[multi_error_top_k: 1]
[auc_mu_weights: ]
[num_machines: 1]
[local_listen_port: 12400]
[time_out: 120]
[machine_list_filename: ]
[machines: ]
[gpu_platform_id: -1]
[gpu_device_id: -1]
[gpu_use_dp: 0]
[num_gpu: 1]

end of parameters

pandas_categorical:null
