tree
version=v4
num_class=1
num_tree_per_iteration=1
label_index=0
max_feature_idx=44
objective=binary sigmoid:1
feature_names=Column_0 Column_1 Column_2 Column_3 Column_4 Column_5 Column_6 Column_7 Column_8 Column_9 Column_10 Column_11 Column_12 Column_13 Column_14 Column_15 Column_16 Column_17 Column_18 Column_19 Column_20 Column_21 Column_22 Column_23 Column_24 Column_25 Column_26 Column_27 Column_28 Column_29 Column_30 Column_31 Column_32 Column_33 Column_34 Column_35 Column_36 Column_37 Column_38 Column_39 Column_40 Column_41 Column_42 Column_43 Column_44
feature_infos=none [-7.4000000000000004:4.6560000000000006] [0:0.94099999999999995] [0:1] [0:1] [0:1] [0:1] [0:1] [0:1] [0:1] [0:1] [0:1] [0:1] [0:1] [0:1] [0.25:1] [0:1] [0:1] [0:1] [-0.3666666666666667:1] [0:1] none [-1.05:1.1499999999999999] [-1:0.66666666666666663] [-0.90000000000000002:0.66666666666666663] [0:1] [0:1] [0:1] [0.0625:1] [0.45000000000000001:1] [0:1] [0.010999999999999999:1] [0.010999999999999999:1] [0.048000000000000001:1] [0.014:1] [0.028000000000000001:1] [0:1] [0:1] [0:1] [0:1] [0:1] [0:1] [0:1] [0:1] [0:1]
tree_sizes=1705 1725 1733 1729 1741 1739 1741

Tree=0
num_leaves=15
num_cat=0
split_feature=11 12 1 8 2 13 14 18 13 34 36 30 22 3
split_gain=3100.53 1509.77 845.096 604.533 370.539 142.248 138.503 133.55 132.991 116.13 107.548 130.817 86.9604 85.361
threshold=1.0000000180025095e-35 1.0000000180025095e-35 2.6010000000000004 1.0000000180025095e-35 0.06950000000000002 1.0000000180025095e-35 1.0000000180025095e-35 1.0000000180025095e-35 1.0000000180025095e-35 0.38750000000000007 0.91666666666666685 0.27429467084639503 -1.0000000180025095e-35 0.45600000000000002
decision_type=2 2 2 2 2 2 2 2 2 2 2 2 2 2
left_child=1 2 3 4 -1 6 13 10 -5 12 11 -4 -8 -6
right_child=-2 -3 7 8 5 -7 9 -9 -10 -11 -12 -13 -14 -15
leaf_value=-1.8136705791720176 -1.5847037457294213 -1.6355690635382678 -1.8302556608894458 -1.7259535565460631 -1.805574581323901 -1.7052170130705213 -1.7830169207889299 -1.8096777654586276 -1.6550555843923589 -1.7767453701057951 -1.6253901077692794 -1.675787936451675 -1.638136039751628 -1.7132634995252491
leaf_weight=307.14645341783762 334.44298756867647 256.65993168205023 9.5417105183005315 150.85565010458231 115.58755633980036 79.715555593371391 9.3001481965184194 10.02483508735895 62.081508249044418 35.268094450235367 82.976646088063717 82.493521772325039 26.571851745247841 17.634047150611877
leaf_count=2263 864 935 74 834 832 405 62 73 249 232 282 368 95 91
internal_value=-1.69273 -1.72189 -1.74444 -1.76229 -1.7832 -1.75036 -1.76839 -1.66755 -1.70465 -1.72372 -1.65946 -1.69184 -1.67392 -1.79272
internal_weight=1580.3 1245.86 989.198 804.161 591.224 284.077 204.362 185.037 212.937 71.1401 175.012 92.0352 35.872 133.222
internal_count=7659 6795 5860 5063 3980 1717 1312 797 1083 389 724 442 157 923
is_linear=0
shrinkage=1


Tree=1
num_leaves=15
num_cat=0
split_feature=3 18 15 7 20 30 1 1 18 2 2 30 30 37
split_gain=1470.21 463.555 408.855 335.578 228.896 207.454 175.906 110.242 97.3549 97.3006 95.7067 91.7797 81.3805 76.1117
threshold=0.32150000000000006 1.0000000180025095e-35 0.62500000000000011 1.0000000180025095e-35 1.0000000180025095e-35 0.64852941176470602 1.2670000000000003 -1.9374999999999998 1.0000000180025095e-35 0.081500000000000017 0.085500000000000007 0.23904761904761906 0.69782608695652182 0.91666666666666685
decision_type=2 2 2 2 2 2 2 2 2 2 2 2 2 2
left_child=1 2 4 8 6 7 13 -5 -2 11 -3 -4 -12 -1
right_child=3 10 9 5 -6 -7 -8 -9 -10 -11 12 -13 -14 -15
leaf_value=0.0023227173807008903 0.10725406842885385 -0.020747287194018006 0.016370500100779468 0.021363856495492262 0.09943744920599383 0.18143700648167455 0.078398070596766553 0.13917634877584298 0.023837724682489167 0.13758242333402776 0.014026500767667479 0.1043756927349708 0.13142861160514077 0.068446860681737956
leaf_weight=161.39268163591623 158.98134691268206 93.707182601094246 22.461468681693077 13.649359859526156 133.50951109081507 312.09563664346933 102.58782412856817 317.77934939414263 26.803980901837349 166.35988466441631 31.301818929612637 136.89492123574018 12.710281297564505 32.680032268166542
leaf_count=1147 679 723 148 84 624 773 530 1117 174 588 211 611 50 180
internal_value=0.10533 0.069608 0.0818902 0.143691 0.0560773 0.15746 0.0362949 0.134403 0.0954113 0.115705 0.00209118 0.0921507 0.0500977 0.0137512
internal_weight=1722.92 893.606 755.886 829.31 430.17 643.524 296.661 331.429 185.785 325.716 137.719 159.356 44.0121 194.073
internal_count=7639 4812 3828 2827 2481 1974 1857 1201 853 1347 984 759 261 1327
is_linear=0
shrinkage=0.04


Tree=2
num_leaves=15
num_cat=0
split_feature=11 12 1 8 13 30 14 3 2 1 5 36 16 38
split_gain=1801.41 781.292 577.572 315.874 216.863 119.353 118.961 108.776 81.4645 68.177 70.2878 67.9109 61.7066 70.2159
threshold=1.0000000180025095e-35 1.0000000180025095e-35 2.5210000000000004 1.0000000180025095e-35 1.0000000180025095e-35 0.60954263128176189 1.0000000180025095e-35 0.59650000000000014 0.032500000000000008 1.1134999999999999 0.37500000000000006 0.45000000000000007 1.0000000180025095e-35 0.44345000000000007
decision_type=2 2 2 2 2 2 2 2 2 2 2 2 2 2
left_child=1 2 3 4 6 11 7 -1 -8 12 -11 -4 -6 -14
right_child=-2 -3 5 -5 9 -7 8 -9 -10 10 -12 -13 13 -15
leaf_value=-0.0055585744226097477 0.161971311689251 0.12632812666228702 0.034594986638519336 0.07642672791198224 0.0085439620753950309 0.14003019987456145 -0.024390701576900039 0.14739585740460795 0.059023691452372871 0.12113648190303065 0.011500562172948139 0.098572552785177528 -0.017871506651605491 0.11098311977720299
leaf_weight=348.83145907521248 436.1428519487381 296.56977412104607 37.334222458302975 238.16314202547073 42.859064817428589 103.48484998941422 22.484855026006699 6.6011423617601386 98.551727384328842 46.142256170511246 11.951950773596762 105.46808541566133 8.6378908753395063 26.531175643205643
leaf_count=2501 887 916 204 1069 282 293 171 16 524 172 73 414 59 108
internal_value=0.0910679 0.0687779 0.0531191 0.0374227 0.0221589 0.106969 0.00938052 -0.00231232 0.043455 0.0664923 0.099157 0.0822032 0.0412256 0.079716
internal_weight=1829.75 1393.61 1097.04 850.755 612.592 246.287 476.469 355.433 121.037 136.122 58.0942 142.802 78.0281 35.1691
internal_count=7689 6802 5886 4975 3906 911 3212 2517 695 694 245 618 449 167
is_linear=0
shrinkage=0.04


Tree=3
num_leaves=15
num_cat=0
split_feature=11 12 2 19 36 17 15 31 2 33 3 36 32 3
split_gain=1187.31 631.875 460.46 275.174 146.654 134.476 101.993 77.9424 73.8394 87.3065 70.8162 64.2564 63.6474 62.264
threshold=1.0000000180025095e-35 1.0000000180025095e-35 0.14000000000000004 1.0000000180025095e-35 0.18333333333333332 1.0000000180025095e-35 0.62500000000000011 0.26950000000000007 0.06950000000000002 0.36200000000000004 0.19100000000000003 0.63333333333333341 0.71300000000000008 0.22600000000000001
decision_type=2 2 2 2 2 2 2 2 2 2 2 2 2 2
left_child=1 2 3 5 12 8 -7 -6 -1 -10 -5 -12 -4 -8
right_child=-2 -3 4 10 7 6 13 -9 9 -11 11 -13 -14 -15
leaf_value=-0.01758074749779738 0.13952407404191949 0.11482472120022363 0.029360354786690027 0.095782518609960898 0.082853266115395577 0.015619267510103427 0.037462174688211065 0.12570421736887066 0.061553383792968715 -0.014792973717786069 0.015221209283716617 0.088840465514124847 0.11551433963301008 0.10236922921667831
leaf_weight=182.22590907663107 464.88890132308006 331.20567983388901 95.25107105076313 100.98003520816565 248.81630486249924 132.9007967710495 50.287484094500542 101.90318343043327 50.012792006134987 44.604285918176174 48.712604276835918 30.624125979840755 15.325440540909765 46.955125920474529
leaf_count=1386 874 927 512 411 995 839 285 277 262 311 273 111 46 171
internal_value=0.0837714 0.066174 0.0520576 0.0312364 0.0829452 0.0160753 0.038599 0.0956258 -0.00272046 0.025784 0.0735403 0.0443905 0.0422292 0.0695266
internal_weight=1944.69 1479.8 1148.6 687.303 461.296 506.986 230.143 350.719 276.843 94.6171 180.317 79.3367 110.577 97.2426
internal_count=7680 6806 5879 4049 1830 3254 1295 1272 1959 573 795 384 558 456
is_linear=0
shrinkage=0.04


Tree=4
num_leaves=15
num_cat=0
split_feature=11 12 1 8 2 18 19 2 6 13 13 5 30 7
split_gain=1134.65 502.335 385.197 233.785 162.42 87.0165 70.3519 67.1688 60.7942 82.504 60.3151 52.0171 50.477 47.9115
threshold=1.0000000180025095e-35 1.0000000180025095e-35 2.5210000000000004 1.0000000180025095e-35 0.06950000000000002 1.0000000180025095e-35 1.0000000180025095e-35 0.32350000000000007 0.12500000000000003 1.0000000180025095e-35 1.0000000180025095e-35 0.12500000000000003 0.23904761904761906 0.20833333333333334
decision_type=2 2 2 2 2 2 2 2 2 2 2 2 2 2
left_child=1 2 3 4 6 12 -1 10 -5 11 13 -10 -4 -6
right_child=-2 -3 5 8 7 -7 -8 -9 9 -11 -12 -13 -14 -15
leaf_value=-0.0065276342417463374 0.12755901579996834 0.10104390462144318 0.022783525120866316 0.11333600137359698 0.030886879976661587 -0.011130279659821654 0.055093549178233822 0.095766137367443827 0.0083554750169606822 0.093460594990686041 0.062466845910424375 0.057267984025205519 0.096884556500280494 -0.020045922532759691
leaf_weight=286.4490323215723 510.10470232367516 342.85371054708958 16.404989674687386 36.182080760598183 167.13979155570269 13.468538016080855 32.052567534148693 30.73227533698082 54.052476763725281 67.797890931367874 83.316097691655159 98.607038006186485 245.10472109913826 35.124617002904415
leaf_count=2086 853 912 86 111 952 91 161 105 291 212 360 428 737 236
internal_value=0.0759989 0.0584998 0.0459188 0.0330862 0.0200052 0.0872506 -0.000173329 0.04026 0.0652394 0.0568695 0.0339734 0.0401165 0.0923406 0.0219869
internal_weight=2019.39 1509.29 1166.43 891.454 634.814 274.978 318.502 316.313 256.639 220.457 285.581 152.66 261.51 202.264
internal_count=7621 6768 5856 4942 3900 914 2247 1653 1042 931 1548 719 823 1188
is_linear=0
shrinkage=0.04


Tree=5
num_leaves=15
num_cat=0
split_feature=11 12 1 19 31 2 18 36 5 5 31 6 28 34
split_gain=788.919 398.878 349.976 222.185 168.159 136.037 92.9779 96.2823 70.1494 67.2149 50.2826 72.0139 46.0851 42.5587
threshold=1.0000000180025095e-35 1.0000000180025095e-35 1.0104999999999997 1.0000000180025095e-35 0.24450000000000002 0.15650000000000003 1.0000000180025095e-35 0.45000000000000007 1.0000000180025095e-35 0.29166666666666669 0.12150000000000001 0.70833333333333337 0.46875000000000006 0.63700000000000012
decision_type=2 2 2 2 2 2 2 2 2 2 2 2 2 2
left_child=1 2 3 5 6 -1 7 8 -4 10 -5 -12 -9 -6
right_child=-2 -3 4 9 13 -7 -8 12 -10 -11 11 -13 -14 -15
leaf_value=-0.007373364450964477 0.11276263911304511 0.092952104962496646 0.080493790658228703 0.08590092458476413 0.10412765829228089 0.062666877612067629 0.0083718564182934663 0.026663843164894924 0.011728021295530909 0.016348928186538325 -0.032172681507442728 0.091338513947911495 0.077003697250500727 0.049952745204705988
leaf_weight=302.84403105825186 542.82213494181633 374.01077279448509 30.88343184441328 100.29300858080387 164.54703250527382 50.958374947309494 68.258291617035866 34.274556212127209 94.669459827244282 46.927600368857384 15.708087474107744 12.914532050490378 261.49310502409935 30.303393259644508
leaf_count=2161 878 932 124 362 435 221 432 170 521 235 97 40 941 113
internal_value=0.0711279 0.0568348 0.0456411 0.0211701 0.0645194 0.00286277 0.0518199 0.0588224 0.0291454 0.0577807 0.0726206 0.0247577 0.0712796 0.0960004
internal_weight=2130.91 1588.09 1214.07 529.646 684.429 353.802 489.579 421.321 125.553 175.843 128.916 28.6226 295.768 194.85
internal_count=7662 6784 5852 3116 2736 2382 2188 1756 645 734 499 137 1111 548
is_linear=0
shrinkage=0.04


Tree=6
num_leaves=15
num_cat=0
split_feature=11 2 36 8 12 18 12 32 36 4 1 33 33 37
split_gain=733.575 344.95 244.001 173.17 161.083 111.673 86.7595 69.0511 49.7497 61.8776 49.6737 43.6198 41.6982 39.064
threshold=1.0000000180025095e-35 0.072000000000000008 0.45000000000000007 1.0000000180025095e-35 1.0000000180025095e-35 1.0000000180025095e-35 1.0000000180025095e-35 0.71300000000000008 0.81666666666666676 0.77950000000000019 2.6930000000000005 0.35150000000000003 0.48050000000000004 0.70833333333333348
decision_type=2 2 2 2 2 2 2 2 2 2 2 2 2 2
left_child=1 3 6 4 10 8 7 -3 9 13 -1 -7 -6 -4
right_child=-2 2 5 -5 12 11 -8 -9 -10 -11 -12 -13 -14 -15
leaf_value=-0.0017706638165328088 0.10396876627745773 0.017930762447276771 0.058831929554860662 0.071828127926181207 0.078108421106947337 0.061054328099872879 0.082422363692382622 0.088952028218439949 0.090049417709810911 -0.045737292182751334 0.064428405707832384 -0.0030547224005967699 -0.019106461507660745 0.088220103330637872
leaf_weight=328.37371182441711 583.21145735681057 238.10199461877346 193.71977102011442 99.072863802313805 63.406554758548737 30.070420518517494 48.738117396831512 23.256897769868374 403.57330450415611 6.8100843429565421 18.193759426474571 37.248267099261284 7.5361657887697211 129.577537342906
leaf_count=2295 884 1230 717 337 166 138 116 64 992 38 66 232 35 366
internal_value=0.0654748 0.0516267 0.06418 0.0245546 0.0131921 0.0758477 0.0338946 0.0245655 0.0803746 0.0683104 0.00187996 0.0260565 0.0676594 0.0708464
internal_weight=2210.89 1627.68 1111.1 516.583 417.51 800.999 310.097 261.359 733.681 330.107 346.567 67.3187 70.9427 323.297
internal_count=7676 6792 3893 2899 2562 2483 1410 1294 2113 1121 2361 370 201 1083
is_linear=0
shrinkage=0.04


end of trees

feature_importances:
Column_2=10
Column_1=8
Column_12=7
Column_36=7
Column_11=6
Column_18=6
Column_30=6
Column_3=5
Column_13=5
Column_5=4
Column_8=4
Column_19=3
Column_31=3
Column_33=3
Column_6=2
Column_7=2
Column_14=2
Column_15=2
Column_32=2
Column_34=2
Column_37=2
Column_4=1
Column_16=1
Column_17=1
Column_20=1
Column_22=1
Column_28=1
Column_38=1

parameters:
[boosting: gbdt]
[objective: binary]
[metric: binary_logloss]
[tree_learner: serial]
[device_type: cpu]
[data_sample_strategy: bagging]
[data: ]
[valid: ]
[num_iterations: 400]
[learning_rate: 0.04]
[num_leaves: 15]
[num_threads: 0]
[seed: 0]
[deterministic: 0]
[force_col_wise: 0]
[force_row_wise: 0]
[histogram_pool_size: -1]
[max_depth: -1]
[min_data_in_leaf: 25]
[min_sum_hessian_in_leaf: 0.001]
[bagging_fraction: 0.85]
[pos_bagging_fraction: 1]
[neg_bagging_fraction: 1]
[bagging_freq: 1]
[bagging_seed: 3]
[bagging_by_query: 0]
[feature_fraction: 0.85]
[feature_fraction_bynode: 1]
[feature_fraction_seed: 2]
[extra_trees: 0]
[extra_seed: 6]
[early_stopping_round: 0]
[early_stopping_min_delta: 0]
[first_metric_only: 0]
[max_delta_step: 0]
[lambda_l1: 0]
[lambda_l2: 1]
[linear_lambda: 0]
[min_gain_to_split: 0]
[drop_rate: 0.1]
[max_drop: 50]
[skip_drop: 0.5]
[xgboost_dart_mode: 0]
[uniform_drop: 0]
[drop_seed: 4]
[top_rate: 0.2]
[other_rate: 0.1]
[min_data_per_group: 100]
[max_cat_threshold: 32]
[cat_l2: 10]
[cat_smooth: 10]
[max_cat_to_onehot: 4]
[top_k: 20]
[monotone_constraints: ]
[monotone_constraints_method: basic]
[monotone_penalty: 0]
[feature_contri: ]
[forcedsplits_filename: ]
[refit_decay_rate: 0.9]
[cegb_tradeoff: 1]
[cegb_penalty_split: 0]
[cegb_penalty_feature_lazy: ]
[cegb_penalty_feature_coupled: ]
[path_smooth: 0]
[interaction_constraints: ]
[verbosity: -1]
[saved_feature_importance_type: 0]
[use_quantized_grad: 0]
[num_grad_quant_bins: 4]
[quant_train_renew_leaf: 0]
[stochastic_rounding: 1]
[linear_tree: 0]
[max_bin: 255]
[max_bin_by_feature: ]
[min_data_in_bin: 3]
[bin_construct_sample_cnt: 200000]
[data_random_seed: 1]
[is_enable_sparse: 1]
[enable_bundle: 1]
[use_missing: 1]
[zero_as_missing: 0]
[feature_pre_filter: 1]
[pre_partition: 0]
[two_round: 0]
[header: 0]
[label_column: ]
[weight_column: ]
[group_column: ]
[ignore_column: ]
[categorical_feature: ]
[forcedbins_filename: ]
[precise_float_parser: 0]
[parser_config_file: ]
[objective_seed: 5]
[num_class: 1]
[is_unbalance: 0]
[scale_pos_weight: 6]
[sigmoid: 1]
[boost_from_average: 1]
[reg_sqrt: 0]
[alpha: 0.9]
[fair_c: 1]
[poisson_max_delta_step: 0.7]
[tweedie_variance_power: 1.5]
[lambdarank_truncation_level: 30]
[lambdarank_norm: 1]
[label_gain: ]
[lambdarank_position_bias_regularization: 0]
[eval_at: ]
[multi_error_top_k: 1]
[auc_mu_weights: ]
[num_machines: 1]
[local_listen_port: 12400]
[time_out: 120]
[machine_list_filename: ]
[machines: ]
[gpu_platform_id: -1]
[gpu_device_id: -1]
[gpu_device_id_list: ]
[gpu_use_dp: 0]
[num_gpu: 1]

end of parameters

pandas_categorical:null
